{"learner":{"attributes":{"scikit_learn":"{\"_estimator_type\": \"classifier\"}"},"feature_names":["TargetReturn","H-L","C-O","BB_lower","BB_width","Return_lag1","Return_lag2","Return_lag3","Return_lag5","Return_lag10","SMA10_vs_SMA20","ATR14","StdDev20_Return","RSI14","MACD_signal","Momentum10","Williams_%R","Williams%R14","Stochastic_D","OBV","Volume_MA5","Volume_Change","Volume_MA5_vs_MA20","DayOfWeek","Month"],"feature_types":["float","float","float","float","float","float","float","float","float","float","float","float","float","float","float","float","float","float","float","float","float","float","float","float","float"],"gradient_booster":{"model":{"gbtree_model_param":{"num_parallel_tree":"1","num_trees":"648"},"iteration_indptr":[0,3,6,9,12,15,18,21,24,27,30,33,36,39,42,45,48,51,54,57,60,63,66,69,72,75,78,81,84,87,90,93,96,99,102,105,108,111,114,117,120,123,126,129,132,135,138,141,144,147,150,153,156,159,162,165,168,171,174,177,180,183,186,189,192,195,198,201,204,207,210,213,216,219,222,225,228,231,234,237,240,243,246,249,252,255,258,261,264,267,270,273,276,279,282,285,288,291,294,297,300,303,306,309,312,315,318,321,324,327,330,333,336,339,342,345,348,351,354,357,360,363,366,369,372,375,378,381,384,387,390,393,396,399,402,405,408,411,414,417,420,423,426,429,432,435,438,441,444,447,450,453,456,459,462,465,468,471,474,477,480,483,486,489,492,495,498,501,504,507,510,513,516,519,522,525,528,531,534,537,540,543,546,549,552,555,558,561,564,567,570,573,576,579,582,585,588,591,594,597,600,603,606,609,612,615,618,621,624,627,630,633,636,639,642,645,648],"tree_info":[0,1,2,0,1,2,0,1,2,0,1,2,0,1,2,0,1,2,0,1,2,0,1,2,0,1,2,0,1,2,0,1,2,0,1,2,0,1,2,0,1,2,0,1,2,0,1,2,0,1,2,0,1,2,0,1,2,0,1,2,0,1,2,0,1,2,0,1,2,0,1,2,0,1,2,0,1,2,0,1,2,0,1,2,0,1,2,0,1,2,0,1,2,0,1,2,0,1,2,0,1,2,0,1,2,0,1,2,0,1,2,0,1,2,0,1,2,0,1,2,0,1,2,0,1,2,0,1,2,0,1,2,0,1,2,0,1,2,0,1,2,0,1,2,0,1,2,0,1,2,0,1,2,0,1,2,0,1,2,0,1,2,0,1,2,0,1,2,0,1,2,0,1,2,0,1,2,0,1,2,0,1,2,0,1,2,0,1,2,0,1,2,0,1,2,0,1,2,0,1,2,0,1,2,0,1,2,0,1,2,0,1,2,0,1,2,0,1,2,0,1,2,0,1,2,0,1,2,0,1,2,0,1,2,0,1,2,0,1,2,0,1,2,0,1,2,0,1,2,0,1,2,0,1,2,0,1,2,0,1,2,0,1,2,0,1,2,0,1,2,0,1,2,0,1,2,0,1,2,0,1,2,0,1,2,0,1,2,0,1,2,0,1,2,0,1,2,0,1,2,0,1,2,0,1,2,0,1,2,0,1,2,0,1,2,0,1,2,0,1,2,0,1,2,0,1,2,0,1,2,0,1,2,0,1,2,0,1,2,0,1,2,0,1,2,0,1,2,0,1,2,0,1,2,0,1,2,0,1,2,0,1,2,0,1,2,0,1,2,0,1,2,0,1,2,0,1,2,0,1,2,0,1,2,0,1,2,0,1,2,0,1,2,0,1,2,0,1,2,0,1,2,0,1,2,0,1,2,0,1,2,0,1,2,0,1,2,0,1,2,0,1,2,0,1,2,0,1,2,0,1,2,0,1,2,0,1,2,0,1,2,0,1,2,0,1,2,0,1,2,0,1,2,0,1,2,0,1,2,0,1,2,0,1,2,0,1,2,0,1,2,0,1,2,0,1,2,0,1,2,0,1,2,0,1,2,0,1,2,0,1,2,0,1,2,0,1,2,0,1,2,0,1,2,0,1,2,0,1,2,0,1,2,0,1,2,0,1,2,0,1,2,0,1,2,0,1,2,0,1,2,0,1,2,0,1,2,0,1,2,0,1,2,0,1,2,0,1,2,0,1,2,0,1,2,0,1,2,0,1,2,0,1,2,0,1,2,0,1,2,0,1,2,0,1,2,0,1,2,0,1,2,0,1,2,0,1,2,0,1,2,0,1,2,0,1,2,0,1,2,0,1,2,0,1,2,0,1,2,0,1,2,0,1,2,0,1,2,0,1,2,0,1,2,0,1,2,0,1,2,0,1,2,0,1,2,0,1,2,0,1,2,0,1,2,0,1,2],"trees":[{"base_weights":[6.453778E-2,3.814743E-2,-7.4290246E-1,3.3383158E-1,-1.9075228E-2,4.7974643E-1,-5.2000037E-3,9.249737E-2,8.093828E-1,-4.565702E-3,2.067184E-2,5.893601E-3,2.9628625E-2],"categories":[],"categories_nodes":[],"categories_segments":[],"categories_sizes":[],"default_left":[0,0,0,0,0,0,0,0,0,0,0,0,0],"id":0,"left_children":[1,-1,3,5,-1,7,-1,9,11,-1,-1,-1,-1],"loss_changes":[1.2401523E4,0E0,5.121045E1,3.7326126E0,0E0,3.625167E0,0E0,4.381588E0,2.0961256E0,0E0,0E0,0E0,0E0],"parents":[2147483647,0,0,2,2,3,3,5,5,7,7,8,8],"right_children":[2,-1,4,6,-1,8,-1,10,12,-1,-1,-1,-1],"split_conditions":[-1.749196E-1,3.814743E-2,-1.6880356E-1,-4.1655477E-2,-1.9075228E-2,-2.4397144E-2,-5.2000037E-3,5.079504E-1,-4.891173E-1,-4.565702E-3,2.067184E-2,5.893601E-3,2.9628625E-2],"split_indices":[0,0,0,20,0,6,0,2,19,0,0,0,0],"split_type":[0,0,0,0,0,0,0,0,0,0,0,0,0],"sum_hessian":[1.0701777E4,3.8537776E3,6.8479995E3,4.222222E1,6.8057773E3,3.4666664E1,7.5555553E0,1.7777777E1,1.6888887E1,1.2444444E1,5.333333E0,7.9999995E0,8.888888E0],"tree_param":{"num_deleted":"0","num_feature":"25","num_nodes":"13","size_leaf_vector":"1"}},{"base_weights":[-1.4905414E-1,-1.52870305E-2,-2.651781E-1,5.6477755E-2,-2.103196E-1,-2.1989666E-1,-3.5556802E-1,1.5136158E-1,-5.7097048E-2,-1.3603505E-1,-2.9803345E-1,-3.205366E-1,-1.9365892E-1,-5.703294E-1,-3.4401017E-1,4.6313894E-3,1.9256514E-1,-2.4321747E-1,-3.733033E-2,1.4279874E-1,-1.6439737E-1,1.9691657E-1,-3.1927213E-1,-3.96142E-1,-2.2738071E-1,-1.838556E-1,-5.0810623E-1,-1.7333528E-2,-2.3106852E-1,-3.1225917E-1,-4.1152346E-1,-1.3812376E-3,9.4312895E-3,9.21271E-3,3.879063E-3,3.060242E-3,-7.898109E-3,-5.9949686E-3,-5.88386E-4,-1.22925695E-2,6.734604E-3,-4.7165444E-3,5.2480423E-3,-0E0,2.067184E-2,-6.5958127E-3,-1.1205695E-2,-1.0460192E-2,-0E0,-6.833868E-3,5.100846E-3,-3.314862E-3,-5.733926E-3,-0E0,-1.3719407E-2,6.5854355E-3,-1.0857189E-2,-9.1516785E-3,-5.9681637E-3,-7.9696495E-3,-1.2000252E-2],"categories":[],"categories_nodes":[],"categories_segments":[],"categories_sizes":[],"default_left":[0,0,0,0,0,0,0,0,0,0,0,0,0,0,0,0,0,0,0,0,0,0,0,0,0,0,0,0,0,0,0,0,0,0,0,0,0,0,0,0,0,0,0,0,0,0,0,0,0,0,0,0,0,0,0,0,0,0,0,0,0],"id":1,"left_children":[1,3,5,7,9,11,13,15,17,19,21,23,25,27,29,31,33,35,37,39,41,43,45,47,49,51,53,-1,55,57,59,-1,-1,-1,-1,-1,-1,-1,-1,-1,-1,-1,-1,-1,-1,-1,-1,-1,-1,-1,-1,-1,-1,-1,-1,-1,-1,-1,-1,-1,-1],"loss_changes":[1.6735051E2,7.0405075E1,2.301596E1,3.960508E1,8.376884E0,9.641052E0,3.7267914E0,1.1919022E1,5.8534327E0,5.8970556E0,6.6280365E0,4.886734E0,8.7224655E0,2.4826813E0,3.1207123E0,9.911466E0,1.0060219E1,4.002431E0,4.0070124E0,4.9292135E0,5.2705975E0,3.180897E0,3.5395622E0,2.409233E0,6.47859E0,6.264908E0,1.2339687E0,0E0,2.7709823E0,3.9941788E0,2.5116959E0,0E0,0E0,0E0,0E0,0E0,0E0,0E0,0E0,0E0,0E0,0E0,0E0,0E0,0E0,0E0,0E0,0E0,0E0,0E0,0E0,0E0,0E0,0E0,0E0,0E0,0E0,0E0,0E0,0E0,0E0],"parents":[2147483647,0,0,1,1,2,2,3,3,4,4,5,5,6,6,7,7,8,8,9,9,10,10,11,11,12,12,13,13,14,14,15,15,16,16,17,17,18,18,19,19,20,20,21,21,22,22,23,23,24,24,25,25,26,26,28,28,29,29,30,30],"right_children":[2,4,6,8,10,12,14,16,18,20,22,24,26,28,30,32,34,36,38,40,42,44,46,48,50,52,54,-1,56,58,60,-1,-1,-1,-1,-1,-1,-1,-1,-1,-1,-1,-1,-1,-1,-1,-1,-1,-1,-1,-1,-1,-1,-1,-1,-1,-1,-1,-1,-1,-1],"split_conditions":[-2.1184361E-1,1.7029972E-1,1.8911758E-1,-7.3131824E-1,6.2791204E-1,-3.9309192E-1,-2.5948155E0,-8.6758447E-1,-7.110197E-1,-8.9119107E-1,-1.5445454E0,-1.4410414E-1,1.9019468E0,6.005023E-1,6.1287487E-1,3.7655568E-1,-1.3507649E0,-1.4031109E0,-9.1537976E-1,2.1776453E-1,9.1901946E-1,1.2477063E0,3.2807994E-1,3.6908312E0,1.1648914E0,3.9509064E-1,-2.4241395E-1,-1.7333528E-2,-9.289611E-1,-1.9820808E-1,6.782662E-1,-1.3812376E-3,9.4312895E-3,9.21271E-3,3.879063E-3,3.060242E-3,-7.898109E-3,-5.9949686E-3,-5.88386E-4,-1.22925695E-2,6.734604E-3,-4.7165444E-3,5.2480423E-3,-0E0,2.067184E-2,-6.5958127E-3,-1.1205695E-2,-1.0460192E-2,-0E0,-6.833868E-3,5.100846E-3,-3.314862E-3,-5.733926E-3,-0E0,-1.3719407E-2,6.5854355E-3,-1.0857189E-2,-9.1516785E-3,-5.9681637E-3,-7.9696495E-3,-1.2000252E-2],"split_indices":[11,22,22,11,22,3,2,17,15,4,6,19,2,18,2,9,11,16,19,22,6,19,2,4,6,11,3,0,5,16,22,0,0,0,0,0,0,0,0,0,0,0,0,0,0,0,0,0,0,0,0,0,0,0,0,0,0,0,0,0,0],"split_type":[0,0,0,0,0,0,0,0,0,0,0,0,0,0,0,0,0,0,0,0,0,0,0,0,0,0,0,0,0,0,0,0,0,0,0,0,0,0,0,0,0,0,0,0,0,0,0,0,0,0,0,0,0,0,0,0,0,0,0,0,0],"sum_hessian":[1.0789777E4,5.0182217E3,5.771555E3,3.665333E3,1.3528888E3,3.854222E3,1.9173333E3,2.0013333E3,1.6639999E3,7.3955554E2,6.133333E2,7.875555E2,3.0666665E3,9.155555E1,1.8257777E3,4.4399997E2,1.5573333E3,1.5422221E2,1.5097777E3,6.4888885E1,6.746666E2,2.311111E1,5.9022217E2,4.2755554E2,3.5999997E2,2.978222E3,8.844444E1,6.622222E1,2.5333332E1,1.2546666E3,5.711111E2,3.8088885E2,6.3111107E1,2.9199997E2,1.2653333E3,2.1777777E1,1.3244444E2,9.555555E1,1.4142222E3,8.888888E0,5.5999996E1,6.413333E2,3.3333332E1,1.7777777E1,5.333333E0,4.0177774E2,1.8844443E2,4.1111108E2,1.6444443E1,3.3066666E2,2.9333332E1,1.3119999E3,1.6662222E3,5.7777777E0,8.2666664E1,5.7777777E0,1.9555553E1,7.693333E2,4.853333E2,2.2488887E2,3.462222E2],"tree_param":{"num_deleted":"0","num_feature":"25","num_nodes":"61","size_leaf_vector":"1"}},{"base_weights":[8.235301E-2,-1.9056324E-2,3.814783E-2],"categories":[],"categories_nodes":[],"categories_segments":[],"categories_sizes":[],"default_left":[0,0,0],"id":2,"left_children":[1,-1,-1],"loss_changes":[1.26154E4,0E0,0E0],"parents":[2147483647,0,0],"right_children":[2,-1,-1],"split_conditions":[1.7168428E-1,-1.9056324E-2,3.814783E-2],"split_indices":[0,0,0],"split_type":[0,0,0],"sum_hessian":[1.0705777E4,6.747111E3,3.9586665E3],"tree_param":{"num_deleted":"0","num_feature":"25","num_nodes":"3","size_leaf_vector":"1"}},{"base_weights":[6.598709E-2,-6.619739E-3,1.453863E-1,-3.3437964E-2,1.9006836E-1,3.944143E-2,1.9933245E-1,-4.3676782E-2,3.005399E-1,1.09312296E-1,4.3347397E-1,-0E0,2.710743E-1,2.2356689E-2,2.2051965E-1,-5.412309E-3,-1.3449132E-1,1.4640997E-1,6.046533E-1,1.6255914E-1,-1.0265037E-1,5.2135396E-1,-5.6668144E-2,-1.5539367E-1,2.4743082E-2,-2.5596175E-1,3.7175432E-1,-3.9312884E-2,2.1646509E-1,3.8865325E-1,1.88831E-1,-3.3360322E-3,9.0267736E-4,-5.4059788E-3,-1.3978716E-3,3.4171215E-4,1.3931544E-2,2.3141347E-2,4.3318598E-3,-4.896534E-4,6.0961037E-3,3.305691E-5,-1.33963935E-2,1.1037089E-2,2.3407085E-2,3.9105997E-3,-1.2118046E-2,-5.372144E-3,4.5456043E-3,1.9358944E-3,-1.5671005E-3,5.3555163E-4,-1.2037607E-2,1.2827712E-2,2.3902338E-3,1.9167873E-4,-5.95157E-3,-1.01502E-2,7.0966603E-3,8.729462E-3,1.6700132E-2,2.8408333E-3,6.6702594E-3],"categories":[],"categories_nodes":[],"categories_segments":[],"categories_sizes":[],"default_left":[0,0,0,0,0,0,0,0,0,0,0,0,0,0,0,0,0,0,0,0,0,0,0,0,0,0,0,0,0,0,0,0,0,0,0,0,0,0,0,0,0,0,0,0,0,0,0,0,0,0,0,0,0,0,0,0,0,0,0,0,0,0,0],"id":3,"left_children":[1,3,5,7,9,11,13,15,17,19,21,23,25,27,29,31,33,35,37,39,41,43,45,47,49,51,53,55,57,59,61,-1,-1,-1,-1,-1,-1,-1,-1,-1,-1,-1,-1,-1,-1,-1,-1,-1,-1,-1,-1,-1,-1,-1,-1,-1,-1,-1,-1,-1,-1,-1,-1],"loss_changes":[6.1956837E1,2.9379131E1,2.9081558E1,1.66286E1,1.25673275E1,1.600634E1,1.2487244E1,1.6501972E1,5.966134E0,5.773822E0,7.487318E0,5.7724495E0,1.3704092E1,4.5844307E0,1.5507492E1,1.7449139E1,8.496767E0,4.737912E0,4.9541893E0,5.9225626E0,4.8322325E0,3.2564735E0,2.4851758E0,3.9137588E0,5.683444E0,2.832366E0,7.329796E0,2.7368948E0,3.5487146E0,4.64032E0,1.4064865E1,0E0,0E0,0E0,0E0,0E0,0E0,0E0,0E0,0E0,0E0,0E0,0E0,0E0,0E0,0E0,0E0,0E0,0E0,0E0,0E0,0E0,0E0,0E0,0E0,0E0,0E0,0E0,0E0,0E0,0E0,0E0,0E0],"parents":[2147483647,0,0,1,1,2,2,3,3,4,4,5,5,6,6,7,7,8,8,9,9,10,10,11,11,12,12,13,13,14,14,15,15,16,16,17,17,18,18,19,19,20,20,21,21,22,22,23,23,24,24,25,25,26,26,27,27,28,28,29,29,30,30],"right_children":[2,4,6,8,10,12,14,16,18,20,22,24,26,28,30,32,34,36,38,40,42,44,46,48,50,52,54,56,58,60,62,-1,-1,-1,-1,-1,-1,-1,-1,-1,-1,-1,-1,-1,-1,-1,-1,-1,-1,-1,-1,-1,-1,-1,-1,-1,-1,-1,-1,-1,-1,-1,-1],"split_conditions":[3.6878537E-2,9.3329406E-1,-5.2510357E-1,1.4808673E0,2.5210375E-1,4.4682646E-1,-5.7816017E-1,2.6771711E-2,3.2129955E-1,4.9971677E-2,1.6816387E0,-4.9632648E-1,-5.436277E-1,8.380371E-1,-1.5543675E-1,-6.0993785E-1,-3.2092276E-1,5.9528E-1,6.578425E-1,1.0056088E-1,1.8826922E0,1.4027941E0,1.9446968E-1,2.1776453E-1,3.0756348E-1,-1.4481985E-2,-6.935343E-1,3.5684818E-1,-1.2598944E-2,8.583347E-1,1.3306581E-2,-3.3360322E-3,9.0267736E-4,-5.4059788E-3,-1.3978716E-3,3.4171215E-4,1.3931544E-2,2.3141347E-2,4.3318598E-3,-4.896534E-4,6.0961037E-3,3.305691E-5,-1.33963935E-2,1.1037089E-2,2.3407085E-2,3.9105997E-3,-1.2118046E-2,-5.372144E-3,4.5456043E-3,1.9358944E-3,-1.5671005E-3,5.3555163E-4,-1.2037607E-2,1.2827712E-2,2.3902338E-3,1.9167873E-4,-5.95157E-3,-1.01502E-2,7.0966603E-3,8.729462E-3,1.6700132E-2,2.8408333E-3,6.6702594E-3],"split_indices":[10,1,11,17,13,22,13,14,22,14,19,2,13,1,14,12,1,7,2,22,11,5,7,22,14,14,12,14,21,10,2,0,0,0,0,0,0,0,0,0,0,0,0,0,0,0,0,0,0,0,0,0,0,0,0,0,0,0,0,0,0,0,0],"split_type":[0,0,0,0,0,0,0,0,0,0,0,0,0,0,0,0,0,0,0,0,0,0,0,0,0,0,0,0,0,0,0,0,0,0,0,0,0,0,0,0,0,0,0,0,0,0,0,0,0,0,0,0,0,0,0,0,0,0,0,0,0,0,0],"sum_hessian":[1.0723549E4,5.5956123E3,5.1279365E3,4.9290596E3,6.665529E2,1.7365302E3,3.3914065E3,4.7859272E3,1.4313219E2,5.0437128E2,1.6218166E2,1.4828142E3,2.5371594E2,3.6754016E2,3.0238665E3,3.3751216E3,1.4108055E3,9.79197E1,4.5212482E1,4.0681644E2,9.755484E1,1.391013E2,2.3080347E1,2.05757E2,1.2770571E3,3.8975704E1,2.1474025E2,2.757925E2,9.174766E1,4.7323712E2,2.5506294E3,8.335654E2,2.5415562E3,7.056386E2,7.0516693E2,7.59959E1,2.1923794E1,2.47187E1,2.049378E1,1.17664185E2,2.8915225E2,7.727998E1,2.0274853E1,1.1752274E2,2.1578562E1,1.42597685E1,8.820579E0,1.7901697E2,2.674004E1,8.076879E2,4.6936923E2,1.5582685E1,2.3393017E1,1.4262903E2,7.211121E1,2.190879E2,5.6704597E1,6.625181E0,8.5122475E1,4.091965E2,6.40406E1,1.2502671E3,1.3003622E3],"tree_param":{"num_deleted":"0","num_feature":"25","num_nodes":"63","size_leaf_vector":"1"}},{"base_weights":[-1.4588024E-1,2.073287E-1,-1.8980533E-2,-1.8980287E-2,1.464938E0,3.7801212E-1,3.7667442E-2,5.171953E-1,-4.423253E-3,-0E0,1.5965119E-2],"categories":[],"categories_nodes":[],"categories_segments":[],"categories_sizes":[],"default_left":[0,0,0,0,0,0,0,0,0,0,0],"id":4,"left_children":[1,3,-1,-1,5,7,-1,9,-1,-1,-1],"loss_changes":[2.2687974E3,8.077045E3,0E0,0E0,4.7021973E1,3.7187443E0,0E0,2.2750082E0,0E0,0E0,0E0],"parents":[2147483647,0,0,1,1,4,4,5,5,7,7],"right_children":[2,4,-1,-1,6,8,-1,10,-1,-1,-1],"split_conditions":[1.7168428E-1,-1.749196E-1,-1.8980533E-2,-1.8980287E-2,-1.6880356E-1,1.4881119E0,3.7667442E-2,-6.8387014E-1,-4.423253E-3,-0E0,1.5965119E-2],"split_indices":[0,0,0,0,0,23,0,20,0,0,0],"split_type":[0,0,0,0,0,0,0,0,0,0,0],"sum_hessian":[1.0698832E4,6.734463E3,3.9643694E3,3.8303743E3,2.9040889E3,4.2272324E1,2.8618164E3,3.5162792E1,7.1095304E0,5.7866473E0,2.9376146E1],"tree_param":{"num_deleted":"0","num_feature":"25","num_nodes":"11","size_leaf_vector":"1"}},{"base_weights":[8.225455E-2,-1.8899808E-2,3.691196E-2],"categories":[],"categories_nodes":[],"categories_segments":[],"categories_sizes":[],"default_left":[0,0,0],"id":5,"left_children":[1,-1,-1],"loss_changes":[1.2188031E4,0E0,0E0],"parents":[2147483647,0,0],"right_children":[2,-1,-1],"split_conditions":[1.7168428E-1,-1.8899808E-2,3.691196E-2],"split_indices":[0,0,0],"split_type":[0,0,0],"sum_hessian":[1.0790626E4,6.731771E3,4.0588552E3],"tree_param":{"num_deleted":"0","num_feature":"25","num_nodes":"3","size_leaf_vector":"1"}},{"base_weights":[5.5194598E-2,3.6394753E-2,-7.349976E-1,2.9516885E-1,-1.8866077E-2,4.339686E-1,-9.275749E-3,-4.545392E-3,5.739181E-1,2.1086842E-2,4.4229855E-3],"categories":[],"categories_nodes":[],"categories_segments":[],"categories_sizes":[],"default_left":[0,0,0,0,0,0,0,0,0,0,0],"id":6,"left_children":[1,-1,3,5,-1,7,-1,-1,9,-1,-1],"loss_changes":[1.1607292E4,0E0,4.634619E1,4.1035833E0,0E0,3.613277E0,0E0,0E0,2.1283112E0,0E0,0E0],"parents":[2147483647,0,0,2,2,3,3,5,5,8,8],"right_children":[2,-1,4,6,-1,8,-1,-1,10,-1,-1],"split_conditions":[-1.749196E-1,3.6394753E-2,-1.6880356E-1,6.4494187E-1,-1.8866077E-2,-7.5250036E-1,-9.275749E-3,-4.545392E-3,-4.5453798E-2,2.1086842E-2,4.4229855E-3],"split_indices":[0,0,0,11,0,12,0,0,3,0,0],"split_type":[0,0,0,0,0,0,0,0,0,0,0],"sum_hessian":[1.0678183E4,3.896616E3,6.781566E3,4.1658875E1,6.739907E3,3.5847523E1,5.811353E0,5.371814E0,3.047571E1,1.6594704E1,1.3881005E1],"tree_param":{"num_deleted":"0","num_feature":"25","num_nodes":"11","size_leaf_vector":"1"}},{"base_weights":[-1.455402E-1,-1.8910129E-2,1.9057903E-1,1.4204246E0,-1.8742507E-2,3.0657643E-1,3.6521077E-2,2.2607429E-2,1.1244785E-1,1.2762912E-2,-4.4512227E-3],"categories":[],"categories_nodes":[],"categories_segments":[],"categories_sizes":[],"default_left":[0,0,0,0,0,0,0,0,0,0,0],"id":7,"left_children":[1,-1,3,5,-1,7,-1,-1,9,-1,-1],"loss_changes":[2.1465757E3,0E0,7.7977114E3,4.727295E1,0E0,3.622871E0,0E0,0E0,4.0896935E0,0E0,0E0],"parents":[2147483647,0,0,2,2,3,3,5,5,8,8],"right_children":[2,-1,4,6,-1,8,-1,-1,10,-1,-1],"split_conditions":[-1.749196E-1,-1.8910129E-2,1.7168428E-1,-1.6880356E-1,-1.8742507E-2,-8.781358E-1,3.6521077E-2,2.2607429E-2,7.775375E-2,1.2762912E-2,-4.4512227E-3],"split_indices":[0,0,0,0,0,19,0,0,6,0,0],"split_type":[0,0,0,0,0,0,0,0,0,0,0],"sum_hessian":[1.0680162E4,3.8446975E3,6.835465E3,2.9385532E3,3.8969116E3,4.028475E1,2.8982683E3,8.064788E0,3.2219967E1,1.4791328E1,1.7428637E1],"tree_param":{"num_deleted":"0","num_feature":"25","num_nodes":"11","size_leaf_vector":"1"}},{"base_weights":[8.608681E-2,2.16864E-1,2.5213782E-2,1.6885272E-1,3.292022E-1,-5.4882057E-2,6.796462E-2,1.1557824E-1,2.3361951E-1,3.5646793E-1,1.2343112E-1,-6.769192E-2,2.5804198E-1,1.22148134E-1,2.6026417E-2,1.8426591E-1,4.0180463E-2,1.1833569E-3,2.6741445E-1,1.9240667E-1,3.8928163E-1,3.1709033E-1,-1.1264415E-2,-1.4913986E-3,-1.0827733E-1,6.614801E-1,6.971386E-2,8.1165254E-2,1.9019514E-1,-5.2274577E-2,9.126016E-2,-1.1142464E-2,4.9957065E-3,-2.819989E-3,3.0962352E-3,1.9355936E-3,-4.7481353E-3,4.519527E-3,8.921975E-3,-0E0,9.184302E-3,1.1855143E-2,6.050306E-3,4.434802E-3,2.379255E-2,1.2515471E-2,-2.387102E-3,3.599553E-4,-1.15679E-2,-3.654276E-3,5.4968917E-4,2.0571532E-2,-0E0,5.663454E-3,-5.6287977E-3,6.043063E-4,4.2049894E-3,-9.608993E-5,5.762482E-3,7.91413E-4,-2.3430176E-3,-1.4971269E-3,3.0678578E-3],"categories":[],"categories_nodes":[],"categories_segments":[],"categories_sizes":[],"default_left":[0,0,0,0,0,0,0,0,0,0,0,0,0,0,0,0,0,0,0,0,0,0,0,0,0,0,0,0,0,0,0,0,0,0,0,0,0,0,0,0,0,0,0,0,0,0,0,0,0,0,0,0,0,0,0,0,0,0,0,0,0,0,0],"id":8,"left_children":[1,3,5,7,9,11,13,15,17,19,21,23,25,27,29,31,33,35,37,39,41,43,45,47,49,51,53,55,57,59,61,-1,-1,-1,-1,-1,-1,-1,-1,-1,-1,-1,-1,-1,-1,-1,-1,-1,-1,-1,-1,-1,-1,-1,-1,-1,-1,-1,-1,-1,-1,-1,-1],"loss_changes":[8.526497E1,1.785373E1,2.513004E1,7.9081726E0,5.193619E0,1.0039482E1,1.0742786E1,6.635664E0,8.165283E0,4.1779556E0,3.523286E0,6.475971E0,6.6718626E0,5.5316544E0,1.3888729E1,5.00963E0,7.882864E0,1.8846123E0,6.4153595E0,5.30005E0,7.7899704E0,3.55345E0,2.6209528E0,7.0848722E0,7.048216E0,2.8523932E0,3.114291E0,6.1369E0,5.6499596E0,4.1309233E0,6.6044426E0,0E0,0E0,0E0,0E0,0E0,0E0,0E0,0E0,0E0,0E0,0E0,0E0,0E0,0E0,0E0,0E0,0E0,0E0,0E0,0E0,0E0,0E0,0E0,0E0,0E0,0E0,0E0,0E0,0E0,0E0,0E0,0E0],"parents":[2147483647,0,0,1,1,2,2,3,3,4,4,5,5,6,6,7,7,8,8,9,9,10,10,11,11,12,12,13,13,14,14,15,15,16,16,17,17,18,18,19,19,20,20,21,21,22,22,23,23,24,24,25,25,26,26,27,27,28,28,29,29,30,30],"right_children":[2,4,6,8,10,12,14,16,18,20,22,24,26,28,30,32,34,36,38,40,42,44,46,48,50,52,54,56,58,60,62,-1,-1,-1,-1,-1,-1,-1,-1,-1,-1,-1,-1,-1,-1,-1,-1,-1,-1,-1,-1,-1,-1,-1,-1,-1,-1,-1,-1,-1,-1,-1,-1],"split_conditions":[-2.8592077E-1,3.1141487E-1,-6.089758E-1,-4.0455803E-2,1.3343266E0,3.299999E-1,4.6876955E-1,-1.1241189E0,-1.0995066E0,-1.8403491E0,-5.497035E-1,1.7114863E-2,2.2992869E-1,2.4074304E-1,-2.87031E-2,-7.935048E-1,-6.378927E-1,1.9433986E-1,-2.4154195E-1,4.4113302E-1,-8.0160695E-1,-7.078173E-1,-6.8129855E-1,1.0971821E-1,-3.5990798E-1,3.6894682E-1,3.3152798E-1,-1.0893712E-1,-7.3919785E-1,3.587514E-1,-4.4634405E-1,-1.1142464E-2,4.9957065E-3,-2.819989E-3,3.0962352E-3,1.9355936E-3,-4.7481353E-3,4.519527E-3,8.921975E-3,-0E0,9.184302E-3,1.1855143E-2,6.050306E-3,4.434802E-3,2.379255E-2,1.2515471E-2,-2.387102E-3,3.599553E-4,-1.15679E-2,-3.654276E-3,5.4968917E-4,2.0571532E-2,-0E0,5.663454E-3,-5.6287977E-3,6.043063E-4,4.2049894E-3,-9.608993E-5,5.762482E-3,7.91413E-4,-2.3430176E-3,-1.4971269E-3,3.0678578E-3],"split_indices":[15,22,11,6,24,1,17,18,14,13,5,13,22,8,4,20,24,5,1,1,17,5,4,4,4,8,5,20,6,13,5,0,0,0,0,0,0,0,0,0,0,0,0,0,0,0,0,0,0,0,0,0,0,0,0,0,0,0,0,0,0,0,0],"split_type":[0,0,0,0,0,0,0,0,0,0,0,0,0,0,0,0,0,0,0,0,0,0,0,0,0,0,0,0,0,0,0,0,0,0,0,0,0,0,0,0,0,0,0,0,0,0,0,0,0,0,0,0,0,0,0,0,0,0,0,0,0,0,0],"sum_hessian":[1.0738884E4,3.4053145E3,7.33357E3,2.3931353E3,1.01217926E3,2.5443577E3,4.789212E3,1.3223898E3,1.0707455E3,8.891422E2,1.2303704E2,2.447856E3,9.650192E1,2.0790273E3,2.7101846E3,6.847904E2,6.375993E2,1.3956517E2,9.311803E2,1.5399142E2,7.351508E2,5.283562E1,7.020142E1,9.3949054E2,1.5083654E3,2.840841E1,6.809351E1,1.3073903E3,7.71637E2,1.2252615E3,1.4849232E3,1.0973717E1,6.738167E2,2.193623E2,4.18237E2,1.0373285E2,3.5832317E1,4.5487296E2,4.7630737E2,7.021594E1,8.377549E1,4.8269446E2,2.5245636E2,4.5087646E1,7.747976E0,7.6656055E0,6.2535816E1,9.069843E2,3.250622E1,1.1912322E3,3.1713315E2,2.3079311E1,5.3290963E0,4.6892E1,2.1201515E1,7.843475E2,5.230427E2,1.17694756E2,6.5394226E2,3.8844888E2,8.368126E2,2.3729521E2,1.2476279E3],"tree_param":{"num_deleted":"0","num_feature":"25","num_nodes":"63","size_leaf_vector":"1"}},{"base_weights":[5.8245726E-2,3.5351332E-2,-7.2920036E-1,2.860002E-1,-1.8726218E-2,4.34492E-1,-3.4480218E-3,-1.464734E-3,5.965236E-1,-1.964359E-3,1.9539397E-2],"categories":[],"categories_nodes":[],"categories_segments":[],"categories_sizes":[],"default_left":[0,0,0,0,0,0,0,0,0,0,0],"id":9,"left_children":[1,-1,3,5,-1,7,-1,-1,9,-1,-1],"loss_changes":[1.1235032E4,0E0,4.7402344E1,3.1390848E0,0E0,3.3281155E0,0E0,0E0,3.9196644E0,0E0,0E0],"parents":[2147483647,0,0,2,2,3,3,5,5,8,8],"right_children":[2,-1,4,6,-1,8,-1,-1,10,-1,-1],"split_conditions":[-1.749196E-1,3.5351332E-2,-1.6880356E-1,-4.1655477E-2,-1.8726218E-2,-1.2493742E-2,-3.4480218E-3,-1.464734E-3,-6.878356E-1,-1.964359E-3,1.9539397E-2],"split_indices":[0,0,0,20,0,21,0,0,12,0,0],"split_type":[0,0,0,0,0,0,0,0,0,0,0],"sum_hessian":[1.0715078E4,3.9825947E3,6.732483E3,4.3926525E1,6.6885566E3,3.411135E1,9.815175E0,7.1565814E0,2.695477E1,4.4570513E0,2.2497719E1],"tree_param":{"num_deleted":"0","num_feature":"25","num_nodes":"11","size_leaf_vector":"1"}},{"base_weights":[-1.3993074E-1,6.904002E-3,-2.3957898E-1,1.03821315E-1,-5.1348884E-2,-1.9818565E-1,-4.236236E-1,-9.565494E-3,1.638373E-1,-1.9154947E-1,-3.347056E-3,-1.6621357E-1,-2.9868767E-1,-3.021321E-1,-4.598608E-1,2.3323335E-1,-7.233772E-2,-3.1153234E-2,2.0196103E-1,-2.486465E-1,-5.1696476E-2,3.703249E-2,-1.9826531E-1,-2.0683512E-1,-9.700001E-2,3.4287732E-2,-3.1494537E-1,3.360716E-1,-3.3058438E-1,-5.067823E-1,-3.5228947E-1,-3.840126E-4,1.2750451E-2,-7.993284E-3,-0E0,1.1497697E-2,-3.1643417E-3,-5.2458355E-3,5.815776E-3,-1.0113878E-2,-5.1543745E-3,8.45988E-3,-2.8467425E-3,-3.0250123E-3,1.9267303E-3,1.7291605E-3,-6.7992727E-3,-2.2414082E-3,-5.971329E-3,1.3274766E-4,-3.5309906E-3,1.0548234E-2,-4.572267E-3,-8.388582E-3,-9.944915E-4,-1.536046E-3,1.9508256E-2,-8.963377E-3,2.3090693E-3,-1.313587E-2,-9.3687535E-4,-5.1524113E-3,-1.0777936E-2],"categories":[],"categories_nodes":[],"categories_segments":[],"categories_sizes":[],"default_left":[0,0,0,0,0,0,0,0,0,0,0,0,0,0,0,0,0,0,0,0,0,0,0,0,0,0,0,0,0,0,0,0,0,0,0,0,0,0,0,0,0,0,0,0,0,0,0,0,0,0,0,0,0,0,0,0,0,0,0,0,0,0,0],"id":10,"left_children":[1,3,5,7,9,11,13,15,17,19,21,23,25,27,29,31,33,35,37,39,41,43,45,47,49,51,53,55,57,59,61,-1,-1,-1,-1,-1,-1,-1,-1,-1,-1,-1,-1,-1,-1,-1,-1,-1,-1,-1,-1,-1,-1,-1,-1,-1,-1,-1,-1,-1,-1,-1,-1],"loss_changes":[1.5543398E2,2.4249624E1,4.75123E1,1.1138081E1,1.7793905E1,1.6125015E1,4.249405E0,8.314683E0,8.058237E0,5.1068764E0,1.5867052E1,1.0745651E1,6.9809494E0,5.072651E0,3.4889832E0,7.851463E0,7.4783573E0,7.4150047E0,9.761036E0,2.62253E0,4.497268E0,9.925039E0,6.5699196E0,7.8426666E0,6.3780956E0,4.8287582E0,4.467697E0,2.538247E0,2.694067E0,2.1802063E0,2.2962036E0,0E0,0E0,0E0,0E0,0E0,0E0,0E0,0E0,0E0,0E0,0E0,0E0,0E0,0E0,0E0,0E0,0E0,0E0,0E0,0E0,0E0,0E0,0E0,0E0,0E0,0E0,0E0,0E0,0E0,0E0,0E0,0E0],"parents":[2147483647,0,0,1,1,2,2,3,3,4,4,5,5,6,6,7,7,8,8,9,9,10,10,11,11,12,12,13,13,14,14,15,15,16,16,17,17,18,18,19,19,20,20,21,21,22,22,23,23,24,24,25,25,26,26,27,27,28,28,29,29,30,30],"right_children":[2,4,6,8,10,12,14,16,18,20,22,24,26,28,30,32,34,36,38,40,42,44,46,48,50,52,54,56,58,60,62,-1,-1,-1,-1,-1,-1,-1,-1,-1,-1,-1,-1,-1,-1,-1,-1,-1,-1,-1,-1,-1,-1,-1,-1,-1,-1,-1,-1,-1,-1,-1,-1],"split_conditions":[-3.6855125E-1,-4.9813712E-1,9.967987E-1,-2.4228938E-1,-2.7660906E-1,3.4307432E-1,-9.150922E-2,-1.2502646E-2,-1.0931492E0,3.183951E-1,4.0911478E-1,3.3436763E-1,-1.5492421E0,-1.2376469E0,6.005023E-1,-3.2303482E-1,2.0734416E-1,-1.0194739E0,-5.3038436E-1,-9.040918E-1,-1.2546449E-2,-3.6125645E-1,-1.2550752E-2,-5.4189503E-1,1.3443911E0,6.447863E-1,2.0074847E0,4.3760628E-1,1.5129777E0,2.0074847E0,1.4254551E0,-3.840126E-4,1.2750451E-2,-7.993284E-3,-0E0,1.1497697E-2,-3.1643417E-3,-5.2458355E-3,5.815776E-3,-1.0113878E-2,-5.1543745E-3,8.45988E-3,-2.8467425E-3,-3.0250123E-3,1.9267303E-3,1.7291605E-3,-6.7992727E-3,-2.2414082E-3,-5.971329E-3,1.3274766E-4,-3.5309906E-3,1.0548234E-2,-4.572267E-3,-8.388582E-3,-9.944915E-4,-1.536046E-3,1.9508256E-2,-8.963377E-3,2.3090693E-3,-1.313587E-2,-9.3687535E-4,-5.1524113E-3,-1.0777936E-2],"split_indices":[1,20,1,19,19,20,20,21,16,8,22,19,16,7,18,22,24,1,5,16,21,5,21,20,19,22,7,16,18,7,1,0,0,0,0,0,0,0,0,0,0,0,0,0,0,0,0,0,0,0,0,0,0,0,0,0,0,0,0,0,0,0,0],"split_type":[0,0,0,0,0,0,0,0,0,0,0,0,0,0,0,0,0,0,0,0,0,0,0,0,0,0,0,0,0,0,0,0,0,0,0,0,0,0,0,0,0,0,0,0,0,0,0,0,0,0,0,0,0,0,0,0,0,0,0,0,0,0,0],"sum_hessian":[1.0607072E4,4.2847563E3,6.3223154E3,1.6143445E3,2.6704119E3,5.167141E3,1.1551744E3,5.5357886E2,1.0607656E3,6.7542554E2,1.9949865E3,3.9289666E3,1.2381746E3,2.732705E2,8.81904E2,1.1014571E2,4.4343317E2,1.6947516E2,8.9129047E2,4.7435092E2,2.0107463E2,1.6492336E3,3.4575275E2,2.466198E3,1.4627686E3,5.4903824E1,1.1832708E3,9.840767E0,2.6342972E2,6.056647E2,2.762393E2,5.578254E1,5.4363174E1,9.842084E1,3.4501233E2,2.5227354E1,1.442478E2,5.2063423E1,8.3922705E2,1.05625084E2,3.6872583E2,2.4573502E1,1.7650113E2,3.2272375E2,1.3265099E3,6.83528E1,2.7739996E2,4.75968E2,1.99023E3,4.181715E2,1.044597E3,2.1048584E1,3.385524E1,1.1197256E3,6.354518E1,4.389032E0,5.4517355E0,2.527719E2,1.0657831E1,5.915797E2,1.4084972E1,9.448736E1,1.8175194E2],"tree_param":{"num_deleted":"0","num_feature":"25","num_nodes":"63","size_leaf_vector":"1"}},{"base_weights":[8.3392106E-2,2.1383415E-1,2.3133177E-2,2.4228418E-1,5.8087755E-2,-9.540147E-2,5.9857983E-2,2.015321E-1,3.3077377E-1,-2.1350928E-2,2.8050303E-1,1.8005382E-2,-1.3496439E-1,1.8692051E-1,2.9347356E-2,-5.893359E-3,2.1418555E-1,1.9583766E-1,3.837434E-1,1.1530909E-1,-1.0940445E-1,3.7443984E-1,-1.4886594E-1,-2.1414489E-1,8.7498665E-2,-9.532361E-2,-2.622255E-1,3.3519408E-1,1.2180494E-1,9.905597E-2,-1.4834388E-2,3.3000247E-3,-5.243958E-3,4.7033774E-3,8.127382E-3,8.829889E-4,9.082088E-3,1.1407075E-2,6.11011E-3,4.089521E-3,-1.0181779E-2,-9.7420183E-4,-1.0085273E-2,-0E0,1.116319E-2,3.3346394E-3,-1.18807955E-2,-1.2628926E-2,-2.7842456E-4,5.2574803E-3,-2.5691793E-3,-5.4966738E-3,-1.1950986E-3,-7.821562E-3,-0E0,1.1213363E-2,2.6529308E-3,7.4676652E-3,1.9651998E-3,4.3621995E-3,5.307595E-4,-1.0933364E-3,3.238257E-3],"categories":[],"categories_nodes":[],"categories_segments":[],"categories_sizes":[],"default_left":[0,0,0,0,0,0,0,0,0,0,0,0,0,0,0,0,0,0,0,0,0,0,0,0,0,0,0,0,0,0,0,0,0,0,0,0,0,0,0,0,0,0,0,0,0,0,0,0,0,0,0,0,0,0,0,0,0,0,0,0,0,0,0],"id":11,"left_children":[1,3,5,7,9,11,13,15,17,19,21,23,25,27,29,31,33,35,37,39,41,43,45,47,49,51,53,55,57,59,61,-1,-1,-1,-1,-1,-1,-1,-1,-1,-1,-1,-1,-1,-1,-1,-1,-1,-1,-1,-1,-1,-1,-1,-1,-1,-1,-1,-1,-1,-1,-1,-1],"loss_changes":[8.390247E1,1.4668671E1,3.1867308E1,9.717804E0,9.575459E0,7.8624315E0,2.1503609E1,5.343544E0,5.7494965E0,4.6587043E0,5.9930096E0,7.01902E0,6.1337357E0,9.944851E0,1.4010878E1,3.0645304E0,5.190132E0,6.312318E0,5.131447E0,3.2934835E0,4.4721384E0,2.8710957E0,2.5389538E0,5.1870794E0,7.831401E0,5.512455E0,3.352026E0,7.3471565E0,5.409007E0,9.797422E0,1.0967148E1,0E0,0E0,0E0,0E0,0E0,0E0,0E0,0E0,0E0,0E0,0E0,0E0,0E0,0E0,0E0,0E0,0E0,0E0,0E0,0E0,0E0,0E0,0E0,0E0,0E0,0E0,0E0,0E0,0E0,0E0,0E0,0E0],"parents":[2147483647,0,0,1,1,2,2,3,3,4,4,5,5,6,6,7,7,8,8,9,9,10,10,11,11,12,12,13,13,14,14,15,15,16,16,17,17,18,18,19,19,20,20,21,21,22,22,23,23,24,24,25,25,26,26,27,27,28,28,29,29,30,30],"right_children":[2,4,6,8,10,12,14,16,18,20,22,24,26,28,30,32,34,36,38,40,42,44,46,48,50,52,54,56,58,60,62,-1,-1,-1,-1,-1,-1,-1,-1,-1,-1,-1,-1,-1,-1,-1,-1,-1,-1,-1,-1,-1,-1,-1,-1,-1,-1,-1,-1,-1,-1,-1,-1],"split_conditions":[-2.8592077E-1,2.320613E-1,-6.5432215E-1,2.630787E-1,8.052623E-1,-1.4191483E-1,-3.0431882E-1,-2.3157442E0,-1.5627942E0,-5.989133E-1,1.4873132E0,-8.0156374E-1,2.639485E-1,-3.8793963E-1,-2.7780965E-1,-1.3320253E0,7.297527E-1,-1.2421421E-2,-6.7102015E-1,6.324999E-1,-1.2224327E-2,-9.415848E-1,-2.2307837E-1,-9.3306914E-2,2.1926385E-1,-8.404381E-1,7.436767E-1,1.051713E0,-3.5332564E-1,3.361624E-1,1.0127296E0,3.3000247E-3,-5.243958E-3,4.7033774E-3,8.127382E-3,8.829889E-4,9.082088E-3,1.1407075E-2,6.11011E-3,4.089521E-3,-1.0181779E-2,-9.7420183E-4,-1.0085273E-2,-0E0,1.116319E-2,3.3346394E-3,-1.18807955E-2,-1.2628926E-2,-2.7842456E-4,5.2574803E-3,-2.5691793E-3,-5.4966738E-3,-1.1950986E-3,-7.821562E-3,-0E0,1.1213363E-2,2.6529308E-3,7.4676652E-3,1.9651998E-3,4.3621995E-3,5.307595E-4,-1.0933364E-3,3.238257E-3],"split_indices":[15,10,1,22,12,10,10,10,13,13,19,13,5,16,16,17,11,21,17,12,21,22,16,5,5,12,15,19,5,17,11,0,0,0,0,0,0,0,0,0,0,0,0,0,0,0,0,0,0,0,0,0,0,0,0,0,0,0,0,0,0,0,0],"split_type":[0,0,0,0,0,0,0,0,0,0,0,0,0,0,0,0,0,0,0,0,0,0,0,0,0,0,0,0,0,0,0,0,0,0,0,0,0,0,0,0,0,0,0,0,0,0,0,0,0,0,0,0,0,0,0,0,0,0,0,0,0,0,0],"sum_hessian":[1.0702203E4,3.3761042E3,7.326099E3,2.849128E3,5.269764E2,1.7265135E3,5.5995854E3,1.9600273E3,8.891006E2,3.85776E2,1.4120038E2,4.4051648E2,1.2859971E3,1.0773878E3,4.5221978E3,1.0845047E2,1.8515769E3,2.5681744E2,6.3228314E2,1.468761E2,2.388999E2,1.1774322E2,2.3457151E1,9.794341E1,3.4257306E2,9.8738306E2,2.9861404E2,3.2322897E2,7.541589E2,1.7621243E3,2.7600732E3,6.204974E1,4.6400734E1,1.4571536E3,3.9442337E2,1.3187099E2,1.2494644E2,4.3022067E2,2.020625E2,1.3722105E2,9.655044E0,1.9489665E2,4.4003242E1,1.7327417E1,1.004158E2,1.1186268E1,1.2270884E1,3.8522205E1,5.9421207E1,2.128911E2,1.2968196E2,2.75911E2,7.11472E2,2.5247426E2,4.6139782E1,2.184795E2,1.0474946E2,1.5001183E2,6.041471E2,9.0815076E2,8.539735E2,2.309928E3,4.5014514E2],"tree_param":{"num_deleted":"0","num_feature":"25","num_nodes":"63","size_leaf_vector":"1"}},{"base_weights":[5.4346103E-2,1.3474165E0,-1.8616587E-2,3.4540847E-2,3.5666746E-1,4.8483434E-1,-8.437486E-3,-3.3301087E-3,6.0699695E-1,-0E0,1.8792123E-2],"categories":[],"categories_nodes":[],"categories_segments":[],"categories_sizes":[],"default_left":[0,0,0,0,0,0,0,0,0,0,0],"id":12,"left_children":[1,3,-1,-1,5,7,-1,-1,9,-1,-1],"loss_changes":[1.0911898E4,3.910547E1,0E0,0E0,4.138055E0,3.3998413E0,0E0,0E0,3.2202215E0,0E0,0E0],"parents":[2147483647,0,0,1,1,4,4,5,5,8,8],"right_children":[2,4,-1,-1,6,8,-1,-1,10,-1,-1],"split_conditions":[-1.6880356E-1,-1.749196E-1,-1.8616587E-2,3.4540847E-2,6.4494187E-1,-7.1839356E-1,-8.437486E-3,-3.3301087E-3,-8.754158E-1,-0E0,1.8792123E-2],"split_indices":[0,0,0,0,11,12,0,0,19,0,0],"split_type":[0,0,0,0,0,0,0,0,0,0,0],"sum_hessian":[1.0732866E4,4.0580732E3,6.674793E3,4.0153235E3,4.2749733E1,3.741273E1,5.3370023E0,4.910124E0,3.250261E1,4.9409924E0,2.7561617E1],"tree_param":{"num_deleted":"0","num_feature":"25","num_nodes":"11","size_leaf_vector":"1"}},{"base_weights":[-1.4003594E-1,2.0452192E-1,-1.8692102E-2,-1.8533895E-2,1.3748093E0,3.3190262E-1,3.5312824E-2,6.835549E-1,3.4815323E-2,2.9593788E-3,2.7872859E-2,-1.3024816E-2,7.373994E-3],"categories":[],"categories_nodes":[],"categories_segments":[],"categories_sizes":[],"default_left":[0,0,0,0,0,0,0,0,0,0,0,0,0],"id":13,"left_children":[1,3,-1,-1,5,7,-1,9,11,-1,-1,-1,-1],"loss_changes":[2.1783804E3,7.3489014E3,0E0,0E0,3.9020996E1,3.4132166E0,0E0,2.6075416E0,3.2305887E0,0E0,0E0,0E0,0E0],"parents":[2147483647,0,0,1,1,4,4,5,5,7,7,8,8],"right_children":[2,4,-1,-1,6,8,-1,10,12,-1,-1,-1,-1],"split_conditions":[1.7168428E-1,-1.749196E-1,-1.8692102E-2,-1.8533895E-2,-1.6880356E-1,-1.515747E-1,3.5312824E-2,-3.6554563E-1,-2.9530254E-1,2.9593788E-3,2.7872859E-2,-1.3024816E-2,7.373994E-3],"split_indices":[0,0,0,0,0,2,0,4,8,0,0,0,0],"split_type":[0,0,0,0,0,0,0,0,0,0,0,0,0],"sum_hessian":[1.0627567E4,6.7281855E3,3.8993818E3,3.7433481E3,2.9848374E3,3.8440525E1,2.946397E3,1.5622404E1,2.2818121E1,8.015163E0,7.60724E0,5.7992496E0,1.7018871E1],"tree_param":{"num_deleted":"0","num_feature":"25","num_nodes":"13","size_leaf_vector":"1"}},{"base_weights":[7.978746E-2,2.0271556E-1,2.4020733E-2,1.1686255E-1,2.5963476E-1,2.2040848E-1,-6.9303676E-3,5.2095592E-2,2.8298515E-1,3.009548E-1,4.5755025E-2,1.6137633E-1,4.0852904E-1,-2.9128738E-2,1.647699E-1,2.3518363E-2,4.0751195E-1,4.2017362E-1,1.7136051E-1,2.6620787E-1,5.4432136E-1,3.7479508E-1,-0E0,6.760372E-1,1.3956404E-1,5.2342194E-1,2.2958566E-1,1.3423328E-1,-5.27403E-2,5.013791E-1,1.4926375E-1,6.2575717E-3,-2.38493E-5,-1.1739274E-3,1.3758218E-2,-8.216461E-4,1.2950062E-2,-8.649734E-4,5.9620724E-3,7.6769595E-3,1.3650508E-3,5.17115E-3,1.5049573E-2,1.3029479E-2,-5.969213E-3,-1.0767453E-3,7.0571587E-3,1.9918643E-2,-0E0,6.898284E-3,2.070594E-3,1.2694987E-3,1.4674711E-2,-2.2644054E-3,9.33279E-3,-3.2747681E-3,4.2760754E-3,-1.748248E-3,8.1444415E-4,1.6041845E-2,-0E0,1.1681498E-3,4.9950783E-3],"categories":[],"categories_nodes":[],"categories_segments":[],"categories_sizes":[],"default_left":[0,0,0,0,0,0,0,0,0,0,0,0,0,0,0,0,0,0,0,0,0,0,0,0,0,0,0,0,0,0,0,0,0,0,0,0,0,0,0,0,0,0,0,0,0,0,0,0,0,0,0,0,0,0,0,0,0,0,0,0,0,0,0],"id":14,"left_children":[1,3,5,7,9,11,13,15,17,19,21,23,25,27,29,31,33,35,37,39,41,43,45,47,49,51,53,55,57,59,61,-1,-1,-1,-1,-1,-1,-1,-1,-1,-1,-1,-1,-1,-1,-1,-1,-1,-1,-1,-1,-1,-1,-1,-1,-1,-1,-1,-1,-1,-1,-1,-1],"loss_changes":[7.34542E1,1.5981796E1,4.5176968E1,1.4123043E1,1.7391632E1,1.0638645E1,2.4226469E1,9.454134E0,5.083996E0,1.3294342E1,5.197183E0,7.851631E0,4.061981E0,2.1772255E1,3.1146393E0,5.1406155E0,4.7068796E0,7.003134E0,2.920124E0,1.0779274E1,2.4523125E0,3.8759017E0,3.2502162E0,2.1502934E0,5.3638906E0,2.9382362E0,4.555359E0,6.3771353E0,6.743101E0,2.2932901E0,3.1629095E0,0E0,0E0,0E0,0E0,0E0,0E0,0E0,0E0,0E0,0E0,0E0,0E0,0E0,0E0,0E0,0E0,0E0,0E0,0E0,0E0,0E0,0E0,0E0,0E0,0E0,0E0,0E0,0E0,0E0,0E0,0E0,0E0],"parents":[2147483647,0,0,1,1,2,2,3,3,4,4,5,5,6,6,7,7,8,8,9,9,10,10,11,11,12,12,13,13,14,14,15,15,16,16,17,17,18,18,19,19,20,20,21,21,22,22,23,23,24,24,25,25,26,26,27,27,28,28,29,29,30,30],"right_children":[2,4,6,8,10,12,14,16,18,20,22,24,26,28,30,32,34,36,38,40,42,44,46,48,50,52,54,56,58,60,62,-1,-1,-1,-1,-1,-1,-1,-1,-1,-1,-1,-1,-1,-1,-1,-1,-1,-1,-1,-1,-1,-1,-1,-1,-1,-1,-1,-1,-1,-1,-1,-1],"split_conditions":[-2.7501655E-1,-2.7329427E-1,-5.878856E-1,-1.5543675E-1,2.784044E-1,1.3780947E-1,8.31462E-1,7.176657E-1,-7.4929196E-1,1.0696968E-1,-7.7959216E-1,-1.5697851E0,2.9612893E-1,-7.211646E-1,-1.028391E0,-1.3309957E0,-7.178268E-1,-7.3319453E-1,-1.9654232E-1,1.3129206E0,-4.5697144E-1,8.0639344E-1,6.0780466E-1,1.1412941E0,-1.119839E0,-7.313326E-1,-5.555427E-2,-4.0016478E-1,8.188349E-1,8.7426096E-1,-1.4628497E-1,6.2575717E-3,-2.38493E-5,-1.1739274E-3,1.3758218E-2,-8.216461E-4,1.2950062E-2,-8.649734E-4,5.9620724E-3,7.6769595E-3,1.3650508E-3,5.17115E-3,1.5049573E-2,1.3029479E-2,-5.969213E-3,-1.0767453E-3,7.0571587E-3,1.9918643E-2,-0E0,6.898284E-3,2.070594E-3,1.2694987E-3,1.4674711E-2,-2.2644054E-3,9.33279E-3,-3.2747681E-3,4.2760754E-3,-1.748248E-3,8.1444415E-4,1.6041845E-2,-0E0,1.1681498E-3,4.9950783E-3],"split_indices":[10,1,13,14,13,14,12,8,18,14,16,18,10,2,18,16,1,12,2,4,4,13,9,16,16,4,11,14,14,5,1,0,0,0,0,0,0,0,0,0,0,0,0,0,0,0,0,0,0,0,0,0,0,0,0,0,0,0,0,0,0,0,0],"split_type":[0,0,0,0,0,0,0,0,0,0,0,0,0,0,0,0,0,0,0,0,0,0,0,0,0,0,0,0,0,0,0,0,0,0,0,0,0,0,0,0,0,0,0,0,0,0,0,0,0,0,0,0,0,0,0,0,0,0,0,0,0,0,0],"sum_hessian":[1.0745767E4,3.347524E3,7.3982427E3,1.3422317E3,2.0052922E3,1.0106223E3,6.38762E3,9.706363E2,3.7159537E2,1.6766238E3,3.2866843E2,7.743029E2,2.3631935E2,5.6618403E3,7.257796E2,9.0173016E2,6.890614E1,1.618227E2,2.0977269E2,1.4721676E3,2.0445615E2,4.1015003E1,2.8765344E2,2.8639647E1,7.4566327E2,1.3966975E2,9.6649605E1,7.094393E2,4.9524014E3,2.8058342E1,6.9772125E2,9.232181E1,8.094084E2,1.4177664E1,5.472848E1,2.4915413E1,1.3690729E2,4.583128E1,1.639414E2,1.2571692E3,2.149985E2,2.7857054E1,1.7659909E2,3.4846573E1,6.168428E0,2.5219815E2,3.545529E1,2.4634499E1,4.0051484E0,2.2266148E2,5.2300183E2,1.610741E1,1.2356234E2,2.7133463E1,6.951614E1,7.743967E1,6.3199963E2,4.1764116E3,7.759896E2,2.3180117E1,4.878225E0,2.2513686E2,4.725844E2],"tree_param":{"num_deleted":"0","num_feature":"25","num_nodes":"63","size_leaf_vector":"1"}},{"base_weights":[5.3646754E-2,-1.5595351E-2,1.13726236E-1,-1.19452655E-1,2.3118401E-2,5.7990853E-2,2.949087E-1,-9.886477E-2,-3.3611467E-1,4.5126863E-2,-1.13478504E-1,-3.8879342E-2,1.0536767E-1,1.27168E-1,3.3376768E-1,-1.5285197E-1,-1.0842786E-2,-6.549943E-2,-4.0686545E-1,1.9678257E-2,1.6379136E-1,-1.9358808E-1,4.933552E-3,-1.2557249E-1,2.8527897E-2,3.1636782E-2,1.534975E-1,-3.135676E-1,1.8206449E-1,3.7035447E-1,1.9384257E-1,-7.0949956E-3,-2.784015E-3,-6.322169E-4,1.5471788E-2,6.7837983E-3,-1.33944675E-2,-1.3990471E-2,-5.1583005E-3,-5.119773E-3,9.36207E-4,5.457443E-3,-4.73317E-3,-6.935913E-3,1.2084587E-3,-2.5897895E-3,4.1258903E-3,-5.7896157E-3,-1.2463408E-3,-3.5090875E-3,1.5222386E-3,3.7516668E-3,-5.1134237E-4,3.4414807E-6,5.1942016E-3,-1.0859823E-2,-0E0,2.8091143E-3,1.2855761E-2,-6.0643855E-4,9.61472E-3,7.192542E-4,6.9350637E-3],"categories":[],"categories_nodes":[],"categories_segments":[],"categories_sizes":[],"default_left":[0,0,0,0,0,0,0,0,0,0,0,0,0,0,0,0,0,0,0,0,0,0,0,0,0,0,0,0,0,0,0,0,0,0,0,0,0,0,0,0,0,0,0,0,0,0,0,0,0,0,0,0,0,0,0,0,0,0,0,0,0,0,0],"id":15,"left_children":[1,3,5,7,9,11,13,15,17,19,21,23,25,27,29,31,33,35,37,39,41,43,45,47,49,51,53,55,57,59,61,-1,-1,-1,-1,-1,-1,-1,-1,-1,-1,-1,-1,-1,-1,-1,-1,-1,-1,-1,-1,-1,-1,-1,-1,-1,-1,-1,-1,-1,-1,-1,-1],"loss_changes":[4.4573635E1,2.0039062E1,5.7538994E1,5.6003895E0,1.0786855E1,2.020813E1,8.291672E0,5.744647E0,1.6986942E0,9.228103E0,4.8734145E0,8.48372E0,1.0304771E1,6.1903076E0,4.967354E0,3.7826252E0,3.623381E0,4.5449047E0,1.7265425E0,9.577712E0,9.70056E0,5.9390554E0,3.3586128E0,4.684182E0,4.1144958E0,7.1666565E0,1.3633877E1,1.2167761E0,4.759586E0,2.8876953E0,2.7402143E0,0E0,0E0,0E0,0E0,0E0,0E0,0E0,0E0,0E0,0E0,0E0,0E0,0E0,0E0,0E0,0E0,0E0,0E0,0E0,0E0,0E0,0E0,0E0,0E0,0E0,0E0,0E0,0E0,0E0,0E0,0E0,0E0],"parents":[2147483647,0,0,1,1,2,2,3,3,4,4,5,5,6,6,7,7,8,8,9,9,10,10,11,11,12,12,13,13,14,14,15,15,16,16,17,17,18,18,19,19,20,20,21,21,22,22,23,23,24,24,25,25,26,26,27,27,28,28,29,29,30,30],"right_children":[2,4,6,8,10,12,14,16,18,20,22,24,26,28,30,32,34,36,38,40,42,44,46,48,50,52,54,56,58,60,62,-1,-1,-1,-1,-1,-1,-1,-1,-1,-1,-1,-1,-1,-1,-1,-1,-1,-1,-1,-1,-1,-1,-1,-1,-1,-1,-1,-1,-1,-1,-1,-1],"split_conditions":[-6.559218E-2,-6.7128897E-1,3.4316683E-1,2.3655102E-1,2.9263133E-1,-6.0034287E-1,2.0057052E-1,-2.0359251E-1,-6.76197E-1,8.380371E-1,-5.589201E-1,1.1261363E-1,1.3306581E-2,4.3453184E-1,1.6164234E0,-1.0260643E0,1.4254551E0,-9.514416E-1,-2.9372072E-1,-1.1708409E0,-1.1994491E-2,-1.2296156E-2,2.1886677E-1,-1.24329785E-2,-5.433156E-1,1.4915691E-1,-5.168499E-1,7.852281E-1,1.2825696E0,-3.873205E-1,1.3948596E-1,-7.0949956E-3,-2.784015E-3,-6.322169E-4,1.5471788E-2,6.7837983E-3,-1.33944675E-2,-1.3990471E-2,-5.1583005E-3,-5.119773E-3,9.36207E-4,5.457443E-3,-4.73317E-3,-6.935913E-3,1.2084587E-3,-2.5897895E-3,4.1258903E-3,-5.7896157E-3,-1.2463408E-3,-3.5090875E-3,1.5222386E-3,3.7516668E-3,-5.1134237E-4,3.4414807E-6,5.1942016E-3,-1.0859823E-2,-0E0,2.8091143E-3,1.2855761E-2,-6.0643855E-4,9.61472E-3,7.192542E-4,6.9350637E-3],"split_indices":[13,11,22,14,14,11,13,20,2,1,15,16,2,22,13,16,1,11,15,2,21,21,1,21,22,14,20,16,1,15,1,0,0,0,0,0,0,0,0,0,0,0,0,0,0,0,0,0,0,0,0,0,0,0,0,0,0,0,0,0,0,0,0],"split_type":[0,0,0,0,0,0,0,0,0,0,0,0,0,0,0,0,0,0,0,0,0,0,0,0,0,0,0,0,0,0,0,0,0,0,0,0,0,0,0,0,0,0,0,0,0,0,0,0,0,0,0,0,0,0,0,0,0,0,0,0,0,0,0],"sum_hessian":[1.0691302E4,4.9599463E3,5.7313555E3,1.352907E3,3.6070396E3,4.387912E3,1.3434435E3,1.2406555E3,1.1225151E2,3.1129575E3,4.940819E2,1.4347153E3,2.9531965E3,2.579525E2,1.085491E3,7.61975E2,4.7868054E2,2.6374334E1,8.5877174E1,2.5706257E3,5.42332E2,2.990983E2,1.949836E2,6.3333813E2,8.013772E2,1.1746832E3,1.7785133E3,2.6208397E1,2.3174411E2,8.5400336E2,2.314876E2,1.8848663E2,5.7348834E2,4.704122E2,8.268359E0,1.436404E1,1.2010293E1,4.6895424E1,3.8981754E1,1.8024602E2,2.3903796E3,4.763106E2,6.602135E1,2.2810258E2,7.099573E1,1.1277591E2,8.2207695E1,2.655962E2,3.6774197E2,1.21622086E2,6.7975507E2,3.677876E2,8.068956E2,4.4646817E2,1.3320452E3,2.0409431E1,5.7989655E0,1.9305722E2,3.8686886E1,1.3691291E1,8.403121E2,7.8846985E1,1.5264061E2],"tree_param":{"num_deleted":"0","num_feature":"25","num_nodes":"63","size_leaf_vector":"1"}},{"base_weights":[-1.3457915E-1,2.1127969E-1,-1.8622601E-2,-1.8317489E-2,1.3379376E0,3.705836E-1,3.4348346E-2,5.00685E-2,1.9850817E-2,1.0563418E-2,-6.018348E-3],"categories":[],"categories_nodes":[],"categories_segments":[],"categories_sizes":[],"default_left":[0,0,0,0,0,0,0,0,0,0,0],"id":16,"left_children":[1,3,-1,-1,5,7,-1,9,-1,-1,-1],"loss_changes":[2.184744E3,7.02557E3,0E0,0E0,3.353662E1,4.406349E0,0E0,2.8253648E0,0E0,0E0,0E0],"parents":[2147483647,0,0,1,1,4,4,5,5,7,7],"right_children":[2,4,-1,-1,6,8,-1,10,-1,-1,-1],"split_conditions":[1.7168428E-1,-1.749196E-1,-1.8622601E-2,-1.8317489E-2,-1.6880356E-1,-1.1453265E-1,3.4348346E-2,-2.4397144E-2,1.9850817E-2,1.0563418E-2,-6.018348E-3],"split_indices":[0,0,0,0,0,1,0,6,0,0,0],"split_type":[0,0,0,0,0,0,0,0,0,0,0],"sum_hessian":[1.0570113E4,6.6937793E3,3.876334E3,3.6643955E3,3.029384E3,3.887089E1,2.9905132E3,2.365844E1,1.5212451E1,1.1669244E1,1.1989196E1],"tree_param":{"num_deleted":"0","num_feature":"25","num_nodes":"11","size_leaf_vector":"1"}},{"base_weights":[7.710142E-2,-1.8630952E-2,3.4529734E-2],"categories":[],"categories_nodes":[],"categories_segments":[],"categories_sizes":[],"default_left":[0,0,0],"id":17,"left_children":[1,-1,-1],"loss_changes":[1.113291E4,0E0,0E0],"parents":[2147483647,0,0],"right_children":[2,-1,-1],"split_conditions":[1.7168428E-1,-1.8630952E-2,3.4529734E-2],"split_indices":[0,0,0],"split_type":[0,0,0],"sum_hessian":[1.0742439E4,6.5809897E3,4.16145E3],"tree_param":{"num_deleted":"0","num_feature":"25","num_nodes":"3","size_leaf_vector":"1"}},{"base_weights":[5.614615E-2,1.2949517E0,-1.8432494E-2,3.3195145E-2,2.941451E-1,4.7027823E-1,-2.0627645E-1,-5.5304714E-3,6.0430384E-1,-1.2451961E-2,-0E0,1.9342609E-2,-0E0],"categories":[],"categories_nodes":[],"categories_segments":[],"categories_sizes":[],"default_left":[0,0,0,0,0,0,0,0,0,0,0,0,0],"id":18,"left_children":[1,3,-1,-1,5,7,9,-1,11,-1,-1,-1,-1],"loss_changes":[1.0387678E4,3.889746E1,0E0,0E0,4.0691395E0,3.522379E0,1.051946E0,0E0,3.3112936E0,0E0,0E0,0E0,0E0],"parents":[2147483647,0,0,1,1,4,4,5,5,6,6,8,8],"right_children":[2,4,-1,-1,6,8,10,-1,12,-1,-1,-1,-1],"split_conditions":[-1.6880356E-1,-1.749196E-1,-1.8432494E-2,3.3195145E-2,-4.1655477E-2,-7.998458E-1,1.2081209E-1,-5.5304714E-3,5.820719E-1,-1.2451961E-2,-0E0,1.9342609E-2,-0E0],"split_indices":[0,0,0,0,20,12,10,0,9,0,0,0,0],"split_type":[0,0,0,0,0,0,0,0,0,0,0,0,0],"sum_hessian":[1.0739083E4,4.151575E3,6.587508E3,4.1101025E3,4.147266E1,3.210426E1,9.368403E0,4.002408E0,2.810185E1,5.3196826E0,4.0487204E0,2.3153667E1,4.9481826E0],"tree_param":{"num_deleted":"0","num_feature":"25","num_nodes":"13","size_leaf_vector":"1"}},{"base_weights":[-1.334273E-1,-1.962992E-2,-2.332046E-1,1.5908596E-1,-4.8082948E-2,-1.9008827E-1,-4.0090817E-1,-9.468567E-2,2.2798955E-1,-2.1918695E-2,-1.9779749E-1,-8.965017E-2,-2.2328511E-1,-2.5421837E-1,-4.3581796E-1,1.7321587E-2,-1.3492015E-1,9.3541525E-2,3.3607858E-1,4.4374976E-2,-1.06238715E-1,1.6873522E-1,-2.132929E-1,-9.855571E-2,3.8416156E-1,-2.080176E-1,-3.6676183E-1,-3.166126E-1,-7.52919E-2,-4.8242387E-1,-3.3414432E-1,-7.7889035E-3,1.1262627E-3,5.151398E-3,-1.983963E-3,1.10851405E-2,9.876548E-4,1.853908E-3,-1.6062327E-3,-2.502484E-3,-1.3282789E-2,1.099499E-2,-2.736608E-3,-4.831874E-3,-1.3068731E-2,1.7329397E-3,-3.1930907E-3,-0E0,2.1176117E-2,-4.591036E-3,-7.1905865E-3,-0E0,-9.705487E-3,-5.6960527E-3,-1.3608884E-2,-6.3463487E-3,9.992592E-3,-1.2478995E-2,-0E0,-9.802621E-3,-2.3459184E-3],"categories":[],"categories_nodes":[],"categories_segments":[],"categories_sizes":[],"default_left":[0,0,0,0,0,0,0,0,0,0,0,0,0,0,0,0,0,0,0,0,0,0,0,0,0,0,0,0,0,0,0,0,0,0,0,0,0,0,0,0,0,0,0,0,0,0,0,0,0,0,0,0,0,0,0,0,0,0,0,0,0],"id":19,"left_children":[1,3,5,7,9,11,13,15,17,19,21,23,25,27,29,-1,31,33,35,37,39,41,43,45,47,49,51,53,55,57,59,-1,-1,-1,-1,-1,-1,-1,-1,-1,-1,-1,-1,-1,-1,-1,-1,-1,-1,-1,-1,-1,-1,-1,-1,-1,-1,-1,-1,-1,-1],"loss_changes":[1.1938937E2,2.4959465E1,3.9936737E1,1.1902704E1,1.64614E1,1.4586502E1,5.100418E0,3.978644E0,7.2997875E0,2.0349495E1,3.6390858E0,4.4852114E0,6.731552E0,2.1429605E0,3.4291534E0,0E0,4.438321E0,4.6569242E0,8.148418E0,6.220277E0,4.625141E0,2.0570202E0,3.4999027E0,5.0050735E0,3.9371624E0,5.7641296E0,1.7439995E0,2.499958E0,5.147007E0,2.0283203E0,3.1972008E0,0E0,0E0,0E0,0E0,0E0,0E0,0E0,0E0,0E0,0E0,0E0,0E0,0E0,0E0,0E0,0E0,0E0,0E0,0E0,0E0,0E0,0E0,0E0,0E0,0E0,0E0,0E0,0E0,0E0,0E0],"parents":[2147483647,0,0,1,1,2,2,3,3,4,4,5,5,6,6,7,7,8,8,9,9,10,10,11,11,12,12,13,13,14,14,16,16,17,17,18,18,19,19,20,20,21,21,22,22,23,23,24,24,25,25,26,26,27,27,28,28,29,29,30,30],"right_children":[2,4,6,8,10,12,14,16,18,20,22,24,26,28,30,-1,32,34,36,38,40,42,44,46,48,50,52,54,56,58,60,-1,-1,-1,-1,-1,-1,-1,-1,-1,-1,-1,-1,-1,-1,-1,-1,-1,-1,-1,-1,-1,-1,-1,-1,-1,-1,-1,-1,-1,-1],"split_conditions":[-2.7329427E-1,-9.0834075E-1,9.967987E-1,-2.5874013E-1,3.311988E-1,-4.2455056E-1,-1.7274155E-1,-7.935048E-1,3.1761042E-4,-3.1172267E-1,-1.2376218E0,1.2805643E0,1.0058233E0,3.0191153E-1,6.005023E-1,1.7321587E-2,-3.6732242E-1,1.1829676E-1,-2.8607497E-1,1.1551877E-2,1.4902138E0,3.727871E-1,1.4630705E0,-6.617002E-1,-6.770857E-2,4.9093166E-1,-9.704047E-1,4.2775217E-1,-1.216393E-2,2.0074847E0,-1.20524075E-2,-7.7889035E-3,1.1262627E-3,5.151398E-3,-1.983963E-3,1.10851405E-2,9.876548E-4,1.853908E-3,-1.6062327E-3,-2.502484E-3,-1.3282789E-2,1.099499E-2,-2.736608E-3,-4.831874E-3,-1.3068731E-2,1.7329397E-3,-3.1930907E-3,-0E0,2.1176117E-2,-4.591036E-3,-7.1905865E-3,-0E0,-9.705487E-3,-5.6960527E-3,-1.3608884E-2,-6.3463487E-3,9.992592E-3,-1.2478995E-2,-0E0,-9.802621E-3,-2.3459184E-3],"split_indices":[1,1,1,7,22,20,20,20,8,12,8,7,8,6,18,0,20,6,20,22,7,12,16,12,16,20,3,8,21,7,21,0,0,0,0,0,0,0,0,0,0,0,0,0,0,0,0,0,0,0,0,0,0,0,0,0,0,0,0,0,0],"split_type":[0,0,0,0,0,0,0,0,0,0,0,0,0,0,0,0,0,0,0,0,0,0,0,0,0,0,0,0,0,0,0,0,0,0,0,0,0,0,0,0,0,0,0,0,0,0,0,0,0,0,0,0,0,0,0,0,0,0,0,0,0],"sum_hessian":[1.0535203E4,4.9267095E3,5.6084937E3,6.7154584E2,4.2551636E3,4.4674346E3,1.1410591E3,1.4041782E2,5.3112805E2,3.6283677E3,6.267959E2,1.1176276E3,3.3498071E3,2.2594952E2,9.151095E2,5.071261E0,1.3534656E2,2.4131998E2,2.8980804E2,2.0253159E3,1.6030519E3,2.2605242E1,6.041906E2,1.0996506E3,1.7976946E1,3.0355332E3,3.142739E2,1.6312584E2,6.2823677E1,6.188467E2,2.9626285E2,7.156764E1,6.3778908E1,1.5083656E2,9.048342E1,2.1437906E2,7.5428986E1,1.6081273E3,4.1718854E2,1.5765543E3,2.6497557E1,1.3054404E1,9.550838E0,5.648287E2,3.936194E1,1.4802136E2,9.516293E2,9.168603E0,8.808342E0,2.22807E3,8.0746313E2,1.1866435E1,3.0240747E2,1.187851E2,4.434074E1,4.755465E1,1.5269028E1,6.0705066E2,1.1796023E1,2.4091226E2,5.5350574E1],"tree_param":{"num_deleted":"0","num_feature":"25","num_nodes":"61","size_leaf_vector":"1"}},{"base_weights":[7.297921E-2,-1.8500842E-2,3.3608567E-2],"categories":[],"categories_nodes":[],"categories_segments":[],"categories_sizes":[],"default_left":[0,0,0],"id":20,"left_children":[1,-1,-1],"loss_changes":[1.0699594E4,0E0,0E0],"parents":[2147483647,0,0],"right_children":[2,-1,-1],"split_conditions":[1.7168428E-1,-1.8500842E-2,3.3608567E-2],"split_indices":[0,0,0],"split_type":[0,0,0],"sum_hessian":[1.0711979E4,6.526905E3,4.185074E3],"tree_param":{"num_deleted":"0","num_feature":"25","num_nodes":"3","size_leaf_vector":"1"}},{"base_weights":[5.940058E-2,-4.891861E-3,1.299453E-1,-4.060289E-2,7.905068E-2,9.7757034E-2,2.6294377E-1,-1.1802038E-1,-6.2897336E-4,1.979071E-2,2.6267192E-1,5.2299105E-2,1.6205631E-1,-3.3598892E-2,3.211883E-1,-1.625301E-1,3.1490095E-2,2.9889744E-2,-1.0066405E-1,5.7954405E-2,-1.3558103E-1,1.05662264E-1,3.1437993E-1,1.848241E-1,2.1938708E-2,5.1115346E-3,1.8942888E-1,1.5473104E-1,-1.4279142E-1,3.3494425E-1,-6.481435E-2,-4.6823784E-3,9.619828E-4,4.7156205E-3,-1.6028731E-3,1.6532456E-4,3.422585E-3,-3.2942493E-3,5.6663593E-3,6.323379E-3,7.7081623E-4,-9.972152E-3,5.975789E-4,-4.629825E-3,6.2603685E-3,2.8501083E-3,9.413437E-3,6.1067534E-5,7.614576E-3,-4.821584E-6,3.2499223E-3,-5.246512E-3,2.9594065E-3,2.920842E-3,6.121185E-3,-1.2023037E-3,1.503334E-2,-8.194827E-3,-7.350729E-4,-1.8003557E-3,8.885912E-3,-8.241759E-3,8.58816E-3],"categories":[],"categories_nodes":[],"categories_segments":[],"categories_sizes":[],"default_left":[0,0,0,0,0,0,0,0,0,0,0,0,0,0,0,0,0,0,0,0,0,0,0,0,0,0,0,0,0,0,0,0,0,0,0,0,0,0,0,0,0,0,0,0,0,0,0,0,0,0,0,0,0,0,0,0,0,0,0,0,0,0,0],"id":21,"left_children":[1,3,5,7,9,11,13,15,17,19,21,23,25,27,29,31,33,35,37,39,41,43,45,47,49,51,53,55,57,59,61,-1,-1,-1,-1,-1,-1,-1,-1,-1,-1,-1,-1,-1,-1,-1,-1,-1,-1,-1,-1,-1,-1,-1,-1,-1,-1,-1,-1,-1,-1,-1,-1],"loss_changes":[4.8635498E1,1.6725393E1,2.150383E1,1.2052017E1,1.780364E1,1.1831879E1,1.7362793E1,8.980993E0,8.009819E0,7.40861E0,2.833784E0,9.551884E0,7.107361E0,3.3097825E0,4.6772766E0,4.583748E0,4.5030856E0,4.7288256E0,5.6735125E0,5.094473E0,1.0304648E1,4.3518004E0,2.8521366E0,9.024715E0,4.751492E0,6.0018764E0,5.1397934E0,5.485907E0,1.8112533E0,4.9517746E0,2.8941095E0,0E0,0E0,0E0,0E0,0E0,0E0,0E0,0E0,0E0,0E0,0E0,0E0,0E0,0E0,0E0,0E0,0E0,0E0,0E0,0E0,0E0,0E0,0E0,0E0,0E0,0E0,0E0,0E0,0E0,0E0,0E0,0E0],"parents":[2147483647,0,0,1,1,2,2,3,3,4,4,5,5,6,6,7,7,8,8,9,9,10,10,11,11,12,12,13,13,14,14,15,15,16,16,17,17,18,18,19,19,20,20,21,21,22,22,23,23,24,24,25,25,26,26,27,27,28,28,29,29,30,30],"right_children":[2,4,6,8,10,12,14,16,18,20,22,24,26,28,30,32,34,36,38,40,42,44,46,48,50,52,54,56,58,60,62,-1,-1,-1,-1,-1,-1,-1,-1,-1,-1,-1,-1,-1,-1,-1,-1,-1,-1,-1,-1,-1,-1,-1,-1,-1,-1,-1,-1,-1,-1,-1,-1],"split_conditions":[3.6878537E-2,2.1776453E-1,4.8815948E-1,-4.916901E-1,5.650602E-1,1.18231036E-1,-3.7172055E-1,4.0302598E-1,3.9700124E-2,1.4915691E-1,4.6002516E-1,-1.6216838E-1,-8.128041E-1,-8.110998E-1,3.4151702E0,-2.4310313E-1,5.9788567E-1,-2.9786238E-1,1.4372814E0,3.1141487E-1,-5.589201E-1,-7.8122395E-1,-5.1423047E-2,2.320613E-1,1.4831756E0,-1.3261457E-1,4.255536E-2,-1.3320253E0,-1.7209068E-1,-1.306879E0,-1.96867E-1,-4.6823784E-3,9.619828E-4,4.7156205E-3,-1.6028731E-3,1.6532456E-4,3.422585E-3,-3.2942493E-3,5.6663593E-3,6.323379E-3,7.7081623E-4,-9.972152E-3,5.975789E-4,-4.629825E-3,6.2603685E-3,2.8501083E-3,9.413437E-3,6.1067534E-5,7.614576E-3,-4.821584E-6,3.2499223E-3,-5.246512E-3,2.9594065E-3,2.920842E-3,6.121185E-3,-1.2023037E-3,1.503334E-2,-8.194827E-3,-7.350729E-4,-1.8003557E-3,8.885912E-3,-8.241759E-3,8.58816E-3],"split_indices":[10,22,22,4,17,2,15,2,14,14,22,14,3,2,15,12,2,10,2,22,15,19,5,10,19,7,9,17,4,17,3,0,0,0,0,0,0,0,0,0,0,0,0,0,0,0,0,0,0,0,0,0,0,0,0,0,0,0,0,0,0,0,0],"split_type":[0,0,0,0,0,0,0,0,0,0,0,0,0,0,0,0,0,0,0,0,0,0,0,0,0,0,0,0,0,0,0,0,0,0,0,0,0,0,0,0,0,0,0,0,0,0,0,0,0,0,0,0,0,0,0,0,0,0,0,0,0,0,0],"sum_hessian":[1.0696389E4,5.5896533E3,5.1067354E3,3.9295776E3,1.6600757E3,4.1185757E3,9.8816003E2,1.3294949E3,2.6000828E3,1.2596556E3,4.0042014E2,2.4223035E3,1.6962722E3,1.5963783E2,8.285222E2,1.0292808E3,3.0021408E2,1.9855627E3,6.1452E2,1.01656604E3,2.4308954E2,1.0437665E2,2.960435E2,4.4487952E2,1.9774238E3,2.5716458E2,1.4391075E3,5.529334E1,1.043445E2,8.024767E2,2.6045525E1,9.3377026E2,9.5510544E1,1.17679726E2,1.8253435E2,1.6309039E3,3.5465875E2,5.6739795E2,4.7122066E1,1.2361238E2,8.929537E2,9.4834984E1,1.4825456E2,3.1955322E1,7.2421326E1,6.8051895E1,2.2799158E2,1.750452E2,2.6983432E2,1.6287803E3,3.4864362E2,8.5492676E1,1.716719E2,5.940334E2,8.4507416E2,3.686496E1,1.8428377E1,3.6693542E1,6.765095E1,2.5005358E1,7.774713E2,1.7369053E1,8.676471E0],"tree_param":{"num_deleted":"0","num_feature":"25","num_nodes":"63","size_leaf_vector":"1"}},{"base_weights":[-1.3428545E-1,1.9967954E-1,-1.8323055E-2,-1.8177167E-2,1.2870636E0,3.2301173E-1,3.3077653E-2,2.068488E-2,1.4371596E-1,-7.7604023E-3,7.830235E-3],"categories":[],"categories_nodes":[],"categories_segments":[],"categories_sizes":[],"default_left":[0,0,0,0,0,0,0,0,0,0,0],"id":22,"left_children":[1,3,-1,-1,5,7,-1,-1,9,-1,-1],"loss_changes":[2.0620925E3,6.6713267E3,0E0,0E0,3.6734863E1,2.7891202E0,0E0,0E0,2.5965326E0,0E0,0E0],"parents":[2147483647,0,0,1,1,4,4,5,5,8,8],"right_children":[2,4,-1,-1,6,8,-1,-1,10,-1,-1],"split_conditions":[1.7168428E-1,-1.749196E-1,-1.8323055E-2,-1.8177167E-2,-1.6880356E-1,-8.754158E-1,3.3077653E-2,2.068488E-2,-3.5746017E-1,-7.7604023E-3,7.830235E-3],"split_indices":[0,0,0,0,0,19,0,0,10,0,0],"split_type":[0,0,0,0,0,0,0,0,0,0,0],"sum_hessian":[1.0534327E4,6.7091577E3,3.8251692E3,3.6446277E3,3.0645298E3,4.2271637E1,3.0222583E3,9.072759E0,3.3198875E1,7.148892E0,2.6049986E1],"tree_param":{"num_deleted":"0","num_feature":"25","num_nodes":"11","size_leaf_vector":"1"}},{"base_weights":[7.723179E-2,-1.8362965E-2,3.269014E-2],"categories":[],"categories_nodes":[],"categories_segments":[],"categories_sizes":[],"default_left":[0,0,0],"id":23,"left_children":[1,-1,-1],"loss_changes":[1.0394346E4,0E0,0E0],"parents":[2147483647,0,0],"right_children":[2,-1,-1],"split_conditions":[1.7168428E-1,-1.8362965E-2,3.269014E-2],"split_indices":[0,0,0],"split_type":[0,0,0],"sum_hessian":[1.0769812E4,6.4813325E3,4.288479E3],"tree_param":{"num_deleted":"0","num_feature":"25","num_nodes":"3","size_leaf_vector":"1"}},{"base_weights":[5.6048546E-2,-9.36097E-3,1.2669408E-1,-2.2601103E-2,2.6350704E-1,9.181604E-2,2.5880617E-1,-1.0653256E-1,8.863226E-3,-8.5307725E-2,3.531211E-1,-1.1033384E-2,1.4333856E-1,-4.8346598E-2,3.1803066E-1,-1.6528364E-1,-2.183362E-2,-2.7668996E-2,6.732597E-2,-2.7559432E-1,6.3609555E-2,1.074536E-1,4.415242E-1,-9.325508E-2,4.7334176E-2,8.716914E-2,2.0668687E-1,-2.3995523E-1,3.9111063E-2,3.6115336E-1,1.2811111E-1,-2.5076007E-3,-6.503176E-3,-1.7348613E-3,3.3435724E-3,-5.599117E-3,-3.5968618E-4,7.71035E-4,5.231658E-3,-1.02312E-2,1.0831048E-3,6.475191E-3,-3.548872E-3,-4.575643E-3,1.2726411E-2,1.2390958E-2,-0E0,-4.621955E-3,-0E0,2.98461E-3,-2.571449E-3,2.9311567E-3,-1.2745068E-3,1.5245412E-3,6.2473887E-3,-9.403894E-3,-0E0,1.0216444E-2,-1.2961713E-3,1.4112361E-2,8.3035715E-3,1.0205202E-3,7.23035E-3],"categories":[],"categories_nodes":[],"categories_segments":[],"categories_sizes":[],"default_left":[0,0,0,0,0,0,0,0,0,0,0,0,0,0,0,0,0,0,0,0,0,0,0,0,0,0,0,0,0,0,0,0,0,0,0,0,0,0,0,0,0,0,0,0,0,0,0,0,0,0,0,0,0,0,0,0,0,0,0,0,0,0,0],"id":24,"left_children":[1,3,5,7,9,11,13,15,17,19,21,23,25,27,29,31,33,35,37,39,41,43,45,47,49,51,53,55,57,59,61,-1,-1,-1,-1,-1,-1,-1,-1,-1,-1,-1,-1,-1,-1,-1,-1,-1,-1,-1,-1,-1,-1,-1,-1,-1,-1,-1,-1,-1,-1,-1,-1],"loss_changes":[4.9529068E1,1.9818985E1,2.3372154E1,1.4074153E1,8.202032E0,2.1746418E1,1.9716736E1,7.0453014E0,8.247661E0,1.6427108E0,3.871912E0,6.557052E0,9.402199E0,3.0634174E0,6.861931E0,4.770521E0,4.226625E0,5.911389E0,7.392683E0,1.3621131E0,1.1566067E0,6.923485E0,3.045906E0,4.865881E0,8.201498E0,5.6609774E0,6.9558105E0,1.4571586E0,4.096415E0,3.911209E0,2.0445051E0,0E0,0E0,0E0,0E0,0E0,0E0,0E0,0E0,0E0,0E0,0E0,0E0,0E0,0E0,0E0,0E0,0E0,0E0,0E0,0E0,0E0,0E0,0E0,0E0,0E0,0E0,0E0,0E0,0E0,0E0,0E0,0E0],"parents":[2147483647,0,0,1,1,2,2,3,3,4,4,5,5,6,6,7,7,8,8,9,9,10,10,11,11,12,12,13,13,14,14,15,15,16,16,17,17,18,18,19,19,20,20,21,21,22,22,23,23,24,24,25,25,26,26,27,27,28,28,29,29,30,30],"right_children":[2,4,6,8,10,12,14,16,18,20,22,24,26,28,30,32,34,36,38,40,42,44,46,48,50,52,54,56,58,60,62,-1,-1,-1,-1,-1,-1,-1,-1,-1,-1,-1,-1,-1,-1,-1,-1,-1,-1,-1,-1,-1,-1,-1,-1,-1,-1,-1,-1,-1,-1,-1,-1],"split_conditions":[3.6878537E-2,1.2801276E0,4.4682646E-1,-7.067651E-1,-5.8232003E-1,-5.810372E-1,-3.7172055E-1,-6.564834E-2,1.8439963E-2,1.5814894E0,-7.2934264E-1,-2.9281074E-1,4.3284997E-2,1.8934955E-1,1.4885749E0,1.1396863E-2,8.847832E-2,-1.1708409E0,1.820781E-1,1.3169771E0,-1.3261457E-1,-1.5479074E-1,1.4363935E0,-4.1320068E-1,1.1317605E0,5.708524E-1,-5.1980746E-1,4.0095308E-1,-1.395679E0,-3.9485392E-1,1.5617229E0,-2.5076007E-3,-6.503176E-3,-1.7348613E-3,3.3435724E-3,-5.599117E-3,-3.5968618E-4,7.71035E-4,5.231658E-3,-1.02312E-2,1.0831048E-3,6.475191E-3,-3.548872E-3,-4.575643E-3,1.2726411E-2,1.2390958E-2,-0E0,-4.621955E-3,-0E0,2.98461E-3,-2.571449E-3,2.9311567E-3,-1.2745068E-3,1.5245412E-3,6.2473887E-3,-9.403894E-3,-0E0,1.0216444E-2,-1.2961713E-3,1.4112361E-2,8.3035715E-3,1.0205202E-3,7.23035E-3],"split_indices":[10,5,22,11,15,11,15,22,22,5,16,16,2,10,15,9,15,2,15,19,7,19,16,20,18,5,20,23,2,9,18,0,0,0,0,0,0,0,0,0,0,0,0,0,0,0,0,0,0,0,0,0,0,0,0,0,0,0,0,0,0,0,0],"split_type":[0,0,0,0,0,0,0,0,0,0,0,0,0,0,0,0,0,0,0,0,0,0,0,0,0,0,0,0,0,0,0,0,0,0,0,0,0,0,0,0,0,0,0,0,0,0,0,0,0,0,0,0,0,0,0,0,0,0,0,0,0,0,0],"sum_hessian":[1.0693533E4,5.546032E3,5.147501E3,5.293447E3,2.525855E2,4.079205E3,1.0682958E3,1.4508943E3,3.8425527E3,4.949394E1,2.0309155E2,1.3556068E3,2.7235984E3,1.7015111E2,8.9814465E2,8.4961725E2,6.0127704E2,2.355222E3,1.4873307E3,2.416437E1,2.5329569E1,5.707979E1,1.4601176E2,5.692593E2,7.863475E2,1.4525841E3,1.2710143E3,5.620191E1,1.139492E2,7.2726086E2,1.7088379E2,4.9572235E2,3.5389487E2,4.667289E2,1.3454813E2,1.4929138E2,2.2059307E3,1.1795035E3,3.0782715E2,1.9231714E1,4.9326544E0,1.5324631E1,1.0004938E1,3.1864487E1,2.5215302E1,1.3268065E2,1.3331117E1,2.9677725E2,2.7248206E2,5.388045E2,2.4754297E2,1.2119774E3,2.4060674E2,2.7167868E2,9.993356E2,3.383356E1,2.2368345E1,2.4138182E1,8.981103E1,1.0462067E2,6.226402E2,1.138432E2,5.7040592E1],"tree_param":{"num_deleted":"0","num_feature":"25","num_nodes":"63","size_leaf_vector":"1"}},{"base_weights":[-1.3268206E-1,1.9245823E-1,-1.8117653E-2,-1.8114675E-2,1.2566267E0,3.7458536E-1,3.2250617E-2,4.8733078E-2,6.4271057E-1,-7.20814E-3,1.0223462E-2,2.3704464E-2,-0E0],"categories":[],"categories_nodes":[],"categories_segments":[],"categories_sizes":[],"default_left":[0,0,0,0,0,0,0,0,0,0,0,0,0],"id":25,"left_children":[1,3,-1,-1,5,7,-1,9,11,-1,-1,-1,-1],"loss_changes":[1.9677327E3,6.4384536E3,0E0,0E0,2.7861328E1,2.833816E0,0E0,2.6394126E0,4.203471E0,0E0,0E0,0E0,0E0],"parents":[2147483647,0,0,1,1,4,4,5,5,7,7,8,8],"right_children":[2,4,-1,-1,6,8,-1,10,12,-1,-1,-1,-1],"split_conditions":[1.7168428E-1,-1.749196E-1,-1.8117653E-2,-1.8114675E-2,-1.6880356E-1,-3.5867363E-2,3.2250617E-2,-3.6732242E-1,3.179044E-1,-7.20814E-3,1.0223462E-2,2.3704464E-2,-0E0],"split_indices":[0,0,0,0,0,9,0,20,6,0,0,0,0],"split_type":[0,0,0,0,0,0,0,0,0,0,0,0,0],"sum_hessian":[1.0440284E4,6.68701E3,3.7532742E3,3.6144236E3,3.0725864E3,3.9296143E1,3.0332903E3,1.9797583E1,1.9498558E1,8.922882E0,1.08747015E1,1.365133E1,5.8472285E0],"tree_param":{"num_deleted":"0","num_feature":"25","num_nodes":"13","size_leaf_vector":"1"}},{"base_weights":[7.596315E-2,-1.82301E-2,3.1878803E-2],"categories":[],"categories_nodes":[],"categories_segments":[],"categories_sizes":[],"default_left":[0,0,0],"id":26,"left_children":[1,-1,-1],"loss_changes":[9.965598E3,0E0,0E0],"parents":[2147483647,0,0],"right_children":[2,-1,-1],"split_conditions":[1.7168428E-1,-1.82301E-2,3.1878803E-2],"split_indices":[0,0,0],"split_type":[0,0,0],"sum_hessian":[1.0680959E4,6.3829067E3,4.2980527E3],"tree_param":{"num_deleted":"0","num_feature":"25","num_nodes":"3","size_leaf_vector":"1"}},{"base_weights":[5.090974E-2,-1.6856514E-2,1.1185827E-1,-4.2928014E-2,1.6422576E-1,8.2251474E-2,2.248994E-1,-5.3326298E-2,2.4527505E-1,9.150684E-2,4.0327564E-1,5.2519288E-2,1.9937856E-1,-8.080398E-2,2.7862412E-1,-8.158133E-2,1.6347975E-2,1.0707877E-1,4.2791086E-1,1.2638214E-1,-7.816964E-2,2.235053E-2,3.4540716E-1,-6.422627E-2,7.282716E-2,3.0409724E-1,1.2981956E-1,-2.0894301E-1,2.6831678E-1,3.0939862E-1,2.7761897E-2,-2.4977603E-3,3.2482774E-3,1.58706E-3,-2.235917E-3,-1.5852347E-5,8.092266E-3,-2.3769422E-3,1.2811045E-2,4.7224755E-3,-0E0,-6.9489013E-3,5.7110167E-3,6.7867516E-3,1.8599773E-2,-5.4466915E-3,1.8486197E-4,2.4897938E-3,-3.2340636E-4,-2.4974905E-3,8.477771E-3,7.6655517E-3,2.0568182E-3,4.727947E-3,-7.3972344E-3,1.1311225E-2,-4.5697317E-3,-0E0,8.538169E-3,-3.3744315E-3,4.5717857E-3],"categories":[],"categories_nodes":[],"categories_segments":[],"categories_sizes":[],"default_left":[0,0,0,0,0,0,0,0,0,0,0,0,0,0,0,0,0,0,0,0,0,0,0,0,0,0,0,0,0,0,0,0,0,0,0,0,0,0,0,0,0,0,0,0,0,0,0,0,0,0,0,0,0,0,0,0,0,0,0,0,0],"id":27,"left_children":[1,3,5,7,9,11,13,15,17,19,21,23,25,27,29,31,33,35,37,39,41,-1,43,45,47,49,51,53,55,57,59,-1,-1,-1,-1,-1,-1,-1,-1,-1,-1,-1,-1,-1,-1,-1,-1,-1,-1,-1,-1,-1,-1,-1,-1,-1,-1,-1,-1,-1,-1],"loss_changes":[4.4257675E1,2.3766922E1,1.8561897E1,1.3094685E1,1.0490276E1,1.5338989E1,1.930592E1,8.479557E0,3.2709465E0,2.9468489E0,2.5430908E0,8.492525E0,6.107811E0,7.684842E0,7.3333817E0,1.0580658E1,5.8573904E0,2.3471534E0,2.8671522E0,2.9562602E0,4.7798896E0,0E0,2.8843002E0,5.8057003E0,6.6216507E0,4.3847466E0,4.2157984E0,4.2881265E0,3.8403535E0,7.409828E0,2.8121815E0,0E0,0E0,0E0,0E0,0E0,0E0,0E0,0E0,0E0,0E0,0E0,0E0,0E0,0E0,0E0,0E0,0E0,0E0,0E0,0E0,0E0,0E0,0E0,0E0,0E0,0E0,0E0,0E0,0E0,0E0],"parents":[2147483647,0,0,1,1,2,2,3,3,4,4,5,5,6,6,7,7,8,8,9,9,10,10,11,11,12,12,13,13,14,14,15,15,16,16,17,17,18,18,19,19,20,20,22,22,23,23,24,24,25,25,26,26,27,27,28,28,29,29,30,30],"right_children":[2,4,6,8,10,12,14,16,18,20,22,24,26,28,30,32,34,36,38,40,42,-1,44,46,48,50,52,54,56,58,60,-1,-1,-1,-1,-1,-1,-1,-1,-1,-1,-1,-1,-1,-1,-1,-1,-1,-1,-1,-1,-1,-1,-1,-1,-1,-1,-1,-1,-1,-1],"split_conditions":[-2.6692439E-2,9.3329406E-1,4.4682646E-1,8.3824885E-1,2.692993E-1,5.229396E-1,-6.352212E-1,1.2672761E-1,2.1776453E-1,-1.2079633E-2,-6.92938E-1,-7.508784E-1,-2.0727652E-1,1.2508173E0,9.540477E-1,8.7426096E-1,-5.308729E-1,-2.058594E-1,-1.0592241E0,1.8397479E-1,-4.6872988E-1,2.235053E-2,1.5814894E0,-4.2919406E-1,9.6714664E-1,-7.069303E-1,6.428533E-1,-9.2897916E-1,-1.22359935E-2,-1.3671777E0,-2.100912E-1,-2.4977603E-3,3.2482774E-3,1.58706E-3,-2.235917E-3,-1.5852347E-5,8.092266E-3,-2.3769422E-3,1.2811045E-2,4.7224755E-3,-0E0,-6.9489013E-3,5.7110167E-3,6.7867516E-3,1.8599773E-2,-5.4466915E-3,1.8486197E-4,2.4897938E-3,-3.2340636E-4,-2.4974905E-3,8.477771E-3,7.6655517E-3,2.0568182E-3,4.727947E-3,-7.3972344E-3,1.1311225E-2,-4.5697317E-3,-0E0,8.538169E-3,-3.3744315E-3,4.5717857E-3],"split_indices":[10,1,22,13,13,2,13,4,22,21,3,4,5,1,4,5,13,4,10,7,17,0,5,17,13,20,2,7,21,3,3,0,0,0,0,0,0,0,0,0,0,0,0,0,0,0,0,0,0,0,0,0,0,0,0,0,0,0,0,0,0],"split_type":[0,0,0,0,0,0,0,0,0,0,0,0,0,0,0,0,0,0,0,0,0,0,0,0,0,0,0,0,0,0,0,0,0,0,0,0,0,0,0,0,0,0,0,0,0,0,0,0,0,0,0,0,0,0,0,0,0,0,0,0,0],"sum_hessian":[1.0692572E4,5.056114E3,5.636459E3,4.424905E3,6.3120905E2,4.4744146E3,1.1620447E3,4.274665E3,1.502396E2,4.879441E2,1.4326498E2,3.5759841E3,8.984304E2,1.7101277E2,9.9103186E2,3.0508027E3,1.2238622E3,8.9261246E1,6.0978348E1,4.095338E2,7.841026E1,1.2411888E1,1.308531E2,5.227293E2,3.0532546E3,3.519932E2,5.4643726E2,1.2732907E2,4.3683704E1,8.792198E2,1.1181206E2,2.8312422E3,2.1956073E2,8.554426E2,3.684195E2,5.6738388E1,3.2522858E1,6.125373E0,5.4852974E1,2.7517227E2,1.3436154E2,4.963036E1,2.8779907E1,1.1196893E2,1.8884161E1,1.7249957E2,3.5022974E2,2.3703499E3,6.829049E2,2.1444956E1,3.3054822E2,1.16107834E2,4.303294E2,1.9690355E1,1.0763872E2,3.285726E1,1.0826445E1,6.626158E1,8.129582E2,5.1438805E1,6.0373257E1],"tree_param":{"num_deleted":"0","num_feature":"25","num_nodes":"61","size_leaf_vector":"1"}},{"base_weights":[-1.264534E-1,9.430354E-4,-2.2680919E-1,1.7158821E-1,-2.8292421E-2,-1.8626799E-1,-3.8394377E-1,-3.6959957E-2,2.3458669E-1,1.3906853E-3,-1.6466273E-1,-6.918603E-2,-2.1672627E-1,-2.973407E-1,-4.2101473E-1,1.5096463E-2,-7.9206E-2,9.611995E-2,3.4534264E-1,-1.0659489E-1,5.5224556E-2,-1.8647431E-1,9.003791E-2,1.01956375E-1,-1.3031921E-1,2.9659538E-2,-2.2377376E-1,-2.3998599E-1,-1.2880262E-2,-0E0,-4.2798212E-1,7.3742116E-4,-6.200267E-3,5.7699964E-3,-1.7200969E-3,1.1084654E-2,1.3252241E-3,8.9548866E-4,-4.0561673E-3,2.7362076E-3,5.4487493E-5,-6.749779E-3,-3.3383532E-3,6.263536E-3,-6.944283E-3,5.534587E-3,-1.8713002E-3,-4.0068207E-3,2.9656526E-3,-6.961211E-3,4.7108256E-3,-8.14499E-3,-5.280714E-3,-9.02582E-3,-3.5798252E-3,-6.89714E-3,7.65144E-3,-1.12960925E-2,-5.879805E-3],"categories":[],"categories_nodes":[],"categories_segments":[],"categories_sizes":[],"default_left":[0,0,0,0,0,0,0,0,0,0,0,0,0,0,0,0,0,0,0,0,0,0,0,0,0,0,0,0,0,0,0,0,0,0,0,0,0,0,0,0,0,0,0,0,0,0,0,0,0,0,0,0,0,0,0,0,0,0,0],"id":28,"left_children":[1,3,5,7,9,11,13,15,17,19,21,23,25,27,29,-1,31,33,35,37,39,41,43,45,47,49,51,53,-1,55,57,-1,-1,-1,-1,-1,-1,-1,-1,-1,-1,-1,-1,-1,-1,-1,-1,-1,-1,-1,-1,-1,-1,-1,-1,-1,-1,-1,-1],"loss_changes":[1.3307579E2,2.2967743E1,3.6457886E1,9.050198E0,1.5951299E1,1.623117E1,3.025299E0,3.6521327E0,7.550337E0,1.8561213E1,4.0127354E0,1.0120426E1,6.55719E0,3.5827827E0,2.4070587E0,0E0,2.8107347E0,5.2271E0,7.086155E0,8.056655E0,5.84619E0,2.4342937E0,3.0211434E0,5.2226334E0,4.8475122E0,4.634788E0,5.021866E0,2.8268585E0,0E0,1.2379243E0,1.8230286E0,0E0,0E0,0E0,0E0,0E0,0E0,0E0,0E0,0E0,0E0,0E0,0E0,0E0,0E0,0E0,0E0,0E0,0E0,0E0,0E0,0E0,0E0,0E0,0E0,0E0,0E0,0E0,0E0],"parents":[2147483647,0,0,1,1,2,2,3,3,4,4,5,5,6,6,7,7,8,8,9,9,10,10,11,11,12,12,13,13,14,14,16,16,17,17,18,18,19,19,20,20,21,21,22,22,23,23,24,24,25,25,26,26,27,27,29,29,30,30],"right_children":[2,4,6,8,10,12,14,16,18,20,22,24,26,28,30,-1,32,34,36,38,40,42,44,46,48,50,52,54,-1,56,58,-1,-1,-1,-1,-1,-1,-1,-1,-1,-1,-1,-1,-1,-1,-1,-1,-1,-1,-1,-1,-1,-1,-1,-1,-1,-1,-1,-1],"split_conditions":[-3.2092276E-1,-9.0834075E-1,9.3329406E-1,-2.2989023E-1,1.8911758E-1,-4.7877488E-1,1.2508173E0,-7.935048E-1,3.1761042E-4,-2.7660906E-1,1.0359812E0,-5.1159054E-1,-1.6720501E0,7.3172003E-1,-1.463301E0,1.5096463E-2,2.0734416E-1,6.085266E-2,-2.8607497E-1,-6.4075637E-1,-4.916901E-1,-3.549487E-1,4.8292804E-1,1.3115025E0,9.872579E-1,-5.3924775E-1,-9.798044E-1,-7.703729E-1,-1.2880262E-2,-1.0385864E-1,2.1426883E0,7.3742116E-4,-6.200267E-3,5.7699964E-3,-1.7200969E-3,1.1084654E-2,1.3252241E-3,8.9548866E-4,-4.0561673E-3,2.7362076E-3,5.4487493E-5,-6.749779E-3,-3.3383532E-3,6.263536E-3,-6.944283E-3,5.534587E-3,-1.8713002E-3,-4.0068207E-3,2.9656526E-3,-6.961211E-3,4.7108256E-3,-8.14499E-3,-5.280714E-3,-9.02582E-3,-3.5798252E-3,-6.89714E-3,7.65144E-3,-1.12960925E-2,-5.879805E-3],"split_indices":[1,1,1,7,22,20,1,20,8,19,6,4,17,5,3,0,24,6,20,20,4,13,7,19,13,5,19,19,0,8,3,0,0,0,0,0,0,0,0,0,0,0,0,0,0,0,0,0,0,0,0,0,0,0,0,0,0,0,0],"split_type":[0,0,0,0,0,0,0,0,0,0,0,0,0,0,0,0,0,0,0,0,0,0,0,0,0,0,0,0,0,0,0,0,0,0,0,0,0,0,0,0,0,0,0,0,0,0,0,0,0,0,0,0,0,0,0,0,0,0,0],"sum_hessian":[1.0391263E4,4.5750283E3,5.816235E3,6.732276E2,3.9018005E3,4.629694E3,1.1865409E3,1.5281395E2,5.2041364E2,3.1993984E3,7.024021E2,9.6272864E2,3.666965E3,3.656786E2,8.208623E2,7.4684153E0,1.4534554E2,2.3578723E2,2.846264E2,1.0582739E3,2.1411245E3,6.506144E2,5.178773E1,2.4918083E2,7.135478E2,9.818427E1,3.5687808E3,2.9195108E2,7.372749E1,1.3396824E1,8.074655E2,8.467854E1,6.0666985E1,1.3413046E2,1.0165675E2,2.1480911E2,6.981731E1,2.8254147E2,7.757324E2,1.0688971E3,1.0722274E3,2.5971262E2,3.9090176E2,3.8221367E1,1.3566364E1,1.5333716E2,9.584367E1,6.465233E2,6.702449E1,3.1001358E1,6.7182915E1,5.0315155E2,3.0656294E3,1.2994803E2,1.6200307E2,7.1062565E0,6.2905674E0,7.4126074E2,6.6204765E1],"tree_param":{"num_deleted":"0","num_feature":"25","num_nodes":"59","size_leaf_vector":"1"}},{"base_weights":[7.0663966E-2,-1.8112088E-2,3.1124197E-2],"categories":[],"categories_nodes":[],"categories_segments":[],"categories_sizes":[],"default_left":[0,0,0],"id":29,"left_children":[1,-1,-1],"loss_changes":[9.634678E3,0E0,0E0],"parents":[2147483647,0,0],"right_children":[2,-1,-1],"split_conditions":[1.7168428E-1,-1.8112088E-2,3.1124197E-2],"split_indices":[0,0,0],"split_type":[0,0,0],"sum_hessian":[1.067843E4,6.360064E3,4.3183657E3],"tree_param":{"num_deleted":"0","num_feature":"25","num_nodes":"3","size_leaf_vector":"1"}},{"base_weights":[5.583952E-2,1.2207345E0,-1.8160151E-2,3.1275176E-2,3.3895257E-1,-6.921655E-3,5.2555406E-1,-5.6390106E-3,6.6204023E-1,-1.0900305E-3,2.0590747E-2],"categories":[],"categories_nodes":[],"categories_segments":[],"categories_sizes":[],"default_left":[0,0,0,0,0,0,0,0,0,0,0],"id":30,"left_children":[1,3,-1,-1,5,-1,7,-1,9,-1,-1],"loss_changes":[9.525523E3,3.004248E1,0E0,0E0,5.25848E0,0E0,4.04856E0,0E0,3.9006968E0,0E0,0E0],"parents":[2147483647,0,0,1,1,4,4,6,6,8,8],"right_children":[2,4,-1,-1,6,-1,8,-1,10,-1,-1],"split_conditions":[-1.6880356E-1,-1.749196E-1,-1.8160151E-2,3.1275176E-2,-8.754158E-1,-6.921655E-3,-7.998458E-1,-5.6390106E-3,-6.598957E-1,-1.0900305E-3,2.0590747E-2],"split_indices":[0,0,0,0,19,0,12,0,5,0,0],"split_type":[0,0,0,0,0,0,0,0,0,0,0],"sum_hessian":[1.0622414E4,4.2263076E3,6.396106E3,4.184293E3,4.2014812E1,8.555589E0,3.3459225E1,4.0184226E0,2.94408E1,4.095804E0,2.5344995E1],"tree_param":{"num_deleted":"0","num_feature":"25","num_nodes":"11","size_leaf_vector":"1"}},{"base_weights":[-1.2222163E-1,-2.8608174E-3,-2.2781889E-1,8.1869945E-2,-7.06019E-2,-1.9544855E-1,-4.1322124E-1,3.5203114E-1,6.0256477E-2,1.2878237E-2,-1.4084624E-1,-6.595919E-2,-2.1890105E-1,-4.1914472E-1,4.604522E-3,1.5661216E-1,5.0295603E-1,-2.4344319E-1,7.451972E-2,3.497195E-2,-1.7967917E-1,-1.0695676E-1,-2.430181E-1,-1.4468263E-1,1.4723893E-1,-1.3835938E-1,-2.3932382E-1,-3.718917E-1,-1.2856663E-2,1.5115055E-2,5.541589E-4,1.4136311E-2,-0E0,1.4348802E-3,-7.3279156E-3,2.9969632E-3,-2.939071E-4,-3.7282065E-4,2.6283609E-3,3.763158E-3,-7.3396927E-3,-5.340635E-3,-1.5426731E-3,-2.8117183E-3,-8.023632E-3,-5.70667E-3,9.286688E-4,-5.5991125E-4,6.686155E-3,-9.926785E-3,-3.0719044E-3,-9.2745316E-4,-6.4153797E-3,-1.4407798E-2,-8.826986E-3],"categories":[],"categories_nodes":[],"categories_segments":[],"categories_sizes":[],"default_left":[0,0,0,0,0,0,0,0,0,0,0,0,0,0,0,0,0,0,0,0,0,0,0,0,0,0,0,0,0,0,0,0,0,0,0,0,0,0,0,0,0,0,0,0,0,0,0,0,0,0,0,0,0,0,0],"id":31,"left_children":[1,3,5,7,9,11,13,15,17,19,21,23,25,27,-1,29,31,33,35,37,39,41,43,45,47,49,51,53,-1,-1,-1,-1,-1,-1,-1,-1,-1,-1,-1,-1,-1,-1,-1,-1,-1,-1,-1,-1,-1,-1,-1,-1,-1,-1,-1],"loss_changes":[1.3091808E2,2.8055477E1,3.2461243E1,1.2243002E1,1.6092207E1,1.3999405E1,3.159607E0,3.9423008E0,8.56492E0,5.141566E0,4.7903805E0,1.2243165E1,6.153366E0,2.3010864E0,0E0,3.683816E0,2.313614E0,1.4009027E0,7.2664576E0,3.8719444E0,4.566004E0,5.0938244E0,3.042223E0,7.9117994E0,4.0194817E0,3.095068E0,7.9501038E0,1.5493393E0,0E0,0E0,0E0,0E0,0E0,0E0,0E0,0E0,0E0,0E0,0E0,0E0,0E0,0E0,0E0,0E0,0E0,0E0,0E0,0E0,0E0,0E0,0E0,0E0,0E0,0E0,0E0],"parents":[2147483647,0,0,1,1,2,2,3,3,4,4,5,5,6,6,7,7,8,8,9,9,10,10,11,11,12,12,13,13,15,15,16,16,17,17,18,18,19,19,20,20,21,21,22,22,23,23,24,24,25,25,26,26,27,27],"right_children":[2,4,6,8,10,12,14,16,18,20,22,24,26,28,-1,30,32,34,36,38,40,42,44,46,48,50,52,54,-1,-1,-1,-1,-1,-1,-1,-1,-1,-1,-1,-1,-1,-1,-1,-1,-1,-1,-1,-1,-1,-1,-1,-1,-1,-1,-1],"split_conditions":[-2.1184361E-1,-5.908175E-1,1.1714365E0,-1.543269E0,-3.2652473E-1,-5.3439164E-1,4.015822E0,1.1396863E-2,-4.6634805E-1,1.6160723E0,4.9093166E-1,3.7177846E-1,-3.844274E-1,1.0171552E0,4.604522E-3,-7.135928E-1,-6.4442325E-1,-9.2874163E-1,-7.591236E-1,1.0170346E0,-3.8709503E-1,-1.100163E-1,-5.0302947E-1,3.2384098E-1,-1.4614905E-1,-1.4949856E0,-1.5226668E0,-2.5948155E0,-1.2856663E-2,1.5115055E-2,5.541589E-4,1.4136311E-2,-0E0,1.4348802E-3,-7.3279156E-3,2.9969632E-3,-2.939071E-4,-3.7282065E-4,2.6283609E-3,3.763158E-3,-7.3396927E-3,-5.340635E-3,-1.5426731E-3,-2.8117183E-3,-8.023632E-3,-5.70667E-3,9.286688E-4,-5.5991125E-4,6.686155E-3,-9.926785E-3,-3.0719044E-3,-9.2745316E-4,-6.4153797E-3,-1.4407798E-2,-8.826986E-3],"split_indices":[11,1,1,11,20,20,8,9,2,24,20,14,1,20,0,20,12,12,11,19,5,19,16,5,8,16,16,2,0,0,0,0,0,0,0,0,0,0,0,0,0,0,0,0,0,0,0,0,0,0,0,0,0,0,0],"split_type":[0,0,0,0,0,0,0,0,0,0,0,0,0,0,0,0,0,0,0,0,0,0,0,0,0,0,0,0,0,0,0,0,0,0,0,0,0,0,0,0,0,0,0,0,0,0,0,0,0,0,0,0,0,0,0],"sum_hessian":[1.0403227E4,4.887972E3,5.5152544E3,2.165412E3,2.7225598E3,4.7013306E3,8.1392395E2,1.5617154E2,2.0092406E3,1.2382949E3,1.4842649E3,7.2758057E2,3.9737498E3,8.0771674E2,6.207218E0,7.156144E1,8.46101E1,8.653122E1,1.9227094E3,1.1158729E3,1.2242201E2,1.1228519E3,3.6141296E2,5.3479987E2,1.9278067E2,8.1451E2,3.15924E3,5.3182007E2,2.7589664E2,1.4499108E1,5.706233E1,7.665909E1,7.9510155E0,8.442784E0,7.808843E1,1.286454E3,6.362553E2,6.3887994E2,4.7699298E2,2.82914E1,9.4130615E1,3.4114005E2,7.8171185E2,1.3303592E2,2.2837704E2,3.7498505E2,1.5981482E2,7.521764E1,1.1756303E2,4.8530346E1,7.659797E2,1.9256465E2,2.9666753E3,5.397839E1,4.7784167E2],"tree_param":{"num_deleted":"0","num_feature":"25","num_nodes":"55","size_leaf_vector":"1"}},{"base_weights":[7.1502954E-2,1.796196E-1,2.3823448E-2,2.0675015E-1,2.2140298E-2,1.4451413E-1,-4.0659816E-3,1.4191112E-1,2.704188E-1,1.6372967E-1,-6.8672344E-2,1.8405838E-1,2.2757918E-2,1.185866E-1,-3.3743132E-2,3.133351E-1,1.14812315E-1,1.5757915E-1,3.259755E-1,-6.574727E-2,2.6169622E-1,-2.8053815E-2,-9.744726E-3,1.2283951E-1,2.80756E-1,2.3829852E-1,-3.0836066E-2,-6.3743256E-2,1.5399235E-1,-5.111266E-2,1.2433426E-1,9.998507E-3,1.1598484E-4,1.2001509E-4,4.0694904E-3,1.4700442E-2,3.3612754E-3,1.3222421E-2,7.5358674E-3,-9.820825E-3,1.9074719E-3,7.826628E-3,-1.1047258E-3,-5.1879636E-3,1.014164E-3,5.3328015E-3,-6.0155604E-4,-0E0,8.1268335E-3,-2.9326442E-3,7.833415E-3,-1.3972104E-3,1.2414047E-2,-4.559463E-3,8.266743E-3,9.161905E-3,2.7628443E-3,-2.7684027E-3,-5.924657E-4,5.8160094E-3,1.2676115E-3],"categories":[],"categories_nodes":[],"categories_segments":[],"categories_sizes":[],"default_left":[0,0,0,0,0,0,0,0,0,0,0,0,0,0,0,0,0,0,0,0,0,0,0,0,0,0,0,0,0,0,0,0,0,0,0,0,0,0,0,0,0,0,0,0,0,0,0,0,0,0,0,0,0,0,0,0,0,0,0,0,0],"id":32,"left_children":[1,3,5,7,9,11,13,15,17,19,21,23,25,27,29,31,33,35,37,39,41,43,-1,45,47,49,51,53,55,57,59,-1,-1,-1,-1,-1,-1,-1,-1,-1,-1,-1,-1,-1,-1,-1,-1,-1,-1,-1,-1,-1,-1,-1,-1,-1,-1,-1,-1,-1,-1],"loss_changes":[5.4596634E1,1.36523285E1,2.4984077E1,1.0990112E1,6.3127832E0,6.505102E0,2.1733982E1,5.970539E0,8.191483E0,4.541307E0,3.3196948E0,5.775749E0,4.223299E0,7.5908184E0,1.32024765E1,4.1252365E0,5.792138E0,4.2373085E0,4.41774E0,2.8252015E0,2.1998816E0,3.2824194E0,0E0,8.40778E0,4.5904846E0,2.007226E0,3.0669158E0,8.225446E0,8.667673E0,6.8722963E0,3.4046392E0,0E0,0E0,0E0,0E0,0E0,0E0,0E0,0E0,0E0,0E0,0E0,0E0,0E0,0E0,0E0,0E0,0E0,0E0,0E0,0E0,0E0,0E0,0E0,0E0,0E0,0E0,0E0,0E0,0E0,0E0],"parents":[2147483647,0,0,1,1,2,2,3,3,4,4,5,5,6,6,7,7,8,8,9,9,10,10,11,11,12,12,13,13,14,14,15,15,16,16,17,17,18,18,19,19,20,20,21,21,23,23,24,24,25,25,26,26,27,27,28,28,29,29,30,30],"right_children":[2,4,6,8,10,12,14,16,18,20,22,24,26,28,30,32,34,36,38,40,42,44,-1,46,48,50,52,54,56,58,60,-1,-1,-1,-1,-1,-1,-1,-1,-1,-1,-1,-1,-1,-1,-1,-1,-1,-1,-1,-1,-1,-1,-1,-1,-1,-1,-1,-1,-1,-1],"split_conditions":[-3.093207E-1,2.320613E-1,-5.113157E-1,-7.621026E-2,-5.878856E-1,4.8815948E-1,-3.0431882E-1,-9.460027E-1,-1.3837827E0,-5.555427E-2,1.7892904E0,-1.8192486E-1,-6.75213E-2,-8.599039E-1,8.31462E-1,3.6849433E-1,-1.1247333E0,-9.0701014E-1,-9.5537996E-1,-5.819195E-1,-4.4192037E-1,-1.162406E-1,-9.744726E-3,2.6948386E-1,-7.591236E-1,1.432972E-1,1.6608407E0,-1.6216113E-1,-3.8793963E-1,-6.5432215E-1,9.793453E-1,9.998507E-3,1.1598484E-4,1.2001509E-4,4.0694904E-3,1.4700442E-2,3.3612754E-3,1.3222421E-2,7.5358674E-3,-9.820825E-3,1.9074719E-3,7.826628E-3,-1.1047258E-3,-5.1879636E-3,1.014164E-3,5.3328015E-3,-6.0155604E-4,-0E0,8.1268335E-3,-2.9326442E-3,7.833415E-3,-1.3972104E-3,1.2414047E-2,-4.559463E-3,8.266743E-3,9.161905E-3,2.7628443E-3,-2.7684027E-3,-5.924657E-4,5.8160094E-3,1.2676115E-3],"split_indices":[15,10,2,22,13,22,10,2,13,11,19,20,15,13,12,5,13,12,19,18,15,12,0,5,11,20,18,1,16,1,18,0,0,0,0,0,0,0,0,0,0,0,0,0,0,0,0,0,0,0,0,0,0,0,0,0,0,0,0,0,0],"split_type":[0,0,0,0,0,0,0,0,0,0,0,0,0,0,0,0,0,0,0,0,0,0,0,0,0,0,0,0,0,0,0,0,0,0,0,0,0,0,0,0,0,0,0,0,0,0,0,0,0,0,0,0,0,0,0,0,0,0,0,0,0],"sum_hessian":[1.0628036E4,3.2457922E3,7.3822437E3,2.7634575E3,4.8233475E2,1.3913148E3,5.9909287E3,1.3778868E3,1.3855706E3,1.9223734E2,2.900974E2,1.0440513E3,3.4726346E2,1.1604736E3,4.830455E3,1.8206201E2,1.1958248E3,4.6383395E2,9.2173663E2,5.47336E1,1.3750374E2,2.6041187E2,2.9685553E1,6.4650134E2,3.9755E2,7.202884E1,2.7523462E2,1.842721E2,9.762015E2,4.358133E3,4.723224E2,1.4211143E2,3.995058E1,3.540753E2,8.417496E2,2.3281664E1,4.4055228E2,1.16617386E2,8.0511926E2,1.8269907E1,3.6463696E1,1.221816E2,1.5322131E1,7.5904884E1,1.8450697E2,4.0979074E2,2.367106E2,4.5651623E1,3.5189838E2,9.529917E0,6.2498924E1,2.6552002E2,9.7146E0,1.4430154E2,3.9970543E1,1.7134128E2,8.048602E2,1.4060544E3,2.9520784E3,1.9082578E2,2.814966E2],"tree_param":{"num_deleted":"0","num_feature":"25","num_nodes":"61","size_leaf_vector":"1"}},{"base_weights":[5.3522673E-2,1.1967698E0,-1.8062515E-2,3.0682709E-2,2.7577055E-1,-1.9194488E-1,4.2597422E-1,-1.2301374E-2,-0E0,-0E0,6.224419E-1,-1.2970428E-2,1.1661412E-2,-6.1889825E-4,2.0092022E-2],"categories":[],"categories_nodes":[],"categories_segments":[],"categories_sizes":[],"default_left":[0,0,0,0,0,0,0,0,0,0,0,0,0,0,0],"id":33,"left_children":[1,3,-1,-1,5,7,9,-1,-1,11,13,-1,-1,-1,-1],"loss_changes":[9.275672E3,3.4495605E1,0E0,0E0,3.4126692E0,1.0024948E0,3.4119172E0,0E0,0E0,2.7965684E0,3.4834652E0,0E0,0E0,0E0,0E0],"parents":[2147483647,0,0,1,1,4,4,5,5,6,6,9,9,10,10],"right_children":[2,4,-1,-1,6,8,10,-1,-1,12,14,-1,-1,-1,-1],"split_conditions":[-1.6880356E-1,-1.749196E-1,-1.8062515E-2,3.0682709E-2,-8.754158E-1,6.281884E-1,-1.2493742E-2,-1.2301374E-2,-0E0,2.765238E-1,-7.1839356E-1,-1.2970428E-2,1.1661412E-2,-6.1889825E-4,2.0092022E-2],"split_indices":[0,0,0,0,19,16,21,0,0,22,12,0,0,0,0],"split_type":[0,0,0,0,0,0,0,0,0,0,0,0,0,0,0],"sum_hessian":[1.0624623E4,4.2545386E3,6.3700845E3,4.2110273E3,4.3511154E1,8.995813E0,3.451534E1,4.951977E0,4.0438366E0,1.0019423E1,2.4495916E1,5.440055E0,4.579367E0,4.036927E0,2.045899E1],"tree_param":{"num_deleted":"0","num_feature":"25","num_nodes":"15","size_leaf_vector":"1"}},{"base_weights":[-1.2055679E-1,4.696288E-2,-1.937496E-1,8.264266E-2,-1.0794242E-1,-1.6635756E-1,-3.9643562E-1,-5.2725606E-2,1.1414836E-1,-1.9568475E-1,3.9361317E-2,-9.396492E-2,-2.0608681E-1,-0E0,-4.0127617E-1,5.8049588E-3,-2.6214832E-1,3.2673883E-1,9.712472E-2,-1.476854E-1,-4.8318502E-1,1.5405029E-1,-2.1655312E-1,-3.0759543E-1,-7.3073804E-2,-1.2441641E-1,-2.324973E-1,-4.0563604E-1,3.4231946E-4,2.2987542E-3,-3.918167E-3,8.4228795E-3,-8.298059E-3,1.0348378E-2,-3.6482105E-3,2.6892698E-3,-5.886036E-3,-4.1667805E-3,1.7512001E-2,-1.4130122E-2,-0E0,1.268143E-2,2.0240135E-3,-9.808565E-4,-9.669146E-3,-0E0,-8.794356E-3,-3.9798368E-4,-3.5648185E-3,-3.4870743E-3,6.333434E-3,-2.1925955E-3,-6.276302E-3,-7.777108E-3,-1.1072649E-2],"categories":[],"categories_nodes":[],"categories_segments":[],"categories_sizes":[],"default_left":[0,0,0,0,0,0,0,0,0,0,0,0,0,0,0,0,0,0,0,0,0,0,0,0,0,0,0,0,0,0,0,0,0,0,0,0,0,0,0,0,0,0,0,0,0,0,0,0,0,0,0,0,0,0,0],"id":34,"left_children":[1,3,5,7,9,11,13,15,17,19,21,23,25,-1,27,29,31,33,35,37,39,41,43,45,47,49,51,53,-1,-1,-1,-1,-1,-1,-1,-1,-1,-1,-1,-1,-1,-1,-1,-1,-1,-1,-1,-1,-1,-1,-1,-1,-1,-1,-1],"loss_changes":[1.2738286E2,1.740623E1,3.9530212E1,1.101309E1,7.7222805E0,1.8025085E1,1.9842072E0,6.122447E0,7.132372E0,4.465006E0,6.2916255E0,9.742517E0,8.49205E0,0E0,1.9054871E0,4.9831467E0,4.2050004E0,5.9563828E0,5.368248E0,3.9417233E0,1.48915E0,3.3150945E0,1.4701173E0,2.1236382E0,7.8249846E0,4.7107344E0,6.090515E0,1.6708984E0,0E0,0E0,0E0,0E0,0E0,0E0,0E0,0E0,0E0,0E0,0E0,0E0,0E0,0E0,0E0,0E0,0E0,0E0,0E0,0E0,0E0,0E0,0E0,0E0,0E0,0E0,0E0],"parents":[2147483647,0,0,1,1,2,2,3,3,4,4,5,5,6,6,7,7,8,8,9,9,10,10,11,11,12,12,14,14,15,15,16,16,17,17,18,18,19,19,20,20,21,21,22,22,23,23,24,24,25,25,26,26,27,27],"right_children":[2,4,6,8,10,12,14,16,18,20,22,24,26,-1,28,30,32,34,36,38,40,42,44,46,48,50,52,54,-1,-1,-1,-1,-1,-1,-1,-1,-1,-1,-1,-1,-1,-1,-1,-1,-1,-1,-1,-1,-1,-1,-1,-1,-1,-1,-1],"split_conditions":[-6.2702155E-1,8.6521946E-2,1.1714365E0,-9.973614E-1,-6.557886E-1,-4.7302466E-2,-7.7021235E-1,-2.0359251E-1,-1.543269E0,1.2761675E0,1.6319866E-1,-9.1537976E-1,-4.174431E-1,-0E0,4.015822E0,2.3023508E-2,-9.0112907E-1,-6.701983E-1,3.1412372E-1,-1.125025E-2,-1.2011143E-2,-7.028729E-1,1.8748732E-1,-6.2342227E-1,-2.951266E-1,-1.195845E-2,-5.5906516E-1,-4.1655477E-2,3.4231946E-4,2.2987542E-3,-3.918167E-3,8.4228795E-3,-8.298059E-3,1.0348378E-2,-3.6482105E-3,2.6892698E-3,-5.886036E-3,-4.1667805E-3,1.7512001E-2,-1.4130122E-2,-0E0,1.268143E-2,2.0240135E-3,-9.808565E-4,-9.669146E-3,-0E0,-8.794356E-3,-3.9798368E-4,-3.5648185E-3,-3.4870743E-3,6.333434E-3,-2.1925955E-3,-6.276302E-3,-7.777108E-3,-1.1072649E-2],"split_indices":[11,20,1,17,12,11,4,20,11,16,2,19,20,0,8,6,4,1,1,21,21,4,17,6,20,21,1,20,0,0,0,0,0,0,0,0,0,0,0,0,0,0,0,0,0,0,0,0,0,0,0,0,0,0,0],"split_type":[0,0,0,0,0,0,0,0,0,0,0,0,0,0,0,0,0,0,0,0,0,0,0,0,0,0,0,0,0,0,0,0,0,0,0,0,0,0,0,0,0,0,0,0,0,0,0,0,0,0,0,0,0,0,0],"sum_hessian":[1.0376265E4,3.151278E3,7.2249863E3,2.5665903E3,5.846877E2,6.370331E3,8.546553E2,4.7882687E2,2.0877634E3,3.7023755E2,2.1445012E2,2.2667087E3,4.103622E3,8.193832E0,8.464614E2,3.7140775E2,1.07419106E2,1.4948868E2,1.9382748E3,3.212293E2,4.9008247E1,1.5086621E2,6.3583908E1,1.968178E2,2.0698909E3,1.0126962E3,3.090926E3,8.3991675E2,6.544693E0,2.4699905E2,1.244087E2,8.669213E0,9.874989E1,1.2955856E2,1.9930113E1,1.8923213E3,4.5953533E1,3.169712E2,4.258125E0,4.1703403E1,7.3048425E0,2.3681143E1,1.2718507E2,3.372248E1,2.9861425E1,2.338093E1,1.7343687E2,1.1230131E3,9.468778E2,9.825026E2,3.019363E1,2.7979037E2,2.8111357E3,2.0137856E2,6.385382E2],"tree_param":{"num_deleted":"0","num_feature":"25","num_nodes":"55","size_leaf_vector":"1"}},{"base_weights":[6.7500584E-2,1.5112214E-1,6.381493E-3,1.7435302E-1,-2.3976374E-2,1.8822788E-1,-2.0272344E-2,1.4765736E-1,3.263204E-1,-5.412685E-2,2.7971834E-1,1.2468884E-1,3.3879834E-1,-4.3117914E-2,1.1363286E-1,8.074721E-2,2.0041314E-1,4.5052928E-1,2.0757647E-1,-1.694021E-1,1.188886E-2,4.0608594E-1,-6.137273E-4,9.186777E-2,3.9159718E-1,4.6109313E-1,1.8366018E-1,7.858385E-2,-7.1704656E-2,-1.320184E-1,1.4351071E-1,1.7108454E-3,9.120083E-3,1.3118245E-2,4.8354934E-3,1.2033029E-2,-0E0,1.2700588E-2,3.984665E-3,-6.5326045E-4,-7.88096E-3,2.0900352E-3,-3.5774068E-3,-0E0,1.2593384E-2,3.2524103E-3,-4.5383717E-3,3.3331267E-3,1.8056352E-2,6.1061806E-3,1.3726901E-2,-1.3820681E-3,7.3398915E-3,-3.057563E-3,3.2397262E-3,-2.487981E-3,-0E0,-6.4129177E-3,7.541967E-4,4.793973E-3,-0E0],"categories":[],"categories_nodes":[],"categories_segments":[],"categories_sizes":[],"default_left":[0,0,0,0,0,0,0,0,0,0,0,0,0,0,0,0,0,0,0,0,0,0,0,0,0,0,0,0,0,0,0,0,0,0,0,0,0,0,0,0,0,0,0,0,0,0,0,0,0,0,0,0,0,0,0,0,0,0,0,0,0],"id":35,"left_children":[1,3,5,7,9,11,13,15,17,19,21,23,25,27,29,31,33,35,37,39,41,43,-1,45,47,49,51,53,55,57,59,-1,-1,-1,-1,-1,-1,-1,-1,-1,-1,-1,-1,-1,-1,-1,-1,-1,-1,-1,-1,-1,-1,-1,-1,-1,-1,-1,-1,-1,-1],"loss_changes":[5.445386E1,1.84692E1,3.011372E1,1.5666E1,4.5969815E0,7.12862E0,1.6414764E1,1.1701485E1,7.985035E0,3.8023973E0,2.0811675E0,4.459503E0,3.6990833E0,1.6028992E1,5.7469873E0,5.2238646E0,5.4133453E0,2.5830612E0,3.8707552E0,3.3094444E0,3.1790004E0,1.5284886E0,0E0,4.902116E0,3.9693842E0,1.3221073E0,2.8949947E0,8.45739E0,6.946993E0,1.7983781E0,4.6369715E0,0E0,0E0,0E0,0E0,0E0,0E0,0E0,0E0,0E0,0E0,0E0,0E0,0E0,0E0,0E0,0E0,0E0,0E0,0E0,0E0,0E0,0E0,0E0,0E0,0E0,0E0,0E0,0E0,0E0,0E0],"parents":[2147483647,0,0,1,1,2,2,3,3,4,4,5,5,6,6,7,7,8,8,9,9,10,10,11,11,12,12,13,13,14,14,15,15,16,16,17,17,18,18,19,19,20,20,21,21,23,23,24,24,25,25,26,26,27,27,28,28,29,29,30,30],"right_children":[2,4,6,8,10,12,14,16,18,20,22,24,26,28,30,32,34,36,38,40,42,44,-1,46,48,50,52,54,56,58,60,-1,-1,-1,-1,-1,-1,-1,-1,-1,-1,-1,-1,-1,-1,-1,-1,-1,-1,-1,-1,-1,-1,-1,-1,-1,-1,-1,-1,-1,-1],"split_conditions":[-1.076461E-1,4.2493194E-1,-5.5451846E-1,1.3780947E-1,6.0780466E-1,1.2441789E-1,1.0127296E0,-2.8917044E-1,-1.0149741E-1,-1.5639041E-1,4.177277E-1,5.9550864E-1,2.76263E-1,-5.263049E-1,-3.3081567E-1,9.1943115E-1,-2.5948155E0,1.8392816E0,-8.756866E-1,-1.2704222E-1,7.478037E-1,-9.452276E-1,-6.137273E-4,5.2373844E-1,4.887615E-1,-2.3206332E-1,-5.555427E-2,-9.100102E-2,6.2788993E-1,2.6969713E-1,8.5512096E-1,1.7108454E-3,9.120083E-3,1.3118245E-2,4.8354934E-3,1.2033029E-2,-0E0,1.2700588E-2,3.984665E-3,-6.5326045E-4,-7.88096E-3,2.0900352E-3,-3.5774068E-3,-0E0,1.2593384E-2,3.2524103E-3,-4.5383717E-3,3.3331267E-3,1.8056352E-2,6.1061806E-3,1.3726901E-2,-1.3820681E-3,7.3398915E-3,-3.057563E-3,3.2397262E-3,-2.487981E-3,-0E0,-6.4129177E-3,7.541967E-4,4.793973E-3,-0E0],"split_indices":[10,13,13,14,9,14,11,1,13,18,20,8,10,2,14,8,2,19,8,9,18,19,0,18,1,20,11,14,10,9,9,0,0,0,0,0,0,0,0,0,0,0,0,0,0,0,0,0,0,0,0,0,0,0,0,0,0,0,0,0,0],"split_type":[0,0,0,0,0,0,0,0,0,0,0,0,0,0,0,0,0,0,0,0,0,0,0,0,0,0,0,0,0,0,0,0,0,0,0,0,0,0,0,0,0,0,0,0,0,0,0,0,0,0,0,0,0,0,0,0,0,0,0,0,0],"sum_hessian":[1.0682738E4,4.5039126E3,6.1788257E3,3.981097E3,5.2281573E2,7.93689E2,5.3851367E3,3.3930044E3,5.8809265E2,4.790819E2,4.3733818E1,5.6369257E2,2.2999646E2,4.6067944E3,7.783424E2,1.504685E3,1.8883193E3,2.8234308E2,3.0574957E2,1.7912598E2,2.9995593E2,3.2858795E1,1.087502E1,5.0617252E2,5.752006E1,1.2423885E2,1.0575761E2,8.697206E2,3.7370737E3,8.066047E1,6.9768195E2,1.4392128E3,6.5472305E1,5.5764404E1,1.8325549E3,2.6765546E2,1.4687613E1,4.156465E1,2.641849E2,9.23333E1,8.679268E1,2.0984718E2,9.010874E1,4.7976985E0,2.8061098E1,4.501993E2,5.5973198E1,3.3937134E1,2.3582928E1,3.6626972E1,8.761188E1,2.9733206E1,7.60244E1,1.6726125E2,7.0245935E2,2.7352168E3,1.0018572E3,4.9336174E1,3.1324295E1,5.349146E2,1.627673E2],"tree_param":{"num_deleted":"0","num_feature":"25","num_nodes":"61","size_leaf_vector":"1"}},{"base_weights":[5.0276857E-2,-6.6741104E-3,1.1191604E-1,-3.2268938E-2,1.7973566E-1,-4.239102E-2,1.2997699E-1,-4.31619E-2,2.4849235E-1,4.948764E-2,2.578846E-1,-1.3482827E-1,1.01781525E-1,7.548003E-2,1.9230185E-1,3.314892E-2,-7.345211E-2,6.009154E-1,1.620156E-1,-1.303997E-1,1.2448159E-1,5.271951E-2,3.0845448E-1,-1.7549893E-1,5.21449E-3,1.2930325E-2,2.7867688E-2,3.3523433E-2,1.525757E-1,2.8570527E-1,1.469953E-1,1.74841E-4,4.5103687E-3,-3.0976052E-3,-3.749026E-4,-0E0,1.8831555E-2,6.2529575E-3,-1.9407234E-3,-5.831093E-3,6.457734E-3,1.761641E-3,1.2899637E-2,9.323064E-3,-2.798343E-3,4.569544E-3,1.0255608E-2,1.4411325E-3,-5.424861E-3,2.3749927E-3,-8.846689E-3,-1.3988528E-3,6.231223E-3,6.7117834E-3,3.7633904E-4,1.0431552E-3,5.6214803E-3,-0E0,7.778416E-3,5.1502534E-3,1.8890507E-3],"categories":[],"categories_nodes":[],"categories_segments":[],"categories_sizes":[],"default_left":[0,0,0,0,0,0,0,0,0,0,0,0,0,0,0,0,0,0,0,0,0,0,0,0,0,0,0,0,0,0,0,0,0,0,0,0,0,0,0,0,0,0,0,0,0,0,0,0,0,0,0,0,0,0,0,0,0,0,0,0,0],"id":36,"left_children":[1,3,5,7,9,11,13,15,17,19,21,23,25,27,29,31,33,35,37,39,41,43,45,47,49,-1,51,53,55,57,59,-1,-1,-1,-1,-1,-1,-1,-1,-1,-1,-1,-1,-1,-1,-1,-1,-1,-1,-1,-1,-1,-1,-1,-1,-1,-1,-1,-1,-1,-1],"loss_changes":[3.7445072E1,2.6215004E1,1.4347786E1,1.4682996E1,6.4423943E0,7.125036E0,1.5313377E1,1.0865515E1,4.6349783E0,3.4358501E0,3.8925877E0,2.0297756E0,5.6164427E0,7.766241E0,8.5735855E0,4.8349166E0,9.404175E0,2.9894323E0,3.103437E0,2.7427287E0,3.3032432E0,4.6510925E0,3.345026E0,2.430873E0,1.952612E0,0E0,3.348844E0,6.6353803E0,6.2883644E0,3.8256798E0,5.548195E0,0E0,0E0,0E0,0E0,0E0,0E0,0E0,0E0,0E0,0E0,0E0,0E0,0E0,0E0,0E0,0E0,0E0,0E0,0E0,0E0,0E0,0E0,0E0,0E0,0E0,0E0,0E0,0E0,0E0,0E0],"parents":[2147483647,0,0,1,1,2,2,3,3,4,4,5,5,6,6,7,7,8,8,9,9,10,10,11,11,12,12,13,13,14,14,15,15,16,16,17,17,18,18,19,19,20,20,21,21,22,22,23,23,24,24,26,26,27,27,28,28,29,29,30,30],"right_children":[2,4,6,8,10,12,14,16,18,20,22,24,26,28,30,32,34,36,38,40,42,44,46,48,50,-1,52,54,56,58,60,-1,-1,-1,-1,-1,-1,-1,-1,-1,-1,-1,-1,-1,-1,-1,-1,-1,-1,-1,-1,-1,-1,-1,-1,-1,-1,-1,-1,-1,-1],"split_conditions":[3.6878537E-2,9.3329406E-1,-5.5451846E-1,8.4958375E-1,-1.0209488E0,-1.598629E-1,-1.9913298E-1,-6.378927E-1,-2.7247047E-1,-9.1963834E-1,-9.606191E-1,-7.142129E-2,-4.174431E-1,2.2315548E-1,-2.3520179E-1,-9.671984E-2,-3.2092276E-1,-1.7788264E-1,9.2764825E-1,2.8384335E0,1.5814894E0,-1.6003286E0,-6.378927E-1,-1.4706249E0,2.0816629E-1,1.2930325E-2,9.650464E-1,-6.2357575E-1,-5.1980746E-1,-1.1739078E0,6.1279282E-2,1.74841E-4,4.5103687E-3,-3.0976052E-3,-3.749026E-4,-0E0,1.8831555E-2,6.2529575E-3,-1.9407234E-3,-5.831093E-3,6.457734E-3,1.761641E-3,1.2899637E-2,9.323064E-3,-2.798343E-3,4.569544E-3,1.0255608E-2,1.4411325E-3,-5.424861E-3,2.3749927E-3,-8.846689E-3,-1.3988528E-3,6.231223E-3,6.7117834E-3,3.7633904E-4,1.0431552E-3,5.6214803E-3,-0E0,7.778416E-3,5.1502534E-3,1.8890507E-3],"split_indices":[10,1,13,13,2,4,20,24,7,24,15,15,20,2,5,10,1,20,2,1,5,13,24,2,2,0,1,5,20,3,4,0,0,0,0,0,0,0,0,0,0,0,0,0,0,0,0,0,0,0,0,0,0,0,0,0,0,0,0,0,0],"split_type":[0,0,0,0,0,0,0,0,0,0,0,0,0,0,0,0,0,0,0,0,0,0,0,0,0,0,0,0,0,0,0,0,0,0,0,0,0,0,0,0,0,0,0,0,0,0,0,0,0,0,0,0,0,0,0,0,0,0,0,0,0],"sum_hessian":[1.063761E4,5.521566E3,5.116045E3,4.860042E3,6.6152386E2,5.3048914E2,4.5855557E3,4.682475E3,1.7756686E2,2.5312794E2,4.083959E2,3.2724695E2,2.032422E2,2.455508E3,2.1300474E3,1.3216674E3,3.3608076E3,3.1796713E1,1.4577014E2,7.059753E1,1.8253043E2,8.4792694E1,3.236032E2,2.5862128E2,6.862568E1,2.8507956E1,1.7473425E2,1.5988568E3,8.5665137E2,6.87409E2,1.4426383E3,1.1241771E3,1.9749019E2,1.8346384E3,1.5261692E3,5.6884317E0,2.6108282E1,1.1075467E2,3.501548E1,5.839004E1,1.220748E1,1.6256845E2,1.9961971E1,3.0547049E1,5.4245644E1,1.4234575E2,1.8125746E2,3.2611656E1,2.2600963E2,5.7569485E1,1.10561905E1,1.23813805E2,5.0920444E1,1.1561269E2,1.4832441E3,3.3128055E2,5.2537085E2,4.630579E1,6.411032E2,8.104723E2,6.321661E2],"tree_param":{"num_deleted":"0","num_feature":"25","num_nodes":"61","size_leaf_vector":"1"}},{"base_weights":[-1.2328969E-1,1.9661878E-1,-1.783349E-2,-6.9080365E-1,3.1093534E-2,-1.7835205E-2,2.2044879E-1,-5.574874E-2,4.7648662E-1,9.469584E-3,-9.434419E-3,-0E0,1.8881103E-2],"categories":[],"categories_nodes":[],"categories_segments":[],"categories_sizes":[],"default_left":[0,0,0,0,0,0,0,0,0,0,0,0,0],"id":37,"left_children":[1,3,-1,5,-1,-1,7,9,11,-1,-1,-1,-1],"loss_changes":[1.9159442E3,6.0715215E3,0E0,3.3891724E1,0E0,0E0,3.1997159E0,2.5428033E0,2.4829984E0,0E0,0E0,0E0,0E0],"parents":[2147483647,0,0,1,1,3,3,6,6,7,7,8,8],"right_children":[2,4,-1,6,-1,-1,8,10,12,-1,-1,-1,-1],"split_conditions":[1.7168428E-1,-1.6880356E-1,-1.783349E-2,-1.749196E-1,3.1093534E-2,-1.7835205E-2,-7.856687E-2,-2.484893E-1,-5.8597844E-2,9.469584E-3,-9.434419E-3,-0E0,1.8881103E-2],"split_indices":[0,0,0,0,0,0,9,16,3,0,0,0,0],"split_type":[0,0,0,0,0,0,0,0,0,0,0,0,0],"sum_hessian":[1.0363516E4,6.669144E3,3.694371E3,3.574983E3,3.0941611E3,3.536557E3,3.842617E1,1.7056887E1,2.1369284E1,5.8996115E0,1.1157274E1,8.57792E0,1.2791364E1],"tree_param":{"num_deleted":"0","num_feature":"25","num_nodes":"13","size_leaf_vector":"1"}},{"base_weights":[6.913466E-2,1.9180456E-1,2.4597157E-2,1.5832001E-1,2.7487305E-1,1.4876421E-1,-5.0661694E-3,1.0916373E-1,1.9214952E-1,1.8694112E-2,3.0541474E-1,1.6755468E-1,-9.355145E-2,-4.6491735E-2,4.9768373E-2,5.380214E-2,2.2179134E-1,7.589641E-2,2.3128301E-1,1.149613E-2,-3.3048753E-2,1.5877503E-1,3.7745222E-1,9.678527E-2,2.4201095E-1,3.9369506E-1,-1.5591536E-1,-8.170342E-2,4.321792E-2,3.384192E-2,2.1991466E-1,6.840856E-3,1.5934654E-4,-1.3669934E-3,7.480402E-3,3.9141984E-3,-8.6470536E-4,-0E0,6.515496E-3,-6.802309E-3,2.3243946E-3,-5.042864E-4,5.7944623E-3,1.1768937E-2,6.8891076E-3,4.071971E-3,-5.4569973E-4,1.1791294E-2,5.213603E-3,-0E0,1.7576877E-2,-6.407904E-4,-1.0052762E-2,1.1862578E-3,-2.51868E-3,4.1973316E-3,7.507493E-5,-2.6252659E-3,1.1435553E-3,7.011974E-3,-0E0],"categories":[],"categories_nodes":[],"categories_segments":[],"categories_sizes":[],"default_left":[0,0,0,0,0,0,0,0,0,0,0,0,0,0,0,0,0,0,0,0,0,0,0,0,0,0,0,0,0,0,0,0,0,0,0,0,0,0,0,0,0,0,0,0,0,0,0,0,0,0,0,0,0,0,0,0,0,0,0,0,0],"id":38,"left_children":[1,3,5,7,9,11,13,15,17,19,21,23,25,27,29,31,33,35,37,-1,39,41,43,45,47,49,51,53,55,57,59,-1,-1,-1,-1,-1,-1,-1,-1,-1,-1,-1,-1,-1,-1,-1,-1,-1,-1,-1,-1,-1,-1,-1,-1,-1,-1,-1,-1,-1,-1],"loss_changes":[5.8016212E1,7.4337234E0,2.8956997E1,3.0725365E0,5.985523E0,6.9819336E0,1.433453E1,4.971734E0,5.1070976E0,2.4225655E0,7.0012283E0,7.090046E0,3.0527186E0,1.1427603E1,7.089273E0,5.5716753E0,5.63593E0,2.7465248E0,5.0829735E0,0E0,2.4970381E0,3.1752586E0,3.511406E0,5.6000447E0,4.8720055E0,1.0840536E0,2.6086166E0,5.8168945E0,4.790204E0,3.72524E0,2.9206858E0,0E0,0E0,0E0,0E0,0E0,0E0,0E0,0E0,0E0,0E0,0E0,0E0,0E0,0E0,0E0,0E0,0E0,0E0,0E0,0E0,0E0,0E0,0E0,0E0,0E0,0E0,0E0,0E0,0E0,0E0],"parents":[2147483647,0,0,1,1,2,2,3,3,4,4,5,5,6,6,7,7,8,8,9,9,10,10,11,11,12,12,13,13,14,14,15,15,16,16,17,17,18,18,20,20,21,21,22,22,23,23,24,24,25,25,26,26,27,27,28,28,29,29,30,30],"right_children":[2,4,6,8,10,12,14,16,18,20,22,24,26,28,30,32,34,36,38,-1,40,42,44,46,48,50,52,54,56,58,60,-1,-1,-1,-1,-1,-1,-1,-1,-1,-1,-1,-1,-1,-1,-1,-1,-1,-1,-1,-1,-1,-1,-1,-1,-1,-1,-1,-1,-1,-1],"split_conditions":[-3.873205E-1,3.8186333E-1,-5.113157E-1,-2.7329427E-1,-1.6661966E0,-1.7225647E-1,-1.3086504E-1,1.3740504E-1,-5.6060064E-1,-1.255801E-2,-1.2507812E-2,9.4658874E-2,-1.25712175E-2,9.335766E-2,1.4557061E0,-8.526182E-1,-8.297796E-1,3.2172266E-1,-9.415848E-1,1.149613E-2,7.135204E-1,-8.710567E-1,-1.747211E-1,2.5232175E-1,-6.5930724E-1,-5.6866728E-2,7.110278E-1,-4.4634405E-1,-1.02621205E-1,-1.2565716E-2,1.5818732E0,6.840856E-3,1.5934654E-4,-1.3669934E-3,7.480402E-3,3.9141984E-3,-8.6470536E-4,-0E0,6.515496E-3,-6.802309E-3,2.3243946E-3,-5.042864E-4,5.7944623E-3,1.1768937E-2,6.8891076E-3,4.071971E-3,-5.4569973E-4,1.1791294E-2,5.213603E-3,-0E0,1.7576877E-2,-6.407904E-4,-1.0052762E-2,1.1862578E-3,-2.51868E-3,4.1973316E-3,7.507493E-5,-2.6252659E-3,1.1435553E-3,7.011974E-3,-0E0],"split_indices":[15,22,2,1,7,16,11,7,6,21,21,8,21,22,20,19,19,12,22,0,11,2,5,22,7,8,1,5,15,21,19,0,0,0,0,0,0,0,0,0,0,0,0,0,0,0,0,0,0,0,0,0,0,0,0,0,0,0,0,0,0],"split_type":[0,0,0,0,0,0,0,0,0,0,0,0,0,0,0,0,0,0,0,0,0,0,0,0,0,0,0,0,0,0,0,0,0,0,0,0,0,0,0,0,0,0,0,0,0,0,0,0,0,0,0,0,0,0,0,0,0,0,0,0,0],"sum_hessian":[1.0656135E4,2.8319702E3,7.8241646E3,2.0282866E3,8.0368365E2,1.5141592E3,6.3100054E3,8.397029E2,1.1885837E3,8.903934E1,7.146443E2,1.4090472E3,1.0511193E2,3.6043303E3,2.7056753E3,5.694542E2,2.702487E2,3.060487E2,8.8253503E2,1.0700127E1,7.833921E1,2.4066168E2,4.7398264E2,7.2993384E2,6.791134E2,9.678144E0,9.5433784E1,2.5959526E3,1.00837756E3,2.4801194E3,2.2555577E2,9.874952E1,4.7070468E2,5.347838E1,2.167703E2,1.8382927E2,1.2221944E2,8.539187E1,7.971432E2,2.9430986E1,4.8908222E1,6.3436207E1,1.7722548E2,2.5704553E2,2.1693709E2,4.8046915E2,2.4946472E2,9.2307976E1,5.868054E2,4.8683567E0,4.8097878E0,6.4888985E1,3.0544804E1,3.0167114E2,2.2942815E3,2.4411426E2,7.642633E2,1.7904413E2,2.3010752E3,1.817308E2,4.3824974E1],"tree_param":{"num_deleted":"0","num_feature":"25","num_nodes":"61","size_leaf_vector":"1"}},{"base_weights":[5.10977E-2,1.1678203E0,-1.7948292E-2,2.9949168E-2,2.6172823E-1,4.3406332E-1,-0E0,-4.138517E-3,6.698477E-1,6.129299E-3,-7.2048283E-3,2.1400983E-2,-0E0],"categories":[],"categories_nodes":[],"categories_segments":[],"categories_sizes":[],"default_left":[0,0,0,0,0,0,0,0,0,0,0,0,0],"id":39,"left_children":[1,3,-1,-1,5,7,9,-1,11,-1,-1,-1,-1],"loss_changes":[8.946156E3,3.4605957E1,0E0,0E0,2.2361455E0,4.5897665E0,1.3198757E0,0E0,2.7013454E0,0E0,0E0,0E0,0E0],"parents":[2147483647,0,0,1,1,4,4,5,5,6,6,8,8],"right_children":[2,4,-1,-1,6,8,10,-1,12,-1,-1,-1,-1],"split_conditions":[-1.6880356E-1,-1.749196E-1,-1.7948292E-2,2.9949168E-2,-1.1453265E-1,-6.3662857E-1,-2.3512289E-1,-4.138517E-3,5.3307724E-1,6.129299E-3,-7.2048283E-3,2.1400983E-2,-0E0],"split_indices":[0,0,0,0,1,4,4,0,15,0,0,0,0],"split_type":[0,0,0,0,0,0,0,0,0,0,0,0,0],"sum_hessian":[1.0586458E4,4.275864E3,6.3105938E3,4.2309004E3,4.4963444E1,2.7646582E1,1.7316862E1,6.7801356E0,2.0866446E1,8.691792E0,8.625072E0,1.6722282E1,4.144163E0],"tree_param":{"num_deleted":"0","num_feature":"25","num_nodes":"13","size_leaf_vector":"1"}},{"base_weights":[-1.2162554E-1,1.8956469E-1,-1.7733179E-2,-6.8706715E-1,3.052796E-2,-1.7738009E-2,1.98186E-1,3.4172702E-1,-7.632834E-3,1.7741278E-3,1.773251E-2],"categories":[],"categories_nodes":[],"categories_segments":[],"categories_sizes":[],"default_left":[0,0,0,0,0,0,0,0,0,0,0],"id":40,"left_children":[1,3,-1,5,-1,-1,7,9,-1,-1,-1],"loss_changes":[1.8474734E3,5.9299756E3,0E0,3.2753296E1,0E0,0E0,3.0072446E0,2.4352784E0,0E0,0E0,0E0],"parents":[2147483647,0,0,1,1,3,3,6,6,7,7],"right_children":[2,4,-1,6,-1,-1,8,10,-1,-1,-1],"split_conditions":[1.7168428E-1,-1.6880356E-1,-1.7733179E-2,-1.749196E-1,3.052796E-2,-1.7738009E-2,1.4881119E0,-1.1453265E-1,-7.632834E-3,1.7741278E-3,1.773251E-2],"split_indices":[0,0,0,0,0,0,23,1,0,0,0],"split_type":[0,0,0,0,0,0,0,0,0,0,0],"sum_hessian":[1.0313687E4,6.692897E3,3.6207898E3,3.583254E3,3.1096433E3,3.5439272E3,3.932658E1,3.2212387E1,7.1141925E0,2.0348331E1,1.1864056E1],"tree_param":{"num_deleted":"0","num_feature":"25","num_nodes":"11","size_leaf_vector":"1"}},{"base_weights":[6.594456E-2,-1.7951762E-2,2.9872736E-2],"categories":[],"categories_nodes":[],"categories_segments":[],"categories_sizes":[],"default_left":[0,0,0],"id":41,"left_children":[1,-1,-1],"loss_changes":[9.157067E3,0E0,0E0],"parents":[2147483647,0,0],"right_children":[2,-1,-1],"split_conditions":[1.7168428E-1,-1.7951762E-2,2.9872736E-2],"split_indices":[0,0,0],"split_type":[0,0,0],"sum_hessian":[1.0707144E4,6.312103E3,4.395041E3],"tree_param":{"num_deleted":"0","num_feature":"25","num_nodes":"3","size_leaf_vector":"1"}},{"base_weights":[4.8268367E-2,1.1360731E0,-1.7799608E-2,2.9143862E-2,2.4639514E-1,-1.9033855E-1,3.7751547E-1,-0E0,-1.22172935E-2,5.222253E-1,-0E0,5.606965E-4,2.3357667E-2,-1.1075108E-2,6.434659E-3],"categories":[],"categories_nodes":[],"categories_segments":[],"categories_sizes":[],"default_left":[0,0,0,0,0,0,0,0,0,0,0,0,0,0,0],"id":42,"left_children":[1,3,-1,-1,5,7,9,-1,-1,11,13,-1,-1,-1,-1],"loss_changes":[8.58916E3,3.458203E1,0E0,0E0,2.9526207E0,9.861387E-1,2.3685837E0,0E0,0E0,4.790098E0,1.3533036E0,0E0,0E0,0E0,0E0],"parents":[2147483647,0,0,1,1,4,4,5,5,6,6,9,9,10,10],"right_children":[2,4,-1,-1,6,8,10,-1,-1,12,14,-1,-1,-1,-1],"split_conditions":[-1.6880356E-1,-1.749196E-1,-1.7799608E-2,2.9143862E-2,-8.754158E-1,-1.0289261E0,-1.9275673E-2,-0E0,-1.22172935E-2,-2.4397144E-2,1.6256508E-1,5.606965E-4,2.3357667E-2,-1.1075108E-2,6.434659E-3],"split_indices":[0,0,0,0,19,19,1,0,0,6,14,0,0,0,0],"split_type":[0,0,0,0,0,0,0,0,0,0,0,0,0,0,0],"sum_hessian":[1.055521E4,4.3006855E3,6.254524E3,4.254213E3,4.647242E1,8.982924E0,3.7489494E1,4.0494847E0,4.9334393E0,2.7849155E1,9.64034E0,1.3769195E1,1.4079961E1,4.061369E0,5.578971E0],"tree_param":{"num_deleted":"0","num_feature":"25","num_nodes":"15","size_leaf_vector":"1"}},{"base_weights":[-1.1944826E-1,-1.2579401E-2,-2.1572101E-1,6.4552695E-2,-7.0256524E-2,-1.8441789E-1,-4.027757E-1,4.1364785E-2,2.905431E-1,9.258412E-2,-8.852311E-2,-2.8003412E-1,-1.6235077E-1,-4.194743E-1,-1.9691661E-1,1.057963E-1,-3.511658E-2,3.3462763E-1,-6.1057948E-2,-2.2422689E-1,1.6204299E-1,-2.4269924E-1,-7.1235046E-2,-3.1753138E-1,-1.6229725E-1,-1.2676294E-1,-2.150148E-1,-4.6140355E-1,-3.2523555E-1,-1.1681364E-2,-6.080091E-2,1.9853006E-4,4.577568E-3,-3.546381E-3,-0E0,9.386842E-3,-5.593718E-3,4.428082E-3,-8.2543595E-3,-7.7785593E-3,7.254457E-4,-3.6847254E-3,6.055165E-3,-1.9799327E-3,-8.153156E-3,-6.2786676E-3,-1.4683193E-3,-7.6551083E-3,-1.5496009E-2,1.9016692E-3,-6.4266045E-3,-5.372757E-3,-2.070557E-3,-6.9578574E-3,-4.1845087E-3,-1.1983476E-2,-0E0,-3.044575E-3,-1.044333E-2,1.3161129E-2,-3.9154226E-3],"categories":[],"categories_nodes":[],"categories_segments":[],"categories_sizes":[],"default_left":[0,0,0,0,0,0,0,0,0,0,0,0,0,0,0,0,0,0,0,0,0,0,0,0,0,0,0,0,0,0,0,0,0,0,0,0,0,0,0,0,0,0,0,0,0,0,0,0,0,0,0,0,0,0,0,0,0,0,0,0,0],"id":43,"left_children":[1,3,5,7,9,11,13,15,17,19,21,23,25,27,29,31,33,35,37,39,41,43,45,47,49,51,53,55,57,-1,59,-1,-1,-1,-1,-1,-1,-1,-1,-1,-1,-1,-1,-1,-1,-1,-1,-1,-1,-1,-1,-1,-1,-1,-1,-1,-1,-1,-1,-1,-1],"loss_changes":[1.0537573E2,2.1672478E1,3.0969025E1,1.0560679E1,8.312894E0,9.306885E0,1.9880219E0,9.375442E0,3.2102365E0,6.069649E0,6.399456E0,3.2928925E0,6.719528E0,1.9148712E0,1.7549369E0,7.317625E0,3.0694628E0,3.4630966E0,1.3979864E0,1.2520778E0,5.4830017E0,2.7828655E0,5.0904236E0,2.106308E0,4.7914104E0,8.376049E0,4.004921E0,2.4092636E0,3.4395504E0,0E0,2.1639123E0,0E0,0E0,0E0,0E0,0E0,0E0,0E0,0E0,0E0,0E0,0E0,0E0,0E0,0E0,0E0,0E0,0E0,0E0,0E0,0E0,0E0,0E0,0E0,0E0,0E0,0E0,0E0,0E0,0E0,0E0],"parents":[2147483647,0,0,1,1,2,2,3,3,4,4,5,5,6,6,7,7,8,8,9,9,10,10,11,11,12,12,13,13,14,14,15,15,16,16,17,17,18,18,19,19,20,20,21,21,22,22,23,23,24,24,25,25,26,26,27,27,28,28,30,30],"right_children":[2,4,6,8,10,12,14,16,18,20,22,24,26,28,30,32,34,36,38,40,42,44,46,48,50,52,54,56,58,-1,60,-1,-1,-1,-1,-1,-1,-1,-1,-1,-1,-1,-1,-1,-1,-1,-1,-1,-1,-1,-1,-1,-1,-1,-1,-1,-1,-1,-1,-1,-1],"split_conditions":[-2.7329427E-1,-5.3491193E-1,