{"learner":{"attributes":{"scikit_learn":"{\"_estimator_type\": \"classifier\"}"},"feature_names":["TargetReturn","H-L","BB_lower","Return_lag1","Return_lag2","Return_lag3","ATR14","Williams_%R","OBV","Volume_Change"],"feature_types":["float","float","float","float","float","float","float","float","float","float"],"gradient_booster":{"model":{"gbtree_model_param":{"num_parallel_tree":"1","num_trees":"648"},"iteration_indptr":[0,3,6,9,12,15,18,21,24,27,30,33,36,39,42,45,48,51,54,57,60,63,66,69,72,75,78,81,84,87,90,93,96,99,102,105,108,111,114,117,120,123,126,129,132,135,138,141,144,147,150,153,156,159,162,165,168,171,174,177,180,183,186,189,192,195,198,201,204,207,210,213,216,219,222,225,228,231,234,237,240,243,246,249,252,255,258,261,264,267,270,273,276,279,282,285,288,291,294,297,300,303,306,309,312,315,318,321,324,327,330,333,336,339,342,345,348,351,354,357,360,363,366,369,372,375,378,381,384,387,390,393,396,399,402,405,408,411,414,417,420,423,426,429,432,435,438,441,444,447,450,453,456,459,462,465,468,471,474,477,480,483,486,489,492,495,498,501,504,507,510,513,516,519,522,525,528,531,534,537,540,543,546,549,552,555,558,561,564,567,570,573,576,579,582,585,588,591,594,597,600,603,606,609,612,615,618,621,624,627,630,633,636,639,642,645,648],"tree_info":[0,1,2,0,1,2,0,1,2,0,1,2,0,1,2,0,1,2,0,1,2,0,1,2,0,1,2,0,1,2,0,1,2,0,1,2,0,1,2,0,1,2,0,1,2,0,1,2,0,1,2,0,1,2,0,1,2,0,1,2,0,1,2,0,1,2,0,1,2,0,1,2,0,1,2,0,1,2,0,1,2,0,1,2,0,1,2,0,1,2,0,1,2,0,1,2,0,1,2,0,1,2,0,1,2,0,1,2,0,1,2,0,1,2,0,1,2,0,1,2,0,1,2,0,1,2,0,1,2,0,1,2,0,1,2,0,1,2,0,1,2,0,1,2,0,1,2,0,1,2,0,1,2,0,1,2,0,1,2,0,1,2,0,1,2,0,1,2,0,1,2,0,1,2,0,1,2,0,1,2,0,1,2,0,1,2,0,1,2,0,1,2,0,1,2,0,1,2,0,1,2,0,1,2,0,1,2,0,1,2,0,1,2,0,1,2,0,1,2,0,1,2,0,1,2,0,1,2,0,1,2,0,1,2,0,1,2,0,1,2,0,1,2,0,1,2,0,1,2,0,1,2,0,1,2,0,1,2,0,1,2,0,1,2,0,1,2,0,1,2,0,1,2,0,1,2,0,1,2,0,1,2,0,1,2,0,1,2,0,1,2,0,1,2,0,1,2,0,1,2,0,1,2,0,1,2,0,1,2,0,1,2,0,1,2,0,1,2,0,1,2,0,1,2,0,1,2,0,1,2,0,1,2,0,1,2,0,1,2,0,1,2,0,1,2,0,1,2,0,1,2,0,1,2,0,1,2,0,1,2,0,1,2,0,1,2,0,1,2,0,1,2,0,1,2,0,1,2,0,1,2,0,1,2,0,1,2,0,1,2,0,1,2,0,1,2,0,1,2,0,1,2,0,1,2,0,1,2,0,1,2,0,1,2,0,1,2,0,1,2,0,1,2,0,1,2,0,1,2,0,1,2,0,1,2,0,1,2,0,1,2,0,1,2,0,1,2,0,1,2,0,1,2,0,1,2,0,1,2,0,1,2,0,1,2,0,1,2,0,1,2,0,1,2,0,1,2,0,1,2,0,1,2,0,1,2,0,1,2,0,1,2,0,1,2,0,1,2,0,1,2,0,1,2,0,1,2,0,1,2,0,1,2,0,1,2,0,1,2,0,1,2,0,1,2,0,1,2,0,1,2,0,1,2,0,1,2,0,1,2,0,1,2,0,1,2,0,1,2,0,1,2,0,1,2,0,1,2,0,1,2,0,1,2,0,1,2,0,1,2,0,1,2,0,1,2,0,1,2,0,1,2,0,1,2,0,1,2,0,1,2,0,1,2,0,1,2,0,1,2,0,1,2,0,1,2,0,1,2,0,1,2,0,1,2,0,1,2,0,1,2,0,1,2,0,1,2,0,1,2,0,1,2,0,1,2,0,1,2,0,1,2,0,1,2,0,1,2],"trees":[{"base_weights":[4.7054686E-2,3.811653E-2,-1.9078186E-2],"categories":[],"categories_nodes":[],"categories_segments":[],"categories_sizes":[],"default_left":[0,0,0],"id":0,"left_children":[1,-1,-1],"loss_changes":[2.3982117E4,0E0,0E0],"parents":[2147483647,0,0],"right_children":[2,-1,-1],"split_conditions":[-2.08126E-1,3.811653E-2,-1.9078186E-2],"split_indices":[0,0,0],"split_type":[0,0,0],"sum_hessian":[2.073511E4,7.350666E3,1.3384443E4],"tree_param":{"num_deleted":"0","num_feature":"10","num_nodes":"3","size_leaf_vector":"1"}},{"base_weights":[-9.231111E-2,-1.9041294E-2,2.6846012E-1,1.486884E0,-1.9075653E-2,3.8152877E-2,5.443325E-1,-1.143002E-2,7.141865E-1,2.3408974E-2,-2.4168496E-3],"categories":[],"categories_nodes":[],"categories_segments":[],"categories_sizes":[],"default_left":[0,0,0,0,0,0,0,0,0,0,0],"id":1,"left_children":[1,-1,3,5,-1,-1,7,-1,9,-1,-1],"loss_changes":[4.9326943E3,0E0,1.668042E4,7.083887E1,0E0,0E0,1.4713375E1,0E0,1.2999489E1,0E0,0E0],"parents":[2147483647,0,0,2,2,3,3,6,6,8,8],"right_children":[2,-1,4,6,-1,-1,8,-1,10,-1,-1],"split_conditions":[-2.08126E-1,-1.9041294E-2,2.0789987E-1,2.0084728E-1,-1.9075653E-2,3.8152877E-2,-6.386215E-1,-1.143002E-2,1.9153E0,2.3408974E-2,-2.4168496E-3],"split_indices":[0,0,0,0,0,0,3,0,2,0,0],"split_type":[0,0,0,0,0,0,0,0,0,0,0],"sum_hessian":[2.083511E4,7.392444E3,1.3442666E4,6.1199995E3,7.322666E3,6.0368887E3,8.311111E1,1.1111111E1,7.199999E1,5.8222218E1,1.3777777E1],"tree_param":{"num_deleted":"0","num_feature":"10","num_nodes":"11","size_leaf_vector":"1"}},{"base_weights":[4.8882786E-2,-7.437078E-1,3.815459E-2,-1.9078182E-2,2.045302E-1,2.4908895E-2,8.2622164E-1,3.63542E-1,-1.3109982E-1,3.2486863E-2,3.0333246E-3,-2.6584268E-3,2.4339199E-2,-1.4102709E-2,6.544118E-3],"categories":[],"categories_nodes":[],"categories_segments":[],"categories_sizes":[],"default_left":[0,0,0,0,0,0,0,0,0,0,0,0,0,0,0],"id":2,"left_children":[1,3,-1,-1,5,7,9,11,13,-1,-1,-1,-1,-1,-1],"loss_changes":[2.3910855E4,7.934375E1,0E0,0E0,8.860593E0,3.9242008E0,4.3602896E0,7.5541687E0,8.003993E0,0E0,0E0,0E0,0E0,0E0,0E0],"parents":[2147483647,0,0,1,1,4,4,5,5,6,6,7,7,8,8],"right_children":[2,4,-1,-1,6,8,10,12,14,-1,-1,-1,-1,-1,-1],"split_conditions":[2.0789987E-1,2.0084728E-1,3.815459E-2,-1.9078182E-2,1.9153E0,-8.3975506E-1,1.23480186E-1,-2.0774178E-1,1.3657877E-1,3.2486863E-2,3.0333246E-3,-2.6584268E-3,2.4339199E-2,-1.4102709E-2,6.544118E-3],"split_indices":[0,0,0,0,2,7,5,2,7,0,0,0,0,0,0],"split_type":[0,0,0,0,0,0,0,0,0,0,0,0,0,0,0],"sum_hessian":[2.0791555E4,1.3445777E4,7.3457773E3,1.3359999E4,8.577777E1,6.844444E1,1.7333332E1,2.311111E1,4.5333332E1,9.333333E0,7.9999995E0,1.2444444E1,1.0666666E1,2.2666666E1,2.2666666E1],"tree_param":{"num_deleted":"0","num_feature":"10","num_nodes":"15","size_leaf_vector":"1"}},{"base_weights":[4.697536E-2,-1.9096035E-3,1.4639084E-1,-1.8765058E-1,9.199165E-3,8.2425185E-2,1.8266237E-1,1.860858E-2,-2.0189087E-1,-1.0504905E-1,2.504908E-2,6.944708E-1,7.5209655E-2,1.6781755E-1,3.3913127E-1,-2.165798E-1,1.6454823E-1,1.649283E-1,-1.3309677E-1,1.0391294E-2,1.4266212E-1,2.2241984E-2,-0E0,1.7537255E-2,1.5542889E-1,-1.11931495E-1,1.734753E-1,-0E0,4.1359612E-1,-6.6700266E-3,-2.3269725E-3,-1.22342445E-2,2.0209849E-2,9.743167E-3,-6.6819494E-3,-7.757628E-3,-2.272683E-3,6.225653E-4,-2.7629584E-3,2.0182734E-2,3.2673944E-3,2.6615253E-3,-1.1236541E-3,3.3814528E-3,1.42384E-2,1.9715268E-2,-5.635648E-3,4.6874727E-3,1.1528954E-3,-3.709287E-3,1.3478875E-2,5.826216E-3,1.4568739E-2],"categories":[],"categories_nodes":[],"categories_segments":[],"categories_sizes":[],"default_left":[0,0,0,0,0,0,0,0,0,0,0,0,0,0,0,0,0,0,0,0,0,0,0,0,0,0,0,0,0,0,0,0,0,0,0,0,0,0,0,0,0,0,0,0,0,0,0,0,0,0,0,0,0],"id":3,"left_children":[1,3,5,7,9,11,13,-1,15,17,19,21,23,25,27,29,31,33,35,37,39,-1,-1,41,43,45,47,49,51,-1,-1,-1,-1,-1,-1,-1,-1,-1,-1,-1,-1,-1,-1,-1,-1,-1,-1,-1,-1,-1,-1,-1,-1],"loss_changes":[1.0096083E2,2.8854094E1,1.5618805E1,9.965502E0,2.3673662E1,1.0217375E1,9.595322E0,0E0,4.2738724E0,1.2034073E1,1.972152E1,3.9875832E0,1.12227955E1,6.3865814E0,9.105152E0,3.9348145E0,1.204544E1,1.3901365E1,1.04685E1,1.7103226E1,1.0804239E1,0E0,0E0,7.7966537E0,8.590704E0,7.048704E0,5.1761475E0,5.675E0,8.020161E0,0E0,0E0,0E0,0E0,0E0,0E0,0E0,0E0,0E0,0E0,0E0,0E0,0E0,0E0,0E0,0E0,0E0,0E0,0E0,0E0,0E0,0E0,0E0,0E0],"parents":[2147483647,0,0,1,1,2,2,3,3,4,4,5,5,6,6,8,8,9,9,10,10,11,11,12,12,13,13,14,14,15,15,16,16,17,17,18,18,19,19,20,20,23,23,24,24,25,25,26,26,27,27,28,28],"right_children":[2,4,6,8,10,12,14,-1,16,18,20,22,24,26,28,30,32,34,36,38,40,-1,-1,42,44,46,48,50,52,-1,-1,-1,-1,-1,-1,-1,-1,-1,-1,-1,-1,-1,-1,-1,-1,-1,-1,-1,-1,-1,-1,-1,-1],"split_conditions":[2.1691431E-1,-1.0537506E0,-5.7975316E-1,-8.664176E-1,-1.229758E0,2.2586265E-1,1.4064575E0,1.860858E-2,2.2477791E0,-7.4406165E-1,6.907204E-1,4.2289603E-1,1.0222653E0,-3.2483275E0,-6.7519283E-1,5.337983E-1,-5.512529E-1,-1.407032E0,-7.3161024E-1,5.910472E-1,-1.1823044E0,2.2241984E-2,-0E0,4.94313E-1,3.1794486E0,-1.2008327E0,2.3889096E0,2.6993668E0,-3.556098E-1,-6.6700266E-3,-2.3269725E-3,-1.22342445E-2,2.0209849E-2,9.743167E-3,-6.6819494E-3,-7.757628E-3,-2.272683E-3,6.225653E-4,-2.7629584E-3,2.0182734E-2,3.2673944E-3,2.6615253E-3,-1.1236541E-3,3.3814528E-3,1.42384E-2,1.9715268E-2,-5.635648E-3,4.6874727E-3,1.1528954E-3,-3.709287E-3,1.3478875E-2,5.826216E-3,1.4568739E-2],"split_indices":[1,1,7,3,7,1,3,0,8,3,3,9,1,3,2,7,9,7,1,9,7,0,0,1,2,2,8,3,9,0,0,0,0,0,0,0,0,0,0,0,0,0,0,0,0,0,0,0,0,0,0,0,0],"split_type":[0,0,0,0,0,0,0,0,0,0,0,0,0,0,0,0,0,0,0,0,0,0,0,0,0,0,0,0,0,0,0,0,0,0,0,0,0,0,0,0,0,0,0,0,0,0,0,0,0,0,0,0,0],"sum_hessian":[2.0745293E4,1.3901179E4,6.8441133E3,7.8845166E2,1.3112728E4,2.4870227E3,4.357091E3,1.0335807E1,7.7811584E2,1.5896945E3,1.1523033E4,2.646818E1,2.4605544E3,3.9867144E3,3.7037643E2,7.5094366E2,2.71722E1,1.4604579E2,1.4436487E3,1.025406E4,1.2689729E3,2.1589523E1,4.8786573E0,1.438889E3,1.0216654E3,7.540545E1,3.911309E3,6.842704E1,3.0194937E2,5.441711E2,2.0677261E2,1.2787571E1,1.4384627E1,9.824003E1,4.780576E1,2.8763895E2,1.1560098E3,9.17686E3,1.0771992E3,2.470785E1,1.244265E3,6.028085E2,8.3608057E2,9.7108044E2,5.0584957E1,6.75223E0,6.865321E1,3.6010107E3,3.1029825E2,5.3199997E1,1.5227047E1,1.4349104E2,1.5845834E2],"tree_param":{"num_deleted":"0","num_feature":"10","num_nodes":"53","size_leaf_vector":"1"}},{"base_weights":[-9.416462E-2,-1.8855873E-2,2.5886202E-1,1.431718E0,-1.8893665E-2,3.673801E-2,5.4742557E-1,1.556912E-1,7.079805E-1,1.9123064E-2,-1.2310753E-2,5.9019485E-3,2.3395684E-2],"categories":[],"categories_nodes":[],"categories_segments":[],"categories_sizes":[],"default_left":[0,0,0,0,0,0,0,0,0,0,0,0,0],"id":4,"left_children":[1,-1,3,5,-1,-1,7,9,11,-1,-1,-1,-1],"loss_changes":[4.7409175E3,0E0,1.5773283E4,6.465137E1,0E0,0E0,4.579811E0,1.1334365E1,4.766346E0,0E0,0E0,0E0,0E0],"parents":[2147483647,0,0,2,2,3,3,6,6,7,7,8,8],"right_children":[2,-1,4,6,-1,-1,8,10,12,-1,-1,-1,-1],"split_conditions":[-2.08126E-1,-1.8855873E-2,2.0789987E-1,2.0084728E-1,-1.8893665E-2,3.673801E-2,-5.884367E-1,-8.210937E-1,-3.545011E-1,1.9123064E-2,-1.2310753E-2,5.9019485E-3,2.3395684E-2],"split_indices":[0,0,0,0,0,0,1,1,5,0,0,0,0],"split_type":[0,0,0,0,0,0,0,0,0,0,0,0,0],"sum_hessian":[2.0753441E4,7.327084E3,1.3426358E4,6.184347E3,7.2420107E3,6.097956E3,8.6391525E1,2.7328197E1,5.9063328E1,1.4825748E1,1.2502449E1,2.0119621E1,3.8943707E1],"tree_param":{"num_deleted":"0","num_feature":"10","num_nodes":"13","size_leaf_vector":"1"}},{"base_weights":[4.426937E-2,-7.3701984E-1,3.6739696E-2,-1.8896218E-2,1.6005228E-1,2.5711557E-2,-0E0,-1.9319771E-1,8.0728316E-1,1.2516549E-2,-7.3177824E-3,3.0588998E-2,6.975628E-5],"categories":[],"categories_nodes":[],"categories_segments":[],"categories_sizes":[],"default_left":[0,0,0,0,0,0,0,0,0,0,0,0,0],"id":5,"left_children":[1,3,-1,-1,5,-1,7,9,11,-1,-1,-1,-1],"loss_changes":[2.277019E4,6.906641E1,0E0,0E0,1.1566591E1,0E0,1.1245262E1,3.7278345E0,3.2818174E0,0E0,0E0,0E0,0E0],"parents":[2147483647,0,0,1,1,4,4,6,6,7,7,8,8],"right_children":[2,4,-1,-1,6,-1,8,10,12,-1,-1,-1,-1],"split_conditions":[2.0789987E-1,2.0084728E-1,3.6739696E-2,-1.8896218E-2,-6.386215E-1,2.5711557E-2,1.9153E0,-1.1273657E0,2.6098764E0,1.2516549E-2,-7.3177824E-3,3.0588998E-2,6.975628E-5],"split_indices":[0,0,0,0,3,0,2,6,2,0,0,0,0],"split_type":[0,0,0,0,0,0,0,0,0,0,0,0,0],"sum_hessian":[2.0817916E4,1.3360582E4,7.4573335E3,1.3277308E4,8.32747E1,1.25413265E1,7.073337E1,5.7730762E1,1.3002605E1,5.331469E0,5.2399292E1,7.640768E0,5.3618374E0],"tree_param":{"num_deleted":"0","num_feature":"10","num_nodes":"13","size_leaf_vector":"1"}},{"base_weights":[5.1850494E-2,4.248772E-2,2.554252E-1,1.5679201E-2,8.5515484E-2,2.367642E-1,7.1612567E-1,2.5063208E-1,1.0293185E-2,7.852315E-2,4.0229103E-1,7.1382266E-4,2.7191955E-1,-0E0,9.185791E-1,-9.604451E-2,3.7077588E-1,-4.7165933E-1,1.2240817E-2,4.309625E-2,1.1876124E-1,-1.1134641E-2,4.343015E-1,-7.182779E-2,5.17737E-1,2.843568E-1,-6.001737E-3,6.5541975E-3,2.7840346E-2,-1.2039891E-2,9.380035E-3,7.654011E-3,1.9872487E-2,-0E0,-1.6224071E-2,5.204627E-5,2.6319171E-3,-4.682471E-3,1.5277833E-3,2.5376442E-3,7.334863E-3,1.2156672E-2,-4.337356E-3,4.0333755E-3,-7.0663383E-3,2.388475E-2,-0E0,-1.0992809E-2,7.4657556E-3],"categories":[],"categories_nodes":[],"categories_segments":[],"categories_sizes":[],"default_left":[0,0,0,0,0,0,0,0,0,0,0,0,0,0,0,0,0,0,0,0,0,0,0,0,0,0,0,0,0,0,0,0,0,0,0,0,0,0,0,0,0,0,0,0,0,0,0,0,0],"id":6,"left_children":[1,3,5,7,9,11,13,15,17,19,21,23,25,-1,27,29,31,33,35,37,39,-1,41,43,45,47,-1,-1,-1,-1,-1,-1,-1,-1,-1,-1,-1,-1,-1,-1,-1,-1,-1,-1,-1,-1,-1,-1,-1],"loss_changes":[3.9269825E1,2.279842E1,6.7592087E0,1.5245918E1,1.636612E1,7.012661E0,4.5088844E0,1.1553467E1,1.0812885E1,1.0456615E1,4.499361E0,4.8743806E0,4.8988914E0,0E0,1.4235954E0,1.22262335E1,4.5988197E0,3.8208637E0,1.0992618E1,1.5194109E1,1.0807442E1,0E0,4.487585E0,5.017918E0,3.2621908E0,4.8215446E0,0E0,0E0,0E0,0E0,0E0,0E0,0E0,0E0,0E0,0E0,0E0,0E0,0E0,0E0,0E0,0E0,0E0,0E0,0E0,0E0,0E0,0E0,0E0],"parents":[2147483647,0,0,1,1,2,2,3,3,4,4,5,5,6,6,7,7,8,8,9,9,10,10,11,11,12,12,14,14,15,15,16,16,17,17,18,18,19,19,20,20,22,22,23,23,24,24,25,25],"right_children":[2,4,6,8,10,12,14,16,18,20,22,24,26,-1,28,30,32,34,36,38,40,-1,42,44,46,48,-1,-1,-1,-1,-1,-1,-1,-1,-1,-1,-1,-1,-1,-1,-1,-1,-1,-1,-1,-1,-1,-1,-1],"split_conditions":[1.4064575E0,5.760169E-1,3.0958116E0,-9.837544E-1,2.1378284E0,-9.2784935E-1,-7.119014E-1,-3.6156052E-1,-4.6357393E0,3.6626086E-2,-8.853112E-1,8.558317E-2,2.6993878E0,-0E0,-7.641792E-1,1.1738522E-1,7.497073E-1,-2.8756973E-1,6.907204E-1,-8.765234E-1,7.986583E-1,-1.1134641E-2,3.1794486E0,1.2243757E-2,-2.5621815E0,-1.9101527E0,-6.001737E-3,6.5541975E-3,2.7840346E-2,-1.2039891E-2,9.380035E-3,7.654011E-3,1.9872487E-2,-0E0,-1.6224071E-2,5.204627E-5,2.6319171E-3,-4.682471E-3,1.5277833E-3,2.5376442E-3,7.334863E-3,1.2156672E-2,-4.337356E-3,4.0333755E-3,-7.0663383E-3,2.388475E-2,-0E0,-1.0992809E-2,7.4657556E-3],"split_indices":[3,2,2,9,4,4,5,5,5,5,8,9,4,0,9,8,5,4,3,8,9,0,2,8,4,8,0,0,0,0,0,0,0,0,0,0,0,0,0,0,0,0,0,0,0,0,0,0,0],"split_type":[0,0,0,0,0,0,0,0,0,0,0,0,0,0,0,0,0,0,0,0,0,0,0,0,0,0,0,0,0,0,0,0,0,0,0,0,0,0,0,0,0,0,0,0,0,0,0,0,0],"sum_hessian":[2.0754045E4,1.9846943E4,9.0710077E2,1.2242371E4,7.604573E3,8.750501E2,3.205061E1,2.6953046E2,1.1972841E4,7.4443335E3,1.6023975E2,1.1701186E2,7.5803827E2,7.5782843E0,2.4472326E1,6.740167E1,2.0212877E2,4.5378952E1,1.1927462E4,3.9722444E3,3.472089E3,4.388837E0,1.558509E2,1.0169658E2,1.531529E1,7.421069E2,1.5931397E1,6.7256303E0,1.7746696E1,3.831185E1,2.9089823E1,1.7597795E2,2.615082E1,1.1563871E1,3.381508E1,1.0738361E4,1.1891002E3,2.7143713E2,3.7008074E3,3.128161E3,3.4392825E2,1.4701231E2,8.838594E0,4.594322E1,5.5753357E1,7.7365932E0,7.578697E0,7.4803777E0,7.3462646E2],"tree_param":{"num_deleted":"0","num_feature":"10","num_nodes":"49","size_leaf_vector":"1"}},{"base_weights":[-8.8708505E-2,-1.8793508E-2,2.5940448E-1,1.3897191E0,-1.866021E-2,3.5660725E-2,4.9189654E-1,6.4389354E-1,-1.4607581E-1,3.7365188E-3,2.158323E-2,-1.451353E-2,6.75234E-3],"categories":[],"categories_nodes":[],"categories_segments":[],"categories_sizes":[],"default_left":[0,0,0,0,0,0,0,0,0,0,0,0,0],"id":7,"left_children":[1,-1,3,5,-1,-1,7,9,11,-1,-1,-1,-1],"loss_changes":[4.6927383E3,0E0,1.5156433E4,6.5350586E1,0E0,0E0,8.828323E0,6.0954514E0,3.2095356E0,0E0,0E0,0E0,0E0],"parents":[2147483647,0,0,2,2,3,3,6,6,7,7,8,8],"right_children":[2,-1,4,6,-1,-1,8,10,12,-1,-1,-1,-1],"split_conditions":[-2.08126E-1,-1.8793508E-2,2.0789987E-1,2.0084728E-1,-1.866021E-2,3.5660725E-2,1.9153E0,-5.884367E-1,-4.6415966E-2,3.7365188E-3,2.158323E-2,-1.451353E-2,6.75234E-3],"split_indices":[0,0,0,0,0,0,2,1,5,0,0,0,0],"split_type":[0,0,0,0,0,0,0,0,0,0,0,0,0],"sum_hessian":[2.0736174E4,7.2329014E3,1.3503272E4,6.314794E3,7.188479E3,6.230338E3,8.4455956E1,6.938847E1,1.5067488E1,2.2011063E1,4.7377407E1,8.371199E0,6.6962886E0],"tree_param":{"num_deleted":"0","num_feature":"10","num_nodes":"13","size_leaf_vector":"1"}},{"base_weights":[4.185097E-2,-7.3120075E-1,3.567E-2,-1.8756216E-2,1.9957723E-1,4.2965863E-2,7.8212124E-1,6.392932E-1,-2.003726E-1,2.9538155E-2,2.789673E-1,-0E0,2.1541497E-2,1.5861934E-2,-1.13674775E-2,-4.6090907E-4,1.7249016E-2],"categories":[],"categories_nodes":[],"categories_segments":[],"categories_sizes":[],"default_left":[0,0,0,0,0,0,0,0,0,0,0,0,0,0,0,0,0],"id":8,"left_children":[1,3,-1,-1,5,7,9,11,13,-1,15,-1,-1,-1,-1,-1,-1],"loss_changes":[2.1863146E4,7.496533E1,0E0,0E0,6.944514E0,1.0563412E1,1.536253E0,2.790228E0,9.966891E0,0E0,1.7459168E0,0E0,0E0,0E0,0E0,0E0,0E0],"parents":[2147483647,0,0,1,1,4,4,5,5,6,6,7,7,8,8,10,10],"right_children":[2,4,-1,-1,6,8,10,12,14,-1,16,-1,-1,-1,-1,-1,-1],"split_conditions":[2.0789987E-1,2.0084728E-1,3.567E-2,-1.8756216E-2,1.9153E0,-3.854373E-1,2.0220213E0,-1.2448868E0,-1.0468311E0,2.9538155E-2,2.2946134E0,-0E0,2.1541497E-2,1.5861934E-2,-1.13674775E-2,-4.6090907E-4,1.7249016E-2],"split_indices":[0,0,0,0,2,8,8,7,7,0,8,0,0,0,0,0,0],"split_type":[0,0,0,0,0,0,0,0,0,0,0,0,0,0,0,0,0],"sum_hessian":[2.0790184E4,1.3255952E4,7.5342324E3,1.3171902E4,8.404978E1,6.826971E1,1.5780078E1,2.0481758E1,4.7787945E1,7.2690353E0,8.511043E0,5.298068E0,1.5183691E1,9.810296E0,3.797765E1,4.0186515E0,4.492391E0],"tree_param":{"num_deleted":"0","num_feature":"10","num_nodes":"17","size_leaf_vector":"1"}},{"base_weights":[4.4338834E-2,3.5741262E-2,-1.878312E-2],"categories":[],"categories_nodes":[],"categories_segments":[],"categories_sizes":[],"default_left":[0,0,0],"id":9,"left_children":[1,-1,-1],"loss_changes":[2.215176E4,0E0,0E0],"parents":[2147483647,0,0],"right_children":[2,-1,-1],"split_conditions":[-2.08126E-1,3.5741262E-2,-1.878312E-2],"split_indices":[0,0,0],"split_type":[0,0,0],"sum_hessian":[2.0802297E4,7.596746E3,1.320555E4],"tree_param":{"num_deleted":"0","num_feature":"10","num_nodes":"3","size_leaf_vector":"1"}},{"base_weights":[-8.915304E-2,1.7991845E-2,-2.714903E-1,1.729485E-1,-2.6067251E-2,-2.5430423E-1,-4.3815592E-1,2.9781514E-1,8.87747E-2,-5.508405E-3,-1.7499629E-1,-2.2040583E-1,-3.1995982E-1,-7.187635E-2,-4.5436525E-1,5.6288046E-1,2.3889811E-1,2.6259464E-1,4.881517E-2,1.7042871E-1,-1.5753346E-2,-2.8564867E-1,-8.5433744E-2,-2.4339192E-2,-2.316586E-1,-1.6189344E-1,-3.3283994E-1,1.3593233E-1,-2.6285958E-1,-3.1760588E-1,-1.2262577E-2,6.213669E-3,1.7337915E-2,6.8059983E-3,-4.0054857E-4,-3.2967383E-3,8.2367305E-3,2.8035452E-3,-1.5939525E-3,-7.7432254E-4,6.4314585E-3,-8.4730063E-4,1.9373447E-3,6.590853E-3,-7.653593E-3,-5.042199E-3,2.3284047E-4,7.348629E-3,-5.6638364E-3,-6.3378075E-3,-3.5374297E-3,8.195356E-3,-7.1165347E-3,-1.3219217E-2,-7.918841E-3,-4.8472076E-3,1.2216938E-2,-1.5220105E-2,2.9118985E-3,-0E0,-9.543101E-3],"categories":[],"categories_nodes":[],"categories_segments":[],"categories_sizes":[],"default_left":[0,0,0,0,0,0,0,0,0,0,0,0,0,0,0,0,0,0,0,0,0,0,0,0,0,0,0,0,0,0,0,0,0,0,0,0,0,0,0,0,0,0,0,0,0,0,0,0,0,0,0,0,0,0,0,0,0,0,0,0,0],"id":10,"left_children":[1,3,5,7,9,11,13,15,17,19,21,23,25,27,29,31,33,35,37,39,41,43,45,47,49,51,53,55,57,59,-1,-1,-1,-1,-1,-1,-1,-1,-1,-1,-1,-1,-1,-1,-1,-1,-1,-1,-1,-1,-1,-1,-1,-1,-1,-1,-1,-1,-1,-1,-1],"loss_changes":[4.0290613E2,8.875851E1,2.1109985E1,2.9866302E1,3.076099E1,1.4843262E1,3.6743317E0,1.7150658E1,1.1678211E1,1.5869097E1,1.1718525E1,9.858856E0,4.2648926E0,1.4801214E0,1.6597595E0,6.7785797E0,7.1534424E0,7.843315E0,9.685137E0,8.220576E0,1.3511143E1,4.5791245E0,7.43274E0,1.5775184E1,6.597992E0,1.0537779E1,7.7963867E0,1.9576973E0,3.060422E0,2.2279663E0,0E0,0E0,0E0,0E0,0E0,0E0,0E0,0E0,0E0,0E0,0E0,0E0,0E0,0E0,0E0,0E0,0E0,0E0,0E0,0E0,0E0,0E0,0E0,0E0,0E0,0E0,0E0,0E0,0E0,0E0,0E0],"parents":[2147483647,0,0,1,1,2,2,3,3,4,4,5,5,6,6,7,7,8,8,9,9,10,10,11,11,12,12,13,13,14,14,15,15,16,16,17,17,18,18,19,19,20,20,21,21,22,22,23,23,24,24,25,25,26,26,27,27,28,28,29,29],"right_children":[2,4,6,8,10,12,14,16,18,20,22,24,26,28,30,32,34,36,38,40,42,44,46,48,50,52,54,56,58,60,-1,-1,-1,-1,-1,-1,-1,-1,-1,-1,-1,-1,-1,-1,-1,-1,-1,-1,-1,-1,-1,-1,-1,-1,-1,-1,-1,-1,-1,-1,-1],"split_conditions":[1.18482515E-1,-8.93412E-1,2.4361038E0,-8.1214535E-1,9.3982756E-1,1.104025E0,-1.7918447E0,-1.4818648E0,-4.8636177E-1,-1.0000606E0,4.2882448E-1,-8.4190536E-1,-8.104888E-1,3.1519713E0,4.5146903E-1,-3.8393828E-1,4.5490786E-1,-6.756425E-1,1.396652E-1,-2.1417013E-1,1.6227062E0,-2.5621507E0,-3.6063546E-1,-8.135918E-2,6.507267E-1,4.0482953E-1,-6.248607E-1,1.8636968E0,4.664242E0,-4.4449773E-1,-1.2262577E-2,6.213669E-3,1.7337915E-2,6.8059983E-3,-4.0054857E-4,-3.2967383E-3,8.2367305E-3,2.8035452E-3,-1.5939525E-3,-7.7432254E-4,6.4314585E-3,-8.4730063E-4,1.9373447E-3,6.590853E-3,-7.653593E-3,-5.042199E-3,2.3284047E-4,7.348629E-3,-5.6638364E-3,-6.3378075E-3,-3.5374297E-3,8.195356E-3,-7.1165347E-3,-1.3219217E-2,-7.918841E-3,-4.8472076E-3,1.2216938E-2,-1.5220105E-2,2.9118985E-3,-0E0,-9.543101E-3],"split_indices":[1,6,1,1,6,6,5,6,9,1,8,6,9,1,6,9,3,3,3,5,8,3,9,5,5,1,9,6,1,9,0,0,0,0,0,0,0,0,0,0,0,0,0,0,0,0,0,0,0,0,0,0,0,0,0,0,0,0,0,0,0],"split_type":[0,0,0,0,0,0,0,0,0,0,0,0,0,0,0,0,0,0,0,0,0,0,0,0,0,0,0,0,0,0,0,0,0,0,0,0,0,0,0,0,0,0,0,0,0,0,0,0,0,0,0,0,0,0,0,0,0,0,0,0,0],"sum_hessian":[2.0609936E4,1.2978925E4,7.6310107E3,2.8774802E3,1.0101444E4,6.924839E3,7.06172E2,1.1532589E3,1.7242213E3,8.8825E3,1.2189448E3,4.57892E3,2.345919E3,3.258887E1,6.735831E2,2.0543138E2,9.478275E2,3.169638E2,1.4072576E3,4.8295657E2,8.399543E3,5.397041E2,6.792407E2,2.5321713E2,4.325703E3,1.8316626E2,2.1627524E3,1.337462E1,1.9214252E1,1.2078375E2,5.527994E2,5.8611668E1,1.4681972E2,8.5535034E2,9.2477165E1,4.05515E1,2.7641232E2,9.129649E2,4.942926E2,1.3729259E2,3.45664E2,7.061765E3,1.3377783E3,1.2565444E1,5.271387E2,3.139465E2,3.652942E2,9.6170616E1,1.5704651E2,3.6300112E3,6.956916E2,3.3994724E1,1.4917154E2,2.174293E2,1.9453232E3,5.6692243E0,7.705396E0,1.1213312E1,8.00094E0,1.8606018E1,1.02177734E2],"tree_param":{"num_deleted":"0","num_feature":"10","num_nodes":"61","size_leaf_vector":"1"}},{"base_weights":[4.0582605E-2,-7.2576153E-1,3.467574E-2,-1.8622696E-2,2.144505E-1,6.6897297E-1,3.9204277E-2,9.673941E-1,-0E0,-3.2940567E-1,4.441826E-1,-0E0,3.225213E-2,4.598927E-3,-1.18748E-2,2.8280215E-2,5.6367535E-3],"categories":[],"categories_nodes":[],"categories_segments":[],"categories_sizes":[],"default_left":[0,0,0,0,0,0,0,0,0,0,0,0,0,0,0,0,0],"id":11,"left_children":[1,3,-1,-1,5,7,9,11,-1,13,15,-1,-1,-1,-1,-1,-1],"loss_changes":[2.0974656E4,7.719092E1,0E0,0E0,6.140753E0,5.083082E0,9.841E0,3.7421598E0,0E0,2.6545227E0,3.3181443E0,0E0,0E0,0E0,0E0,0E0,0E0],"parents":[2147483647,0,0,1,1,4,4,5,5,6,6,7,7,9,9,10,10],"right_children":[2,4,-1,-1,6,8,10,12,-1,14,16,-1,-1,-1,-1,-1,-1],"split_conditions":[2.0789987E-1,2.0084728E-1,3.467574E-2,-1.8622696E-2,-3.854373E-1,5.1697284E-1,1.0036747E0,-5.390407E-1,-0E0,-7.119014E-1,1.2793603E0,-0E0,3.225213E-2,4.598927E-3,-1.18748E-2,2.8280215E-2,5.6367535E-3],"split_indices":[0,0,0,0,8,5,8,4,0,5,8,0,0,0,0,0,0],"split_type":[0,0,0,0,0,0,0,0,0,0,0,0,0,0,0,0,0],"sum_hessian":[2.069517E4,1.3101963E4,7.5932075E3,1.3017117E4,8.484612E1,2.1416853E1,6.342927E1,1.5206141E1,6.210711E0,3.2078568E1,3.1350702E1,4.396025E0,1.0810116E1,5.2930984E0,2.6785471E1,5.892651E0,2.5458052E1],"tree_param":{"num_deleted":"0","num_feature":"10","num_nodes":"17","size_leaf_vector":"1"}},{"base_weights":[4.1578002E-2,3.4697935E-2,-1.8637765E-2],"categories":[],"categories_nodes":[],"categories_segments":[],"categories_sizes":[],"default_left":[0,0,0],"id":12,"left_children":[1,-1,-1],"loss_changes":[2.1282205E4,0E0,0E0],"parents":[2147483647,0,0],"right_children":[2,-1,-1],"split_conditions":[-2.08126E-1,3.4697935E-2,-1.8637765E-2],"split_indices":[0,0,0],"split_type":[0,0,0],"sum_hessian":[2.0788934E4,7.6770444E3,1.311189E4],"tree_param":{"num_deleted":"0","num_feature":"10","num_nodes":"3","size_leaf_vector":"1"}},{"base_weights":[-8.862526E-2,1.3336701E-2,-2.647703E-1,1.5463015E-1,-3.4464233E-2,-2.1501972E-1,-3.206264E-1,2.7242076E-1,8.043115E-2,-1.2468322E-2,-1.8525371E-1,-0E0,-2.304114E-1,-3.0167374E-1,-4.5548242E-1,5.761031E-1,2.2846943E-1,-1.4954151E-1,9.6337244E-2,-1.3467011E-1,7.2171367E-3,-1.2628467E-1,-3.2803887E-1,3.8642374E-1,-4.375386E-2,-2.5845033E-1,-1.5772907E-1,-3.5282245E-1,-2.509932E-1,-1.387067E-2,-3.2344675E-1,1.5556598E-2,-7.374797E-3,2.369243E-3,7.5663654E-3,1.7893972E-3,-1.258638E-2,-5.1041082E-3,2.8028805E-3,1.9880107E-3,-3.7859762E-3,-2.6941877E-3,5.1446946E-4,-5.4000546E-3,-4.5129735E-7,-9.060719E-3,-1.7659977E-3,1.5014014E-2,-0E0,-2.4276574E-3,1.1334284E-2,-7.23072E-3,-4.2966716E-3,-6.880723E-3,-2.6407922E-3,-7.848822E-3,-1.0673133E-2,-2.4584718E-3,-6.8679196E-3,-1.1325766E-2,-2.1575128E-3],"categories":[],"categories_nodes":[],"categories_segments":[],"categories_sizes":[],"default_left":[0,0,0,0,0,0,0,0,0,0,0,0,0,0,0,0,0,0,0,0,0,0,0,0,0,0,0,0,0,0,0,0,0,0,0,0,0,0,0,0,0,0,0,0,0,0,0,0,0,0,0,0,0,0,0,0,0,0,0,0,0],"id":13,"left_children":[1,3,5,7,9,11,13,15,17,19,21,23,25,27,29,31,33,35,37,39,41,43,45,47,49,51,53,55,57,-1,59,-1,-1,-1,-1,-1,-1,-1,-1,-1,-1,-1,-1,-1,-1,-1,-1,-1,-1,-1,-1,-1,-1,-1,-1,-1,-1,-1,-1,-1,-1],"loss_changes":[3.6987393E2,8.814077E1,2.041272E1,2.848793E1,3.2097538E1,1.3374619E1,8.227692E0,1.6076958E1,7.390785E0,2.0571245E1,9.923382E0,4.6958222E0,7.192627E0,7.43454E0,4.1080856E0,5.2763367E0,9.9975815E0,1.0136131E1,7.7537117E0,3.6460323E0,1.0683134E1,9.344124E0,2.1604347E0,2.081305E0,5.7402263E0,5.7314606E0,6.0218124E0,3.7523804E0,4.249832E0,0E0,4.697136E0,0E0,0E0,0E0,0E0,0E0,0E0,0E0,0E0,0E0,0E0,0E0,0E0,0E0,0E0,0E0,0E0,0E0,0E0,0E0,0E0,0E0,0E0,0E0,0E0,0E0,0E0,0E0,0E0,0E0,0E0],"parents":[2147483647,0,0,1,1,2,2,3,3,4,4,5,5,6,6,7,7,8,8,9,9,10,10,11,11,12,12,13,13,14,14,15,15,16,16,17,17,18,18,19,19,20,20,21,21,22,22,23,23,24,24,25,25,26,26,27,27,28,28,30,30],"right_children":[2,4,6,8,10,12,14,16,18,20,22,24,26,28,30,32,34,36,38,40,42,44,46,48,50,52,54,56,58,-1,60,-1,-1,-1,-1,-1,-1,-1,-1,-1,-1,-1,-1,-1,-1,-1,-1,-1,-1,-1,-1,-1,-1,-1,-1,-1,-1,-1,-1,-1,-1],"split_conditions":[1.2743086E-1,-8.320833E-1,8.1477976E-1,-8.1214535E-1,9.3982756E-1,-8.4190536E-1,2.6866574E0,-1.5322809E0,-7.763519E-1,-1.0023662E0,7.002872E-1,-6.2743914E-1,3.6675465E-1,1.5610831E0,4.0886992E-1,4.7204128E-1,-1.2373909E-1,-2.0774178E-1,-8.4611976E-1,-1.0000606E0,-7.4406165E-1,1.740401E0,2.2985759E0,-9.558706E-1,6.986957E-1,1.740401E0,3.7798452E-1,1.040162E0,1.7672008E0,-1.387067E-2,1.9424528E0,1.5556598E-2,-7.374797E-3,2.369243E-3,7.5663654E-3,1.7893972E-3,-1.258638E-2,-5.1041082E-3,2.8028805E-3,1.9880107E-3,-3.7859762E-3,-2.6941877E-3,5.1446946E-4,-5.4000546E-3,-4.5129735E-7,-9.060719E-3,-1.7659977E-3,1.5014014E-2,-0E0,-2.4276574E-3,1.1334284E-2,-7.23072E-3,-4.2966716E-3,-6.880723E-3,-2.6407922E-3,-7.848822E-3,-1.0673133E-2,-2.4584718E-3,-6.8679196E-3,-1.1325766E-2,-2.1575128E-3],"split_indices":[1,6,6,1,6,6,1,6,1,2,7,3,4,2,3,3,4,2,3,1,3,2,6,6,2,2,1,1,2,0,2,0,0,0,0,0,0,0,0,0,0,0,0,0,0,0,0,0,0,0,0,0,0,0,0,0,0,0,0,0,0],"split_type":[0,0,0,0,0,0,0,0,0,0,0,0,0,0,0,0,0,0,0,0,0,0,0,0,0,0,0,0,0,0,0,0,0,0,0,0,0,0,0,0,0,0,0,0,0,0,0,0,0,0,0,0,0,0,0,0,0,0,0,0,0],"sum_hessian":[2.0579984E4,1.3031921E4,7.5480645E3,3.298786E3,9.733135E3,4.0034153E3,3.5446492E3,1.2690779E3,2.029708E3,8.500371E3,1.2327638E3,2.6518756E2,3.7382278E3,3.1165164E3,4.2813266E2,1.5637721E2,1.1127006E3,1.2699614E2,1.9027119E3,1.1852391E3,7.3151323E3,8.782996E2,3.5446414E2,2.7493696E1,2.3769385E2,2.6865962E3,1.0516316E3,1.5392128E3,1.5773037E3,2.4901903E2,1.7911363E2,1.5153769E2,4.839522E0,3.8078003E2,7.319206E2,7.635126E1,5.064488E1,8.1119545E1,1.8215923E3,6.9453606E1,1.1157855E3,7.4617505E2,6.568957E3,5.177464E2,3.6055322E2,3.161465E2,3.8317635E1,1.7253643E1,1.0240053E1,2.1737862E2,2.031523E1,2.076893E3,6.097032E2,3.3352185E2,7.181097E2,9.3619073E2,6.0302203E2,1.7851823E2,1.3987854E3,1.1549485E2,6.361878E1],"tree_param":{"num_deleted":"0","num_feature":"10","num_nodes":"61","size_leaf_vector":"1"}},{"base_weights":[4.5064542E-2,-7.202282E-1,3.369546E-2,-1.847812E-2,2.1368511E-1,4.1069193E-3,5.282617E-1,5.018793E-1,-3.1228465E-1,-1.1294384E-2,7.3589325E-1,-0E0,1.9807758E-2,4.346579E-3,-1.1489684E-2,2.6117837E-2,5.5581173E-3],"categories":[],"categories_nodes":[],"categories_segments":[],"categories_sizes":[],"default_left":[0,0,0,0,0,0,0,0,0,0,0,0,0,0,0,0,0],"id":14,"left_children":[1,3,-1,-1,5,7,9,11,13,-1,15,-1,-1,-1,-1,-1,-1],"loss_changes":[2.0305486E4,7.412549E1,0E0,0E0,4.997924E0,8.627923E0,6.9366484E0,3.780953E0,2.463632E0,0E0,2.711135E0,0E0,0E0,0E0,0E0,0E0,0E0],"parents":[2147483647,0,0,1,1,4,4,5,5,6,6,7,7,8,8,10,10],"right_children":[2,4,-1,-1,6,8,10,12,14,-1,16,-1,-1,-1,-1,-1,-1],"split_conditions":[2.0789987E-1,2.0084728E-1,3.369546E-2,-1.847812E-2,1.0036747E0,-3.854373E-1,-7.2498524E-1,-1.2448868E0,-1.0468311E0,-1.1294384E-2,-6.2478956E-2,-0E0,1.9807758E-2,4.346579E-3,-1.1489684E-2,2.6117837E-2,5.5581173E-3],"split_indices":[0,0,0,0,8,8,4,7,7,0,9,0,0,0,0,0,0],"split_type":[0,0,0,0,0,0,0,0,0,0,0,0,0,0,0,0,0],"sum_hessian":[2.0736969E4,1.2975102E4,7.7618667E3,1.2892572E4,8.252937E1,5.1867264E1,3.0662106E1,2.1106174E1,3.0761091E1,4.420543E0,2.6241562E1,6.620921E0,1.4485252E1,5.33062E0,2.5430471E1,1.50759E1,1.1165662E1],"tree_param":{"num_deleted":"0","num_feature":"10","num_nodes":"17","size_leaf_vector":"1"}},{"base_weights":[4.797901E-2,3.372569E-2,-1.8498916E-2],"categories":[],"categories_nodes":[],"categories_segments":[],"categories_sizes":[],"default_left":[0,0,0],"id":15,"left_children":[1,-1,-1],"loss_changes":[2.0535953E4,0E0,0E0],"parents":[2147483647,0,0],"right_children":[2,-1,-1],"split_conditions":[-2.08126E-1,3.372569E-2,-1.8498916E-2],"split_indices":[0,0,0],"split_type":[0,0,0],"sum_hessian":[2.0735223E4,7.829667E3,1.2905556E4],"tree_param":{"num_deleted":"0","num_feature":"10","num_nodes":"3","size_leaf_vector":"1"}},{"base_weights":[-8.491026E-2,1.8483883E-2,-1.9454941E-1,1.3845068E-1,-4.291083E-2,-1.2308741E-1,-2.7954456E-1,3.6429933E-1,1.15668364E-1,-3.6530662E-2,-3.4190002E-1,-2.0414054E-1,-9.867429E-2,-3.2787693E-1,-2.3270606E-1,-1.5898237E-2,4.1770038E-1,2.1004786E-1,8.1848964E-2,-1.8706542E-1,-2.40275E-2,-4.204792E-1,1.8264279E-2,-1.6924639E-1,-3.2703456E-1,-3.5789616E-2,-1.5758948E-1,-2.7568826E-1,-3.7680066E-1,-3.819998E-1,-2.0667984E-1,8.1906505E-3,-8.037826E-3,1.3483125E-3,1.2216782E-2,-5.8982614E-3,5.9777E-3,2.9351148E-3,-5.461551E-4,-5.744533E-3,2.864996E-3,-1.7849203E-4,-3.900887E-3,-3.5951226E-3,-1.4138373E-2,7.7614416E-3,-9.062381E-3,-0E0,-5.0472408E-3,-9.165267E-3,4.000247E-3,-2.529644E-4,-5.929602E-3,-4.878252E-3,-2.319161E-3,-7.567563E-3,1.1196323E-3,-1.4573035E-2,-9.202702E-3,3.4868943E-3,-1.0588403E-2,-4.3408726E-3,-7.8856675E-3],"categories":[],"categories_nodes":[],"categories_segments":[],"categories_sizes":[],"default_left":[0,0,0,0,0,0,0,0,0,0,0,0,0,0,0,0,0,0,0,0,0,0,0,0,0,0,0,0,0,0,0,0,0,0,0,0,0,0,0,0,0,0,0,0,0,0,0,0,0,0,0,0,0,0,0,0,0,0,0,0,0,0,0],"id":16,"left_children":[1,3,5,7,9,11,13,15,17,19,21,23,25,27,29,31,33,35,37,39,41,43,45,47,49,51,53,55,57,59,61,-1,-1,-1,-1,-1,-1,-1,-1,-1,-1,-1,-1,-1,-1,-1,-1,-1,-1,-1,-1,-1,-1,-1,-1,-1,-1,-1,-1,-1,-1,-1,-1],"loss_changes":[2.332455E2,7.800636E1,6.0229767E1,1.7964203E1,1.2972573E1,1.0444344E1,9.712769E0,6.9701614E0,1.0124706E1,1.2691736E1,4.4295006E0,4.83358E0,1.5316517E1,4.984833E0,8.41143E0,4.0030637E0,6.009304E0,9.4388275E0,8.438915E0,6.157875E0,1.3776533E1,3.7865028E0,2.6603458E0,4.980234E0,4.567074E0,1.0135633E1,4.6024055E0,7.8396454E0,2.3028107E0,6.3243256E0,6.90213E0,0E0,0E0,0E0,0E0,0E0,0E0,0E0,0E0,0E0,0E0,0E0,0E0,0E0,0E0,0E0,0E0,0E0,0E0,0E0,0E0,0E0,0E0,0E0,0E0,0E0,0E0,0E0,0E0,0E0,0E0,0E0,0E0],"parents":[2147483647,0,0,1,1,2,2,3,3,4,4,5,5,6,6,7,7,8,8,9,9,10,10,11,11,12,12,13,13,14,14,15,15,16,16,17,17,18,18,19,19,20,20,21,21,22,22,23,23,24,24,25,25,26,26,27,27,28,28,29,29,30,30],"right_children":[2,4,6,8,10,12,14,16,18,20,22,24,26,28,30,32,34,36,38,40,42,44,46,48,50,52,54,56,58,60,62,-1,-1,-1,-1,-1,-1,-1,-1,-1,-1,-1,-1,-1,-1,-1,-1,-1,-1,-1,-1,-1,-1,-1,-1,-1,-1,-1,-1,-1,-1,-1,-1],"split_conditions":[-2.2409495E-3,-8.320833E-1,9.238006E-1,-1.4818648E0,2.6555285E0,-5.109584E-1,1.5334682E0,-3.3136496E-1,-4.3061715E-1,-8.4611976E-1,5.8085065E0,6.2787175E-1,1.520241E-1,1.4506739E0,-9.26807E-1,-4.820143E-1,-5.7180667E-1,-1.2008327E0,2.5922143E-1,7.213799E-1,7.052491E-1,-2.650102E-1,4.5888554E-3,-6.714993E-1,2.6994252E0,8.2566524E-1,1.2393937E0,1.8027226E0,-1.9470595E0,-4.6356874E0,1.5978709E-1,8.1906505E-3,-8.037826E-3,1.3483125E-3,1.2216782E-2,-5.8982614E-3,5.9777E-3,2.9351148E-3,-5.461551E-4,-5.744533E-3,2.864996E-3,-1.7849203E-4,-3.900887E-3,-3.5951226E-3,-1.4138373E-2,7.7614416E-3,-9.062381E-3,-0E0,-5.0472408E-3,-9.165267E-3,4.000247E-3,-2.529644E-4,-5.929602E-3,-4.878252E-3,-2.319161E-3,-7.567563E-3,1.1196323E-3,-1.4573035E-2,-9.202702E-3,3.4868943E-3,-1.0588403E-2,-4.3408726E-3,-7.8856675E-3],"split_indices":[6,6,6,6,9,3,2,5,9,3,9,5,3,6,3,5,9,2,3,4,3,5,4,9,5,9,2,5,3,3,9,0,0,0,0,0,0,0,0,0,0,0,0,0,0,0,0,0,0,0,0,0,0,0,0,0,0,0,0,0,0,0,0],"split_type":[0,0,0,0,0,0,0,0,0,0,0,0,0,0,0,0,0,0,0,0,0,0,0,0,0,0,0,0,0,0,0,0,0,0,0,0,0,0,0,0,0,0,0,0,0,0,0,0,0,0,0,0,0,0,0,0,0,0,0,0,0,0,0],"sum_hessian":[2.0559793E4,1.0577222E4,9.982572E3,3.5854133E3,6.991808E3,5.430215E3,4.552357E3,3.2352747E2,3.261886E3,6.849786E3,1.4202199E2,1.2465424E3,4.1836724E3,2.227936E3,2.3244211E3,3.7755573E1,2.8577188E2,8.519406E2,2.4099453E3,5.1858044E2,6.3312056E3,1.186041E2,2.3417885E1,9.784859E2,2.6805652E2,2.0320721E3,2.1516003E3,1.0901621E3,1.1377739E3,3.378842E2,1.9865369E3,1.6255396E1,2.1500175E1,4.4242577E1,2.4152931E2,4.305255E1,8.0888806E2,1.8264137E3,5.8353174E2,4.6220554E2,5.6374935E1,5.602323E3,7.288822E2,4.1569477E1,7.703463E1,1.4775822E1,8.642063E0,1.4003014E2,8.3845575E2,2.5288258E2,1.5173936E1,1.8017181E3,2.3035394E2,1.4105911E3,7.4100934E2,1.02350073E3,6.6661316E1,7.448365E1,1.0632903E3,1.9012823E1,3.1887137E2,1.4809156E3,5.0562122E2],"tree_param":{"num_deleted":"0","num_feature":"10","num_nodes":"63","size_leaf_vector":"1"}},{"base_weights":[3.854523E-2,-7.153902E-1,3.278188E-2,-1.8340811E-2,1.3731785E-1,7.239074E-1,-2.543843E-2,2.6742134E-2,-0E0,-1.6740276E-1,3.5878485E-1,6.490773E-3,-8.778167E-3,-1.0776802E-2,1.8746777E-2],"categories":[],"categories_nodes":[],"categories_segments":[],"categories_sizes":[],"default_left":[0,0,0,0,0,0,0,0,0,0,0,0,0,0,0],"id":17,"left_children":[1,3,-1,-1,5,7,9,-1,-1,11,13,-1,-1,-1,-1],"loss_changes":[1.9483604E4,6.1186035E1,0E0,0E0,8.539207E0,3.6651907E0,3.370946E0,0E0,0E0,3.8565574E0,5.245993E0,0E0,0E0,0E0,0E0],"parents":[2147483647,0,0,1,1,4,4,5,5,6,6,9,9,10,10],"right_children":[2,4,-1,-1,6,8,10,-1,-1,12,14,-1,-1,-1,-1],"split_conditions":[2.0789987E-1,2.0084728E-1,3.278188E-2,-1.8340811E-2,-3.98052E-1,4.0886828E-1,1.6042303E0,2.6742134E-2,-0E0,-3.854373E-1,-1.496954E-1,6.490773E-3,-8.778167E-3,-1.0776802E-2,1.8746777E-2],"split_indices":[0,0,0,0,3,4,8,0,0,8,3,0,0,0,0],"split_type":[0,0,0,0,0,0,0,0,0,0,0,0,0,0,0],"sum_hessian":[2.067224E4,1.2894416E4,7.777823E3,1.2812914E4,8.150199E1,1.8285719E1,6.3216274E1,1.1520133E1,6.7655854E0,4.8314857E1,1.4901416E1,1.2618822E1,3.5696037E1,4.010132E0,1.0891284E1],"tree_param":{"num_deleted":"0","num_feature":"10","num_nodes":"15","size_leaf_vector":"1"}},{"base_weights":[4.1604538E-2,8.005487E-4,1.23411424E-1,-4.071201E-2,4.8798542E-2,7.115142E-2,1.5814464E-1,-1.2873828E-1,-7.106721E-3,3.975591E-2,4.8544303E-1,1.5417278E-1,3.0194784E-2,-8.755271E-2,1.6922171E-1,2.8956836E-2,-1.5812315E-1,-7.4507385E-2,1.1590987E-2,-2.4918312E-1,5.034336E-2,6.456231E-1,-1.20669045E-1,1.0986936E-1,3.852794E-1,2.2613922E-2,1.7054094E-2,5.392976E-1,-1.5739137E-1,1.4867613E-1,3.034815E-1,-2.5322605E-3,4.744657E-3,-5.358041E-3,-1.6966477E-3,2.598062E-4,-3.8546582E-3,2.3577379E-3,-3.6041316E-4,3.17459E-3,-7.94244E-3,7.5734463E-3,1.07793E-3,1.8581413E-2,5.0204066E-3,1.5338482E-2,-1.0419134E-2,-3.3792208E-3,3.4555597E-3,5.9478916E-4,1.5369722E-2,1.4794425E-3,-1.6553807E-3,-0E0,1.936685E-2,3.2436056E-3,-6.065885E-3,-5.614463E-3,3.9994065E-3,4.4222732E-4,9.142399E-3],"categories":[],"categories_nodes":[],"categories_segments":[],"categories_sizes":[],"default_left":[0,0,0,0,0,0,0,0,0,0,0,0,0,0,0,0,0,0,0,0,0,0,0,0,0,0,0,0,0,0,0,0,0,0,0,0,0,0,0,0,0,0,0,0,0,0,0,0,0,0,0,0,0,0,0,0,0,0,0,0,0],"id":18,"left_children":[1,3,5,7,9,11,13,15,17,19,21,23,25,27,29,31,33,35,37,39,41,43,45,47,49,51,-1,53,55,57,59,-1,-1,-1,-1,-1,-1,-1,-1,-1,-1,-1,-1,-1,-1,-1,-1,-1,-1,-1,-1,-1,-1,-1,-1,-1,-1,-1,-1,-1,-1],"loss_changes":[6.917749E1,2.7623846E1,1.2300453E1,2.182576E1,2.491064E1,9.233371E0,1.1341095E1,9.59111E0,6.8396826E0,1.9130013E1,1.3032904E1,8.778481E0,8.371328E0,7.3901296E0,1.0457237E1,6.506491E0,8.013786E0,7.8276567E0,8.849126E0,5.3959665E0,1.1684475E1,2.910324E0,5.552131E0,4.8396482E0,1.0648239E1,5.738156E0,0E0,2.1947317E0,3.8189662E0,1.0806648E1,7.929203E0,0E0,0E0,0E0,0E0,0E0,0E0,0E0,0E0,0E0,0E0,0E0,0E0,0E0,0E0,0E0,0E0,0E0,0E0,0E0,0E0,0E0,0E0,0E0,0E0,0E0,0E0,0E0,0E0,0E0,0E0],"parents":[2147483647,0,0,1,1,2,2,3,3,4,4,5,5,6,6,7,7,8,8,9,9,10,10,11,11,12,12,13,13,14,14,15,15,16,16,17,17,18,18,19,19,20,20,21,21,22,22,23,23,24,24,25,25,27,27,28,28,29,29,30,30],"right_children":[2,4,6,8,10,12,14,16,18,20,22,24,26,28,30,32,34,36,38,40,42,44,46,48,50,52,-1,54,56,58,60,-1,-1,-1,-1,-1,-1,-1,-1,-1,-1,-1,-1,-1,-1,-1,-1,-1,-1,-1,-1,-1,-1,-1,-1,-1,-1,-1,-1,-1,-1],"split_conditions":[2.1691431E-1,1.2267149E-1,-4.3397632E-1,-6.958169E-1,1.4864374E0,-3.2329622E-1,-1.7918447E0,-3.8308454E-1,-1.261977E0,-1.089544E0,8.2689136E-2,-4.43505E-1,4.457677E0,3.600878E-1,1.0461259E0,1.3968506E-1,-4.4707102E-1,-3.3094686E-2,-9.152395E-1,-3.6156052E-1,-1.4928771E0,1.2292309E0,-1.2951593E0,-1.2020574E0,-1.3046434E0,1.8408657E0,1.7054094E-2,3.2509524E-2,-7.432743E-1,-2.5621815E0,-6.963558E-1,-2.5322605E-3,4.744657E-3,-5.358041E-3,-1.6966477E-3,2.598062E-4,-3.8546582E-3,2.3577379E-3,-3.6041316E-4,3.17459E-3,-7.94244E-3,7.5734463E-3,1.07793E-3,1.8581413E-2,5.0204066E-3,1.5338482E-2,-1.0419134E-2,-3.3792208E-3,3.4555597E-3,5.9478916E-4,1.5369722E-2,1.4794425E-3,-1.6553807E-3,-0E0,1.936685E-2,3.2436056E-3,-6.065885E-3,-5.614463E-3,3.9994065E-3,4.4222732E-4,9.142399E-3],"split_indices":[1,7,7,1,3,4,5,3,7,1,1,4,3,1,3,5,7,5,7,5,2,7,5,3,7,2,0,7,4,4,2,0,0,0,0,0,0,0,0,0,0,0,0,0,0,0,0,0,0,0,0,0,0,0,0,0,0,0,0,0,0],"split_type":[0,0,0,0,0,0,0,0,0,0,0,0,0,0,0,0,0,0,0,0,0,0,0,0,0,0,0,0,0,0,0,0,0,0,0,0,0,0,0,0,0,0,0,0,0,0,0,0,0,0,0,0,0,0,0,0,0,0,0,0,0],"sum_hessian":[2.075803E4,1.3858177E4,6.899853E3,7.4207085E3,6.4374688E3,2.7667485E3,4.1331045E3,2.0418256E3,5.378883E3,6.309922E3,1.2754658E2,9.056117E2,1.861137E3,1.743738E2,3.9587305E3,3.1569205E2,1.7261335E3,1.1784468E3,4.200436E3,2.1918925E2,6.090733E3,1.0206508E2,2.5481497E1,7.64451E2,1.4116072E2,1.84172E3,1.9416918E1,1.5528376E1,1.5884541E2,3.441037E3,5.176935E2,1.7077217E2,1.4491988E2,1.0894305E3,6.36703E2,5.556674E2,6.2277936E2,1.02089795E3,3.1795383E3,2.9325218E1,1.8986404E2,1.8554999E2,5.9051826E3,8.360447E1,1.8460611E1,6.0648036E0,1.9416695E1,6.999964E1,6.944513E2,5.5183964E1,8.597675E1,1.3183933E3,5.233267E2,4.392641E0,1.1135735E1,3.249518E1,1.2635024E2,7.462319E1,3.3664138E3,8.751334E1,4.3018015E2],"tree_param":{"num_deleted":"0","num_feature":"10","num_nodes":"61","size_leaf_vector":"1"}},{"base_weights":[-8.451723E-2,-1.8489435E-2,2.6154536E-1,1.3082252E0,-1.8218962E-2,3.353207E-2,5.2894175E-1,5.902237E-1,-6.9091306E-3,5.4552746E-3,1.8835008E-2],"categories":[],"categories_nodes":[],"categories_segments":[],"categories_sizes":[],"default_left":[0,0,0,0,0,0,0,0,0,0,0],"id":19,"left_children":[1,-1,3,5,-1,-1,7,9,-1,-1,-1],"loss_changes":[4.5581196E3,0E0,1.3637189E4,4.666211E1,0E0,0E0,4.485426E0,3.3561478E0,0E0,0E0,0E0],"parents":[2147483647,0,0,2,2,3,3,6,6,7,7],"right_children":[2,-1,4,6,-1,-1,8,10,-1,-1,-1],"split_conditions":[-2.08126E-1,-1.8489435E-2,2.0789987E-1,2.0084728E-1,-1.8218962E-2,3.353207E-2,2.1654737E0,-5.884367E-1,-6.9091306E-3,5.4552746E-3,1.8835008E-2],"split_indices":[0,0,0,0,0,0,6,1,0,0,0],"split_type":[0,0,0,0,0,0,0,0,0,0,0],"sum_hessian":[2.0505465E4,7.180906E3,1.3324559E4,6.435423E3,6.889136E3,6.3539106E3,8.151214E1,7.702433E1,4.4878116E0,2.439037E1,5.263396E1],"tree_param":{"num_deleted":"0","num_feature":"10","num_nodes":"11","size_leaf_vector":"1"}},{"base_weights":[4.1820575E-2,-7.101178E-1,3.1930603E-2,-1.8208973E-2,1.4707512E-1,2.335953E-3,6.282365E-1,3.843537E-1,-1.3979313E-1,2.4321739E-2,-0E0,-1.0357238E-2,2.2535568E-2,-1.1591534E-2,5.2273874E-3],"categories":[],"categories_nodes":[],"categories_segments":[],"categories_sizes":[],"default_left":[0,0,0,0,0,0,0,0,0,0,0,0,0,0,0],"id":20,"left_children":[1,3,-1,-1,5,7,9,11,13,-1,-1,-1,-1,-1,-1],"loss_changes":[1.881977E4,6.172754E1,0E0,0E0,5.135564E0,3.8419228E0,2.8722463E0,8.642206E0,5.411568E0,0E0,0E0,0E0,0E0,0E0,0E0],"parents":[2147483647,0,0,1,1,4,4,5,5,6,6,7,7,8,8],"right_children":[2,4,-1,-1,6,8,10,12,14,-1,-1,-1,-1,-1,-1],"split_conditions":[2.0789987E-1,2.0084728E-1,3.1930603E-2,-1.8208973E-2,1.9153E0,-1.0468311E0,6.3622737E-1,-6.4866275E-1,1.3657877E-1,2.4321739E-2,-0E0,-1.0357238E-2,2.2535568E-2,-1.1591534E-2,5.2273874E-3],"split_indices":[0,0,0,0,2,7,6,2,7,0,0,0,0,0,0],"split_type":[0,0,0,0,0,0,0,0,0,0,0,0,0,0,0],"sum_hessian":[2.0627158E4,1.2734282E4,7.8928765E3,1.265291E4,8.1371994E1,6.474704E1,1.6624956E1,1.893589E1,4.5811146E1,9.814202E0,6.810755E0,6.6826024E0,1.2253287E1,2.519741E1,2.0613737E1],"tree_param":{"num_deleted":"0","num_feature":"10","num_nodes":"15","size_leaf_vector":"1"}},{"base_weights":[4.5033198E-2,3.242379E-2,-1.8309278E-2],"categories":[],"categories_nodes":[],"categories_segments":[],"categories_sizes":[],"default_left":[0,0,0],"id":21,"left_children":[1,-1,-1],"loss_changes":[1.945586E4,0E0,0E0],"parents":[2147483647,0,0],"right_children":[2,-1,-1],"split_conditions":[-2.08126E-1,3.242379E-2,-1.8309278E-2],"split_indices":[0,0,0],"split_type":[0,0,0],"sum_hessian":[2.0692904E4,7.935509E3,1.27573955E4],"tree_param":{"num_deleted":"0","num_feature":"10","num_nodes":"3","size_leaf_vector":"1"}},{"base_weights":[-8.195268E-2,-1.8419264E-2,2.6146722E-1,1.2749648E0,-1.8019293E-2,3.2672454E-2,5.187953E-1,-2.4700293E-1,7.5809187E-1,-1.2319647E-2,4.0012365E-3,3.1857807E-3,2.2643125E-2],"categories":[],"categories_nodes":[],"categories_segments":[],"categories_sizes":[],"default_left":[0,0,0,0,0,0,0,0,0,0,0,0,0],"id":22,"left_children":[1,-1,3,5,-1,-1,7,9,11,-1,-1,-1,-1],"loss_changes":[4.5021562E3,0E0,1.3074049E4,4.31875E1,0E0,0E0,1.5546648E1,2.2068253E0,4.2142334E0,0E0,0E0,0E0,0E0],"parents":[2147483647,0,0,2,2,3,3,6,6,7,7,8,8],"right_children":[2,-1,4,6,-1,-1,8,10,12,-1,-1,-1,-1],"split_conditions":[-2.08126E-1,-1.8419264E-2,2.0789987E-1,2.0084728E-1,-1.8019293E-2,3.2672454E-2,-3.98052E-1,1.4532755E-1,-3.854373E-1,-1.2319647E-2,4.0012365E-3,3.1857807E-3,2.2643125E-2],"split_indices":[0,0,0,0,0,0,3,1,8,0,0,0,0],"split_type":[0,0,0,0,0,0,0,0,0,0,0,0,0],"sum_hessian":[2.0415688E4,7.115297E3,1.3300391E4,6.5037573E3,6.7966333E3,6.4233496E3,8.040769E1,1.8202154E1,6.220554E1,1.2823974E1,5.37818E0,1.2258531E1,4.994701E1],"tree_param":{"num_deleted":"0","num_feature":"10","num_nodes":"13","size_leaf_vector":"1"}},{"base_weights":[4.1294828E-2,1.9804314E-1,2.627646E-2,1.0185749E-1,3.097039E-1,1.3299394E-1,6.57723E-3,2.3612925E-1,4.3031104E-2,3.828654E-1,1.81964E-1,1.2241287E-1,4.6561587E-1,1.3670555E-1,-6.1082514E-3,3.2312402E-1,7.876211E-3,1.21501565E-1,-6.8368345E-2,5.656493E-1,3.046107E-1,-1.21519536E-1,2.4633157E-1,-3.5659778E-1,1.2840903E-1,2.6726535E-1,2.5084347E-2,3.24364E-1,9.006366E-2,1.2263113E-1,-1.6149146E-2,2.1270635E-3,1.1318505E-2,6.150519E-3,-7.524394E-3,-7.914616E-3,4.0140506E-3,1.1807787E-3,-8.953617E-3,1.2712228E-2,2.6532765E-2,1.2298647E-2,4.86089E-3,7.9062395E-3,-1.2036711E-2,1.1011364E-2,2.56985E-3,-0E0,-1.2506622E-2,3.0816025E-3,1.0388695E-2,-1.1348615E-2,8.867222E-3,-1.7596467E-3,1.2033096E-2,1.2502101E-2,1.8055331E-3,6.041392E-3,4.9776933E-4,1.2466412E-2,-4.5656817E-4],"categories":[],"categories_nodes":[],"categories_segments":[],"categories_sizes":[],"default_left":[0,0,0,0,0,0,0,0,0,0,0,0,0,0,0,0,0,0,0,0,0,0,0,0,0,0,0,0,0,0,0,0,0,0,0,0,0,0,0,0,0,0,0,0,0,0,0,0,0,0,0,0,0,0,0,0,0,0,0,0,0],"id":23,"left_children":[1,3,5,7,9,11,13,15,17,19,21,23,25,27,29,31,33,35,37,39,41,43,45,47,49,51,-1,53,55,57,59,-1,-1,-1,-1,-1,-1,-1,-1,-1,-1,-1,-1,-1,-1,-1,-1,-1,-1,-1,-1,-1,-1,-1,-1,-1,-1,-1,-1,-1,-1],"loss_changes":[4.82972E1,1.8876793E1,3.94164E1,7.396966E0,7.129158E0,9.6875725E0,2.635245E1,5.459013E0,6.0106406E0,6.464569E0,6.1467247E0,7.977417E0,7.5754967E0,1.1995754E1,1.8609283E1,5.5207253E0,5.986383E0,6.252424E0,9.31988E0,2.8463745E0,6.786911E0,8.159198E0,6.406665E0,1.5889597E0,5.178894E0,3.8497167E0,0E0,1.6661524E1,8.184739E0,1.2067627E1,1.1778931E1,0E0,0E0,0E0,0E0,0E0,0E0,0E0,0E0,0E0,0E0,0E0,0E0,0E0,0E0,0E0,0E0,0E0,0E0,0E0,0E0,0E0,0E0,0E0,0E0,0E0,0E0,0E0,0E0,0E0,0E0],"parents":[2147483647,0,0,1,1,2,2,3,3,4,4,5,5,6,6,7,7,8,8,9,9,10,10,11,11,12,12,13,13,14,14,15,15,16,16,17,17,18,18,19,19,20,20,21,21,22,22,23,23,24,24,25,25,27,27,28,28,29,29,30,30],"right_children":[2,4,6,8,10,12,14,16,18,20,22,24,26,28,30,32,34,36,38,40,42,44,46,48,50,52,-1,54,56,58,60,-1,-1,-1,-1,-1,-1,-1,-1,-1,-1,-1,-1,-1,-1,-1,-1,-1,-1,-1,-1,-1,-1,-1,-1,-1,-1,-1,-1,-1,-1],"split_conditions":[-9.564161E-1,-3.309717E-1,-1.1823044E0,-3.232745E-1,-1.2020574E0,2.6555285E0,-9.278308E-1,-1.0890964E0,4.754321E-1,-3.980616E-1,-8.1011814E-1,-8.8375384E-1,2.1349946E-1,-7.959078E-1,-1.037052E0,-9.278308E-1,-5.2106774E-1,-2.2695115E-1,-4.726024E-1,-5.109691E-1,-3.0220544E-1,-1.1888057E0,-4.3397632E-1,-4.9043787E-1,-1.1944121E0,-9.019932E-1,2.5084347E-2,-4.9056423E-1,-4.6357393E0,3.6626086E-2,-1.9255978E0,2.1270635E-3,1.1318505E-2,6.150519E-3,-7.524394E-3,-7.914616E-3,4.0140506E-3,1.1807787E-3,-8.953617E-3,1.2712228E-2,2.6532765E-2,1.2298647E-2,4.86089E-3,7.9062395E-3,-1.2036711E-2,1.1011364E-2,2.56985E-3,-0E0,-1.2506622E-2,3.0816025E-3,1.0388695E-2,-1.1348615E-2,8.867222E-3,-1.7596467E-3,1.2033096E-2,1.2502101E-2,1.8055331E-3,6.041392E-3,4.9776933E-4,1.2466412E-2,-4.5656817E-4],"split_indices":[3,9,7,5,3,9,5,3,2,4,2,3,5,2,4,5,9,5,9,4,5,2,7,4,7,4,0,9,5,5,2,0,0,0,0,0,0,0,0,0,0,0,0,0,0,0,0,0,0,0,0,0,0,0,0,0,0,0,0,0,0],"split_type":[0,0,0,0,0,0,0,0,0,0,0,0,0,0,0,0,0,0,0,0,0,0,0,0,0,0,0,0,0,0,0,0,0,0,0,0,0,0,0,0,0,0,0,0,0,0,0,0,0,0,0,0,0,0,0,0,0,0,0,0,0],"sum_hessian":[2.0606783E4,1.7953247E3,1.8811457E4,9.699369E2,8.253878E2,2.9231133E3,1.5888345E4,2.897994E2,6.8013745E2,5.189967E2,3.0639117E2,2.8369165E3,8.619676E1,1.4170887E3,1.4471256E4,2.0657782E2,8.322158E1,4.039471E2,2.7619037E2,1.503161E2,3.6868057E2,5.0920105E1,2.5547105E2,3.2488956E1,2.8044275E3,6.469528E1,2.150148E1,2.7702768E2,1.1400612E3,1.0395145E3,1.3431741E4,7.272987E1,1.3384795E2,4.8861687E1,3.4359894E1,2.8722683E1,3.7522443E2,1.9478146E2,8.140889E1,1.3539537E2,1.4920743E1,1.3885413E2,2.2982645E2,2.1687368E1,2.9232735E1,1.0828497E2,1.4718608E2,9.241115E0,2.3247843E1,2.737817E3,6.661062E1,5.0234475E0,5.9671833E1,7.4334366E1,2.026933E2,4.8541546E1,1.0915195E3,4.8683362E2,5.5268085E2,4.4796856E1,1.3386944E4],"tree_param":{"num_deleted":"0","num_feature":"10","num_nodes":"61","size_leaf_vector":"1"}},{"base_weights":[4.23305E-2,3.1611294E-2,-1.817713E-2],"categories":[],"categories_nodes":[],"categories_segments":[],"categories_sizes":[],"default_left":[0,0,0],"id":24,"left_children":[1,-1,-1],"loss_changes":[1.8776713E4,0E0,0E0],"parents":[2147483647,0,0],"right_children":[2,-1,-1],"split_conditions":[-2.08126E-1,3.1611294E-2,-1.817713E-2],"split_indices":[0,0,0],"split_type":[0,0,0],"sum_hessian":[2.0670473E4,7.993906E3,1.2676567E4],"tree_param":{"num_deleted":"0","num_feature":"10","num_nodes":"3","size_leaf_vector":"1"}},{"base_weights":[-8.146534E-2,-1.8233342E-2,2.524658E-1,1.2426054E0,-1.795991E-2,3.1855654E-2,4.880247E-1,-1.1052096E-2,5.9505665E-1,1.8076442E-2,-0E0],"categories":[],"categories_nodes":[],"categories_segments":[],"categories_sizes":[],"default_left":[0,0,0,0,0,0,0,0,0,0,0],"id":25,"left_children":[1,-1,3,5,-1,-1,7,-1,9,-1,-1],"loss_changes":[4.329139E3,0E0,1.26932295E4,4.4984375E1,0E0,0E0,8.725109E0,0E0,5.0886707E0,0E0,0E0],"parents":[2147483647,0,0,2,2,3,3,6,6,8,8],"right_children":[2,-1,4,6,-1,-1,8,-1,10,-1,-1],"split_conditions":[-2.08126E-1,-1.8233342E-2,2.0789987E-1,2.0084728E-1,-1.795991E-2,3.1855654E-2,-7.123E-1,-1.1052096E-2,1.9153E0,1.8076442E-2,-0E0],"split_indices":[0,0,0,0,0,0,3,0,2,0,0],"split_type":[0,0,0,0,0,0,0,0,0,0,0],"sum_hessian":[2.0405637E4,7.0316836E3,1.3373953E4,6.5783726E3,6.79558E3,6.4947656E3,8.360714E1,7.4953322E0,7.611181E1,6.319981E1,1.2912002E1],"tree_param":{"num_deleted":"0","num_feature":"10","num_nodes":"11","size_leaf_vector":"1"}},{"base_weights":[3.6909707E-2,-7.0296115E-1,3.0806294E-2,-1.8034987E-2,1.5569341E-1,8.220079E-1,1.8409286E-2,2.8013976E-2,-0E0,-1.1333805E-1,6.8367124E-1,8.207679E-3,-7.6617002E-3,2.7500372E-2,-0E0],"categories":[],"categories_nodes":[],"categories_segments":[],"categories_sizes":[],"default_left":[0,0,0,0,0,0,0,0,0,0,0,0,0,0,0],"id":26,"left_children":[1,3,-1,-1,5,7,9,-1,-1,11,13,-1,-1,-1,-1],"loss_changes":[1.7835232E4,6.4586426E1,0E0,0E0,7.0467615E0,2.223237E0,7.0243115E0,0E0,0E0,5.0383215E0,4.1254354E0,0E0,0E0,0E0,0E0],"parents":[2147483647,0,0,1,1,4,4,5,5,6,6,9,9,10,10],"right_children":[2,4,-1,-1,6,8,10,-1,-1,12,14,-1,-1,-1,-1],"split_conditions":[2.0789987E-1,2.0084728E-1,3.0806294E-2,-1.8034987E-2,-6.386215E-1,-1.4970253E-1,1.9153E0,2.8013976E-2,-0E0,-3.854373E-1,2.4486215E0,8.207679E-3,-7.6617002E-3,2.7500372E-2,-0E0],"split_indices":[0,0,0,0,3,4,2,0,0,8,2,0,0,0,0],"split_type":[0,0,0,0,0,0,0,0,0,0,0,0,0,0,0],"sum_hessian":[2.0531656E4,1.2593981E4,7.9376753E3,1.2509061E4,8.492015E1,1.2575905E1,7.2344246E1,8.446181E0,4.1297226E0,5.982647E1,1.25177765E1,1.6313877E1,4.3512592E1,8.001696E0,4.516081E0],"tree_param":{"num_deleted":"0","num_feature":"10","num_nodes":"15","size_leaf_vector":"1"}},{"base_weights":[4.5523323E-2,-1.8024229E-2,8.035345E-2,-8.542195E-2,4.330919E-2,7.0707515E-2,2.2493665E-1,-1.0427254E-1,7.147989E-2,-2.3733556E-2,1.0310762E-1,4.5092937E-2,1.22190885E-1,1.03991374E-1,3.5630283E-1,-9.6684426E-2,-3.9355925E-1,-1.35274995E-2,2.4824384E-1,-7.5189546E-2,1.7360409E-1,7.6277316E-2,2.531725E-1,-3.5134336E-1,4.8166905E-2,-2.422793E-1,1.300534E-1,7.864315E-2,1.8880578E-2,1.2475373E-1,3.9658597E-1,-3.8886226E-3,-1.6905245E-3,-1.2721258E-2,-7.146694E-4,6.934253E-4,-1.1985329E-2,1.1014153E-2,-0E0,-8.145123E-3,-1.0204639E-3,1.7725063E-2,2.6624051E-3,9.258008E-3,1.3788807E-3,-1.0100834E-2,6.9555813E-3,4.7944393E-3,-1.2524954E-2,-1.130201E-2,1.2583846E-3,-1.2979382E-3,-1.04071135E-2,5.523997E-3,2.8786699E-3,3.130445E-3,-1.3211153E-2,-2.6170688E-3,1.5581271E-2,1.1998162E-2,5.517067E-3],"categories":[],"categories_nodes":[],"categories_segments":[],"categories_sizes":[],"default_left":[0,0,0,0,0,0,0,0,0,0,0,0,0,0,0,0,0,0,0,0,0,0,0,0,0,0,0,0,0,0,0,0,0,0,0,0,0,0,0,0,0,0,0,0,0,0,0,0,0,0,0,0,0,0,0,0,0,0,0,0,0],"id":27,"left_children":[1,3,5,7,9,11,13,15,17,19,21,23,25,27,29,31,33,35,37,39,41,43,45,47,49,51,53,55,-1,57,59,-1,-1,-1,-1,-1,-1,-1,-1,-1,-1,-1,-1,-1,-1,-1,-1,-1,-1,-1,-1,-1,-1,-1,-1,-1,-1,-1,-1,-1,-1],"loss_changes":[4.562827E1,3.0137236E1,1.8268585E1,1.0319052E1,1.5330677E1,1.6300274E1,1.2655613E1,6.330227E0,5.7536592E0,1.8065807E1,7.8009186E0,9.905512E0,1.1771545E1,6.212373E0,3.1202545E0,4.9369698E0,2.4486637E0,5.0148716E0,5.7998953E0,1.1868454E1,1.2387543E1,1.0506386E1,3.9315357E0,5.0860486E0,4.932684E0,2.26374E0,5.6300354E0,1.0855402E1,0E0,7.5084085E0,3.7086792E0,0E0,0E0,0E0,0E0,0E0,0E0,0E0,0E0,0E0,0E0,0E0,0E0,0E0,0E0,0E0,0E0,0E0,0E0,0E0,0E0,0E0,0E0,0E0,0E0,0E0,0E0,0E0,0E0,0E0,0E0],"parents":[2147483647,0,0,1,1,2,2,3,3,4,4,5,5,6,6,7,7,8,8,9,9,10,10,11,11,12,12,13,13,14,14,15,15,16,16,17,17,18,18,19,19,20,20,21,21,22,22,23,23,24,24,25,25,26,26,27,27,29,29,30,30],"right_children":[2,4,6,8,10,12,14,16,18,20,22,24,26,28,30,32,34,36,38,40,42,44,46,48,50,52,54,56,-1,58,60,-1,-1,-1,-1,-1,-1,-1,-1,-1,-1,-1,-1,-1,-1,-1,-1,-1,-1,-1,-1,-1,-1,-1,-1,-1,-1,-1,-1,-1,-1],"split_conditions":[-3.9780548E-1,-6.254495E-2,1.4064575E0,6.278445E-1,-8.4190536E-1,9.238006E-1,5.6084245E-2,-1.0168503E-1,-6.0541534E-1,2.816288E-1,5.474346E-1,-3.2483275E0,-3.2483652E0,9.19873E-1,-9.2784935E-1,-1.1335949E0,-5.717797E-1,-7.2108126E-1,9.430136E-2,-6.661757E-1,3.2055497E-1,-1.4889838E0,-1.2443364E0,-6.589609E-1,-4.6357384E0,3.2561323E-1,-8.664318E-1,2.3270853E-1,1.8880578E-2,-1.7497055E-1,1.1736325E0,-3.8886226E-3,-1.6905245E-3,-1.2721258E-2,-7.146694E-4,6.934253E-4,-1.1985329E-2,1.1014153E-2,-0E0,-8.145123E-3,-1.0204639E-3,1.7725063E-2,2.6624051E-3,9.258008E-3,1.3788807E-3,-1.0100834E-2,6.9555813E-3,4.7944393E-3,-1.2524954E-2,-1.130201E-2,1.2583846E-3,-1.2979382E-3,-1.04071135E-2,5.523997E-3,2.8786699E-3,3.130445E-3,-1.3211153E-2,-2.6170688E-3,1.5581271E-2,1.1998162E-2,5.517067E-3],"split_indices":[6,7,3,3,6,6,7,7,7,3,4,3,4,9,4,7,6,7,4,9,3,8,3,9,4,8,4,9,0,9,7,0,0,0,0,0,0,0,0,0,0,0,0,0,0,0,0,0,0,0,0,0,0,0,0,0,0,0,0,0,0],"split_type":[0,0,0,0,0,0,0,0,0,0,0,0,0,0,0,0,0,0,0,0,0,0,0,0,0,0,0,0,0,0,0,0,0,0,0,0,0,0,0,0,0,0,0,0,0,0,0,0,0,0,0,0,0,0,0,0,0,0,0,0,0],"sum_hessian":[2.058691E4,7.279296E3,1.3307615E4,3.475321E3,3.8039746E3,1.2482659E4,8.249558E2,3.1081838E3,3.671372E2,1.7862062E3,2.0177686E3,8.3488E3,4.13386E3,4.340722E2,3.9088358E2,3.033067E3,7.511706E1,2.4488239E2,1.22254814E2,1.4209951E3,3.6521112E2,1.7181826E3,2.9958594E2,6.1106777E1,8.287692E3,8.420777E1,4.049652E3,4.19871E2,1.4201226E1,6.192498E1,3.2895862E2,1.0493652E3,1.9837017E3,5.5926193E1,1.9190866E1,2.2372945E2,2.1152943E1,7.054437E1,5.171044E1,1.7373769E2,1.2472573E3,4.0001072E1,3.2521005E2,1.18476234E2,1.5997064E3,7.1317554E0,2.924542E2,1.1210396E1,4.989638E1,1.902785E1,8.268665E3,4.2392956E1,4.181482E1,6.4767596E2,3.401976E3,3.9297113E2,2.6899853E1,4.138739E1,2.0537592E1,2.2738367E2,1.0157494E2],"tree_param":{"num_deleted":"0","num_feature":"10","num_nodes":"61","size_leaf_vector":"1"}},{"base_weights":[-8.144114E-2,-1.8067386E-2,2.4694744E-1,1.2056134E0,-1.781152E-2,3.0923897E-2,4.3111253E-1,-2.1597789E-1,6.327857E-1,-1.3146961E-2,1.51447775E-2,1.8957604E-2,-0E0],"categories":[],"categories_nodes":[],"categories_segments":[],"categories_sizes":[],"default_left":[0,0,0,0,0,0,0,0,0,0,0,0,0],"id":28,"left_children":[1,-1,3,5,-1,-1,7,9,11,-1,-1,-1,-1],"loss_changes":[4.1777915E3,0E0,1.2067318E4,4.8473633E1,0E0,0E0,1.16971445E1,5.0624948E0,4.5985622E0,0E0,0E0,0E0,0E0],"parents":[2147483647,0,0,2,2,3,3,6,6,7,7,8,8],"right_children":[2,-1,4,6,-1,-1,8,10,12,-1,-1,-1,-1],"split_conditions":[-2.08126E-1,-1.8067386E-2,2.0789987E-1,2.0084728E-1,-1.781152E-2,3.0923897E-2,-3.98052E-1,1.6322424E-1,1.9153E0,-1.3146961E-2,1.51447775E-2,1.8957604E-2,-0E0],"split_indices":[0,0,0,0,0,0,3,1,2,0,0,0,0],"split_type":[0,0,0,0,0,0,0,0,0,0,0,0,0],"sum_hessian":[2.0231525E4,6.942242E3,1.3289283E4,6.604477E3,6.6848057E3,6.519677E3,8.4800156E1,1.9027227E1,6.577293E1,1.496273E1,4.064497E0,5.5466133E1,1.0306792E1],"tree_param":{"num_deleted":"0","num_feature":"10","num_nodes":"13","size_leaf_vector":"1"}},{"base_weights":[3.7342492E-2,-4.860115E-3,1.14493296E-1,1.2370904E-1,-2.8537624E-2,2.4449584E-1,9.3284205E-2,-1.9204661E-2,1.4356777E-1,1.2779129E-1,-4.08935E-2,4.5700526E-1,2.082977E-1,2.6453876E-1,8.4362365E-2,3.8041168E-1,-1.4068301E-1,1.9755532E-1,8.9204036E-2,1.4071326E-1,-2.9937175E-1,-1.5409343E-1,-2.4947735E-2,-0E0,5.1243854E-1,2.188297E-1,-8.901616E-3,2.0567527E-2,2.0325431E-1,1.2070134E-1,3.937698E-2,6.1298083E-3,2.4417335E-2,-6.350314E-3,8.824748E-4,5.5367975E-3,-8.909141E-3,3.288492E-3,-8.012322E-4,6.8727816E-3,2.4718845E-3,-0E0,-1.2817619E-2,3.543818E-4,-4.6927403E-3,1.9282785E-4,-1.5438666E-3,9.073169E-3,-1.0041995E-2,1.3991485E-2,8.836107E-4,6.1745723E-3,-0E0,3.7860558E-3,1.5357929E-2,2.913256E-3,1.4201237E-2,1.3134347E-3,-6.134428E-3],"categories":[],"categories_nodes":[],"categories_segments":[],"categories_sizes":[],"default_left":[0,0,0,0,0,0,0,0,0,0,0,0,0,0,0,0,0,0,0,0,0,0,0,0,0,0,0,0,0,0,0,0,0,0,0,0,0,0,0,0,0,0,0,0,0,0,0,0,0,0,0,0,0,0,0,0,0,0,0],"id":29,"left_children":[1,3,5,7,9,11,13,15,17,19,21,23,25,27,29,31,33,35,37,39,41,43,45,47,49,51,-1,-1,53,55,57,-1,-1,-1,-1,-1,-1,-1,-1,-1,-1,-1,-1,-1,-1,-1,-1,-1,-1,-1,-1,-1,-1,-1,-1,-1,-1,-1,-1],"loss_changes":[6.688098E1,4.0250313E1,1.967939E1,5.9507084E0,2.1550001E1,7.070751E0,9.200489E0,1.1749933E1,5.0267944E0,4.38601E0,1.8569624E1,3.3915215E0,5.058216E0,9.028982E0,9.565952E0,3.1669998E0,3.8556144E0,9.823814E0,4.5047746E0,4.1049566E0,1.1892387E0,6.6634674E0,1.0638144E1,2.5278563E0,1.6983795E0,4.447445E0,0E0,0E0,5.224448E0,8.1916275E0,9.005942E0,0E0,0E0,0E0,0E0,0E0,0E0,0E0,0E0,0E0,0E0,0E0,0E0,0E0,0E0,0E0,0E0,0E0,0E0,0E0,0E0,0E0,0E0,0E0,0E0,0E0,0E0,0E0,0E0],"parents":[2147483647,0,0,1,1,2,2,3,3,4,4,5,5,6,6,7,7,8,8,9,9,10,10,11,11,12,12,13,13,14,14,15,15,16,16,17,17,18,18,19,19,20,20,21,21,22,22,23,23,24,24,25,25,28,28,29,29,30,30],"right_children":[2,4,6,8,10,12,14,16,18,20,22,24,26,28,30,32,34,36,38,40,42,44,46,48,50,52,-1,-1,54,56,58,-1,-1,-1,-1,-1,-1,-1,-1,-1,-1,-1,-1,-1,-1,-1,-1,-1,-1,-1,-1,-1,-1,-1,-1,-1,-1,-1,-1],"split_conditions":[4.1452023E-1,-1.1823044E0,-9.8091763E-1,-1.1417418E0,-8.664176E-1,-3.2483275E0,-1.7918588E0,-2.564057E-1,-3.5897127E-1,1.4864465E0,-1.1129078E0,-1.3615115E0,4.4577622E0,-1.0890952E0,1.4286879E0,3.5923478E-1,4.4047944E-2,1.0770253E0,-1.32982E0,-3.3985394E-1,-1.3490819E0,-3.4589204E-1,2.1814778E-1,-4.6356874E0,2.137863E0,1.5886774E0,-8.901616E-3,2.0567527E-2,1.358114E0,3.281658E0,1.9430671E0,6.1298083E-3,2.4417335E-2,-6.350314E-3,8.824748E-4,5.5367975E-3,-8.909141E-3,3.288492E-3,-8.012322E-4,6.8727816E-3,2.4718845E-3,-0E0,-1.2817619E-2,3.543818E-4,-4.6927403E-3,1.9282785E-4,-1.5438666E-3,9.073169E-3,-1.0041995E-2,1.3991485E-2,8.836107E-4,6.1745723E-3,-0E0,3.7860558E-3,1.5357929E-2,2.913256E-3,1.4201237E-2,1.3134347E-3,-6.134428E-3],"split_indices":[6,7,3,6,3,3,4,8,6,4,6,7,5,5,8,5,5,3,7,5,3,5,8,3,5,4,0,0,7,6,5,0,0,0,0,0,0,0,0,0,0,0,0,0,0,0,0,0,0,0,0,0,0,0,0,0,0,0,0],"split_type":[0,0,0,0,0,0,0,0,0,0,0,0,0,0,0,0,0,0,0,0,0,0,0,0,0,0,0,0,0,0,0,0,0,0,0,0,0,0,0,0,0,0,0,0,0,0,0,0,0,0,0,0,0,0,0,0,0,0,0],"sum_hessian":[2.050838E4,1.3249419E4,7.2589624E3,2.0538003E3,1.1195619E4,1.0106147E3,6.248348E3,2.4480164E2,1.8089987E3,8.1387823E2,1.038174E4,1.4179836E2,8.6881635E2,3.0291718E2,5.9454307E3,5.4820934E1,1.8998071E2,8.977862E2,9.112124E2,7.9269806E2,2.1180202E1,1.2736132E3,9.108128E3,1.628653E1,1.25511826E2,8.549126E2,1.3903697E1,2.8018908E1,2.7489825E2,3.276389E3,2.6690417E3,4.6511692E1,8.309242E0,1.20264305E2,6.97164E1,8.682244E2,2.9561771E1,6.899721E2,2.212403E2,1.9298874E2,5.997093E2,9.59495E0,1.1585253E1,1.902358E2,1.0833774E3,4.7546855E3,4.353442E3,9.181505E0,7.105024E0,1.14426125E2,1.1085703E1,7.703824E2,8.4530235E1,2.4514093E2,2.975733E1,3.2338794E3,4.2509506E1,2.5612778E3,1.0776393E2],"tree_param":{"num_deleted":"0","num_feature":"10","num_nodes":"59","size_leaf_vector":"1"}},{"base_weights":[3.9974615E-2,1.4135096E-2,9.2144005E-2,-6.908595E-4,1.0292426E-1,5.6023855E-2,1.6489065E-1,1.05595276E-1,-1.3745412E-2,1.2744355E-1,-7.228258E-2,3.3097982E-2,1.4967987E-1,1.0018048E-1,2.2307073E-1,2.4617475E-1,9.178559E-3,5.4544438E-2,-2.6799124E-2,-2.6334655E-1,1.3640311E-1,2.579459E-1,-1.4875038E-1,9.132091E-3,1.384067E-1,1.9736733E-1,-6.1592475E-2,8.867149E-2,5.9271127E-1,2.7071354E-1,9.011956E-2,9.872373E-3,3.0479704E-3,1.2330072E-3,-6.310279E-3,2.0050956E-3,-4.7102096E-3,-2.1013E-3,-3.1805763E-4,-9.86495E-3,5.116834E-3,3.158558E-3,1.1855718E-2,-4.3525564E-4,1.6898222E-2,-7.636651E-3,8.9492026E-4,-3.915469E-3,6.492528E-4,4.4921756E-4,6.307846E-3,1.5511848E-2,4.461177E-3,8.752351E-3,-6.9091404E-3,2.5937133E-3,-6.535554E-3,-1.0388189E-2,2.2817956E-2,2.922556E-3,8.6433375E-3,5.686247E-3,-5.795584E-3],"categories":[],"categories_nodes":[],"categories_segments":[],"categories_sizes":[],"default_left":[0,0,0,0,0,0,0,0,0,0,0,0,0,0,0,0,0,0,0,0,0,0,0,0,0,0,0,0,0,0,0,0,0,0,0,0,0,0,0,0,0,0,0,0,0,0,0,0,0,0,0,0,0,0,0,0,0,0,0,0,0,0,0],"id":30,"left_children":[1,3,5,7,9,11,13,15,17,19,21,23,25,27,29,31,33,35,37,39,41,43,45,47,49,51,53,55,57,59,61,-1,-1,-1,-1,-1,-1,-1,-1,-1,-1,-1,-1,-1,-1,-1,-1,-1,-1,-1,-1,-1,-1,-1,-1,-1,-1,-1,-1,-1,-1,-1,-1],"loss_changes":[2.7543324E1,1.8166807E1,1.7600891E1,1.6225443E1,8.537266E0,9.573749E0,8.111755E0,1.708186E1,9.315619E0,5.9914227E0,5.9446754E0,9.090133E0,9.051327E0,5.378314E0,7.0592995E0,8.731539E0,7.5333714E0,9.627682E0,6.9365377E0,2.3752291E0,6.2602806E0,5.399329E0,5.7230086E0,7.86402E0,8.616186E0,5.7542133E0,1.3639204E1,4.6880255E0,7.6103177E0,8.753098E0,1.3423758E1,0E0,0E0,0E0,0E0,0E0,0E0,0E0,0E0,0E0,0E0,0E0,0E0,0E0,0E0,0E0,0E0,0E0,0E0,0E0,0E0,0E0,0E0,0E0,0E0,0E0,0E0,0E0,0E0,0E0,0E0,0E0,0E0],"parents":[2147483647,0,0,1,1,2,2,3,3,4,4,5,5,6,6,7,7,8,8,9,9,10,10,11,11,12,12,13,13,14,14,15,15,16,16,17,17,18,18,19,19,20,20,21,21,22,22,23,23,24,24,25,25,26,26,27,27,28,28,29,29,30,30],"right_children":[2,4,6,8,10,12,14,16,18,20,22,24,26,28,30,32,34,36,38,40,42,44,46,48,50,52,54,56,58,60,62,-1,-1,-1,-1,-1,-1,-1,-1,-1,-1,-1,-1,-1,-1,-1,-1,-1,-1,-1,-1,-1,-1,-1,-1,-1,-1,-1,-1,-1,-1,-1,-1],"split_conditions":[5.9547204E-1,7.052491E-1,2.0084183E-1,-7.894637E-1,8.6115074E-1,5.2812886E-1,1.4511788E-1,-3.6532813E-1,-6.756425E-1,-2.1472526E0,-6.784728E-1,1.7673972E0,2.6424408E-1,2.6993668E0,2.0769863E0,-2.2696549E-1,4.8870215E-1,6.173518E-1,-1.229758E0,2.155843E0,4.457677E0,1.168539E0,1.3429946E0,-7.1831435E-1,2.2614656E-2,6.6093284E-1,9.7187144E-1,1.0850489E-1,8.932226E-1,-3.8393828E-1,1.3482708E0,9.872373E-3,3.0479704E-3,1.2330072E-3,-6.310279E-3,2.0050956E-3,-4.7102096E-3,-2.1013E-3,-3.1805763E-4,-9.86495E-3,5.116834E-3,3.158558E-3,1.1855718E-2,-4.3525564E-4,1.6898222E-2,-7.636651E-3,8.9492026E-4,-3.915469E-3,6.492528E-4,4.4921756E-4,6.307846E-3,1.5511848E-2,4.461177E-3,8.752351E-3,-6.9091404E-3,2.5937133E-3,-6.535554E-3,-1.0388189E-2,2.2817956E-2,2.922556E-3,8.6433375E-3,5.686247E-3,-5.795584E-3],"split_indices":[7,3,3,4,5,4,8,9,3,4,9,8,9,3,8,3,3,9,7,8,3,8,5,9,5,7,7,8,7,9,7,0,0,0,0,0,0,0,0,0,0,0,0,0,0,0,0,0,0,0,0,0,0,0,0,0,0,0,0,0,0,0,0],"split_type":[0,0,0,0,0,0,0,0,0,0,0,0,0,0,0,0,0,0,0,0,0,0,0,0,0,0,0,0,0,0,0,0,0,0,0,0,0,0,0,0,0,0,0,0,0,0,0,0,0,0,0,0,0,0,0,0,0,0,0,0,0,0,0],"sum_hessian":[2.0506287E4,1.3726629E4,6.7796587E3,1.1754224E4,1.9724059E3,4.539971E3,2.2396873E3,1.277216E3,1.0477008E4,1.7351823E3,2.3722365E2,3.6562158E3,8.837555E2,1.0691361E3,1.1705513E3,5.150777E2,7.6213824E2,1.6693049E3,8.807702E3,3.5970882E1,1.6992113E3,4.1893864E1,1.9532979E2,2.9864587E3,6.6975696E2,7.2468787E2,1.5906758E2,1.0476198E3,2.1516348E1,8.558612E2,3.1469006E2,2.382889E2,2.7678882E2,6.649532E2,9.718501E1,1.5199365E3,1.4936848E2,1.782373E3,7.0253296E3,3.0083868E1,5.8870153E0,1.6422363E3,5.6975002E1,2.4112703E1,1.7781158E1,1.0962552E2,8.570427E1,2.6684494E2,2.7196138E3,3.2313177E2,3.4662518E2,3.3361866E1,6.9132605E2,5.2536823E1,1.0653076E2,1.01208575E3,3.5533962E1,4.222968E0,1.7293379E1,2.676078E2,5.882534E2,2.239524E2,9.073769E1],"tree_param":{"num_deleted":"0","num_feature":"10","num_nodes":"63","size_leaf_vector":"1"}},{"base_weights":[-8.036437E-2,-1.7952496E-2,2.4256848E-1,1.1846305E0,-1.7715942E-2,3.0377623E-2,4.405219E-1,4.215285E-2,6.1710584E-1,1.297325E-2,-1.0873293E-2,1.8090077E-2,-0E0],"categories":[],"categories_nodes":[],"categories_segments":[],"categories_sizes":[],"default_left":[0,0,0,0,0,0,0,0,0,0,0,0,0],"id":31,"left_children":[1,-1,3,5,-1,-1,7,9,11,-1,-1,-1,-1],"loss_changes":[4.0847852E3,0E0,1.1798527E4,4.4469727E1,0E0,0E0,5.375986E0,6.613755E0,3.9686089E0,0E0,0E0,0E0,0E0],"parents":[2147483647,0,0,2,2,3,3,6,6,7,7,8,8],"right_children":[2,-1,4,6,-1,-1,8,10,12,-1,-1,-1,-1],"split_conditions":[-2.08126E-1,-1.7952496E-2,2.0789987E-1,2.0084728E-1,-1.7715942E-2,3.0377623E-2,-5.884367E-1,-8.210937E-1,1.9949973E0,1.297325E-2,-1.0873293E-2,1.8090077E-2,-0E0],"split_indices":[0,0,0,0,0,0,1,1,6,0,0,0,0],"split_type":[0,0,0,0,0,0,0,0,0,0,0,0,0],"sum_hessian":[2.0225906E4,6.889043E3,1.3336863E4,6.6576196E3,6.6792437E3,6.572956E3,8.46633E1,2.7976913E1,5.668639E1,1.4978593E1,1.2998321E1,5.032687E1,6.359519E0],"tree_param":{"num_deleted":"0","num_feature":"10","num_nodes":"13","size_leaf_vector":"1"}},{"base_weights":[3.962577E-2,-1.7866153E-2,1.1607598E0,2.207225E-1,2.9774794E-2,6.2007976E-1,6.3170955E-2,-0E0,2.2040095E-2,-2.8358078E-1,3.9773133E-1,4.9730185E-3,-1.1586593E-2,2.6455415E-2,4.425975E-3],"categories":[],"categories_nodes":[],"categories_segments":[],"categories_sizes":[],"default_left":[0,0,0,0,0,0,0,0,0,0,0,0,0,0,0],"id":32,"left_children":[1,-1,3,5,-1,7,9,-1,-1,11,13,-1,-1,-1,-1],"loss_changes":[1.7006621E4,0E0,7.161133E1,4.6106715E0,0E0,3.686902E0,7.5106006E0,0E0,0E0,2.7978506E0,3.5525284E0,0E0,0E0,0E0,0E0],"parents":[2147483647,0,0,2,2,3,3,5,5,6,6,9,9,10,10],"right_children":[2,-1,4,6,-1,8,10,-1,-1,12,14,-1,-1,-1,-1],"split_conditions":[2.0084728E-1,-1.7866153E-2,2.0789987E-1,-3.854373E-1,2.9774794E-2,-1.2448868E0,1.0036747E0,-0E0,2.2040095E-2,-1.0468311E0,1.2793603E0,4.9730185E-3,-1.1586593E-2,2.6455415E-2,4.425975E-3],"split_indices":[0,0,0,8,0,7,8,0,0,7,8,0,0,0,0],"split_type":[0,0,0,0,0,0,0,0,0,0,0,0,0,0,0],"sum_hessian":[2.044497E4,1.2303269E4,8.1417017E3,8.3143486E1,8.058558E3,2.109143E1,6.2052055E1,5.8090343E0,1.5282395E1,2.9158852E1,3.2893204E1,6.2221923E0,2.2936659E1,6.572062E0,2.6321142E1],"tree_param":{"num_deleted":"0","num_feature":"10","num_nodes":"15","size_leaf_vector":"1"}},{"base_weights":[4.0998783E-2,2.8565011E-3,1.17056094E-1,-4.0642165E-2,4.267823E-2,5.211661E-1,1.1267574E-1,-4.6730086E-2,3.0514395E-1,-4.1788423E-1,4.5036167E-2,5.8915204E-1,-3.6262542E-3,1.8752756E-2,1.2969315E-1,-1.8631366E-1,-3.498239E-2,-9.86943E-3,4.10228E-1,-0E0,-1.3642035E-2,4.1198764E-2,2.3994417E-1,-0E0,6.668008E-1,9.258085E-3,2.0340504E-2,9.51331E-2,1.7867832E-1,-5.436615E-3,2.390931E-3,2.8573677E-3,-1.0892061E-3,-2.1032693E-3,1.20112235E-2,-9.9174455E-3,6.426608E-3,1.3121133E-3,-1.784829E-3,-5.4791803E-3,9.32253E-3,1.8502263E-2,-0E0,-2.2310513E-4,9.442028E-3,2.840686E-3,-1.3767693E-3,5.8651087E-3,2.1805458E-3],"categories":[],"categories_nodes":[],"categories_segments":[],"categories_sizes":[],"default_left":[0,0,0,0,0,0,0,0,0,0,0,0,0,0,0,0,0,0,0,0,0,0,0,0,0,0,0,0,0,0,0,0,0,0,0,0,0,0,0,0,0,0,0,0,0,0,0,0,0],"id":33,"left_children":[1,3,5,7,9,11,13,15,17,19,21,23,-1,25,27,29,31,-1,33,35,-1,37,39,-1,41,43,-1,45,47,-1,-1,-1,-1,-1,-1,-1,-1,-1,-1,-1,-1,-1,-1,-1,-1,-1,-1,-1,-1],"loss_changes":[5.9473114E1,2.3715002E1,1.1480972E1,1.3519596E1,7.4401226E0,3.6952057E0,1.0698135E1,1.0316886E1,8.207718E0,1.4010983E0,5.055727E0,2.6834393E0,0E0,7.0157256E0,9.433182E0,3.9065285E0,6.7785263E0,0E0,3.3753338E0,1.1091676E0,0E0,8.064112E0,7.851598E0,0E0,2.536415E0,7.1231914E0,0E0,8.38073E0,1.1059074E1,0E0,0E0,0E0,0E0,0E0,0E0,0E0,0E0,0E0,0E0,0E0,0E0,0E0,0E0,0E0,0E0,0E0,0E0,0E0,0E0],"parents":[2147483647,0,0,1,1,2,2,3,3,4,4,5,5,6,6,7,7,8,8,9,9,10,10,11,11,13,13,14,14,15,15,16,16,18,18,19,19,21,21,22,22,24,24,25,25,27,27,28,28],"right_children":[2,4,6,8,10,12,14,16,18,20,22,24,-1,26,28,30,32,-1,34,36,-1,38,40,-1,42,44,-1,46,48,-1,-1,-1,-1,-1,-1,-1,-1,-1,-1,-1,-1,-1,-1,-1,-1,-1,-1,-1,-1],"split_conditions":[2.1691431E-1,-3.9780548E-1,2.2586265E-1,2.1632001E0,-4.6357384E0,1.0770303E0,-7.1739495E-1,-1.089544E0,-5.882199E-1,-7.0190763E-1,1.563461E0,-1.3395324E0,-3.6262542E-3,5.360177E-1,1.040162E0,1.168539E0,-1.509507E0,-9.86943E-3,-5.508544E-1,-7.766288E-1,-1.3642035E-2,3.9137676E-1,-8.484962E-1,-0E0,2.0852923E0,2.1654737E0,2.0340504E-2,9.148852E-1,1.9771224E0,-5.436615E-3,2.390931E-3,2.8573677E-3,-1.0892061E-3,-2.1032693E-3,1.20112235E-2,-9.9174455E-3,6.426608E-3,1.3121133E-3,-1.784829E-3,-5.4791803E-3,9.32253E-3,1.8502263E-2,-0E0,-2.2310513E-4,9.442028E-3,2.840686E-3,-1.3767693E-3,5.8651087E-3,2.1805458E-3],"split_indices":[1,6,1,2,4,4,2,1,9,9,9,8,0,8,1,8,8,0,4,9,0,9,2,0,2,6,0,1,8,0,0,0,0,0,0,0,0,0,0,0,0,0,0,0,0,0,0,0,0],"split_type":[0,0,0,0,0,0,0,0,0,0,0,0,0,0,0,0,0,0,0,0,0,0,0,0,0,0,0,0,0,0,0,0,0,0,0,0,0,0,0,0,0,0,0,0,0,0,0,0,0],"sum_hessian":[2.0538945E4,1.3687852E4,6.8510938E3,6.530618E3,7.1572334E3,7.0034164E1,6.7810596E3,6.4210596E3,1.0955855E2,3.3623493E1,7.12361E3,6.4901985E1,5.1321764E0,1.04892E3,5.7321396E3,4.9122003E2,5.92984E3,1.2930203E1,9.662834E1,8.680302E0,2.4943193E1,6.9918564E3,1.3175346E2,8.396491E0,5.6505493E1,1.0384008E3,1.0519285E1,3.373721E3,2.3584187E3,4.5075916E2,4.0460857E1,2.9263834E2,5.637201E3,9.050998E0,8.757735E1,4.109469E0,4.5708327E0,6.4041074E3,5.8774915E2,2.6892195E1,1.0486127E2,5.215658E1,4.3489113E0,9.874835E2,5.0917294E1,3.0433423E3,3.3037863E2,1.5066642E3,8.517546E2],"tree_param":{"num_deleted":"0","num_feature":"10","num_nodes":"49","size_leaf_vector":"1"}},{"base_weights":[-8.102372E-2,-1.7884905E-2,2.41594E-1,1.1584975E0,-1.7539386E-2,2.9706443E-2,4.3866518E-1,5.5688155E-1,-7.010057E-2,3.1294744E-4,1.9242357E-2,-1.1559886E-2,7.488576E-3],"categories":[],"categories_nodes":[],"categories_segments":[],"categories_sizes":[],"default_left":[0,0,0,0,0,0,0,0,0,0,0,0,0],"id":34,"left_children":[1,-1,3,5,-1,-1,7,9,11,-1,-1,-1,-1],"loss_changes":[4.0333672E3,0E0,1.1297547E4,4.1867188E1,0E0,0E0,5.680187E0,7.045723E0,2.4491127E0,0E0,0E0,0E0,0E0],"parents":[2147483647,0,0,2,2,3,3,6,6,7,7,8,8],"right_children":[2,-1,4,6,-1,-1,8,10,12,-1,-1,-1,-1],"split_conditions":[-2.08126E-1,-1.7884905E-2,2.0789987E-1,2.0084728E-1,-1.7539386E-2,2.9706443E-2,1.9153E0,-3.854373E-1,6.3622737E-1,3.1294744E-4,1.9242357E-2,-1.1559886E-2,7.488576E-3],"split_indices":[0,0,0,0,0,0,2,8,6,0,0,0,0],"split_type":[0,0,0,0,0,0,0,0,0,0,0,0,0],"sum_hessian":[2.0097375E4,6.864882E3,1.3232493E4,6.6670815E3,6.5654116E3,6.5817188E3,8.536293E1,7.069768E1,1.4665251E1,2.0469154E1,5.0228527E1,8.285821E0,6.3794293E0],"tree_param":{"num_deleted":"0","num_feature":"10","num_nodes":"13","size_leaf_vector":"1"}},{"base_weights":[3.533626E-2,-6.9181585E-1,2.9139712E-2,-1.775418E-2,1.4790961E-1,2.2749063E-2,-0E0,-1.8257459E-1,7.274014E-1,6.7776344E-3,-1.1778197E-2,2.7732316E-2,-0E0],"categories":[],"categories_nodes":[],"categories_segments":[],"categories_sizes":[],"default_left":[0,0,0,0,0,0,0,0,0,0,0,0,0],"id":35,"left_children":[1,3,-1,-1,5,-1,7,9,11,-1,-1,-1,-1],"loss_changes":[1.648212E4,6.300586E1,0E0,0E0,9.721039E0,0E0,9.884394E0,7.8240113E0,4.4458065E0,0E0,0E0,0E0,0E0],"parents":[2147483647,0,0,1,1,4,4,6,6,7,7,8,8],"right_children":[2,4,-1,-1,6,-1,8,10,12,-1,-1,-1,-1],"split_conditions":[2.0789987E-1,2.0084728E-1,2.9139712E-2,-1.775418E-2,-6.386215E-1,2.2749063E-2,1.9153E0,-5.884367E-1,2.6098764E0,6.7776344E-3,-1.1778197E-2,2.7732316E-2,-0E0],"split_indices":[0,0,0,0,3,0,2,1,2,0,0,0,0],"split_type":[0,0,0,0,0,0,0,0,0,0,0,0,0],"sum_hessian":[2.0417795E4,1.2336121E4,8.0816733E3,1.224953E4,8.659135E1,1.3657425E1,7.293392E1,5.8915665E1,1.4018254E1,2.1377256E1,3.753841E1,9.487887E0,4.5303664E0],"tree_param":{"num_deleted":"0","num_feature":"10","num_nodes":"13","size_leaf_vector":"1"}},{"base_weights":[4.0902704E-2,2.9840278E-2,-1.7887903E-2],"categories":[],"categories_nodes":[],"categories_segments":[],"categories_sizes":[],"default_left":[0,0,0],"id":36,"left_children":[1,-1,-1],"loss_changes":[1.7322941E4,0E0,0E0],"parents":[2147483647,0,0],"right_children":[2,-1,-1],"split_conditions":[-2.08126E-1,2.9840278E-2,-1.7887903E-2],"split_indices":[0,0,0],"split_type":[0,0,0],"sum_hessian":[2.0566479E4,8.1567627E3,1.2409715E4],"tree_param":{"num_deleted":"0","num_feature":"10","num_nodes":"3","size_leaf_vector":"1"}},{"base_weights":[-7.9368785E-2,-1.7828153E-2,2.4198793E-1,1.1340576E0,-1.7371573E-2,2.9072491E-2,4.215727E-1,5.5054826E-1,-3.2903638E-2,8.812289E-4,1.9090494E-2,-1.35769695E-2,6.386414E-3],"categories":[],"categories_nodes":[],"categories_segments":[],"categories_sizes":[],"default_left":[0,0,0,0,0,0,0,0,0,0,0,0,0],"id":37,"left_children":[1,-1,3,5,-1,-1,7,9,11,-1,-1,-1,-1],"loss_changes":[3.9980354E3,0E0,1.0886326E4,3.95166E1,0E0,0E0,5.3870373E0,6.1017475E0,2.8954608E0,0E0,0E0,0E0,0E0],"parents":[2147483647,0,0,2,2,3,3,6,6,7,7,8,8],"right_children":[2,-1,4,6,-1,-1,8,10,12,-1,-1,-1,-1],"split_conditions":[-2.08126E-1,-1.7828153E-2,2.0789987E-1,2.0084728E-1,-1.7371573E-2,2.9072491E-2,1.9153E0,-3.854373E-1,2.192043E0,8.812289E-4,1.9090494E-2,-1.35769695E-2,6.386414E-3],"split_indices":[0,0,0,0,0,0,2,8,2,0,0,0,0],"split_type":[0,0,0,0,0,0,0,0,0,0,0,0,0],"sum_hessian":[2.001801E4,6.8243213E3,1.3193689E4,6.716056E3,6.4776333E3,6.6336206E3,8.2435234E1,6.567533E1,1.6759909E1,1.9940897E1,4.5734432E1,6.9769244E0,9.782984E0],"tree_param":{"num_deleted":"0","num_feature":"10","num_nodes":"13","size_leaf_vector":"1"}},{"base_weights":[3.4134425E-2,-6.8825173E-1,2.8540803E-2,-1.7646762E-2,1.0114497E-1,2.5086368E-2,-6.7655114E-3,1.6320761E-2,-9.544205E-2,1.8711378E-3,-7.6708025E-3],"categories":[],"categories_nodes":[],"categories_segments":[],"categories_sizes":[],"default_left":[0,0,0,0,0,0,0,0,0,0,0],"id":38,"left_children":[1,3,-1,-1,5,-1,7,-1,9,-1,-1],"loss_changes":[1.5986861E4,5.2396973E1,0E0,0E0,8.768274E0,0E0,3.746468E0,0E0,2.5460649E0,0E0,0E0],"parents":[2147483647,0,0,1,1,4,4,6,6,8,8],"right_children":[2,4,-1,-1,6,-1,8,-1,10,-1,-1],"split_conditions":[2.0789987E-1,2.0084728E-1,2.8540803E-2,-1.7646762E-2,-7.123E-1,2.5086368E-2,-1.1273657E0,1.6320761E-2,-3.7007415E-1,1.8711378E-3,-7.6708025E-3],"split_indices":[0,0,0,0,3,0,6,0,7,0,0],"split_type":[0,0,0,0,0,0,0,0,0,0,0],"sum_hessian":[2.0344357E4,1.2224726E4,8.1196323E3,1.2143493E4,8.123285E1,8.984288E0,7.2248566E1,6.7476025E0,6.550096E1,3.379917E1,3.170179E1],"tree_param":{"num_deleted":"0","num_feature":"10","num_nodes":"11","size_leaf_vector":"1"}},{"base_weights":[4.2315952E-2,2.904599E-2,-1.7738206E-2],"categories":[],"categories_nodes":[],"categories_segments":[],"categories_sizes":[],"default_left":[0,0,0],"id":39,"left_children":[1,-1,-1],"loss_changes":[1.6609432E4,0E0,0E0],"parents":[2147483647,0,0],"right_children":[2,-1,-1],"split_conditions":[-2.08126E-1,2.904599E-2,-1.7738206E-2],"split_indices":[0,0,0],"split_type":[0,0,0],"sum_hessian":[2.0427465E4,8.215452E3,1.2212014E4],"tree_param":{"num_deleted":"0","num_feature":"10","num_nodes":"3","size_leaf_vector":"1"}},{"base_weights":[-7.700732E-2,1.4685169E-2,-2.4017721E-1,1.7098552E-1,-1.5075856E-2,-1.981323E-1,-2.9114118E-1,4.7863242E-1,1.4509678E-1,4.3943472E-2,-6.098665E-2,-2.4824647E-2,-2.0988408E-1,-2.4180532E-1,-3.4218702E-1,9.364137E-2,5.89637E-1,1.2286996E-1,4.1361025E-1,-1.6694765E-1,5.563314E-2,-1.8134752E-1,-3.857816E-2,-1.7573604E-1,1.097744E-1,-3.665246E-1,-1.9953084E-1,-2.5838602E-1,-6.961176E-2,-3.9745474E-1,-2.95716E-1,-7.149859E-3,7.632852E-3,-0E0,1.5891481E-2,4.457854E-3,3.965634E-4,1.729908E-2,4.803688E-3,-2.4105804E-3,-1.1319808E-2,-1.2208092E-3,1.8359625E-3,1.1550897E-2,-4.8347367E-3,-3.556484E-4,-3.3439682E-3,-8.168654E-5,-1.1346967E-2,1.4776191E-2,4.3977814E-4,-1.0811175E-2,-9.61275E-5,-5.922965E-3,-4.006652E-3,-6.999205E-3,-7.791251E-4,7.887896E-3,-4.535623E-3,-9.094502E-3,-1.49060115E-2,-6.3130497E-3,-1.1506514E-2],"categories":[],"categories_nodes":[],"categories_segments":[],"categories_sizes":[],"default_left":[0,0,0,0,0,0,0,0,0,0,0,0,0,0,0,0,0,0,0,0,0,0,0,0,0,0,0,0,0,0,0,0,0,0,0,0,0,0,0,0,0,0,0,0,0,0,0,0,0,0,0,0,0,0,0,0,0,0,0,0,0,0,0],"id":40,"left_children":[1,3,5,7,9,11,13,15,17,19,21,23,25,27,29,31,33,35,37,39,41,43,45,47,49,51,53,55,57,59,61,-1,-1,-1,-1,-1,-1,-1,-1,-1,-1,-1,-1,-1,-1,-1,-1,-1,-1,-1,-1,-1,-1,-1,-1,-1,-1,-1,-1,-1,-1,-1,-1],"loss_changes":[2.9773816E2,5.9358383E1,1.4827057E1,1.560849E1,2.8980198E1,7.789551E0,7.4962463E0,5.9422417E0,1.0711212E1,1.1411931E1,1.602696E1,5.2789865E0,5.370926E0,4.3917847E0,3.2834778E0,3.0080912E0,3.0264587E0,9.629908E0,7.489052E0,4.295516E0,7.610154E0,5.0063763E0,1.1474522E1,5.373183E0,5.204177E0,4.2885666E0,4.4407806E0,5.423538E0,6.1667986E0,4.251198E0,5.7009735E0,0E0,0E0,0E0,0E0,0E0,0E0,0E0,0E0,0E0,0E0,0E0,0E0,0E0,0E0,0E0,0E0,0E0,0E0,0E0,0E0,0E0,0E0,0E0,0E0,0E0,0E0,0E0,0E0,0E0,0E0,0E0,0E0],"parents":[2147483647,0,0,1,1,2,2,3,3,4,4,5,5,6,6,7,7,8,8,9,9,10,10,11,11,12,12,13,13,14,14,15,15,16,16,17,17,18,18,19,19,20,20,21,21,22,22,23,23,24,24,25,25,26,26,27,27,28,28,29,29,30,30],"right_children":[2,4,6,8,10,12,14,16,18,20,22,24,26,28,30,32,34,36,38,40,42,44,46,48,50,52,54,56,58,60,62,-1,-1,-1,-1,-1,-1,-1,-1,-1,-1,-1,-1,-1,-1,-1,-1,-1,-1,-1,-1,-1,-1,-1,-1,-1,-1,-1,-1,-1,-1,-1,-1],"split_conditions":[1.2743086E-1,-8.658354E-1,8.501633E-1,-1.5322809E0,-4.0670854E-1,-8.4190536E-1,1.0222653E0,-4.5793897E-1,1.8623079E0,-8.4611976E-1,-8.323911E-1,-1.4895812E-1,-1.5705495E0,1.358114E0,1.5164376E0,-1.7102968E0,-1.3615115E0,-6.2715316E-1,-8.13757E-2,-1.2312279E-1,-1.0023662E0,-1.1203971E0,9.238006E-1,-9.292181E-1,1.2267149E-1,1.3891475E0,4.4744977E-1,3.1794486E0,1.4228531E0,1.2422634E0,3.0664213E0,-7.149859E-3,7.632852E-3,-0E0,1.5891481E-2,4.457854E-3,3.965634E-4,1.729908E-2,4.803688E-3,-2.4105804E-3,-1.1319808E-2,-1.2208092E-3,1.8359625E-3,1.1550897E-2,-4.8347367E-3,-3.556484E-4,-3.3439682E-3,-8.168654E-5,-1.1346967E-2,1.4776191E-2,4.3977814E-4,-1.0811175E-2,-9.61275E-5,-5.922965E-3,-4.006652E-3,-6.999205E-3,-7.791251E-4,7.887896E-3,-4.535623E-3,-9.094502E-3,-1.49060115E-2,-6.3130497E-3,-1.1506514E-2],"split_indices":[1,1,6,6,6,6,1,9,2,3,2,7,7,7,2,6,7,6,3,1,2,9,6,7,7,1,2,2,7,7,2,0,0,0,0,0,0,0,0,0,0,0,0,0,0,0,0,0,0,0,0,0,0,0,0,0,0,0,0,0,0,0,0],"split_type":[0,0,0,0,0,0,0,0,0,0,0,0,0,0,0,0,0,0,0,0,0,0,0,0,0,0,0,0,0,0,0,0,0,0,0,0,0,0,0,0,0,0,0,0,0,0,0,0,0,0,0,0,0,0,0,0,0,0,0,0,0,0,0],"sum_hessian":[1.9885086E4,1.27278125E4,7.157273E3,2.0402184E3,1.0687594E4,3.9343066E3,3.2229663E3,1.543285E2,1.8858899E3,4.6672793E3,6.0203145E3,2.5509265E2,3.679214E3,1.650904E3,1.5720623E3,3.6802315E1,1.1752619E2,1.7461514E3,1.3973856E2,2.4027455E2,4.4270044E3,9.3734705E2,5.0829673E3,1.2342076E2,1.3167189E2,2.2056844E2,3.4586458E3,1.5005142E3,1.5038992E2,7.057467E2,8.6631555E2,1.1339396E1,2.5462917E1,5.1377587E0,1.1238843E2,1.1672615E3,5.7888983E2,6.1217327E1,7.8521225E1,1.9437167E2,4.5902878E1,6.010315E2,3.8259731E3,1.0562315E1,9.267848E2,4.0272537E3,1.0557139E3,7.800634E1,4.541442E1,1.9168919E1,1.1250297E2,1.8761266E2,3.295578E1,1.9159814E3,1.5426642E3,1.3938672E3,1.0664692E2,3.1173027E1,1.1921689E2,5.884448E2,1.1730189E2,6.7077716E2,1.955384E2],"tree_param":{"num_deleted":"0","num_feature":"10","num_nodes":"63","size_leaf_vector":"1"}},{"base_weights":[3.5659753E-2,-6.8280387E-1,2.78275E-2,-1.750924E-2,1.2273464E-1,2.1351242E-2,-0E0,-1.4338548E-1,6.866864E-1,6.6193356E-3,-9.643633E-3,2.5551181E-2,-0E0],"categories":[],"categories_nodes":[],"categories_segments":[],"categories_sizes":[],"default_left":[0,0,0,0,0,0,0,0,0,0,0,0,0],"id":41,"left_children":[1,3,-1,-1,5,-1,7,9,11,-1,-1,-1,-1],"loss_changes":[1.542475E4,5.3242188E1,0E0,0E0,6.774651E0,0E0,7.133096E0,5.71935E0,2.2030387E0,0E0,0E0,0E0,0E0],"parents":[2147483647,0,0,1,1,4,4,6,6,7,7,8,8],"right_children":[2,4,-1,-1,6,-1,8,10,12,-1,-1,-1,-1],"split_conditions":[2.0789987E-1,2.0084728E-1,2.78275E-2,-1.750924E-2,-6.386215E-1,2.1351242E-2,1.9153E0,-5.884367E-1,2.6098764E0,6.6193356E-3,-9.643633E-3,2.5551181E-2,-0E0],"split_indices":[0,0,0,0,3,0,2,1,2,0,0,0,0],"split_type":[0,0,0,0,0,0,0,0,0,0,0,0,0],"sum_hessian":[2.0287605E4,1.2082793E4,8.2048125E3,1.2003512E4,7.928142E1,1.0439053E1,6.884236E1,5.714027E1,1.1702092E1,1.956184E1,3.757843E1,7.1784844E0,4.523608E0],"tree_param":{"num_deleted":"0","num_feature":"10","num_nodes":"13","size_leaf_vector":"1"}},{"base_weights":[3.712611E-2,-2.4237229E-2,6.776516E-2,-8.185644E-2,4.0726192E-2,4.250827E-2,1.1711776E-1,-9.825934E-2,5.469782E-2,-2.4491437E-2,8.599732E-2,-3.3370575E-1,4.491971E-2,-1.5885946E-1,1.2357148E-1,-7.7590816E-2,-1.951075E-1,2.2849256E-2,4.6257004E-1,4.9562415E-1,-4.5698803E-2,6.6796765E-2,2.582513E-1,6.6378997E-3,-4.626606E-1,3.892564E-2,1.8905206E-1,-2.4393262E-1,1.6986223E-1,9.1930516E-2,1.6261832E-1,-3.625552E-4,-2.7410297E-3,-1.0780343E-2,-3.4092446E-3,6.619659E-3,-9.220838E-4,-9.668091E-3,1.7383054E-2,-2.8686367E-3,1.6276492E-2,-1.8161958E-3,7.6367897E-3,1.959291E-3,-7.481511E-3,2.6314168E-3,1.5504578E-2,-0E0,-1.4102594E-2,2.360287E-3,7.511206E-4,-1.1041529E-2,5.645821E-3,5.3162188E-5,-8.622429E-3,-3.2623576E-3,1.0505747E-2,3.036321E-3,-5.0650246E-4,3.6897464E-3,9.240922E-3],"categories":[],"categories_nodes":[],"categories_segments":[],"categories_sizes":[],"default_left":[0,0,0,0,0,0,0,0,0,0,0,0,0,0,0,0,0,0,0,0,0,0,0,0,0,0,0,0,0,0,0,0,0,0,0,0,0,0,0,0,0,0,0,0,0,0,0,0,0,0,0,0,0,0,0,0,0,0,0,0,0],"id":42,"left_children":[1,3,5,7,9,11,13,15,17,19,21,23,25,27,29,31,33,35,37,39,41,43,45,-1,47,49,51,53,55,57,59,-1,-1,-1,-1,-1,-1,-1,-1,-1,-1,-1,-1,-1,-1,-1,-1,-1,-1,-1,-1,-1,-1,-1,-1,-1,-1,-1,-1,-1,-1],"loss_changes":[3.8251072E1,2.5339092E1,1.6754364E1,8.086014E0,9.418002E0,7.895281E0,8.139912E0,6.157963E0,4.4626307E0,1.3836692E1,5.8958435E0,4.5043225E0,7.4968433E0,2.9506655E0,5.2801514E0,4.955392E0,7.194916E0,5.1973653E0,5.2205777E0,4.84881E0,1.0846847E1,6.0723586E0,9.238759E0,0E0,1.852314E0,4.2285213E0,7.0563116E0,2.2664661E0,1.7035323E0,7.7267303E0,6.4976273E0,0E0,0E0,0E0,0E0,0E0,0E0,0E0,0E0,0E0,0E0,0E0,0E0,0E0,0E0,0E0,0E0,0E0,0E0,0E0,0E0,0E0,0E0,0E0,0E0,0E0,0E0,0E0,0E0,0E0,0E0],"parents":[2147483647,0,0,1,1,2,2,3,3,4,4,5,5,6,6,7,7,8,8,9,9,10,10,11,11,12,12,13,13,14,14,15,15,16,16,17,17,18,18,19,19,20,20,21,21,22,22,24,24,25,25,26,26,27,27,28,28,29,29,30,30],"right_children":[2,4,6,8,10,12,14,16,18,20,22,24,26,28,30,32,34,36,38,40,42,44,46,-1,48,50,52,54,56,58,60,-1,-1,-1,-1,-1,-1,-1,-1,-1,-1,-1,-1,-1,-1,-1,-1,-1,-1,-1,-1,-1,-1,-1,-1,-1,-1,-1,-1,-1,-1],"split_conditions":[-4.4414827E-1,1.2267149E-1,9.238006E-1,6.278445E-1,-2.8193456E-1,-3.2483275E0,-3.2483652E0,5.4827636E-1,6.7283055E-3,1.7685325E-1,5.474346E-1,-6.714993E-1,1.4064575E0,1.1519312E0,1.8906984E-1,-1.8033274E-1,7.143887E-1,-9.7891587E-1,-7.1831435E-1,-8.710113E-1,8.018512E-1,4.996638E-1,7.165127E-1,6.6378997E-3,-6.3863343E-1,-7.123E-1,-1.6011151E0,-6.9364506E-1,-6.5254104E-1,-1.76743E-1,1.5886774E0,-3.625552E-4,-2.7410297E-3,-1.0780343E-2,-3.4092446E-3,6.619659E-3,-9.220838E-4,-9.668091E-3,1.7383054E-2,-2.8686367E-3,1.6276492E-2,-1.8161958E-3,7.6367897E-3,1.959291E-3,-7.481511E-3,2.6314168E-3,1.5504578E-2,-0E0,-1.4102594E-2,2.360287E-3,7.511206E-4,-1.1041529E-2,5.645821E-3,5.3162188E-5,-8.622429E-3,-3.2623576E-3,1.0505747E-2,3.036321E-3,-5.0650246E-4,3.6897464E-3,9.240922E-3],"split_indices":[6,7,6,3,9,3,4,9,7,7,4,9,3,3,7,4,9,6,9,9,4,4,8,0,4,3,7,9,9,7,4,0,0,0,0,0,0,0,0,0,0,0,0,0,0,0,0,0,0,0,0,0,0,0,0,0,0,0,0,0,0],"split_type":[0,0,0,0,0,0,0,0,0,0,0,0,0,0,0,0,0,0,0,0,0,0,0,0,0,0,0,0,0,0,0,0,0,0,0,0,0,0,0,0,0,0,0,0,0,0,0,0,0,0,0,0,0,0,0,0,0,0,0,0,0],"sum_hessian":[2.0321652E4,6.7574585E3,1.3564192E4,3.588698E3,3.1687607E3,8.986121E3,4.5780713E3,3.2102175E3,3.7848047E2,1.2900178E3,1.8787429E3,5.396772E1,8.932153E3,1.0080227E2,4.477269E3,2.6549358E3,5.5528156E2,3.5408057E2,2.439989E1,4.8019135E1,1.2419988E3,1.6963524E3,1.8239056E2,8.1565695E0,4.581115E1,8.58287E3,3.4928333E2,8.253187E1,1.8270401E1,2.4881228E3,1.9891462E3,8.666157E2,1.7883202E3,1.1274995E2,4.4253162E2,7.3146416E1,2.8093417E2,4.0465417E0,2.0353348E1,7.9862456E0,4.0032887E1,1.1593214E3,8.2677315E1,1.6528744E3,4.347802E1,1.2924345E2,5.3147102E1,8.139535E0,3.7671616E1,1.2598628E3,7.323008E3,1.551919E1,3.3376413E2,2.0475887E1,6.205598E1,6.660275E0,1.1610126E1,2.0049983E3,4.831244E2,1.8345051E3,1.546411E2],"tree_param":{"num_deleted":"0","num_feature":"10","num_nodes":"61","size_leaf_vector":"1"}},{"base_weights":[-7.291748E-2,1.4836374E-2,-2.3141038E-1,1.5134059E-1,-1.1350309E-2,-2.1682112E-1,-3.7118813E-1,2.9352313E-1,1.0725451E-1,-1.1721315E-1,3.073881E-3,-2.3331605E-1,-1.4815557E-1,-4.4542915E-1,-3.2637274E-1,3.5462216E-1,2.8385725E-3,-3.356593E-1,1.19917974E-1,1.1334996E-2,-1.25344E-1,-1.1517364E-1,1.6321244E-2,-3.3761922E-1,-2.1880859E-1,5.2817725E-3,-2.0070401E-1,-2.2355786E-1,-1.2303764E-2,1.1689445E-1,-3.5741705E-1,9.719166E-3,-1.2357159E-2,-4.847169E-3,1.1196153E-2,-2.8319818E-3,-1.5246923E-2,-5.6911376E-3,3.3647513E-3,-1.7637481E-3,-5.191818E-3,-3.3722478E-3,2.7784423E-3,1.4638052E-3,-2.0306229E-4,-9.44349E-3,-3.3711223E-3,-6.640114E-3,-4.3190997E-3,6.8519525E-3,-2.0214892E-3,-7.2668293E-3,-3.418209E-3,-7.51354E-3,3.961149E-3,9.500333E-3,-5.1680757E-3,-1.13114035E-2,-5.9764115E-3],"categories":[],"categories_nodes":[],"categories_segments":[],"categories_sizes":[],"default_left":[0,0,0,0,0,0,0,0,0,0,0,0,0,0,0,0,0,0,0,0,0,0,0,0,0,0,0,0,0,0,0,0,0,0,0,0,0,0,0,0,0,0,0,0,0,0,0,0,0,0,0,0,0,0,0,0,0,0,0],"id":43,"left_children":[1,3,5,7,9,11,13,15,17,19,21,23,25,27,29,31,33,35,37,-1,39,41,43,45,47,49,51,53,-1,55,57,-1,-1,-1,-1,-1,-1,-1,-1,-1,-1,-1,-1,-1,-1,-1,-1,-1,-1,-1,-1,-1,-1,-1,-1,-1,-1,-1,-1],"loss_changes":[2.7625995E2,4.5787373E1,1.3807404E1,1.2517952E1,1.6463396E1,6.8780823E0,1.3457413E0,8.230602E0,8.695902E0,5.661993E0,1.466466E1,7.220642E0,1.0313892E1,1.2604713E0,6.0944176E0,9.183208E0,7.694678E0,1.7623839E0,6.463501E0,0E0,5.3585396E0,3.70716E0,8.539504E0,3.7553787E0,8.951187E0,7.285598E0,4.86977E0,1.269597E0,0E0,2.3974404E0,3.5214157E0,0E0,0E0,0E0,0E0,0E0,0E0,0E0,0E0,0E0,0E0,0E0,0E0,0E0,0E0,0E0,0E0,0E0,0E0,0E0,0E0,0E0,0E0,0E0,0E0,0E0,0E0,0E0,0E0],"parents":[2147483647,0,0,1,1,2,2,3,3,4,4,5,5,6,6,7,7,8,8,9,9,10,10,11,11,12,12,13,13,14,14,15,15,16,16,17,17,18,18,20,20,21,21,22,22,23,23,24,24,25,25,26,26,27,27,29,29,30,30],"right_children":[2,4,6,8,10,12,14,16,18,20,22,24,26,28,30,32,34,36,38,-1,40,42,44,46,48,50,52,54,-1,56,58,-1,-1,-1,-1,-1,-1,-1,-1,-1,-1,-1,-1,-1,-1,-1,-1,-1,-1,-1,-1,-1,-1,-1,-1,-1,-1,-1,-1],"split_conditions":[1.2743086E-1,-8.658354E-1,2.4361038E0,-1.1253374E0,-1.047362E0,5.6818914E-1,4.3873376E-1,2.0418844E-1,-8.094317E-1,-1.0719963E0,-7.4406165E-1,-1.0890964E0,-3.7647176E-1,-4.726024E-1,6.675363E-1,6.506991E-1,1.8623079E0,2.4209884E-1,-1.4744842E0,1.1334996E-2,1.5781385E-1,4.4123003E-1,-5.079016E-1,2.8173884E-3,8.39584E-2,5.1220965E-1,-1.3287681E-1,7.931015E-1,-1.2303764E-2,3.4651635E0,3.822734E-1,9.719166E-3,-1.2357159E-2,-4.847169E-3,1.1196153E-2,-2.8319818E-3,-1.5246923E-2,-5.6911376E-3,3.3647513E-3,-1.7637481E-3,-5.191818E-3,-3.3722478E-3,2.7784423E-3,1.4638052E-3,-2.0306229E-4,-9.44349E-3,-3.3711223E-3,-6.640114E-3,-4.3190997E-3,6.8519525E-3,-2.0214892E-3,-7.2668293E-3,-3.418209E-3,-7.51354E-3,3.961149E-3,9.500333E-3,-5.1680757E-3,-1.13114035E-2,-5.9764115E-3],"split_indices":[1,1,1,1,2,9,2,2,3,9,3,3,3,9,2,3,2,8,2,0,4,9,1,9,4,1,4,8,0,1,3,0,0,0,0,0,0,0,0,0,0,0,0,0,0,0,0,0,0,0,0,0,0,0,0,0,0,0,0],"split_type":[0,0,0,0,0,0,0,0,0,0,0,0,0,0,0,0,0,0,0,0,0,0,0,0,0,0,0,0,0,0,0,0,0,0,0,0,0,0,0,0,0,0,0,0,0,0,0,0,0,0,0,0,0,0,0,0,0,0,0],"sum_hessian":[1.9847123E4,1.2771E4,7.076123E3,2.0607031E3,1.0710297E4,6.4155103E3,6.6061273E2,4.8148526E2,1.5792179E3,1.2913684E3,9.418929E3,5.160114E3,1.2553964E3,2.3776653E2,4.2284622E2,3.9502588E2,8.6459366E1,4.1200134E1,1.5380177E3,1.6061401E1,1.275307E3,9.410652E2,8.477863E3,6.1973834E2,4.5403755E3,3.1590485E2,9.394915E2,3.9419876E1,1.9834665E2,2.55331E1,3.973131E2,3.8410956E2,1.0916321E1,5.880843E1,2.7650936E1,2.4871288E1,1.6328846E1,5.0130444E1,1.4878873E3,7.5305695E2,5.2225E2,8.7765857E2,6.3406628E1,3.158634E3,5.319229E3,5.28032E2,9.170638E1,2.4284841E3,2.1118916E3,7.897148E1,2.3693336E2,4.0456042E2,5.349311E2,3.5396942E1,4.022934E0,1.57194395E1,9.813662E0,2.2626823E2,1.7104488E2],"tree_param":{"num_deleted":"0","num_feature":"10","num_nodes":"59","size_leaf_vector":"1"}},{"base_weights":[3.437909E-2,1.7218499E-1,2.1676317E-2,9.3130164E-2,2.6374474E-1,1.1887782E-1,3.577111E-3,1.9991407E-1,4.7780093E-2,3.8198122E-1,1.9799101E-1,1.07954115E-1,2.8221413E-1,6.6395864E-2,-1.7585594E-2,2.7543178E-1,3.646479E-2,-3.1619847E-1,7.464245E-2,3.241898E-1,7.3202807E-1,4.9520087E-1,1.3071662E-1,2.0531446E-1,8.875264E-2,4.197328E-2,4.811896E-1,7.787839E-2,-1.0671674E-1,-3.7942E-2,3.809696E-2,5.014588E-3,1.598858E-2,1.0394687E-2,-4.6278527E-3,-1.1001667E-2,8.863566E-3,3.9182263E-3,-9.607742E-4,9.8054875E-3,-2.38723E-3,4.8747123E-3,2.1403108E-2,-5.1842127E-3,1.3774757E-2,4.9501546E-3,-5.861574E-3,2.8355361E-3,8.888318E-3,1.7840714E-3,5.1139332E-3,1.3320766E-2,-6.214694E-3,-3.072305E-3,1.5343251E-2,1.4430444E-2,1.8802531E-3,-5.9717577E-3,4.69133E-3,-1.1867528E-3,3.704488E-3,-5.9919046E-5,2.1605121E-3],"categories":[],"categories_nodes":[],"categories_segments":[],"categories_sizes":[],"default_left":[0,0,0,0,0,0,0,0,0,0,0,0,0,0,0,0,0,0,0,0,0,0,0,0,0,0,0,0,0,0,0,0,0,0,0,0,0,0,0,0,0,0,0,0,0,0,0,0,0,0,0,0,0,0,0,0,0,0,0,0,0,0,0],"id":44,"left_children":[1,3,5,7,9,11,13,15,17,19,21,23,25,27,29,31,33,35,37,39,41,43,45,47,49,51,53,55,57,59,61,-1,-1,-1,-1,-1,-1,-1,-1,-1,-1,-1,-1,-1,-1,-1,-1,-1,-1,-1,-1,-1,-1,-1,-1,-1,-1,-1,-1,-1,-1,-1,-1],"loss_changes":[3.4905834E1,1.1842876E1,3.2187645E1,4.1724105E0,5.412609E0,4.734295E0,2.0637419E1,2.9717999E0,6.1208806E0,4.2754517E0,9.451157E0,4.7564526E0,7.818593E0,7.7611465E0,1.3121328E1,4.017373E0,7.493259E0,3.4765997E0,5.518294E0,6.3566227E0,9.7345924E-1,3.3338184E0,9.588684E0,5.429394E0,4.4701653E0,1.1687583E1,7.346838E0,6.5090714E0,8.9838085E0,1.3475348E1,5.9245105E0,0E0,0E0,0E0,0E0,0E0,0E0,0E0,0E0,0E0,0E0,0E0,0E0,0E0,0E0,0E0,0E0,0E0,0E0,0E0,0E0,0E0,0E0,0E0,0E0,0E0,0E0,0E0,0E0,0E0,0E0,0E0,0E0],"parents":[2147483647,0,0,1,1,2,2,3,3,4,4,5,5,6,6,7,7,8,8,9,9,10,10,11,11,12,12,13,13,14,14,15,15,16,16,17,17,18,18,19,19,20,20,21,21,22,22,23,23,24,24,25,25,26,26,27,27,28,28,29,29,30,30],"right_children":[2,4,6,8,10,12,14,16,18,20,22,24,26,28,30,32,34,36,38,40,42,44,46,48,50,52,54,56,58,60,62,-1,-1,-1,-1,-1,-1,-1,-1,-1,-1,-1,-1,-1,-1,-1,-1,-1,-1,-1,-1,-1,-1,-1,-1,-1,-1,-1,-1,-1,-1,-1,-1],"split_conditions":[-9.8091763E-1,-3.309717E-1,-1.1823044E0,-3.232745E-1,-5.4066044E-1,1.563461E0,-3.9086932E-1,-5.2106774E-1,-2.2695115E-1,-6.6891074E-1,-2.5621507E0,-6.0699683E-1,-1.3980615E-1,1.5396177E0,5.0686693E-1,-4.434839E-1,-1.5005685E0,2.2706878E0,4.754321E-1,2.4870887E0,-8.217704E-1,-3.147824E-1,5.085165E-1,-7.094184E-1,6.626687E-1,-7.496381E-1,-1.6880563E0,-1.8643794E0,-6.130245E-1,1.5995556E0,1.1469091E-1,5.014588E-3,1.598858E-2,1.0394687E-2,-4.6278527E-3,-1.1001667E-2,8.863566E-3,3.9182263E-3,-9.607742E-4,9.8054875E-3,-2.38723E-3,4.8747123E-3,2.1403108E-2,-5.1842127E-3,1.3774757E-2,4.9501546E-3,-5.861574E-3,2.8355361E-3,8.888318E-3,1.7840714E-3,5.1139332E-3,1.3320766E-2,-6.214694E-3,-3.072305E-3,1.5343251E-2,1.4430444E-2,1.8802531E-3,-5.9717577E-3,4.69133E-3,-1.1867528E-3,3.704488E-3,-5.9919046E-5,2.1605121E-3],"split_indices":[3,9,7,5,7,9,5,9,5,7,3,9,8,7,5,5,3,8,2,2,2,7,9,9,5,2,7,2,5,7,3,0,0,0,0,0,0,0,0,0,0,0,0,0,0,0,0,0,0,0,0,0,0,0,0,0,0,0,0,0,0,0,0],"split_type":[0,0,0,0,0,0,0,0,0,0,0,0,0,0,0,0,0,0,0,0,0,0,0,0,0,0,0,0,0,0,0,0,0,0,0,0,0,0,0,0,0,0,0,0,0,0,0,0,0,0,0,0,0,0,0,0,0,0,0,0,0,0,0],"sum_hessian":[2.0045355E4,1.6846168E3,1.8360738E4,9.105192E2,7.7409753E2,2.873227E3,1.5487512E4,2.643348E2,6.4618445E2,2.6999985E2,5.040977E2,2.6998997E3,1.7332736E2,3.913443E3,1.1574068E4,1.764496E2,8.788521E1,4.1345806E1,6.048386E2,2.355233E2,3.4476536E1,8.941523E1,4.1468246E2,4.3527136E2,2.2646282E3,8.115136E1,9.217601E1,3.675563E3,2.378801E2,8.488137E3,3.0859321E3,1.4772606E2,2.8723555E1,3.3804226E1,5.4080982E1,3.6660534E1,4.6852703E0,3.5922812E2,2.456105E2,2.0745763E2,2.8065685E1,7.657424E0,2.681911E1,4.0965014E0,8.5318726E1,3.549362E2,5.974627E1,2.6845367E2,1.6681766E2,1.9507262E3,3.139021E2,3.1199123E1,4.9952236E1,1.4224924E1,7.795108E1,2.6683622E1,3.6488794E3,1.6758905E2,7.029104E1,8.1093696E3,3.7876666E2,1.6452948E3,1.4406372E3],"tree_param":{"num_deleted":"0","num_feature":"10","num_nodes":"63","size_leaf_vector":"1"}},{"base_weights":[3.5591822E-2,2.8381899E-2,-1.7626993E-2],"categories":[],"categories_nodes":[],"categories_segments":[],"categories_sizes":[],"default_left":[0,0,0],"id":45,"left_children":[1,-1,-1],"loss_changes":[1.5993531E4,0E0,0E0],"parents":[2147483647,0,0],"right_children":[2,-1,-1],"split_conditions":[-2.08126E-1,2.8381899E-2,-1.7626993E-2],"split_indices":[0,0,0],"split_type":[0,0,0],"sum_hessian":[2.0327916E4,8.188468E3,1.2139448E4],"tree_param":{"num_deleted":"0","num_feature":"10","num_nodes":"3","size_leaf_vector":"1"}},{"base_weights":[-7.648071E-2,1.1678622E-2,-2.3193E-1,2.4050102E-1,-4.4499976E-3,-2.169764E-1,-3.6205608E-1,1.2198869E-2,2.7184844E-1,-1.4872749E-1,6.829045E-3,-3.791425E-1,-2.1012455E-1,-7.090935E-2,-9.553687E-3,1.0002164E-1,-1.1903734E-2,-9.07475E-3,2.8374285E-1,-8.041425E-2,-2.3968852E-1,9.072931E-2,-6.198355E-3,-4.19235E-1,1.4464913E-2,-2.1820778E-1,-1.0676977E-1,-1.0417371E-2,7.3234597E-3,7.317587E-3,-2.6435705E-3,7.6223835E-3,-1.6427175E-3,-1.0212837E-2,-1.2170861E-3,-8.656798E-3,-2.5167123E-3,-3.1654134E-3,2.86644E-3,-1.4214619E-3,2.6459753E-4,-4.0847044E-3,-1.1559898E-2,-5.4153292E-3,-8.959015E-3,-6.071434E-3,6.717213E-4,1.04126325E-2,-4.207644E-3],"categories":[],"categories_nodes":[],"categories_segments":[],"categories_sizes":[],"default_left":[0,0,0,0,0,0,0,0,0,0,0,0,0,0,0,0,0,0,0,0,0,0,0,0,0,0,0,0,0,0,0,0,0,0,0,0,0,0,0,0,0,0,0,0,0,0,0,0,0],"id":46,"left_children":[1,3,5,7,9,11,13,15,17,19,21,23,25,27,-1,29,-1,-1,31,33,35,37,39,41,-1,43,45,-1,47,-1,-1,-1,-1,-1,-1,-1,-1,-1,-1,-1,-1,-1,-1,-1,-1,-1,-1,-1,-1],"loss_changes":[2.7081326E2,4.671334E1,1.3298035E1,5.6938057E0,1.9279007E1,6.510254E0,2.4135056E0,4.1299963E0,5.4723434E0,5.020376E0,1.2000701E1,9.710613E0,4.8274536E0,1.3445754E0,0E0,3.691773E0,0E0,0E0,4.2014046E0,4.7671175E0,4.683964E0,6.9662247E0,7.819702E0,1.5820847E0,0E0,3.4987488E0,8.241887E0,0E0,2.2468228E0,0E0,0E0,0E0,0E0,0E0,0E0,0E0,0E0,0E0,0E0,0E0,0E0,0E0,0E0,0E0,0E0,0E0,0E0,0E0,0E0],"parents":[2147483647,0,0,1,1,2,2,3,3,4,4,5,5,6,6,7,7,8,8,9,9,10,10,11,11,12,12,13,13,15,15,18,18,19,19,20,20,21,21,22,22,23,23,25,25,26,26,28,28],"right_children":[2,4,6,8,10,12,14,16,18,20,22,24,26,28,-1,30,-1,-1,32,34,36,38,40,42,-1,44,46,-1,48,-1,-1,-1,-1,-1,-1,-1,-1,-1,-1,-1,-1,-1,-1,-1,-1,-1,-1,-1,-1],"split_conditions":[1.18482515E-1,-1.0448023E0,2.2929304E0,-4.3590993E-1,-8.4611976E-1,-1.7918354E0,-1.7918447E0,1.0820291E0,-7.8990173E-1,-3.556098E-1,-8.210937E-1,7.986583E-1,1.2319503E0,-3.5527328E-1,-9.553687E-3,-1.1253374E0,-1.1903734E-2,-9.07475E-3,6.052493E-1,-1.3783869E0,2.0086262E-1,-1.3505614E0,-6.3451755E-1,2.4375933E-1,1.4464913E-2,9.771712E-1,-2.6878154E-1,-1.0417371E-2,7.002872E-1,7.317587E-3,-2.6435705E-3,7.6223835E-3,-1.6427175E-3,-1.0212837E-2,-1.2170861E-3,-8.656798E-3,-2.5167123E-3,-3.1654134E-3,2.86644E-3,-1.4214619E-3,2.6459753E-4,-4.0847044E-3,-1.1559898E-2,-5.4153292E-3,-8.959015E-3,-6.071434E-3,6.717213E-4,1.04126325E-2,-4.207644E-3],"split_indices":[1,1,1,5,3,3,5,8,3,9,1,9,5,7,0,1,0,0,3,7,5,8,8,1,0,5,9,0,7,0,0,0,0,0,0,0,0,0,0,0,0,0,0,0,0,0,0,0,0],"split_type":[0,0,0,0,0,0,0,0,0,0,0,0,0,0,0,0,0,0,0,0,0,0,0,0,0,0,0,0,0,0,0,0,0,0,0,0,0,0,0,0,0,0,0,0,0,0,0,0,0],"sum_hessian":[1.974501E4,1.2596175E4,7.148834E3,8.324017E2,1.1763773E4,6.4206084E3,7.282257E2,1.0426404E2,7.2813763E2,8.5821277E2,1.0905561E4,2.5275677E2,6.1678516E3,3.550514E1,6.927206E2,9.039346E1,1.387057E1,1.1574603E1,7.1656305E2,4.9698407E2,3.612287E2,1.4747189E3,9.430842E3,2.4392767E2,8.8291E0,5.71111E3,4.5674203E2,8.207535E0,2.7297604E1,4.9289886E1,4.110358E1,6.8805634E2,2.8506702E1,4.2197025E1,4.5478705E2,2.0606337E2,1.5516533E2,1.3210823E2,1.3426107E3,2.3757146E3,7.055127E3,3.2961746E1,2.1096593E2,5.5005156E3,2.1059389E2,2.3268024E2,2.240618E2,9.470509E0,1.7827095E1],"tree_param":{"num_deleted":"0","num_feature":"10","num_nodes":"49","size_leaf_vector":"1"}},{"base_weights":[3.4552947E-2,-1.9616745E-3,1.0084034E-1,-1.0800308E-1,1.2252795E-2,2.2712255E-1,8.0330685E-2,2.0639849E-1,-1.1902582E-1,5.702495E-2,-9.772272E-3,2.4755944E-1,5.843017E-4,1.3916992E-1,5.7019606E-2,-1.22576766E-1,3.9119667E-1,-1.3385013E-1,1.12648375E-1,1.0017205E-2,1.055252E-1,4.7471445E-2,-3.0980973E-2,2.6154932E-1,-1.0662215E-1,3.2632303E-1,-7.827801E-2,2.789057E-1,1.0989148E-1,4.9725035E-1,5.2775133E-2,2.3329617E-3,-1.241481E-2,2.194255E-2,4.595281E-3,3.0271462E-3,-3.6675278E-3,6.8044094E-3,-7.625956E-3,5.8928058E-3,-2.4183458E-4,2.8378628E-3,-9.364472E-3,3.9630933E-3,3.0043203E-4,-8.5872554E-5,-1.7335808E-3,6.8477937E-3,-4.531398E-3,-1.2293701E-2,4.9629016E-3,1.3072298E-2,-0E0,-1.3236497E-2,5.7401415E-4,1.8639974E-3,1.1726424E-2,-2.2254284E-3,3.161914E-3,2.3140875E-3,2.0568158E-2,1.5610189E-3,-1.938372E-3],"categories":[],"categories_nodes":[],"categories_segments":[],"categories_sizes":[],"default_left":[0,0,0,0,0,0,0,0,0,0,0,0,0,0,0,0,0,0,0,0,0,0,0,0,0,0,0,0,0,0,0,0,0,0,0,0,0,0,0,0,0,0,0,0,0,0,0,0,0,0,0,0,0,0,0,0,0,0,0,0,0,0,0],"id":47,"left_children":[1,3,5,7,9,11,13,15,17,19,21,23,25,27,29,31,33,35,37,39,41,43,45,47,49,51,53,55,57,59,61,-1,-1,-1,-1,-1,-1,-1,-1,-1,-1,-1,-1,-1,-1,-1,-1,-1,-1,-1,-1,-1,-1,-1,-1,-1,-1,-1,-1,-1,-1,-1,-1],"loss_changes":[4.891514E1,1.9683102E1,1.827452E1,5.2916794E0,1.1340263E1,4.3751907E0,8.283886E0,3.3196447E0,5.169302E0,8.533747E0,9.290767E0,4.675705E0,2.492576E0,6.731529E0,7.7536306E0,1.7234988E0,2.2444205E0,3.7116756E0,5.570434E0,8.586285E0,5.0861835E0,7.798505E0,5.681985E0,3.0633278E0,4.062625E0,1.4981596E0,3.5310745E0,1.0528421E1,4.1529217E0,4.1677265E0,4.8591766E0,0E0,0E0,0E0,0E0,0E0,0E0,0E0,0E0,0E0,0E0,0E0,0E0,0E0,0E0,0E0,0E0,0E0,0E0,0E0,0E0,0E0,0E0,0E0,0E0,0E0,0E0,0E0,0E0,0E0,0E0,0E0,0E0],"parents":[2147483647,0,0,1,1,2,2,3,3,4,4,5,5,6,6,7,7,8,8,9,9,10,10,11,11,12,12,13,13,14,14,15,15,16,16,17,17,18,18,19,19,20,20,21,21,22,22,23,23,24,24,25,25,26,26,27,27,28,28,29,29,30,30],"right_children":[2,4,6,8,10,12,14,16,18,20,22,24,26,28,30,32,34,36,38,40,42,44,46,48,50,52,54,56,58,60,62,-1,-1,-1,-1,-1,-1,-1,-1,-1,-1,-1,-1,-1,-1,-1,-1,-1,-1,-1,-1,-1,-1,-1,-1,-1,-1,-1,-1,-1,-1,-1,-1],"split_conditions":[4.1452023E-1,-1.1129078E0,-9.8091763E-1,-7.8990173E-1,-5.0308704E-1,1.6837991E0,-6.5535897E-1,-9.0880215E-1,5.939416E-1,3.33266E-2,-3.232745E-1,3.1862235E0,-6.870356E-1,-4.6121034E-1,-4.6357393E0,-9.8091763E-1,-3.0856955E-1,-7.119211E-1,1.0506302E-1,-9.0197456E-1,2.6993668E0,-3.615728E-1,5.6065496E-2,4.4577622E0,2.9142392E0,3.2938824E0,1.9430333E0,-6.756425E-1,-3.545135E-1,4.0886828E-1,1.6838315E0,2.3329617E-3,-1.241481E-2,2.194255E-2,4.595281E-3,3.0271462E-3,-3.6675278E-3,6.8044094E-3,-7.625956E-3,5.8928058E-3,-2.4183458E-4,2.8378628E-3,-9.364472E-3,3.9630933E-3,3.0043203E-4,-8.5872554E-5,-1.7335808E-3,6.8477937E-3,-4.531398E-3,-1.2293701E-2,4.9629016E-3,1.3072298E-2,-0E0,-1.3236497E-2,5.7401415E-4,1.8639974E-3,1.1726424E-2,-2.2254284E-3,3.161914E-3,2.3140875E-3,2.0568158E-2,1.5610189E-3,-1.938372E-3],"split_indices":[6,6,3,3,2,4,8,2,5,3,5,2,5,3,5,3,4,4,4,5,3,3,4,5,6,4,4,3,3,4,5,0,0,0,0,0,0,0,0,0,0,0,0,0,0,0,0,0,0,0,0,0,0,0,0,0,0,0,0,0,0,0,0],"split_type":[0,0,0,0,0,0,0,0,0,0,0,0,0,0,0,0,0,0,0,0,0,0,0,0,0,0,0,0,0,0,0,0,0,0,0,0,0,0,0,0,0,0,0,0,0,0,0,0,0,0,0,0,0,0,0,0,0,0,0,0,0,0,0],"sum_hessian":[2.0169686E4,1.2996963E4,7.1727227E3,1.5433799E3,1.1453583E4,9.945078E2,6.178215E3,4.8852955E1,1.494527E3,3.7901895E3,7.6633936E3,9.083334E2,8.617447E1,1.7404404E3,4.4377744E3,1.5851571E1,3.3001385E1,1.4088132E3,8.571366E1,1.9350946E3,1.8550947E3,2.0594346E3,5.603959E3,8.7659515E2,3.1738216E1,1.8571337E1,6.760313E1,2.946172E2,1.4458231E3,3.9271824E1,4.398503E3,8.793786E0,7.057785E0,7.95853E0,2.5042854E1,5.1228153E1,1.3575851E3,6.420508E1,2.1508581E1,1.5978342E2,1.7753112E3,1.8344496E3,2.0645145E1,5.0289395E2,1.5565406E3,3.2303403E3,2.3736184E3,8.641272E2,1.2467989E1,1.5262455E1,1.6475761E1,1.2631589E1,5.9397492E0,1.3597764E1,5.4005363E1,1.4134131E2,1.5327588E2,9.350402E1,1.3523191E3,1.8844227E1,2.0427599E1,4.1313447E3,2.671583E2],"tree_param":{"num_deleted":"0","num_feature":"10","num_nodes":"63","size_leaf_vector":"1"}},{"base_weights":[4.0272985E-2,-2.0074243E-2,7.2087444E-2,-9.008954E-2,1.735904E-2,4.8803564E-2,1.23660855E-1,-1.0797248E-2,-8.2133956E-2,-1.8037094E-2,8.0781184E-2,-1.7512256E-1,5.224989E-2,-2.3857808E-1,1.3177426E-1,-3.166137E-2,-1.1116787E-1,-5.758969E-2,3.025864E-2,1.2103578E-2,6.825057E-2,-4.1780555E-1,-6.633805E-2,3.1829268E-2,9.01049E-2,1.7248577E-1,-3.184869E-1,1.03345E-1,2.0329939E-1,4.8398826E-4,-7.059312E-3,-6.1663566E-3,-1.8302539E-3,-3.8568287E-3,-6.8757095E-4,-9.3457295E-4,3.006618E-3,7.935039E-4,3.693507E-3,-1.3983524E-2,-0E0,3.1008879E-3,-4.5435494E-3,2.104026E-3,3.367315E-4,4.2680497E-3,1.629944E-3,-3.1017393E-3,1.2409705E-2,-1.3011904E-2,-7.0907664E-4,-4.265435E-3,2.8282541E-3,7.4361027E-3,3.5778277E-3],"categories":[],"categories_nodes":[],"categories_segments":[],"categories_sizes":[],"default_left":[0,0,0,0,0,0,0,0,0,0,0,0,0,0,0,0,0,0,0,0,0,0,0,0,0,0,0,0,0,0,0,0,0,0,0,0,0,0,0,0,0,0,0,0,0,0,0,0,0,0,0,0,0,0,0],"id":48,"left_children":[1,3,5,7,9,11,13,-1,15,17,19,21,23,25,27,29,31,33,35,-1,37,39,41,43,45,47,49,51,53,-1,-1,-1,-1,-1,-1,-1,-1,-1,-1,-1,-1,-1,-1,-1,-1,-1,-1,-1,-1,-1,-1,-1,-1,-1,-1],"loss_changes":[3.879109E1,1.830116E1,1.5711372E1,5.961813E0,1.0217883E1,6.9341164E0,1.1977226E1,0E0,3.3497925E0,5.5577908E0,7.528883E0,3.0677667E0,6.832939E0,3.0637183E0,7.8534775E0,1.12367935E1,7.401655E0,4.433404E0,7.6985903E0,0E0,4.3450937E0,2.4654803E0,2.1119401E0,5.4496527E0,6.109333E0,1.5965512E0,3.718134E0,6.0741844E0,5.864128E0,0E0,0E0,0E0,0E0,0E0,0E0,0E0,0E0,