{"learner":{"attributes":{"scikit_learn":"{\"_estimator_type\": \"classifier\"}"},"feature_names":["TargetReturn","H-L","C-O","BB_lower","Return_lag2","Return_lag3","Return_lag5","SMA10_vs_SMA20","ATR14","StdDev20_Return","RSI14","Momentum10","Williams_%R","Williams%R14","Stochastic_D","OBV","Volume_MA5","Volume_Change","DayOfWeek"],"feature_types":["float","float","float","float","float","float","float","float","float","float","float","float","float","float","float","float","float","float","float"],"gradient_booster":{"model":{"gbtree_model_param":{"num_parallel_tree":"1","num_trees":"417"},"iteration_indptr":[0,3,6,9,12,15,18,21,24,27,30,33,36,39,42,45,48,51,54,57,60,63,66,69,72,75,78,81,84,87,90,93,96,99,102,105,108,111,114,117,120,123,126,129,132,135,138,141,144,147,150,153,156,159,162,165,168,171,174,177,180,183,186,189,192,195,198,201,204,207,210,213,216,219,222,225,228,231,234,237,240,243,246,249,252,255,258,261,264,267,270,273,276,279,282,285,288,291,294,297,300,303,306,309,312,315,318,321,324,327,330,333,336,339,342,345,348,351,354,357,360,363,366,369,372,375,378,381,384,387,390,393,396,399,402,405,408,411,414,417],"tree_info":[0,1,2,0,1,2,0,1,2,0,1,2,0,1,2,0,1,2,0,1,2,0,1,2,0,1,2,0,1,2,0,1,2,0,1,2,0,1,2,0,1,2,0,1,2,0,1,2,0,1,2,0,1,2,0,1,2,0,1,2,0,1,2,0,1,2,0,1,2,0,1,2,0,1,2,0,1,2,0,1,2,0,1,2,0,1,2,0,1,2,0,1,2,0,1,2,0,1,2,0,1,2,0,1,2,0,1,2,0,1,2,0,1,2,0,1,2,0,1,2,0,1,2,0,1,2,0,1,2,0,1,2,0,1,2,0,1,2,0,1,2,0,1,2,0,1,2,0,1,2,0,1,2,0,1,2,0,1,2,0,1,2,0,1,2,0,1,2,0,1,2,0,1,2,0,1,2,0,1,2,0,1,2,0,1,2,0,1,2,0,1,2,0,1,2,0,1,2,0,1,2,0,1,2,0,1,2,0,1,2,0,1,2,0,1,2,0,1,2,0,1,2,0,1,2,0,1,2,0,1,2,0,1,2,0,1,2,0,1,2,0,1,2,0,1,2,0,1,2,0,1,2,0,1,2,0,1,2,0,1,2,0,1,2,0,1,2,0,1,2,0,1,2,0,1,2,0,1,2,0,1,2,0,1,2,0,1,2,0,1,2,0,1,2,0,1,2,0,1,2,0,1,2,0,1,2,0,1,2,0,1,2,0,1,2,0,1,2,0,1,2,0,1,2,0,1,2,0,1,2,0,1,2,0,1,2,0,1,2,0,1,2,0,1,2,0,1,2,0,1,2,0,1,2,0,1,2,0,1,2,0,1,2,0,1,2,0,1,2,0,1,2,0,1,2,0,1,2,0,1,2,0,1,2,0,1,2,0,1,2,0,1,2,0,1,2,0,1,2,0,1,2,0,1,2,0,1,2,0,1,2,0,1,2,0,1,2],"trees":[{"base_weights":[6.053326E-2,3.4795824E-2,-7.456863E-1,-0E0,-1.7397998E-2,-2.4149255E-1,5.648356E-1,-1.5349538E-2,-0E0,-0E0,2.1191027E-2,4.3862737E-3,-1.3824219E-2],"categories":[],"categories_nodes":[],"categories_segments":[],"categories_sizes":[],"default_left":[0,0,0,0,0,0,0,0,0,0,0,0,0],"id":0,"left_children":[1,-1,3,5,-1,7,9,-1,11,-1,-1,-1,-1],"loss_changes":[1.4656336E4,0E0,2.559961E1,6.284997E0,0E0,2.7353568E0,2.7514944E0,0E0,2.669081E0,0E0,0E0,0E0,0E0],"parents":[2147483647,0,0,2,2,3,3,5,5,6,6,8,8],"right_children":[2,-1,4,6,-1,8,10,-1,12,-1,-1,-1,-1],"split_conditions":[-1.9428657E-1,3.4795824E-2,-1.8976963E-1,5.0310273E-2,-1.7397998E-2,-3.9885533E-1,-3.2379538E-1,-1.5349538E-2,-5.5352036E-2,-0E0,2.1191027E-2,4.3862737E-3,-1.3824219E-2],"split_indices":[0,0,0,1,0,12,11,0,16,0,0,0,0],"split_type":[0,0,0,0,0,0,0,0,0,0,0,0,0],"sum_hessian":[1.2630222E4,4.535111E3,8.095111E3,4.4888885E1,8.0502217E3,3.1111109E1,1.3777777E1,1.0222221E1,2.0888887E1,5.333333E0,8.444444E0,1.5111111E1,5.7777777E0],"tree_param":{"num_deleted":"0","num_feature":"19","num_nodes":"13","size_leaf_vector":"1"}},{"base_weights":[-1.3705955E-1,2.144152E-1,-7.452876E-1,-1.7395986E-2,1.4890174E0,-2.732068E-1,-1.739601E-2,7.5803065E-1,3.479403E-2,-4.9177414E-1,1.663884E-2,-7.60934E-2,1.0202951E0,-0E0,-5.7104236E-1,-1.4071772E-2,9.342984E-3,4.149074E-3,2.7038848E-2,-9.55184E-4,-1.4958641E-2],"categories":[],"categories_nodes":[],"categories_segments":[],"categories_sizes":[],"default_left":[0,0,0,0,0,0,0,0,0,0,0,0,0,0,0,0,0,0,0,0,0],"id":1,"left_children":[1,3,5,-1,7,9,-1,11,-1,13,-1,15,17,-1,19,-1,-1,-1,-1,-1,-1],"loss_changes":[2.7152593E3,9.891398E3,9.078857E0,0E0,2.506543E1,9.848228E0,0E0,1.1969173E1,0E0,1.4977274E0,0E0,3.1910985E0,3.775303E0,0E0,7.571974E-1,0E0,0E0,0E0,0E0,0E0,0E0],"parents":[2147483647,0,0,1,1,2,2,4,4,5,5,7,7,9,9,11,11,12,12,14,14],"right_children":[2,4,6,-1,8,10,-1,12,-1,14,-1,16,18,-1,20,-1,-1,-1,-1,-1,-1],"split_conditions":[1.8906736E-1,-1.9428657E-1,1.9548163E-1,-1.7395986E-2,-1.8976963E-1,7.763536E-1,-1.739601E-2,-3.3449763E-1,3.479403E-2,-1.2559502E0,1.663884E-2,5.2640744E-2,-5.1689243E-1,-0E0,-1.0960047E-2,-1.4071772E-2,9.342984E-3,4.149074E-3,2.7038848E-2,-9.55184E-4,-1.4958641E-2],"split_indices":[0,0,0,0,0,18,0,3,0,14,0,5,6,0,17,0,0,0,0,0,0],"split_type":[0,0,0,0,0,0,0,0,0,0,0,0,0,0,0,0,0,0,0,0,0],"sum_hessian":[1.269911E4,8.047555E3,4.651555E3,4.581333E3,3.466222E3,4.5777775E1,4.6057773E3,5.1111107E1,3.4151108E3,3.822222E1,7.5555553E0,1.1555555E1,3.9555553E1,5.333333E0,3.2888885E1,6.222222E0,5.333333E0,6.666666E0,3.2888885E1,5.333333E0,2.7555553E1],"tree_param":{"num_deleted":"0","num_feature":"19","num_nodes":"21","size_leaf_vector":"1"}},{"base_weights":[7.668545E-2,-1.7397989E-2,1.4940023E0,9.6678126E-1,3.4795936E-2,5.4538685E-1,3.2011315E-2,1.5321138E-2,2.5496999E-2,9.186688E-3,-5.668133E-3],"categories":[],"categories_nodes":[],"categories_segments":[],"categories_sizes":[],"default_left":[0,0,0,0,0,0,0,0,0,0,0],"id":2,"left_children":[1,-1,3,5,-1,7,-1,9,-1,-1,-1],"loss_changes":[1.4883926E4,0E0,1.2036133E1,7.524826E0,0E0,7.149784E0,0E0,1.6054152E0,0E0,0E0,0E0],"parents":[2147483647,0,0,2,2,3,3,5,5,7,7],"right_children":[2,-1,4,6,-1,8,-1,10,-1,-1,-1],"split_conditions":[1.8906736E-1,-1.7397989E-2,1.9548163E-1,-2.1277826E-1,3.4795936E-2,1.2034584E-1,3.2011315E-2,2.8750843E-1,2.5496999E-2,9.186688E-3,-5.668133E-3],"split_indices":[0,0,0,13,0,16,0,18,0,0,0],"split_type":[0,0,0,0,0,0,0,0,0,0,0],"sum_hessian":[1.2703999E4,8.0239995E3,4.6799995E3,5.2444443E1,4.627555E3,2.7111109E1,2.5333332E1,1.4666666E1,1.2444444E1,7.1111107E0,7.5555553E0],"tree_param":{"num_deleted":"0","num_feature":"19","num_nodes":"11","size_leaf_vector":"1"}},{"base_weights":[6.408863E-2,3.3616148E-2,-7.38787E-1,5.6534946E-2,-1.7246686E-2,2.1006476E-2,-1.7693278E-1,-3.4798896E-1,7.632589E-3,-1.1689862E-2,-0E0],"categories":[],"categories_nodes":[],"categories_segments":[],"categories_sizes":[],"default_left":[0,0,0,0,0,0,0,0,0,0,0],"id":3,"left_children":[1,-1,3,5,-1,-1,7,9,-1,-1,-1],"loss_changes":[1.4083181E4,0E0,2.9722168E1,9.531189E0,0E0,0E0,3.0506225E0,1.8137174E0,0E0,0E0,0E0],"parents":[2147483647,0,0,2,2,3,3,6,6,7,7],"right_children":[2,-1,4,6,-1,-1,8,10,-1,-1,-1],"split_conditions":[-1.9428657E-1,3.3616148E-2,-1.8976963E-1,-3.3449763E-1,-1.7246686E-2,2.1006476E-2,-2.098165E-1,1.2413158E0,7.632589E-3,-1.1689862E-2,-0E0],"split_indices":[0,0,0,3,0,0,9,15,0,0,0],"split_type":[0,0,0,0,0,0,0,0,0,0,0],"sum_hessian":[1.2665606E4,4.6485024E3,8.017104E3,4.4894043E1,7.97221E3,1.0273962E1,3.462008E1,2.7059374E1,7.560705E0,1.9947754E1,7.111621E0],"tree_param":{"num_deleted":"0","num_feature":"19","num_nodes":"11","size_leaf_vector":"1"}},{"base_weights":[-1.322406E-1,2.103801E-1,-1.724464E-2,-1.724462E-2,1.4152296E0,1.4398654E0,-2.2039826E-1,8.041331E-1,3.3614397E-2,-4.2330554E-1,1.3416849E-2,-2.6394147E-3,2.477159E-2,-0E0,-1.4248258E-2],"categories":[],"categories_nodes":[],"categories_segments":[],"categories_sizes":[],"default_left":[0,0,0,0,0,0,0,0,0,0,0,0,0,0,0],"id":4,"left_children":[1,3,-1,-1,5,7,9,11,-1,13,-1,-1,-1,-1,-1],"loss_changes":[2.6530383E3,9.328004E3,0E0,0E0,1.4553906E2,1.8197754E1,8.507017E0,1.3063911E1,0E0,3.5175972E0,0E0,0E0,0E0,0E0,0E0],"parents":[2147483647,0,0,1,1,4,4,5,5,6,6,7,7,9,9],"right_children":[2,4,-1,-1,6,8,10,12,-1,14,-1,-1,-1,-1,-1],"split_conditions":[1.9548163E-1,-1.9428657E-1,-1.724464E-2,-1.724462E-2,1.8906736E-1,-1.8976963E-1,7.763536E-1,-3.3449763E-1,3.3614397E-2,-2.6750854E-1,1.3416849E-2,-2.6394147E-3,2.477159E-2,-0E0,-1.4248258E-2],"split_indices":[0,0,0,0,0,0,18,3,0,5,0,0,0,0,0],"split_type":[0,0,0,0,0,0,0,0,0,0,0,0,0,0,0],"sum_hessian":[1.2670231E4,8.1174604E3,4.552771E3,4.530747E3,3.5867134E3,3.5339807E3,5.2732716E1,5.065563E1,3.483325E3,4.2895405E1,9.837309E0,1.067211E1,3.998352E1,1.3292973E1,2.9602434E1],"tree_param":{"num_deleted":"0","num_feature":"19","num_nodes":"15","size_leaf_vector":"1"}},{"base_weights":[7.322845E-2,2.4733646E-1,-2.2400543E-2,2.9108512E-1,1.7086603E-1,2.5683478E-1,-6.3695885E-2,1.9506763E-1,3.4203088E-1,3.0681178E-1,8.315215E-2,3.1287557E-1,-1.0171733E-1,-1.5872905E-1,-1.2587457E-2,3.447496E-1,1.2876363E-1,4.208497E-1,2.7273282E-1,2.303738E-1,4.650644E-1,1.2746438E-1,-1.9514944E-1,6.265415E-1,2.7220657E-1,-3.793744E-1,1.4692794E-1,-3.7891272E-2,-2.1751514E-1,5.136529E-2,-6.6433646E-2,-1.1117281E-4,9.451473E-3,-1.8226509E-3,3.8529315E-3,1.1718478E-2,7.590798E-3,1.1254678E-2,5.372182E-3,2.3146367E-3,8.6948285E-3,2.6040507E-2,9.477768E-3,2.3847823E-3,1.4197727E-2,1.599461E-2,-5.6893765E-3,1.7334731E-2,1.7835016E-3,4.4880034E-3,9.13748E-3,-5.399814E-3,-1.4390872E-2,-1.4242626E-2,8.176731E-3,2.5949003E-3,-2.036866E-3,-1.139583E-3,-5.857779E-3,-5.7749066E-4,2.2777983E-3,-3.4384932E-3,-2.4029092E-4],"categories":[],"categories_nodes":[],"categories_segments":[],"categories_sizes":[],"default_left":[0,0,0,0,0,0,0,0,0,0,0,0,0,0,0,0,0,0,0,0,0,0,0,0,0,0,0,0,0,0,0,0,0,0,0,0,0,0,0,0,0,0,0,0,0,0,0,0,0,0,0,0,0,0,0,0,0,0,0,0,0,0,0],"id":5,"left_children":[1,3,5,7,9,11,13,15,17,19,21,23,25,27,29,31,33,35,37,39,41,43,45,47,49,51,53,55,57,59,61,-1,-1,-1,-1,-1,-1,-1,-1,-1,-1,-1,-1,-1,-1,-1,-1,-1,-1,-1,-1,-1,-1,-1,-1,-1,-1,-1,-1,-1,-1,-1,-1],"loss_changes":[2.1124309E2,1.467865E1,9.417804E1,1.3532486E1,1.9291054E1,2.1297516E1,3.4491173E1,9.500893E0,9.595825E0,7.1955566E0,1.2317714E1,1.0896637E1,9.884749E0,1.7472866E1,1.5994578E1,6.917141E0,5.4336386E0,6.143738E0,8.126671E0,7.8468018E0,6.3582726E0,9.806087E0,5.687935E0,6.1319885E0,7.284092E0,1.7096834E0,1.1216312E1,6.10078E0,9.593239E0,7.607116E0,1.146157E1,0E0,0E0,0E0,0E0,0E0,0E0,0E0,0E0,0E0,0E0,0E0,0E0,0E0,0E0,0E0,0E0,0E0,0E0,0E0,0E0,0E0,0E0,0E0,0E0,0E0,0E0,0E0,0E0,0E0,0E0,0E0,0E0],"parents":[2147483647,0,0,1,1,2,2,3,3,4,4,5,5,6,6,7,7,8,8,9,9,10,10,11,11,12,12,13,13,14,14,15,15,16,16,17,17,18,18,19,19,20,20,21,21,22,22,23,23,24,24,25,25,26,26,27,27,28,28,29,29,30,30],"right_children":[2,4,6,8,10,12,14,16,18,20,22,24,26,28,30,32,34,36,38,40,42,44,46,48,50,52,54,56,58,60,62,-1,-1,-1,-1,-1,-1,-1,-1,-1,-1,-1,-1,-1,-1,-1,-1,-1,-1,-1,-1,-1,-1,-1,-1,-1,-1,-1,-1,-1,-1,-1,-1],"split_conditions":[-3.1945232E-1,-7.9801776E-2,-5.0927097E-1,-4.3181556E-1,-7.8541213E-1,8.297359E-1,-5.059888E-1,-6.5028447E-1,-9.855384E-3,1.7154785E-1,7.9108375E-1,-1.4637867E0,9.142996E-2,-1.00756265E-1,6.709715E-2,-1.2739668E0,-8.840144E-1,4.6998897E-1,-9.61287E-1,-5.137943E-1,2.0958608E-1,1.4826459E0,-9.750815E-1,7.3000604E-1,1.6468705E-1,1.4626546E0,-1.1603903E-2,-5.5907447E-2,-2.0807661E-1,-1.02827E-2,-3.9404413E-1,-1.1117281E-4,9.451473E-3,-1.8226509E-3,3.8529315E-3,1.1718478E-2,7.590798E-3,1.1254678E-2,5.372182E-3,2.3146367E-3,8.6948285E-3,2.6040507E-2,9.477768E-3,2.3847823E-3,1.4197727E-2,1.599461E-2,-5.6893765E-3,1.7334731E-2,1.7835016E-3,4.4880034E-3,9.13748E-3,-5.399814E-3,-1.4390872E-2,-1.4242626E-2,8.176731E-3,2.5949003E-3,-2.036866E-3,-1.139583E-3,-5.857779E-3,-5.7749066E-4,2.2777983E-3,-3.4384932E-3,-2.4029092E-4],"split_indices":[10,7,7,1,10,10,1,9,17,6,7,7,6,2,12,8,8,15,6,2,6,16,14,6,11,11,17,7,7,17,9,0,0,0,0,0,0,0,0,0,0,0,0,0,0,0,0,0,0,0,0,0,0,0,0,0,0,0,0,0,0,0,0],"split_type":[0,0,0,0,0,0,0,0,0,0,0,0,0,0,0,0,0,0,0,0,0,0,0,0,0,0,0,0,0,0,0,0,0,0,0,0,0,0,0,0,0,0,0,0,0,0,0,0,0,0,0,0,0,0,0,0,0,0,0,0,0,0,0],"sum_hessian":[1.2676746E4,4.496997E3,8.1797485E3,2.8537268E3,1.6432705E3,1.0512893E3,7.1284595E3,9.948502E2,1.8588765E3,6.4080334E2,1.00246716E3,9.1107043E2,1.4021889E2,2.4875242E3,4.6409355E3,3.0157037E2,6.9327985E2,8.6400977E2,9.948667E2,4.3571524E2,2.050881E2,8.672611E2,1.3520604E2,1.02060616E2,8.0900977E2,6.766269E1,7.2556206E1,8.185063E2,1.6690178E3,2.1148318E3,2.5261035E3,4.397597E1,2.575944E2,1.02532074E2,5.9074774E2,4.5011295E2,4.1389682E2,1.5819614E2,8.366706E2,2.3175941E2,2.0395584E2,1.4869012E1,1.9021909E2,8.269761E2,4.0285E1,6.281598E0,1.2892444E2,8.248427E1,1.9576347E1,4.9520337E2,3.138064E2,4.4296337E1,2.3366348E1,1.4547225E1,5.8008984E1,2.0066382E2,6.1784247E2,2.908479E2,1.3781699E3,7.981884E2,1.3166433E3,1.02188293E3,1.5042207E3],"tree_param":{"num_deleted":"0","num_feature":"19","num_nodes":"63","size_leaf_vector":"1"}},{"base_weights":[6.383438E-2,3.271694E-2,-7.343651E-1,-7.448396E-3,-1.7130775E-2,2.0029034E-2,-2.8385702E-1,-5.17219E-1,5.1582623E-2,-0E0,-1.5912674E-2,-5.4131737E-3,1.3588803E-2],"categories":[],"categories_nodes":[],"categories_segments":[],"categories_sizes":[],"default_left":[0,0,0,0,0,0,0,0,0,0,0,0,0],"id":6,"left_children":[1,-1,3,5,-1,-1,7,9,11,-1,-1,-1,-1],"loss_changes":[1.351127E4,0E0,2.2387207E1,1.0306545E1,0E0,0E0,3.0721474E0,1.7249951E0,2.2793496E0,0E0,0E0,0E0,0E0],"parents":[2147483647,0,0,2,2,3,3,6,6,7,7,8,8],"right_children":[2,-1,4,6,-1,-1,8,10,12,-1,-1,-1,-1],"split_conditions":[-1.9428657E-1,3.271694E-2,-1.8976963E-1,-3.3449763E-1,-1.7130775E-2,2.0029034E-2,4.7194924E-2,-3.9506143E-1,1.2951253E-1,-0E0,-1.5912674E-2,-5.4131737E-3,1.3588803E-2],"split_indices":[0,0,0,3,0,0,5,4,12,0,0,0,0],"split_type":[0,0,0,0,0,0,0,0,0,0,0,0,0],"sum_hessian":[1.2571997E4,4.6796426E3,7.8923545E3,4.4280895E1,7.8480737E3,9.894785E0,3.438611E1,2.15727E1,1.281341E1,5.7233686E0,1.5849332E1,7.486293E0,5.3271165E0],"tree_param":{"num_deleted":"0","num_feature":"19","num_nodes":"13","size_leaf_vector":"1"}},{"base_weights":[-1.3094257E-1,2.1139728E-1,-1.7186E-2,-1.7049814E-2,1.3783699E0,1.4008814E0,-1.975898E-1,7.317051E-1,3.2714188E-2,-3.9581102E-1,1.6991464E-2,-6.3216006E-3,2.3443496E-2,1.1066411E-3,-1.1133402E-2],"categories":[],"categories_nodes":[],"categories_segments":[],"categories_sizes":[],"default_left":[0,0,0,0,0,0,0,0,0,0,0,0,0,0,0],"id":7,"left_children":[1,3,-1,-1,5,7,9,11,-1,13,-1,-1,-1,-1,-1],"loss_changes":[2.6380103E3,8.935531E3,0E0,0E0,1.2953564E2,2.0041992E1,9.147451E0,1.4564642E1,0E0,1.9273129E0,0E0,0E0,0E0,0E0,0E0],"parents":[2147483647,0,0,1,1,4,4,5,5,6,6,7,7,9,9],"right_children":[2,4,-1,-1,6,8,10,12,-1,14,-1,-1,-1,-1,-1],"split_conditions":[1.9548163E-1,-1.9428657E-1,-1.7186E-2,-1.7049814E-2,1.8906736E-1,-1.8976963E-1,7.763536E-1,-3.634879E-1,3.2714188E-2,-5.854635E-1,1.6991464E-2,-6.3216006E-3,2.3443496E-2,1.1066411E-3,-1.1133402E-2],"split_indices":[0,0,0,0,0,0,18,3,0,16,0,0,0,0,0],"split_type":[0,0,0,0,0,0,0,0,0,0,0,0,0,0,0],"sum_hessian":[1.2634221E4,8.0909116E3,4.5433086E3,4.467618E3,3.6232935E3,3.572771E3,5.0522396E1,4.960183E1,3.5231692E3,4.242416E1,8.098237E0,1.0176424E1,3.9425404E1,5.309484E0,3.7114674E1],"tree_param":{"num_deleted":"0","num_feature":"19","num_nodes":"15","size_leaf_vector":"1"}},{"base_weights":[7.455937E-2,-1.7200394E-2,1.4257014E0,9.792552E-1,3.317495E-2,1.145409E0,-0E0,6.5021735E-1,3.1655673E-2,2.1047115E-2,5.079156E-3],"categories":[],"categories_nodes":[],"categories_segments":[],"categories_sizes":[],"default_left":[0,0,0,0,0,0,0,0,0,0,0],"id":8,"left_children":[1,-1,3,5,-1,7,-1,9,-1,-1,-1],"loss_changes":[1.3939384E4,0E0,6.788086E0,7.6830215E0,0E0,2.605999E0,0E0,6.121726E-1,0E0,0E0,0E0],"parents":[2147483647,0,0,2,2,3,3,5,5,7,7],"right_children":[2,-1,4,6,-1,8,-1,10,-1,-1,-1],"split_conditions":[1.8906736E-1,-1.7200394E-2,1.9548163E-1,7.763536E-1,3.317495E-2,-3.8427415E-1,-0E0,-2.9901454E-1,3.1655673E-2,2.1047115E-2,5.079156E-3],"split_indices":[0,0,0,18,0,11,0,2,0,0,0],"split_type":[0,0,0,0,0,0,0,0,0,0,0],"sum_hessian":[1.2643315E4,7.882655E3,4.760661E3,4.6515137E1,4.714146E3,3.9801567E1,6.7135677E0,1.3528229E1,2.6273338E1,7.218133E0,6.310096E0],"tree_param":{"num_deleted":"0","num_feature":"19","num_nodes":"11","size_leaf_vector":"1"}},{"base_weights":[5.235438E-2,3.168946E-2,-7.287019E-1,-5.3307354E-2,-1.6986743E-2,3.5424054E-1,-5.4261035E-1,6.6112214E-1,-2.868551E-3,-1.5670491E-2,-6.3619815E-4,9.1164745E-4,2.1816391E-2],"categories":[],"categories_nodes":[],"categories_segments":[],"categories_sizes":[],"default_left":[0,0,0,0,0,0,0,0,0,0,0,0,0],"id":9,"left_children":[1,-1,3,5,-1,7,9,11,-1,-1,-1,-1,-1],"loss_changes":[1.2970158E4,0E0,1.7899414E1,8.505646E0,0E0,3.6616778E0,8.154583E-1,1.7412548E0,0E0,0E0,0E0,0E0,0E0],"parents":[2147483647,0,0,2,2,3,3,5,5,6,6,7,7],"right_children":[2,-1,4,6,-1,8,10,12,-1,-1,-1,-1,-1],"split_conditions":[-1.9428657E-1,3.168946E-2,-1.8976963E-1,6.019133E-1,-1.6986743E-2,-9.22798E-3,-1.16579436E-1,-1.392352E-1,-2.868551E-3,-1.5670491E-2,-6.3619815E-4,9.1164745E-4,2.1816391E-2],"split_indices":[0,0,0,3,0,17,1,5,0,0,0,0,0],"split_type":[0,0,0,0,0,0,0,0,0,0,0,0,0],"sum_hessian":[1.26414375E4,4.7142383E3,7.9271987E3,4.153339E1,7.8856655E3,2.1828608E1,1.970478E1,1.4230168E1,7.59844E0,1.4425185E1,5.2795963E0,5.336832E0,8.893336E0],"tree_param":{"num_deleted":"0","num_feature":"19","num_nodes":"13","size_leaf_vector":"1"}},{"base_weights":[-1.3224399E-1,2.077134E-1,-1.7040038E-2,-1.6908912E-2,1.3362719E0,1.3564348E0,-1.653158E-1,7.056227E-1,3.1687047E-2,1.1062369E-2,-1.4267378E-2,-3.4351551E-3,2.1306166E-2,-3.0012927E-3,1.7891448E-2],"categories":[],"categories_nodes":[],"categories_segments":[],"categories_sizes":[],"default_left":[0,0,0,0,0,0,0,0,0,0,0,0,0,0,0],"id":10,"left_children":[1,3,-1,-1,5,7,9,11,-1,13,-1,-1,-1,-1,-1],"loss_changes":[2.575704E3,8.497804E3,0E0,0E0,1.11364746E2,2.0071777E1,4.2730975E0,1.0149754E1,0E0,4.0831747E0,0E0,0E0,0E0,0E0,0E0],"parents":[2147483647,0,0,1,1,4,4,5,5,6,6,7,7,9,9],"right_children":[2,4,-1,-1,6,8,10,12,-1,14,-1,-1,-1,-1,-1],"split_conditions":[1.9548163E-1,-1.9428657E-1,-1.7040038E-2,-1.6908912E-2,1.8906736E-1,-1.8976963E-1,3.2476604E-1,-3.3449763E-1,3.1687047E-2,7.763536E-1,-1.4267378E-2,-3.4351551E-3,2.1306166E-2,-3.0012927E-3,1.7891448E-2],"split_indices":[0,0,0,0,0,0,13,3,0,18,0,0,0,0,0],"split_type":[0,0,0,0,0,0,0,0,0,0,0,0,0,0,0],"sum_hessian":[1.2578846E4,8.039364E3,4.539482E3,4.3931533E3,3.6462107E3,3.5984255E3,4.7785183E1,5.2270794E1,3.5461548E3,3.3227398E1,1.4557786E1,9.714248E0,4.2556545E1,2.7327642E1,5.8997536E0],"tree_param":{"num_deleted":"0","num_feature":"19","num_nodes":"15","size_leaf_vector":"1"}},{"base_weights":[7.090197E-2,2.3067898E-1,-1.8390017E-2,1.4736693E-1,2.7483636E-1,1.884225E-1,-6.0597174E-2,1.6897196E-1,-3.907773E-1,2.9072976E-1,-1.3644191E-2,2.2618389E-1,-1.4438887E-1,-1.10239826E-1,4.38381E-2,2.5573108E-1,8.077303E-2,-0E0,-4.560763E-1,2.584054E-1,3.684165E-1,-8.8764794E-2,5.253116E-1,5.9107685E-1,1.889149E-1,-4.9760297E-1,4.553754E-2,-4.0157244E-2,-1.7604153E-1,2.4897313E-1,1.6010951E-2,1.1680924E-2,4.5511695E-3,3.2791083E-3,-3.3684152E-3,-1.1681155E-2,-0E0,6.2765297E-3,-3.897123E-3,1.0873027E-2,4.951204E-3,3.541853E-3,-4.908497E-3,1.9840423E-2,-0E0,1.588514E-2,-1.605637E-3,6.310274E-4,5.507496E-3,-4.8989867E-4,-1.3225212E-2,-6.0700015E-3,9.02043E-3,1.7027446E-3,-1.969374E-3,-4.3467386E-3,4.4695376E-3,-0E0,8.542791E-3,-2.4261877E-3,1.1614753E-3],"categories":[],"categories_nodes":[],"categories_segments":[],"categories_sizes":[],"default_left":[0,0,0,0,0,0,0,0,0,0,0,0,0,0,0,0,0,0,0,0,0,0,0,0,0,0,0,0,0,0,0,0,0,0,0,0,0,0,0,0,0,0,0,0,0,0,0,0,0,0,0,0,0,0,0,0,0,0,0,0,0],"id":11,"left_children":[1,3,5,7,9,11,13,15,17,19,21,23,25,27,29,31,33,-1,35,37,39,41,43,45,47,49,51,53,55,57,59,-1,-1,-1,-1,-1,-1,-1,-1,-1,-1,-1,-1,-1,-1,-1,-1,-1,-1,-1,-1,-1,-1,-1,-1,-1,-1,-1,-1,-1,-1],"loss_changes":[1.8021292E2,1.6321716E1,7.0545555E1,1.8152203E1,1.3753067E1,1.7269753E1,3.491449E1,1.1333473E1,1.8076963E0,6.531189E0,5.8195233E0,1.6120487E1,9.577782E0,2.0873775E1,1.2134117E1,1.0648544E1,1.0350309E1,0E0,8.1157875E-1,1.0353989E1,1.2124779E1,4.045084E0,3.0223227E0,7.4126167E0,8.568615E0,1.2500811E0,9.415829E0,1.1261927E1,9.7929535E0,7.809144E0,7.789018E0,0E0,0E0,0E0,0E0,0E0,0E0,0E0,0E0,0E0,0E0,0E0,0E0,0E0,0E0,0E0,0E0,0E0,0E0,0E0,0E0,0E0,0E0,0E0,0E0,0E0,0E0,0E0,0E0,0E0,0E0],"parents":[2147483647,0,0,1,1,2,2,3,3,4,4,5,5,6,6,7,7,8,8,9,9,10,10,11,11,12,12,13,13,14,14,15,15,16,16,18,18,19,19,20,20,21,21,22,22,23,23,24,24,25,25,26,26,27,27,28,28,29,29,30,30],"right_children":[2,4,6,8,10,12,14,16,18,20,22,24,26,28,30,32,34,-1,36,38,40,42,44,46,48,50,52,54,56,58,60,-1,-1,-1,-1,-1,-1,-1,-1,-1,-1,-1,-1,-1,-1,-1,-1,-1,-1,-1,-1,-1,-1,-1,-1,-1,-1,-1,-1,-1,-1],"split_conditions":[-3.1945232E-1,-4.2971689E-1,-4.0614808E-1,5.1378375E-1,9.218738E-1,9.235404E-1,2.4562122E-3,-6.695367E-1,-5.4515225E-1,6.9891906E-1,3.0716794E0,-1.4637867E0,-1.0771994E-2,1.4251575E-1,-1.2780399E0,-5.9362376E-1,1.2996404E0,-0E0,-3.5761857E-1,1.5247527E0,1.3636595E0,-1.1844696E0,4.1016325E-2,-7.372259E-3,-9.1506165E-1,-3.7155902E-1,1.7599587E-1,1.6404351E-2,1.8927425E0,-2.5537214E-1,-5.059888E-1,1.1680924E-2,4.5511695E-3,3.2791083E-3,-3.3684152E-3,-1.1681155E-2,-0E0,6.2765297E-3,-3.897123E-3,1.0873027E-2,4.951204E-3,3.541853E-3,-4.908497E-3,1.9840423E-2,-0E0,1.588514E-2,-1.605637E-3,6.310274E-4,5.507496E-3,-4.8989867E-4,-1.3225212E-2,-6.0700015E-3,9.02043E-3,1.7027446E-3,-1.969374E-3,-4.3467386E-3,4.4695376E-3,-0E0,8.542791E-3,-2.4261877E-3,1.1614753E-3],"split_indices":[10,8,7,7,7,10,9,9,16,8,9,7,17,12,12,11,15,0,10,9,9,12,5,17,14,16,6,7,16,4,1,0,0,0,0,0,0,0,0,0,0,0,0,0,0,0,0,0,0,0,0,0,0,0,0,0,0,0,0,0,0],"split_type":[0,0,0,0,0,0,0,0,0,0,0,0,0,0,0,0,0,0,0,0,0,0,0,0,0,0,0,0,0,0,0,0,0,0,0,0,0,0,0,0,0,0,0,0,0,0,0,0,0,0,0,0,0,0,0,0,0,0,0,0,0],"sum_hessian":[1.2619875E4,4.527251E3,8.0926245E3,1.5746667E3,2.952584E3,1.3684275E3,6.724197E3,1.5153989E3,5.9267834E1,2.8009458E3,1.5163832E2,1.2311257E3,1.3730174E2,4.5627197E3,2.1614768E3,7.5933075E2,7.5606824E2,7.1186924E0,5.214914E1,1.9855756E3,8.153701E2,1.344915E2,1.714682E1,1.1189652E2,1.1192292E3,4.932118E1,8.798056E1,2.2153262E3,2.3473936E3,2.5468315E2,1.9067937E3,1.443867E2,6.1494403E2,5.9901013E2,1.5705814E2,4.5957603E1,6.191539E0,1.9325063E3,5.3069252E1,4.9191208E2,3.2345804E2,4.320794E1,9.128356E1,1.0479393E1,6.667427E0,9.902144E1,1.2875084E1,2.6183832E2,8.5739087E2,7.9485216E0,4.1372658E1,4.5269062E1,4.27115E1,6.211062E2,1.5942201E3,2.2796492E3,6.774462E1,8.0749176E1,1.7393398E2,4.1479346E2,1.4920002E3],"tree_param":{"num_deleted":"0","num_feature":"19","num_nodes":"61","size_leaf_vector":"1"}},{"base_weights":[5.19489E-2,3.0909538E-2,-7.231311E-1,-3.9016828E-2,-1.6877647E-2,8.8357687E-1,-3.1486923E-1,2.886428E-2,8.266599E-3,-1.5765125E-2,-1.9427186E-2,2.2209281E-2,-8.306612E-3],"categories":[],"categories_nodes":[],"categories_segments":[],"categories_sizes":[],"default_left":[0,0,0,0,0,0,0,0,0,0,0,0,0],"id":12,"left_children":[1,-1,3,5,-1,7,9,-1,-1,-1,11,-1,-1],"loss_changes":[1.2561789E4,0E0,2.273877E1,1.2565445E1,0E0,7.897711E-1,3.762563E0,0E0,0E0,0E0,7.3602858E0,0E0,0E0],"parents":[2147483647,0,0,2,2,3,3,5,5,6,6,10,10],"right_children":[2,-1,4,6,-1,8,10,-1,-1,-1,12,-1,-1],"split_conditions":[-1.9428657E-1,3.0909538E-2,-1.8976963E-1,-3.3449763E-1,-1.6877647E-2,-6.1350965E-1,-3.9762378E-1,2.886428E-2,8.266599E-3,-1.5765125E-2,-1.1444575E-1,2.2209281E-2,-8.306612E-3],"split_indices":[0,0,0,3,0,5,14,0,0,0,11,0,0],"split_type":[0,0,0,0,0,0,0,0,0,0,0,0,0],"sum_hessian":[1.2657864E4,4.7735586E3,7.884306E3,5.0682846E1,7.8336235E3,1.0920788E1,3.976206E1,5.4556646E0,5.465123E0,1.6511396E1,2.3250664E1,5.3049583E0,1.7945705E1],"tree_param":{"num_deleted":"0","num_feature":"19","num_nodes":"13","size_leaf_vector":"1"}},{"base_weights":[-1.2557591E-1,2.0907773E-1,-1.6982578E-2,-1.6729187E-2,1.3027064E0,1.3237377E0,-2.257435E-1,7.0972407E-1,3.0907027E-2,1.8421796E-1,-4.904586E-1,-3.4723985E-3,2.2737104E-2,-7.392119E-3,1.2416684E-2,1.0187353E-3,-1.4601558E-2],"categories":[],"categories_nodes":[],"categories_segments":[],"categories_sizes":[],"default_left":[0,0,0,0,0,0,0,0,0,0,0,0,0,0,0,0,0],"id":13,"left_children":[1,3,-1,-1,5,7,9,11,-1,13,15,-1,-1,-1,-1,-1,-1],"loss_changes":[2.5272068E3,8.1614717E3,0E0,0E0,1.1945068E2,1.7026367E1,5.6508017E0,1.2478363E1,0E0,3.4677036E0,2.7891936E0,0E0,0E0,0E0,0E0,0E0,0E0],"parents":[2147483647,0,0,1,1,4,4,5,5,6,6,7,7,9,9,10,10],"right_children":[2,4,-1,-1,6,8,10,12,-1,14,16,-1,-1,-1,-1,-1,-1],"split_conditions":[1.9548163E-1,-1.9428657E-1,-1.6982578E-2,-1.6729187E-2,1.8906736E-1,-1.8976963E-1,-3.8427415E-1,-3.3449763E-1,3.0907027E-2,-3.9814368E-1,-1.6486652E-1,-3.4723985E-3,2.2737104E-2,-7.392119E-3,1.2416684E-2,1.0187353E-3,-1.4601558E-2],"split_indices":[0,0,0,0,0,0,11,3,0,2,4,0,0,0,0,0,0],"split_type":[0,0,0,0,0,0,0,0,0,0,0,0,0,0,0,0,0],"sum_hessian":[1.2450916E4,8.0224565E3,4.4284595E3,4.334935E3,3.6875212E3,3.6379946E3,4.9526733E1,5.0635983E1,3.5873586E3,1.831133E1,3.1215403E1,1.1452794E1,3.918319E1,6.6301565E0,1.1681173E1,5.320811E0,2.589459E1],"tree_param":{"num_deleted":"0","num_feature":"19","num_nodes":"17","size_leaf_vector":"1"}},{"base_weights":[7.039953E-2,-1.7006742E-2,1.3618395E0,8.8927007E-1,3.1713482E-2,3.678296E-1,1.1418825E0,2.2043189E-2,-0E0,1.2163328E-2,2.9833678E-2,1.2518409E-2,-7.971298E-3],"categories":[],"categories_nodes":[],"categories_segments":[],"categories_sizes":[],"default_left":[0,0,0,0,0,0,0,0,0,0,0,0,0],"id":14,"left_children":[1,-1,3,5,-1,7,9,-1,11,-1,-1,-1,-1],"loss_changes":[1.3134195E4,0E0,9.647461E0,5.8264885E0,0E0,3.4122047E0,1.5894852E0,0E0,2.4668345E0,0E0,0E0,0E0,0E0],"parents":[2147483647,0,0,2,2,3,3,5,5,6,6,8,8],"right_children":[2,-1,4,6,-1,8,10,-1,12,-1,-1,-1,-1],"split_conditions":[1.8906736E-1,-1.7006742E-2,1.9548163E-1,-3.8427415E-1,3.1713482E-2,-4.311867E-1,-9.492292E-1,2.2043189E-2,-1.0909916E0,1.2163328E-2,2.9833678E-2,1.2518409E-2,-7.971298E-3],"split_indices":[0,0,0,11,0,2,12,0,14,0,0,0,0],"split_type":[0,0,0,0,0,0,0,0,0,0,0,0,0],"sum_hessian":[1.2657748E4,7.802932E3,4.854816E3,5.3519012E1,4.801297E3,1.862289E1,3.4896122E1,6.402351E0,1.222054E1,7.7862706E0,2.7109852E1,5.4478264E0,6.7727137E0],"tree_param":{"num_deleted":"0","num_feature":"19","num_nodes":"13","size_leaf_vector":"1"}},{"base_weights":[5.927073E-2,3.0009618E-2,-7.165058E-1,5.3606827E-2,-1.6742025E-2,2.4355307E-2,-2.2564588E-1,-5.13314E-1,1.12232916E-1,-2.846684E-4,-1.5611223E-2,-6.7517757E-3,2.2829821E-2],"categories":[],"categories_nodes":[],"categories_segments":[],"categories_sizes":[],"default_left":[0,0,0,0,0,0,0,0,0,0,0,0,0],"id":15,"left_children":[1,-1,3,5,-1,-1,7,9,11,-1,-1,-1,-1],"loss_changes":[1.2141934E4,0E0,3.1141357E1,1.4724389E1,0E0,0E0,4.110023E0,1.2540636E0,6.5171504E0,0E0,0E0,0E0,0E0],"parents":[2147483647,0,0,2,2,3,3,6,6,7,7,8,8],"right_children":[2,-1,4,6,-1,-1,8,10,12,-1,-1,-1,-1],"split_conditions":[-1.9428657E-1,3.0009618E-2,-1.8976963E-1,-3.3449763E-1,-1.6742025E-2,2.4355307E-2,4.7194924E-2,-3.9506143E-1,-5.319629E-3,-2.846684E-4,-1.5611223E-2,-6.7517757E-3,2.2829821E-2],"split_indices":[0,0,0,3,0,0,5,4,1,0,0,0,0],"split_type":[0,0,0,0,0,0,0,0,0,0,0,0,0],"sum_hessian":[1.268051E4,4.8945435E3,7.785967E3,5.0275803E1,7.735691E3,1.14934435E1,3.8782356E1,2.212643E1,1.6655928E1,6.5649858E0,1.5561444E1,1.0873053E1,5.782876E0],"tree_param":{"num_deleted":"0","num_feature":"19","num_nodes":"13","size_leaf_vector":"1"}},{"base_weights":[-1.2542365E-1,8.696931E-3,-2.5425735E-1,1.905486E-1,-4.0739026E-2,-2.2223443E-1,-3.6854884E-1,2.5088018E-1,1.0870035E-2,-1.0528154E-2,-1.6643994E-1,-9.058618E-2,-2.4108894E-1,-4.4109794E-1,-2.891084E-1,3.0614263E-1,1.0642187E-1,-2.581023E-1,7.477524E-2,-1.4621614E-1,2.0365868E-2,-9.614943E-3,-2.0921612E-1,-1.3608634E-1,1.6330676E-1,-2.978702E-1,-1.9355597E-1,-3.680071E-1,-5.0255746E-1,-2.3182254E-1,-4.6798375E-1,6.956993E-4,8.3020255E-3,-8.805764E-3,4.1024024E-3,-1.0947334E-2,-1.7333397E-3,2.4105632E-3,-9.107902E-3,-4.252645E-3,1.2413758E-3,2.4275803E-4,9.044521E-3,9.563549E-3,-2.1817011E-3,-5.984787E-3,-2.0462992E-3,-4.944544E-3,5.1807624E-4,1.4220439E-2,6.38983E-4,-2.7658998E-3,-7.2309463E-3,4.660484E-3,-4.6576085E-3,-8.988287E-3,2.0830743E-3,-8.063907E-3,-1.2415322E-2,-7.0465566E-3,-2.9066294E-3,-8.814001E-3,-1.46148065E-2],"categories":[],"categories_nodes":[],"categories_segments":[],"categories_sizes":[],"default_left":[0,0,0,0,0,0,0,0,0,0,0,0,0,0,0,0,0,0,0,0,0,0,0,0,0,0,0,0,0,0,0,0,0,0,0,0,0,0,0,0,0,0,0,0,0,0,0,0,0,0,0,0,0,0,0,0,0,0,0,0,0,0,0],"id":16,"left_children":[1,3,5,7,9,11,13,15,17,19,21,23,25,27,29,31,33,35,37,39,41,43,45,47,49,51,53,55,57,59,61,-1,-1,-1,-1,-1,-1,-1,-1,-1,-1,-1,-1,-1,-1,-1,-1,-1,-1,-1,-1,-1,-1,-1,-1,-1,-1,-1,-1,-1,-1,-1,-1],"loss_changes":[2.161353E2,5.513887E1,2.286795E1,1.4014824E1,1.8125193E1,1.211882E1,7.4227753E0,7.487465E0,5.5879836E0,1.6372179E1,6.0483437E0,7.2640505E0,1.1369186E1,2.5304108E0,6.295616E0,9.745827E0,9.263527E0,1.9885325E0,3.4824123E0,5.468917E0,1.12436E1,6.980614E0,4.0005646E0,6.703224E0,5.1968393E0,4.5346527E0,6.7619476E0,3.2204857E0,1.2269211E0,3.5720158E0,1.4388123E0,0E0,0E0,0E0,0E0,0E0,0E0,0E0,0E0,0E0,0E0,0E0,0E0,0E0,0E0,0E0,0E0,0E0,0E0,0E0,0E0,0E0,0E0,0E0,0E0,0E0,0E0,0E0,0E0,0E0,0E0,0E0,0E0],"parents":[2147483647,0,0,1,1,2,2,3,3,4,4,5,5,6,6,7,7,8,8,9,9,10,10,11,11,12,12,13,13,14,14,15,15,16,16,17,17,18,18,19,19,20,20,21,21,22,22,23,23,24,24,25,25,26,26,27,27,28,28,29,29,30,30],"right_children":[2,4,6,8,10,12,14,16,18,20,22,24,26,28,30,32,34,36,38,40,42,44,46,48,50,52,54,56,58,60,62,-1,-1,-1,-1,-1,-1,-1,-1,-1,-1,-1,-1,-1,-1,-1,-1,-1,-1,-1,-1,-1,-1,-1,-1,-1,-1,-1,-1,-1,-1,-1,-1],"split_conditions":[-2.2470383E-1,-8.2122487E-1,1.0342809E0,-6.6428816E-1,1.0594018E-1,-5.80162E-1,-3.190417E-1,-1.0417422E-1,-8.374802E-1,-8.053844E-1,-4.597418E-1,1.1014163E0,-1.7970522E-1,1.5247527E0,9.415517E-1,-6.6139424E-1,-5.5352036E-2,-6.714639E-2,5.76786E-1,-8.07782E-3,1.4902499E0,-7.881856E-1,9.5186293E-1,-6.7287844E-1,4.7738907E-1,-6.213629E-1,-2.1724842E0,2.5980804E0,-1.2287772E0,1.8220259E-1,8.485624E-1,6.956993E-4,8.3020255E-3,-8.805764E-3,4.1024024E-3,-1.0947334E-2,-1.7333397E-3,2.4105632E-3,-9.107902E-3,-4.252645E-3,1.2413758E-3,2.4275803E-4,9.044521E-3,9.563549E-3,-2.1817011E-3,-5.984787E-3,-2.0462992E-3,-4.944544E-3,5.1807624E-4,1.4220439E-2,6.38983E-4,-2.7658998E-3,-7.2309463E-3,4.660484E-3,-4.6576085E-3,-8.988287E-3,2.0830743E-3,-8.063907E-3,-1.2415322E-2,-7.0465566E-3,-2.9066294E-3,-8.814001E-3,-1.46148065E-2],"split_indices":[8,1,8,8,1,1,3,16,3,3,16,3,3,9,16,3,16,5,9,17,3,8,3,1,15,16,4,4,13,4,11,0,0,0,0,0,0,0,0,0,0,0,0,0,0,0,0,0,0,0,0,0,0,0,0,0,0,0,0,0,0,0,0],"split_type":[0,0,0,0,0,0,0,0,0,0,0,0,0,0,0,0,0,0,0,0,0,0,0,0,0,0,0,0,0,0,0,0,0,0,0,0,0,0,0,0,0,0,0,0,0,0,0,0,0,0,0,0,0,0,0,0,0,0,0,0,0,0,0],"sum_hessian":[1.2497174E4,6.120109E3,6.377065E3,1.311344E3,4.8087646E3,4.987092E3,1.3899734E3,9.784336E2,3.3291034E2,3.882102E3,9.2666284E2,6.3004266E2,4.357049E3,7.209443E2,6.690292E2,7.03675E2,2.7475864E2,6.1475666E1,2.7143466E2,7.244664E2,3.1576355E3,2.0251259E2,7.241502E2,5.369497E2,9.309295E1,1.9775011E3,2.3795479E3,3.3568445E2,3.8525983E2,5.1035767E2,1.5867151E2,1.13349846E2,5.9032513E2,3.3267887E1,2.4149077E2,2.6299513E1,3.5176155E1,2.572123E2,1.422234E1,6.142978E2,1.10168625E2,3.077448E3,8.01875E1,3.211668E1,1.703959E2,5.1152777E2,2.1262247E2,3.6450787E2,1.7244182E2,2.0109373E1,7.298358E1,1.4591689E2,1.8315842E3,4.0613083E1,2.3389348E3,3.2368185E2,1.200259E1,7.141438E1,3.1384543E2,3.0017535E2,2.1018233E2,1.06290726E2,5.2380775E1],"tree_param":{"num_deleted":"0","num_feature":"19","num_nodes":"63","size_leaf_vector":"1"}},{"base_weights":[7.174335E-2,-1.6863892E-2,1.3211882E0,8.758572E-1,3.0757403E-2,-0E0,9.6527135E-1,5.680576E-1,1.1413004E0,2.8646572E-2,-0E0,9.580487E-3,2.9824968E-2],"categories":[],"categories_nodes":[],"categories_segments":[],"categories_sizes":[],"default_left":[0,0,0,0,0,0,0,0,0,0,0,0,0],"id":17,"left_children":[1,-1,3,5,-1,-1,7,9,11,-1,-1,-1,-1],"loss_changes":[1.2534878E4,0E0,7.913086E0,3.33778E0,0E0,0E0,1.7629204E0,6.4881067E0,1.7639732E0,0E0,0E0,0E0,0E0],"parents":[2147483647,0,0,2,2,3,3,6,6,7,7,8,8],"right_children":[2,-1,4,6,-1,-1,8,10,12,-1,-1,-1,-1],"split_conditions":[1.8906736E-1,-1.6863892E-2,1.9548163E-1,-1.133237E-2,3.0757403E-2,-0E0,-6.986916E-1,-1.2493001E0,-6.809179E-1,2.8646572E-2,-0E0,9.580487E-3,2.9824968E-2],"split_indices":[0,0,0,17,0,0,12,12,6,0,0,0,0],"split_type":[0,0,0,0,0,0,0,0,0,0,0,0,0],"sum_hessian":[1.2561455E4,7.6629746E3,4.898481E3,5.1242233E1,4.847239E3,5.506401E0,4.5735832E1,1.5649465E1,3.0086367E1,7.411579E0,8.2378845E0,5.9842763E0,2.410209E1],"tree_param":{"num_deleted":"0","num_feature":"19","num_nodes":"13","size_leaf_vector":"1"}},{"base_weights":[6.1907213E-2,2.9282685E-2,-7.126898E-1,-2.7828798E-2,-1.662771E-2,-3.0679005E-1,4.4511744E-1,-1.5234446E-2,-3.6957245E-3,2.0840464E-2,1.8566246E-3,6.6665257E-3,-1.1278544E-2],"categories":[],"categories_nodes":[],"categories_segments":[],"categories_sizes":[],"default_left":[0,0,0,0,0,0,0,0,0,0,0,0,0],"id":18,"left_children":[1,-1,3,5,-1,7,9,-1,11,-1,-1,-1,-1],"loss_changes":[1.1704446E4,0E0,2.0354248E1,5.949545E0,0E0,2.658883E0,1.8786993E0,0E0,2.6238954E0,0E0,0E0,0E0,0E0],"parents":[2147483647,0,0,2,2,3,3,5,5,6,6,8,8],"right_children":[2,-1,4,6,-1,8,10,-1,12,-1,-1,-1,-1],"split_conditions":[-1.9428657E-1,2.9282685E-2,-1.8976963E-1,-5.319629E-3,-1.662771E-2,-3.9885533E-1,-7.184557E-2,-1.5234446E-2,3.4147117E-1,2.0840464E-2,1.8566246E-3,6.6665257E-3,-1.1278544E-2],"split_indices":[0,0,0,1,0,12,5,0,11,0,0,0,0],"split_type":[0,0,0,0,0,0,0,0,0,0,0,0,0],"sum_hessian":[1.2588709E4,4.938078E3,7.650631E3,4.550024E1,7.6051304E3,2.9690395E1,1.5809845E1,1.2492006E1,1.719839E1,5.9809937E0,9.828852E0,9.778776E0,7.419613E0],"tree_param":{"num_deleted":"0","num_feature":"19","num_nodes":"13","size_leaf_vector":"1"}},{"base_weights":[-1.2520328E-1,1.0674624E-2,-2.582068E-1,1.4049348E-1,-5.184312E-2,-2.3310186E-1,-4.1687438E-1,2.3037009E-1,3.4797728E-2,-1.6866826E-2,-1.7172784E-1,-2.9201144E-1,-1.7553905E-1,-1.5403007E-1,-4.3957677E-1,2.9055473E-1,9.381719E-2,-1.7249998E-1,8.275774E-2,-2.106122E-1,2.9656477E-3,-3.5168597E-1,-1.4752173E-1,-1.2215177E-1,-3.1599298E-1,-1.9511534E-1,1.23864105E-2,-3.9365563E-1,5.8832455E-2,-4.6176925E-1,-1.5253443E-1,5.5030896E-3,1.2060396E-2,4.5078495E-3,-5.1781754E-3,-5.602404E-3,9.114062E-3,-3.153817E-3,2.7019028E-3,-5.836706E-3,2.0031646E-2,-1.1247234E-4,8.864268E-3,-9.293188E-3,4.1021295E-3,-2.0723096E-3,-5.8859964E-3,-1.2995636E-3,-8.572499E-3,-1.3226538E-3,-7.5852233E-3,-4.241069E-3,-1.168336E-2,-4.893101E-3,3.5856133E-3,-3.1975405E-3,-1.32145835E-2,-5.1356056E-3,1.725184E-2,-9.247396E-3,-1.2721772E-2,-0E0,-1.1725478E-2],"categories":[],"categories_nodes":[],"categories_segments":[],"categories_sizes":[],"default_left":[0,0,0,0,0,0,0,0,0,0,0,0,0,0,0,0,0,0,0,0,0,0,0,0,0,0,0,0,0,0,0,0,0,0,0,0,0,0,0,0,0,0,0,0,0,0,0,0,0,0,0,0,0,0,0,0,0,0,0,0,0,0,0],"id":19,"left_children":[1,3,5,7,9,11,13,15,17,19,21,23,25,27,29,31,33,35,37,39,41,43,45,47,49,51,53,55,57,59,61,-1,-1,-1,-1,-1,-1,-1,-1,-1,-1,-1,-1,-1,-1,-1,-1,-1,-1,-1,-1,-1,-1,-1,-1,-1,-1,-1,-1,-1,-1,-1,-1],"loss_changes":[2.2465668E2,4.991133E1,2.4492065E1,1.8794754E1,1.7218082E1,1.8029358E1,4.6204224E0,8.549076E0,9.113894E0,1.249875E1,3.6566124E0,1.0549957E1,1.0264603E1,3.877455E0,4.4976807E0,8.487301E0,1.0615251E1,6.5516267E0,5.537969E0,1.28471E1,8.909669E0,2.9340286E0,4.823307E0,5.151224E0,6.3316193E0,8.93425E0,8.091099E0,1.0163021E0,7.3411517E0,3.1852264E0,3.2280898E0,0E0,0E0,0E0,0E0,0E0,0E0,0E0,0E0,0E0,0E0,0E0,0E0,0E0,0E0,0E0,0E0,0E0,0E0,0E0,0E0,0E0,0E0,0E0,0E0,0E0,0E0,0E0,0E0,0E0,0E0,0E0,0E0],"parents":[2147483647,0,0,1,1,2,2,3,3,4,4,5,5,6,6,7,7,8,8,9,9,10,10,11,11,12,12,13,13,14,14,15,15,16,16,17,17,18,18,19,19,20,20,21,21,22,22,23,23,24,24,25,25,26,26,27,27,28,28,29,29,30,30],"right_children":[2,4,6,8,10,12,14,16,18,20,22,24,26,28,30,32,34,36,38,40,42,44,46,48,50,52,54,56,58,60,62,-1,-1,-1,-1,-1,-1,-1,-1,-1,-1,-1,-1,-1,-1,-1,-1,-1,-1,-1,-1,-1,-1,-1,-1,-1,-1,-1,-1,-1,-1,-1,-1],"split_conditions":[-2.2470383E-1,-6.9142175E-1,1.2370815E0,-8.397195E-1,1.0594018E-1,-1.564844E-1,-4.842261E-1,-1.1048608E-1,-8.374802E-1,-1.2458156E0,-6.0160136E-1,-5.80162E-1,-6.788745E-3,-2.0241743E-1,1.1943405E0,8.329179E-1,8.4708416E-1,-8.439382E-3,-5.785353E-1,1.1827308E0,1.4902499E0,7.3000604E-1,1.7154785E-1,6.219056E-1,-6.4561707E-1,2.2903204E0,-4.556317E-1,-9.11073E-1,2.5428212E-1,1.7599587E-1,2.2940497E0,5.5030896E-3,1.2060396E-2,4.5078495E-3,-5.1781754E-3,-5.602404E-3,9.114062E-3,-3.153817E-3,2.7019028E-3,-5.836706E-3,2.0031646E-2,-1.1247234E-4,8.864268E-3,-9.293188E-3,4.1021295E-3,-2.0723096E-3,-5.8859964E-3,-1.2995636E-3,-8.572499E-3,-1.3226538E-3,-7.5852233E-3,-4.241069E-3,-1.168336E-2,-4.893101E-3,3.5856133E-3,-3.1975405E-3,-1.32145835E-2,-5.1356056E-3,1.725184E-2,-9.247396E-3,-1.2721772E-2,-0E0,-1.1725478E-2],"split_indices":[8,1,1,8,1,3,16,16,3,3,4,1,17,7,3,3,12,17,16,5,3,6,6,4,16,16,12,7,5,6,1,0,0,0,0,0,0,0,0,0,0,0,0,0,0,0,0,0,0,0,0,0,0,0,0,0,0,0,0,0,0,0,0],"split_type":[0,0,0,0,0,0,0,0,0,0,0,0,0,0,0,0,0,0,0,0,0,0,0,0,0,0,0,0,0,0,0,0,0,0,0,0,0,0,0,0,0,0,0,0,0,0,0,0,0,0,0,0,0,0,0,0,0,0,0,0,0,0,0],"sum_hessian":[1.242023E4,6.1409463E3,6.2792837E3,2.0000087E3,4.140938E3,5.426104E3,8.5317975E2,1.0768158E3,9.231929E2,3.2108442E3,9.300936E2,2.6746506E3,2.7514534E3,7.065951E1,7.825202E2,7.433227E2,3.3349307E2,1.703351E2,7.528578E2,3.0159174E2,2.9092524E3,1.06172516E2,8.239211E2,3.3503494E2,2.3396157E3,2.4955884E3,2.5586499E2,3.486739E1,3.5792114E1,7.2375244E2,5.8767757E1,6.0604224E2,1.3728043E2,2.5513692E2,7.835616E1,1.5313194E2,1.7203157E1,9.73808E1,6.554769E2,2.913514E2,1.0240326E1,2.8486987E3,6.0553673E1,9.856773E1,7.6047792E0,5.3712744E2,2.8679367E2,2.6700415E2,6.80308E1,9.776896E1,2.2418467E3,2.4024722E3,9.311637E1,9.73815E1,1.5848349E2,1.6139698E1,1.8727694E1,2.4694403E1,1.1097713E1,4.2415765E2,2.9959482E2,4.095664E1,1.781112E1],"tree_param":{"num_deleted":"0","num_feature":"19","num_nodes":"63","size_leaf_vector":"1"}},{"base_weights":[7.486839E-2,-1.6749693E-2,1.2891105E0,9.464547E-1,2.9990068E-2,1.0788049E0,2.6114048E-3,6.063186E-1,2.8766543E-2,2.2848498E-2,-0E0],"categories":[],"categories_nodes":[],"categories_segments":[],"categories_sizes":[],"default_left":[0,0,0,0,0,0,0,0,0,0,0],"id":20,"left_children":[1,-1,3,5,-1,7,-1,9,-1,-1,-1],"loss_changes":[1.2194279E4,0E0,4.0458984E0,4.9826813E0,0E0,1.8897133E0,0E0,3.0111256E0,0E0,0E0,0E0],"parents":[2147483647,0,0,2,2,3,3,5,5,7,7],"right_children":[2,-1,4,6,-1,8,-1,10,-1,-1,-1],"split_conditions":[1.8906736E-1,-1.6749693E-2,1.9548163E-1,7.763536E-1,2.9990068E-2,-2.6750854E-1,2.6114048E-3,-5.5069816E-1,2.8766543E-2,2.2848498E-2,-0E0],"split_indices":[0,0,0,18,0,5,0,5,0,0,0],"split_type":[0,0,0,0,0,0,0,0,0,0,0],"sum_hessian":[1.2602785E4,7.609028E3,4.993758E3,5.3502625E1,4.940255E3,4.532461E1,8.178012E0,1.2983365E1,3.2341248E1,7.9026523E0,5.080713E0],"tree_param":{"num_deleted":"0","num_feature":"19","num_nodes":"11","size_leaf_vector":"1"}},{"base_weights":[5.3858154E-2,2.8597154E-2,-7.068658E-1,6.9296192E-3,-1.6518047E-2,-2.6390862E-1,4.2654276E-1,6.194406E-3,-4.2071632E-1,6.6761345E-1,-0E0,1.3974033E-3,-1.359172E-2,1.4600015E-4,2.2489732E-2],"categories":[],"categories_nodes":[],"categories_segments":[],"categories_sizes":[],"default_left":[0,0,0,0,0,0,0,0,0,0,0,0,0,0,0],"id":21,"left_children":[1,-1,3,5,-1,7,9,-1,11,13,-1,-1,-1,-1,-1],"loss_changes":[1.124105E4,0E0,2.8237793E1,6.181387E0,0E0,2.744107E0,2.5967584E0,0E0,2.4250607E0,2.2014832E0,0E0,0E0,0E0,0E0,0E0],"parents":[2147483647,0,0,2,2,3,3,5,5,6,6,8,8,9,9],"right_children":[2,-1,4,6,-1,8,10,-1,12,14,-1,-1,-1,-1,-1],"split_conditions":[-1.9428657E-1,2.8597154E-2,-1.8976963E-1,-5.319629E-3,-1.6518047E-2,-2.1129027E-1,4.457761E-1,6.194406E-3,-5.8925325E-1,-9.9021393E-1,-0E0,1.3974033E-3,-1.359172E-2,1.4600015E-4,2.2489732E-2],"split_indices":[0,0,0,1,0,15,14,0,16,15,0,0,0,0,0],"split_type":[0,0,0,0,0,0,0,0,0,0,0,0,0,0,0],"sum_hessian":[1.2535323E4,4.9171523E3,7.618171E3,5.289032E1,7.565281E3,3.1069775E1,2.1820543E1,5.929622E0,2.5140154E1,1.4615734E1,7.20481E0,5.261955E0,1.9878199E1,5.4446864E0,9.171047E0],"tree_param":{"num_deleted":"0","num_feature":"19","num_nodes":"15","size_leaf_vector":"1"}},{"base_weights":[-1.2367818E-1,2.0604298E-1,-7.151382E-1,-1.6469778E-2,1.2614069E0,-2.507059E-1,-1.6705848E-2,6.056711E-1,2.9445577E-2,-4.0974665E-1,8.031851E-3,7.929237E-2,1.1065574E0,-0E0,-1.4357211E-2,1.1463966E-2,-8.730141E-3,2.9394135E-2,9.400378E-3,-9.748146E-3,6.3990126E-3],"categories":[],"categories_nodes":[],"categories_segments":[],"categories_sizes":[],"default_left":[0,0,0,0,0,0,0,0,0,0,0,0,0,0,0,0,0,0,0,0,0],"id":22,"left_children":[1,3,5,-1,7,9,-1,11,-1,13,-1,15,17,19,-1,-1,-1,-1,-1,-1,-1],"loss_changes":[2.4248938E3,7.715821E3,9.373291E0,0E0,1.7251953E1,4.6865144E0,0E0,1.0898632E1,0E0,3.2347212E0,0E0,4.4456906E0,1.10713E0,1.6683863E0,0E0,0E0,0E0,0E0,0E0,0E0,0E0],"parents":[2147483647,0,0,1,1,2,2,4,4,5,5,7,7,9,9,11,11,12,12,13,13],"right_children":[2,4,6,-1,8,10,-1,12,-1,14,-1,16,18,20,-1,-1,-1,-1,-1,-1,-1],"split_conditions":[1.8906736E-1,-1.9428657E-1,1.9548163E-1,-1.6469778E-2,-1.8976963E-1,7.763536E-1,-1.6705848E-2,6.019133E-1,2.9445577E-2,-2.6750854E-1,8.031851E-3,1.3033228E-1,7.712997E-1,-1.00804595E-2,-1.4357211E-2,1.1463966E-2,-8.730141E-3,2.9394135E-2,9.400378E-3,-9.748146E-3,6.3990126E-3],"split_indices":[0,0,0,0,0,18,0,3,0,5,0,4,3,17,0,0,0,0,0,0,0],"split_type":[0,0,0,0,0,0,0,0,0,0,0,0,0,0,0,0,0,0,0,0,0],"sum_hessian":[1.2431914E4,7.9813667E3,4.450548E3,4.272616E3,3.7087502E3,4.8355217E1,4.4021924E3,4.4677338E1,3.664073E3,3.9252552E1,9.102666E0,2.2648296E1,2.2029041E1,1.3707644E1,2.5544907E1,1.2732767E1,9.915529E0,1.6902681E1,5.126361E0,5.727684E0,7.979961E0],"tree_param":{"num_deleted":"0","num_feature":"19","num_nodes":"21","size_leaf_vector":"1"}},{"base_weights":[6.6883415E-2,-1.663866E-2,1.256883E0,8.2089305E-1,2.926722E-2,9.690807E-1,-0E0,5.2283126E-1,2.7764807E-2,3.9543295E-3,2.6381219E-2],"categories":[],"categories_nodes":[],"categories_segments":[],"categories_sizes":[],"default_left":[0,0,0,0,0,0,0,0,0,0,0],"id":23,"left_children":[1,-1,3,5,-1,7,-1,9,-1,-1,-1],"loss_changes":[1.1773399E4,0E0,8.211426E0,6.324978E0,0E0,3.2054749E0,0E0,2.628798E0,0E0,0E0,0E0],"parents":[2147483647,0,0,2,2,3,3,5,5,7,7],"right_children":[2,-1,4,6,-1,8,-1,10,-1,-1,-1],"split_conditions":[1.8906736E-1,-1.663866E-2,1.9548163E-1,7.763536E-1,2.926722E-2,-3.8427415E-1,-0E0,-8.758935E-3,2.7764807E-2,3.9543295E-3,2.6381219E-2],"split_indices":[0,0,0,18,0,11,0,17,0,0,0],"split_type":[0,0,0,0,0,0,0,0,0,0,0],"sum_hessian":[1.2617923E4,7.60605E3,5.0118735E3,5.4315964E1,4.957557E3,4.5653416E1,8.662545E0,1.6788702E1,2.8864714E1,1.1628524E1,5.160179E0],"tree_param":{"num_deleted":"0","num_feature":"19","num_nodes":"11","size_leaf_vector":"1"}},{"base_weights":[4.7422003E-2,2.7846172E-2,-7.012972E-1,6.0614545E-2,-1.6391862E-2,-2.3463757E-1,6.648246E-1,1.3975948E-1,-1.552617E-2,2.1997133E-2,-0E0,1.5905708E-2,-5.4036165E-3],"categories":[],"categories_nodes":[],"categories_segments":[],"categories_sizes":[],"default_left":[0,0,0,0,0,0,0,0,0,0,0,0,0],"id":24,"left_children":[1,-1,3,5,-1,7,9,11,-1,-1,-1,-1,-1],"loss_changes":[1.0800665E4,0E0,3.0689209E1,9.428199E0,0E0,5.8653574E0,2.7867236E0,3.8725226E0,0E0,0E0,0E0,0E0,0E0],"parents":[2147483647,0,0,2,2,3,3,5,5,6,6,7,7],"right_children":[2,-1,4,6,-1,8,10,12,-1,-1,-1,-1,-1],"split_conditions":[-1.9428657E-1,2.7846172E-2,-1.8976963E-1,5.0310273E-2,-1.6391862E-2,6.019133E-1,2.8750843E-1,-4.1327226E-1,-1.552617E-2,2.1997133E-2,-0E0,1.5905708E-2,-5.4036165E-3],"split_indices":[0,0,0,1,0,3,18,1,0,0,0,0,0],"split_type":[0,0,0,0,0,0,0,0,0,0,0,0,0],"sum_hessian":[1.2512634E4,4.9271846E3,7.585449E3,5.061564E1,7.5348335E3,3.3223934E1,1.7391705E1,1.6965395E1,1.625854E1,1.155036E1,5.841344E0,7.6567254E0,9.30867E0],"tree_param":{"num_deleted":"0","num_feature":"19","num_nodes":"13","size_leaf_vector":"1"}},{"base_weights":[-1.2584707E-1,1.9871864E-1,-1.65718E-2,-1.6344158E-2,1.2077475E0,1.2255117E0,-2.01625E-1,5.9423035E-1,2.864537E-2,-1.53876515E-2,-0E0,-6.454029E-3,1.905981E-2,1.4935859E-2,-4.2424197E-3],"categories":[],"categories_nodes":[],"categories_segments":[],"categories_sizes":[],"default_left":[0,0,0,0,0,0,0,0,0,0,0,0,0,0,0],"id":25,"left_children":[1,3,-1,-1,5,7,9,11,-1,-1,13,-1,-1,-1,-1],"loss_changes":[2.3465032E3,7.2151655E3,0E0,0E0,9.44668E1,1.9791504E1,4.4432573E0,1.1251078E1,0E0,0E0,3.8922865E0,0E0,0E0,0E0,0E0],"parents":[2147483647,0,0,1,1,4,4,5,5,6,6,7,7,10,10],"right_children":[2,4,-1,-1,6,8,10,12,-1,-1,14,-1,-1,-1,-1],"split_conditions":[1.9548163E-1,-1.9428657E-1,-1.65718E-2,-1.6344158E-2,1.8906736E-1,-1.8976963E-1,-6.90182E-1,-3.3449763E-1,2.864537E-2,-1.53876515E-2,-5.785353E-1,-6.454029E-3,1.905981E-2,1.4935859E-2,-4.2424197E-3],"split_indices":[0,0,0,0,0,0,18,3,0,0,16,0,0,0,0],"split_type":[0,0,0,0,0,0,0,0,0,0,0,0,0,0,0],"sum_hessian":[1.2283986E4,7.9163154E3,4.3676714E3,4.1768823E3,3.7394333E3,3.6934536E3,4.597968E1,5.4198498E1,3.6392551E3,1.416998E1,3.18097E1,1.0490206E1,4.3708294E1,7.190889E0,2.4618813E1],"tree_param":{"num_deleted":"0","num_feature":"19","num_nodes":"15","size_leaf_vector":"1"}},{"base_weights":[6.622448E-2,2.1159835E-1,-1.4825637E-2,1.9330165E-1,4.0428108E-1,2.1094689E-1,-6.042412E-2,2.2294813E-1,7.880906E-2,4.454461E-1,1.2354821E-1,2.532516E-1,-1.2694427E-1,-9.9952325E-2,1.8164558E-2,1.9232965E-1,2.8429112E-1,3.314537E-1,-0E0,-2.2218907E-3,4.6012262E-1,2.8301036E-1,-1.1960554E-2,2.1919739E-1,6.368073E-1,-3.2971233E-1,6.760121E-2,-1.891545E-2,-1.3714613E-1,-2.339875E-1,2.9184362E-2,4.660745E-3,-2.3209213E-3,5.2892575E-3,9.0809995E-3,1.457651E-2,5.3385673E-3,-6.0651556E-4,8.258529E-3,9.22376E-3,1.5741574E-2,6.898231E-4,1.6518345E-2,4.6724277E-3,1.4763385E-2,1.5649542E-2,-0E0,-9.496367E-3,4.4786944E-3,-6.669604E-3,7.949859E-3,3.5724004E-3,-1.5640482E-3,-3.7300293E-3,7.5212703E-4,1.2159941E-3,-9.187222E-3,1.669604E-3,-1.0768856E-3],"categories":[],"categories_nodes":[],"categories_segments":[],"categories_sizes":[],"default_left":[0,0,0,0,0,0,0,0,0,0,0,0,0,0,0,0,0,0,0,0,0,0,0,0,0,0,0,0,0,0,0,0,0,0,0,0,0,0,0,0,0,0,0,0,0,0,0,0,0,0,0,0,0,0,0,0,0,0,0],"id":26,"left_children":[1,3,5,7,9,11,13,15,17,19,21,23,25,27,29,31,33,35,37,-1,39,41,-1,43,45,47,49,51,53,55,57,-1,-1,-1,-1,-1,-1,-1,-1,-1,-1,-1,-1,-1,-1,-1,-1,-1,-1,-1,-1,-1,-1,-1,-1,-1,-1,-1,-1],"loss_changes":[1.4733292E2,1.5298706E1,8.241793E1,1.3648788E1,3.989891E0,1.9319252E1,2.0792074E1,5.713867E0,1.7087006E1,2.9321136E0,5.129208E0,1.4943138E1,6.0323744E0,1.3280216E1,6.030379E0,5.517914E0,5.9659348E0,5.427906E0,5.7725043E0,0E0,3.5588837E0,4.046866E0,0E0,7.508274E0,2.3229523E0,3.2738695E0,7.2490892E0,1.172012E1,1.2282028E1,4.4601994E0,6.9301324E0,0E0,0E0,0E0,0E0,0E0,0E0,0E0,0E0,0E0,0E0,0E0,0E0,0E0,0E0,0E0,0E0,0E0,0E0,0E0,0E0,0E0,0E0,0E0,0E0,0E0,0E0,0E0,0E0],"parents":[2147483647,0,0,1,1,2,2,3,3,4,4,5,5,6,6,7,7,8,8,9,9,10,10,11,11,12,12,13,13,14,14,15,15,16,16,17,17,18,18,20,20,21,21,23,23,24,24,25,25,26,26,27,27,28,28,29,29,30,30],"right_children":[2,4,6,8,10,12,14,16,18,20,22,24,26,28,30,32,34,36,38,-1,40,42,-1,44,46,48,50,52,54,56,58,-1,-1,-1,-1,-1,-1,-1,-1,-1,-1,-1,-1,-1,-1,-1,-1,-1,-1,-1,-1,-1,-1,-1,-1,-1,-1,-1,-1],"split_conditions":[-3.1945232E-1,1.2741681E0,-4.0614808E-1,1.9875585E-1,5.264595E-1,8.8922095E-1,-1.51004745E-2,1.02640174E-1,-9.186257E-1,-5.921848E-1,1.961505E0,1.7427121E0,6.27072E-2,1.6404351E-2,-7.145813E-1,1.0145619E0,3.1766973E-2,-1.3100647E0,7.474347E-1,-2.2218907E-3,-2.3401509E-1,4.8317477E-1,-1.1960554E-2,1.953501E0,3.0523312E0,1.5727087E0,-1.0266088E-2,-6.6309196E-1,1.579487E0,-6.559167E-1,6.2245226E-1,4.660745E-3,-2.3209213E-3,5.2892575E-3,9.0809995E-3,1.457651E-2,5.3385673E-3,-6.0651556E-4,8.258529E-3,9.22376E-3,1.5741574E-2,6.898231E-4,1.6518345E-2,4.6724277E-3,1.4763385E-2,1.5649542E-2,-0E0,-9.496367E-3,4.4786944E-3,-6.669604E-3,7.949859E-3,3.5724004E-3,-1.5640482E-3,-3.7300293E-3,7.5212703E-4,1.2159941E-3,-9.187222E-3,1.669604E-3,-1.0768856E-3],"split_indices":[10,1,7,7,14,10,9,6,10,16,8,9,6,7,11,1,1,11,5,0,14,5,0,4,6,15,17,12,10,13,12,0,0,0,0,0,0,0,0,0,0,0,0,0,0,0,0,0,0,0,0,0,0,0,0,0,0,0,0],"split_type":[0,0,0,0,0,0,0,0,0,0,0,0,0,0,0,0,0,0,0,0,0,0,0,0,0,0,0,0,0,0,0,0,0,0,0,0,0,0,0,0,0,0,0,0,0,0,0,0,0,0,0,0,0,0,0,0,0,0,0],"sum_hessian":[1.2491161E4,4.474598E3,8.016563E3,4.090573E3,3.8402536E2,1.3440568E3,6.6725063E3,3.243718E3,8.4685504E2,3.324146E2,5.1610737E1,1.1965778E3,1.4747897E2,4.446032E3,2.226474E3,2.172671E3,1.0710471E3,2.0322041E2,6.4363464E2,7.358154E0,3.2505646E2,4.236006E1,9.250673E0,1.1011382E3,9.543955E1,7.408948E1,7.338949E1,1.4052891E3,3.0407434E3,9.012648E1,2.1363477E3,2.1135156E3,5.9155273E1,7.071226E2,3.639245E2,4.952573E1,1.5369469E2,6.015205E2,4.211414E1,2.5585262E2,6.920385E1,2.7899624E1,1.4460438E1,1.0581136E3,4.3024494E1,9.014873E1,5.290819E0,6.561829E1,8.471183E0,3.080534E1,4.2584152E1,3.042606E2,1.1010284E3,2.672899E3,3.678443E2,3.0887535E1,5.923895E1,1.3708634E3,7.654843E2],"tree_param":{"num_deleted":"0","num_feature":"19","num_nodes":"59","size_leaf_vector":"1"}},{"base_weights":[5.4173306E-2,2.7278332E-2,-6.9787836E-1,-3.6717396E-2,-1.6295666E-2,3.5826224E-1,-4.6209887E-1,5.607208E-1,-5.8910046E-3,-1.4671744E-2,1.3836002E-3,2.7660765E-2,7.645759E-4],"categories":[],"categories_nodes":[],"categories_segments":[],"categories_sizes":[],"default_left":[0,0,0,0,0,0,0,0,0,0,0,0,0],"id":27,"left_children":[1,-1,3,5,-1,7,9,11,-1,-1,-1,-1,-1],"loss_changes":[1.0522297E4,0E0,2.161377E1,8.814481E0,0E0,3.4907146E0,2.7563643E0,5.900702E0,0E0,0E0,0E0,0E0,0E0],"parents":[2147483647,0,0,2,2,3,3,5,5,6,6,7,7],"right_children":[2,-1,4,6,-1,8,10,12,-1,-1,-1,-1,-1],"split_conditions":[-1.9428657E-1,2.7278332E-2,-1.8976963E-1,5.7901186E-1,-1.6295666E-2,3.852293E-1,8.57082E-1,-3.3449763E-1,-5.8910046E-3,-1.4671744E-2,1.3836002E-3,2.7660765E-2,7.645759E-4],"split_indices":[0,0,0,3,0,5,3,3,0,0,0,0,0],"split_type":[0,0,0,0,0,0,0,0,0,0,0,0,0],"sum_hessian":[1.247402E4,5.0072974E3,7.4667227E3,5.159006E1,7.4151323E3,2.5825884E1,2.576418E1,2.036797E1,5.4579134E0,2.0508698E1,5.2554836E0,8.492584E0,1.1875385E1],"tree_param":{"num_deleted":"0","num_feature":"19","num_nodes":"13","size_leaf_vector":"1"}},{"base_weights":[-1.13127604E-1,2.1000269E-1,-7.07091E-1,-1.6188854E-2,1.2016685E0,-2.5917545E-1,-1.6515756E-2,7.010596E-1,2.8037785E-2,-5.030838E-1,1.6661067E-2,-8.8133925E-4,8.5562277E-1,-1.5480584E-1,-1.5127263E-2,2.4204237E-2,1.1164535E-2,-8.892607E-3,1.0959884E-3],"categories":[],"categories_nodes":[],"categories_segments":[],"categories_sizes":[],"default_left":[0,0,0,0,0,0,0,0,0,0,0,0,0,0,0,0,0,0,0],"id":28,"left_children":[1,3,5,-1,7,9,-1,11,-1,13,-1,-1,15,17,-1,-1,-1,-1,-1],"loss_changes":[2.3515298E3,7.1420186E3,8.433838E0,0E0,1.1287109E1,1.1226761E1,0E0,6.680216E0,0E0,1.3671465E0,0E0,0E0,1.8574677E0,8.8274616E-1,0E0,0E0,0E0,0E0,0E0],"parents":[2147483647,0,0,1,1,2,2,4,4,5,5,7,7,9,9,12,12,13,13],"right_children":[2,4,6,-1,8,10,-1,12,-1,14,-1,-1,16,18,-1,-1,-1,-1,-1],"split_conditions":[1.8906736E-1,-1.9428657E-1,1.9548163E-1,-1.6188854E-2,-1.8976963E-1,7.763536E-1,-1.6515756E-2,-3.3449763E-1,2.8037785E-2,-3.8427415E-1,1.6661067E-2,-8.8133925E-4,1.4203683E-1,-1.0909916E0,-1.5127263E-2,2.4204237E-2,1.1164535E-2,-8.892607E-3,1.0959884E-3],"split_indices":[0,0,0,0,0,18,0,3,0,11,0,0,4,14,0,0,0,0,0],"split_type":[0,0,0,0,0,0,0,0,0,0,0,0,0,0,0,0,0,0,0],"sum_hessian":[1.224982E4,7.9329395E3,4.316881E3,4.1412837E3,3.7916558E3,4.729458E1,4.2695864E3,5.2697784E1,3.738958E3,3.8558083E1,8.736496E0,8.2766075E0,4.4421177E1,1.3223906E1,2.5334177E1,2.7981556E1,1.643962E1,7.9160056E0,5.3079004E0],"tree_param":{"num_deleted":"0","num_feature":"19","num_nodes":"19","size_leaf_vector":"1"}},{"base_weights":[6.914246E-2,-1.646355E-2,1.2095855E0,7.8304267E-1,2.8159874E-2,3.4375834E-1,9.7065073E-1,7.385402E-1,-9.671888E-3,5.910522E-1,2.721852E-2,3.1699054E-3,2.652107E-2,-2.8906343E-5,2.6611444E-2],"categories":[],"categories_nodes":[],"categories_segments":[],"categories_sizes":[],"default_left":[0,0,0,0,0,0,0,0,0,0,0,0,0,0,0],"id":29,"left_children":[1,-1,3,5,-1,7,9,11,-1,13,-1,-1,-1,-1,-1],"loss_changes":[1.1180377E4,0E0,7.3256836E0,3.1757011E0,0E0,5.413867E0,1.1793327E0,1.885881E0,0E0,5.4468107E0,0E0,0E0,0E0,0E0,0E0],"parents":[2147483647,0,0,2,2,3,3,5,5,6,6,7,7,9,9],"right_children":[2,-1,4,6,-1,8,10,12,-1,14,-1,-1,-1,-1,-1],"split_conditions":[1.8906736E-1,-1.646355E-2,1.9548163E-1,-2.6750854E-1,2.8159874E-2,-7.6165295E-1,-2.1277826E-1,-1.3191864E0,-9.671888E-3,-3.4200322E-2,2.721852E-2,3.1699054E-3,2.652107E-2,-2.8906343E-5,2.6611444E-2],"split_indices":[0,0,0,5,0,14,13,14,0,16,0,0,0,0,0],"split_type":[0,0,0,0,0,0,0,0,0,0,0,0,0,0,0],"sum_hessian":[1.258796E4,7.4797856E3,5.1081743E3,5.145622E1,5.0567183E3,1.679943E1,3.4656788E1,1.1731582E1,5.067848E0,1.3654571E1,2.1002216E1,5.5897846E0,6.1417975E0,6.034621E0,7.61995E0],"tree_param":{"num_deleted":"0","num_feature":"19","num_nodes":"15","size_leaf_vector":"1"}},{"base_weights":[5.0965402E-2,2.660966E-2,-6.922822E-1,-0E0,-1.6175753E-2,7.7782476E-1,-2.625491E-1,2.7711545E-3,2.6703551E-2,-5.11516E-1,5.900752E-2,-0E0,-1.5483471E-2,-4.6521663E-3,1.2779695E-2],"categories":[],"categories_nodes":[],"categories_segments":[],"categories_sizes":[],"default_left":[0,0,0,0,0,0,0,0,0,0,0,0,0,0,0],"id":30,"left_children":[1,-1,3,5,-1,7,9,-1,-1,11,13,-1,-1,-1,-1],"loss_changes":[1.0040404E4,0E0,2.5329346E1,1.0766677E1,0E0,2.2948503E0,3.41213E0,0E0,0E0,1.3123207E0,2.2691388E0,0E0,0E0,0E0,0E0],"parents":[2147483647,0,0,2,2,3,3,5,5,6,6,9,9,10,10],"right_children":[2,-1,4,6,-1,8,10,-1,-1,12,14,-1,-1,-1,-1],"split_conditions":[-1.9428657E-1,2.660966E-2,-1.8976963E-1,-3.3449763E-1,-1.6175753E-2,5.3787988E-2,4.7194924E-2,2.7711545E-3,2.6703551E-2,-3.9506143E-1,2.3021178E-1,-0E0,-1.5483471E-2,-4.6521663E-3,1.2779695E-2],"split_indices":[0,0,0,3,0,12,5,0,0,4,12,0,0,0,0],"split_type":[0,0,0,0,0,0,0,0,0,0,0,0,0,0,0],"sum_hessian":[1.2325202E4,4.981151E3,7.3440513E3,5.1229576E1,7.292822E3,1.3246913E1,3.7982662E1,5.635492E0,7.6114206E0,2.2695076E1,1.5287588E1,6.4976993E0,1.6197376E1,9.056284E0,6.2313037E0],"tree_param":{"num_deleted":"0","num_feature":"19","num_nodes":"15","size_leaf_vector":"1"}},{"base_weights":[-1.1856832E-1,1.9823925E-1,-1.638736E-2,-1.6071707E-2,1.1522143E0,1.1698458E0,-2.1936569E-1,5.802591E-1,2.732493E-2,-3.9165205E-1,1.5604447E-2,-5.370245E-3,1.8202532E-2,1.7889439E-5,-1.3620446E-2],"categories":[],"categories_nodes":[],"categories_segments":[],"categories_sizes":[],"default_left":[0,0,0,0,0,0,0,0,0,0,0,0,0,0,0],"id":31,"left_children":[1,3,-1,-1,5,7,9,11,-1,13,-1,-1,-1,-1,-1],"loss_changes":[2.265358E3,6.717551E3,0E0,0E0,9.308984E1,1.6081543E1,7.2200403E0,9.016138E0,0E0,3.6066651E0,0E0,0E0,0E0,0E0,0E0],"parents":[2147483647,0,0,1,1,4,4,5,5,6,6,7,7,9,9],"right_children":[2,4,-1,-1,6,8,10,12,-1,14,-1,-1,-1,-1,-1],"split_conditions":[1.9548163E-1,-1.9428657E-1,-1.638736E-2,-1.6071707E-2,1.8906736E-1,-1.8976963E-1,7.763536E-1,-3.3449763E-1,2.732493E-2,-2.6750854E-1,1.5604447E-2,-5.370245E-3,1.8202532E-2,1.7889439E-5,-1.3620446E-2],"split_indices":[0,0,0,0,0,0,18,3,0,5,0,0,0,0,0],"split_type":[0,0,0,0,0,0,0,0,0,0,0,0,0,0,0],"sum_hessian":[1.2163425E4,7.9026343E3,4.2607905E3,4.0858882E3,3.816746E3,3.7688896E3,4.7856426E1,5.1375103E1,3.7175146E3,4.09281E1,6.9283257E0,9.565142E0,4.1809963E1,1.2357784E1,2.8570318E1],"tree_param":{"num_deleted":"0","num_feature":"19","num_nodes":"15","size_leaf_vector":"1"}},{"base_weights":[6.510197E-2,-1.6335396E-2,1.1789674E0,8.3371276E-1,2.7438018E-2,-0E0,9.1914535E-1,9.823844E-1,6.3130716E-3,1.7041346E-2,2.7064553E-2],"categories":[],"categories_nodes":[],"categories_segments":[],"categories_sizes":[],"default_left":[0,0,0,0,0,0,0,0,0,0,0],"id":32,"left_children":[1,-1,3,5,-1,-1,7,9,-1,-1,-1],"loss_changes":[1.0683699E4,0E0,4.686035E0,3.6513824E0,0E0,0E0,1.0517426E0,4.157753E-1,0E0,0E0,0E0],"parents":[2147483647,0,0,2,2,3,3,6,6,7,7],"right_children":[2,-1,4,6,-1,-1,8,10,-1,-1,-1],"split_conditions":[1.8906736E-1,-1.6335396E-2,1.9548163E-1,-1.515426E0,2.7438018E-2,-0E0,-7.2543095E-3,3.7079457E-2,6.3130716E-3,1.7041346E-2,2.7064553E-2],"split_indices":[0,0,0,15,0,0,17,4,0,0,0],"split_type":[0,0,0,0,0,0,0,0,0,0,0],"sum_hessian":[1.24689E4,7.37525E3,5.0936504E3,5.614373E1,5.037507E3,5.6650114E0,5.0478718E1,4.4803333E1,5.675386E0,2.1307467E1,2.3495867E1],"tree_param":{"num_deleted":"0","num_feature":"19","num_nodes":"11","size_leaf_vector":"1"}},{"base_weights":[5.296432E-2,2.5980428E-2,-6.8798393E-1,-4.4404153E-2,-1.6058164E-2,4.482925E-1,-2.8258798E-1,-0E0,2.098954E-2,-5.346174E-1,7.556321E-2,-3.7705477E-3,-1.5222287E-2,-7.5950464E-3,1.732554E-2],"categories":[],"categories_nodes":[],"categories_segments":[],"categories_sizes":[],"default_left":[0,0,0,0,0,0,0,0,0,0,0,0,0,0,0],"id":33,"left_children":[1,-1,3,5,-1,7,9,-1,-1,11,13,-1,-1,-1,-1],"loss_changes":[9.748606E3,0E0,1.8873047E1,5.5368223E0,0E0,3.4102013E0,3.3931139E0,0E0,0E0,2.9584026E-1,3.8276577E0,0E0,0E0,0E0,0E0],"parents":[2147483647,0,0,2,2,3,3,5,5,6,6,9,9,10,10],"right_children":[2,-1,4,6,-1,8,10,-1,-1,12,14,-1,-1,-1,-1],"split_conditions":[-1.9428657E-1,2.5980428E-2,-1.8976963E-1,-2.1129027E-1,-1.6058164E-2,-1.8148655E-2,4.7194924E-2,-0E0,2.098954E-2,6.27072E-2,-1.8148655E-2,-3.7705477E-3,-1.5222287E-2,-7.5950464E-3,1.732554E-2],"split_indices":[0,0,0,15,0,2,5,0,0,6,2,0,0,0,0],"split_type":[0,0,0,0,0,0,0,0,0,0,0,0,0,0,0],"sum_hessian":[1.2331809E4,5.0547563E3,7.277052E3,4.7858368E1,7.2291934E3,1.4482659E1,3.337571E1,6.9098744E0,7.5727854E0,2.0798313E1,1.2577396E1,6.798121E0,1.4000193E1,7.2040367E0,5.3733597E0],"tree_param":{"num_deleted":"0","num_feature":"19","num_nodes":"15","size_leaf_vector":"1"}},{"base_weights":[-1.1057555E-1,2.0828739E-1,-6.970441E-1,-1.5957244E-2,1.1413466E0,-3.2752222E-1,-1.6261645E-2,5.759947E-1,2.665512E-2,6.822178E-2,-5.8959734E-1,1.6341628E-1,9.421534E-1,-8.339026E-3,1.0866617E-2,-5.3531104E-3,-1.5778739E-2,1.6560163E-2,-1.8721737E-3,2.7192036E-2,2.9228802E-3],"categories":[],"categories_nodes":[],"categories_segments":[],"categories_sizes":[],"default_left":[0,0,0,0,0,0,0,0,0,0,0,0,0,0,0,0,0,0,0,0,0],"id":34,"left_children":[1,3,5,-1,7,9,-1,11,-1,13,15,17,19,-1,-1,-1,-1,-1,-1,-1,-1],"loss_changes":[2.2606196E3,6.5461436E3,5.237549E0,0E0,1.4883301E1,5.232147E0,0E0,7.004057E0,0E0,3.1165445E0,2.1249962E-1,3.9644194E0,3.9647942E0,0E0,0E0,0E0,0E0,0E0,0E0,0E0,0E0],"parents":[2147483647,0,0,1,1,2,2,4,4,5,5,7,7,9,9,10,10,11,11,12,12],"right_children":[2,4,6,-1,8,10,-1,12,-1,14,16,18,20,-1,-1,-1,-1,-1,-1,-1,-1],"split_conditions":[1.8906736E-1,-1.9428657E-1,1.9548163E-1,-1.5957244E-2,-1.8976963E-1,-2.6750854E-1,-1.6261645E-2,6.019133E-1,2.665512E-2,-2.0133677E-1,-4.2859596E-1,-5.763177E-1,-5.319629E-3,-8.339026E-3,1.0866617E-2,-5.3531104E-3,-1.5778739E-2,1.6560163E-2,-1.8721737E-3,2.7192036E-2,2.9228802E-3],"split_indices":[0,0,0,0,0,5,0,3,0,18,16,12,1,0,0,0,0,0,0,0,0],"split_type":[0,0,0,0,0,0,0,0,0,0,0,0,0,0,0,0,0,0,0,0,0],"sum_hessian":[1.2086304E4,7.828668E3,4.2576353E3,3.9930867E3,3.8355813E3,4.628964E1,4.2113457E3,5.2018562E1,3.7835627E3,1.7326405E1,2.8963234E1,2.5585695E1,2.6432869E1,7.452293E0,9.874112E0,7.693351E0,2.1269882E1,8.716088E0,1.6869608E1,1.9818272E1,6.6145964E0],"tree_param":{"num_deleted":"0","num_feature":"19","num_nodes":"21","size_leaf_vector":"1"}},{"base_weights":[6.606309E-2,-1.6210983E-2,1.1490419E0,6.9233334E-1,2.675985E-2,2.4060686E-1,9.025216E-1,-6.653203E-3,5.5519545E-1,2.359177E-2,3.3110543E-3,1.3640359E-3,2.1635732E-2],"categories":[],"categories_nodes":[],"categories_segments":[],"categories_sizes":[],"default_left":[0,0,0,0,0,0,0,0,0,0,0,0,0],"id":35,"left_children":[1,-1,3,5,-1,7,9,-1,11,-1,-1,-1,-1],"loss_changes":[1.0300377E4,0E0,8.658691E0,3.8987255E0,0E0,3.1544425E0,1.9804478E0,0E0,1.4698632E0,0E0,0E0,0E0,0E0],"parents":[2147483647,0,0,2,2,3,3,5,5,6,6,8,8],"right_children":[2,-1,4,6,-1,8,10,-1,12,-1,-1,-1,-1],"split_conditions":[1.8906736E-1,-1.6210983E-2,1.9548163E-1,-2.6750854E-1,2.675985E-2,-6.986916E-1,6.4700425E-1,-6.653203E-3,-6.703774E-1,2.359177E-2,3.3110543E-3,1.3640359E-3,2.1635732E-2],"split_indices":[0,0,0,5,0,12,4,0,10,0,0,0,0],"split_type":[0,0,0,0,0,0,0,0,0,0,0,0,0],"sum_hessian":[1.2435543E4,7.28812E3,5.1474233E3,5.0615097E1,5.096808E3,1.7374634E1,3.3240463E1,5.5811934E0,1.1793441E1,2.7951124E1,5.2893376E0,6.0762415E0,5.7171993E0],"tree_param":{"num_deleted":"0","num_feature":"19","num_nodes":"13","size_leaf_vector":"1"}},{"base_weights":[4.834447E-2,2.5387939E-2,-6.827192E-1,-0E0,-1.5944742E-2,-2.3857963E-1,3.6275032E-1,-0E0,-1.3217282E-2,2.0053238E-2,-0E0,7.822318E-3,-1.2714643E-2,-1.0028657E-2,1.1690404E-2],"categories":[],"categories_nodes":[],"categories_segments":[],"categories_sizes":[],"default_left":[0,0,0,0,0,0,0,0,0,0,0,0,0,0,0],"id":36,"left_children":[1,-1,3,5,-1,7,9,11,-1,-1,13,-1,-1,-1,-1],"loss_changes":[9.408001E3,0E0,2.2629639E1,4.1632566E0,0E0,2.4633179E0,2.9147708E0,2.8675368E0,0E0,0E0,2.7827005E0,0E0,0E0,0E0,0E0],"parents":[2147483647,0,0,2,2,3,3,5,5,6,6,7,7,10,10],"right_children":[2,-1,4,6,-1,8,10,12,-1,-1,14,-1,-1,-1,-1],"split_conditions":[-1.9428657E-1,2.5387939E-2,-1.8976963E-1,-5.319629E-3,-1.5944742E-2,-4.1327226E-1,-7.184557E-2,4.1125438E-1,-1.3217282E-2,2.0053238E-2,-1.6202308E-1,7.822318E-3,-1.2714643E-2,-1.0028657E-2,1.1690404E-2],"split_indices":[0,0,0,1,0,1,5,11,0,0,16,0,0,0,0],"split_type":[0,0,0,0,0,0,0,0,0,0,0,0,0,0,0],"sum_hessian":[1.230309E4,5.0619653E3,7.241124E3,4.7202446E1,7.193922E3,2.793006E1,1.9272387E1,1.5605378E1,1.2324682E1,7.1325116E0,1.2139875E1,1.018721E1,5.418168E0,5.7734504E0,6.3664246E0],"tree_param":{"num_deleted":"0","num_feature":"19","num_nodes":"15","size_leaf_vector":"1"}},{"base_weights":[-1.1315542E-1,1.9264665E-1,-1.6140059E-2,-1.5845902E-2,1.097922E0,1.1151576E0,-1.6475709E-1,6.400247E-1,2.6026452E-2,6.9171704E-2,-1.4394405E-2,-2.2109298E-3,2.0104473E-2,5.8623753E-3,-1.0968003E-2],"categories":[],"categories_nodes":[],"categories_segments":[],"categories_sizes":[],"default_left":[0,0,0,0,0,0,0,0,0,0,0,0,0,0,0],"id":37,"left_children":[1,3,-1,-1,5,7,9,11,-1,13,-1,-1,-1,-1,-1],"loss_changes":[2.1614316E3,6.3059214E3,0E0,0E0,8.589746E1,1.0655762E1,6.003104E0,9.803164E0,0E0,3.1931915E0,0E0,0E0,0E0,0E0,0E0],"parents":[2147483647,0,0,1,1,4,4,5,5,6,6,7,7,9,9],"right_children":[2,4,-1,-1,6,8,10,12,-1,14,-1,-1,-1,-1,-1],"split_conditions":[1.9548163E-1,-1.9428657E-1,-1.6140059E-2,-1.5845902E-2,1.8906736E-1,-1.8976963E-1,3.2476604E-1,-3.3449763E-1,2.6026452E-2,7.124588E-1,-1.4394405E-2,-2.2109298E-3,2.0104473E-2,5.8623753E-3,-1.0968003E-2],"split_indices":[0,0,0,0,0,0,13,3,0,3,0,0,0,0,0],"split_type":[0,0,0,0,0,0,0,0,0,0,0,0,0,0,0],"sum_hessian":[1.2131279E4,7.9542993E3,4.1769805E3,4.0429358E3,3.9113635E3,3.8593184E3,5.204511E1,5.4983257E1,3.8043352E3,3.338161E1,1.8663498E1,1.2172947E1,4.281031E1,2.6080942E1,7.30067E0],"tree_param":{"num_deleted":"0","num_feature":"19","num_nodes":"15","size_leaf_vector":"1"}},{"base_weights":[6.0619123E-2,-1.6089901E-2,1.1222161E0,7.642474E-1,2.6122015E-2,9.333905E-1,-3.8431268E-3,5.086557E-1,2.5887635E-2,2.2904575E-3,2.4601359E-2],"categories":[],"categories_nodes":[],"categories_segments":[],"categories_sizes":[],"default_left":[0,0,0,0,0,0,0,0,0,0,0],"id":38,"left_children":[1,-1,3,5,-1,7,-1,9,-1,-1,-1],"loss_changes":[9.969538E3,0E0,5.2026367E0,9.358795E0,0E0,2.3301697E0,0E0,2.6970758E0,0E0,0E0,0E0],"parents":[2147483647,0,0,2,2,3,3,5,5,7,7],"right_children":[2,-1,4,6,-1,8,-1,10,-1,-1,-1],"split_conditions":[1.8906736E-1,-1.6089901E-2,1.9548163E-1,7.763536E-1,2.6122015E-2,-3.8427415E-1,-3.8431268E-3,5.695227E-1,2.5887635E-2,2.2904575E-3,2.4601359E-2],"split_indices":[0,0,0,18,0,11,0,1,0,0,0],"split_type":[0,0,0,0,0,0,0,0,0,0,0],"sum_hessian":[1.2452165E4,7.2800205E3,5.1721445E3,5.533857E1,5.116806E3,4.752392E1,7.814652E0,1.5776368E1,3.1747551E1,9.988599E0,5.787769E0],"tree_param":{"num_deleted":"0","num_feature":"19","num_nodes":"11","size_leaf_vector":"1"}},{"base_weights":[4.97003E-2,2.4830058E-2,-6.7777616E-1,1.7443735E-2,-1.583412E-2,6.7553085E-1,-1.8973556E-1,2.4903702E-2,-0E0,-4.7938538E-1,1.6396318E-1,-0E0,-1.5101403E-2,-3.896182E-3,1.7636359E-2],"categories":[],"categories_nodes":[],"categories_segments":[],"categories_sizes":[],"default_left":[0,0,0,0,0,0,0,0,0,0,0,0,0,0,0],"id":39,"left_children":[1,-1,3,5,-1,7,9,-1,-1,11,13,-1,-1,-1,-1],"loss_changes":[9.059924E3,0E0,2.3811035E1,6.803721E0,0E0,2.47437E0,3.8429844E0,0E0,0E0,1.2528529E0,3.3908877E0,0E0,0E0,0E0,0E0],"parents":[2147483647,0,0,2,2,3,3,5,5,6,6,9,9,10,10],"right_children":[2,-1,4,6,-1,8,10,-1,-1,12,14,-1,-1,-1,-1],"split_conditions":[-1.9428657E-1,2.4830058E-2,-1.8976963E-1,-3.3449763E-1,-1.583412E-2,-7.184557E-2,4.7194924E-2,2.4903702E-2,-0E0,-3.9506143E-1,-5.319629E-3,-0E0,-1.5101403E-2,-3.896182E-3,1.7636359E-2],"split_indices":[0,0,0,3,0,5,5,0,0,4,1,0,0,0,0],"split_type":[0,0,0,0,0,0,0,0,0,0,0,0,0,0,0],"sum_hessian":[1.2202681E4,5.0788794E3,7.1238013E3,4.6764786E1,7.0770366E3,1.1982287E1,3.4782497E1,6.7733636E0,5.208924E0,2.0284174E1,1.4498322E1,6.415211E0,1.3868963E1,8.573183E0,5.925139E0],"tree_param":{"num_deleted":"0","num_feature":"19","num_nodes":"15","size_leaf_vector":"1"}},{"base_weights":[-1.1620855E-1,1.8873113E-1,-6.860216E-1,-1.573739E-2,1.0885276E0,-2.610896E-1,-1.6021667E-2,5.1977324E-1,2.543107E-2,-4.34885E-1,9.928798E-3,-5.3124367E-3,7.062311E-1,-0E0,-6.044092E-1,2.2905385E-2,7.38388E-3,-9.286896E-3,7.2930423E-3,-3.8376811E-3,-1.5552383E-2],"categories":[],"categories_nodes":[],"categories_segments":[],"categories_sizes":[],"default_left":[0,0,0,0,0,0,0,0,0,0,0,0,0,0,0,0,0,0,0,0,0],"id":40,"left_children":[1,3,5,-1,7,9,-1,11,-1,13,-1,-1,15,17,19,-1,-1,-1,-1,-1,-1],"loss_changes":[2.0836584E3,6.0928228E3,7.296875E0,0E0,1.520166E1,5.5898643E0,0E0,7.6947355E0,0E0,2.5323334E0,0E0,0E0,3.5854836E0,1.5211978E0,1.02378845E-1,0E0,0E0,0E0,0E0,0E0,0E0],"parents":[2147483647,0,0,1,1,2,2,4,4,5,5,7,7,9,9,12,12,13,13,14,14],"right_children":[2,4,6,-1,8,10,-1,12,-1,14,-1,-1,16,18,20,-1,-1,-1,-1,-1,-1],"split_conditions":[1.8906736E-1,-1.9428657E-1,1.9548163E-1,-1.573739E-2,-1.8976963E-1,7.763536E-1,-1.6021667E-2,-3.3449763E-1,2.543107E-2,-5.657105E-1,9.928798E-3,-5.3124367E-3,4.7194924E-2,-3.9814368E-1,-1.025022E0,2.2905385E-2,7.38388E-3,-9.286896E-3,7.2930423E-3,-3.8376811E-3,-1.5552383E-2],"split_indices":[0,0,0,0,0,18,0,3,0,11,0,0,5,2,12,0,0,0,0,0,0],"split_type":[0,0,0,0,0,0,0,0,0,0,0,0,0,0,0,0,0,0,0,0,0],"sum_hessian":[1.1989126E4,7.808908E3,4.1802173E3,3.9764255E3,3.832483E3,4.6126476E1,4.134091E3,5.2047066E1,3.7804358E3,3.7789047E1,8.337429E0,9.542159E0,4.2504906E1,1.138911E1,2.6399939E1,2.3317293E1,1.9187613E1,5.606924E0,5.7821856E0,5.067456E0,2.1332483E1],"tree_param":{"num_deleted":"0","num_feature":"19","num_nodes":"21","size_leaf_vector":"1"}},{"base_weights":[5.9900273E-2,-1.5972544E-2,1.0962228E0,7.2722805E-1,2.5523286E-2,8.945311E-1,-1.1136458E-3,5.606142E-1,2.3988802E-2,2.2724709E-2,-0E0],"categories":[],"categories_nodes":[],"categories_segments":[],"categories_sizes":[],"default_left":[0,0,0,0,0,0,0,0,0,0,0],"id":41,"left_children":[1,-1,3,5,-1,7,-1,9,-1,-1,-1],"loss_changes":[9.596342E3,0E0,5.854492E0,8.005692E0,0E0,8.602066E-1,0E0,3.5350904E0,0E0,0E0,0E0],"parents":[2147483647,0,0,2,2,3,3,5,5,7,7],"right_children":[2,-1,4,6,-1,8,-1,10,-1,-1,-1],"split_conditions":[1.8906736E-1,-1.5972544E-2,1.9548163E-1,7.763536E-1,2.5523286E-2,-3.8427415E-1,-1.1136458E-3,-3.9814368E-1,2.3988802E-2,2.2724709E-2,-0E0],"split_indices":[0,0,0,18,0,11,0,2,0,0,0],"split_type":[0,0,0,0,0,0,0,0,0,0,0],"sum_hessian":[1.2373147E4,7.1844526E3,5.1886953E3,5.642074E1,5.1322744E3,4.7200012E1,9.220727E0,1.5828694E1,3.1371317E1,8.736604E0,7.0920906E0],"tree_param":{"num_deleted":"0","num_feature":"19","num_nodes":"11","size_leaf_vector":"1"}},{"base_weights":[4.464637E-2,2.4301017E-2,-6.7258286E-1,1.5674887E-2,-1.5726015E-2,4.6202937E-1,-3.607875E-1,-9.393359E-3,7.215543E-1,-1.5185188E-2,2.3785047E-2,2.1408506E-2,5.955327E-4,-1.2866271E-2,1.9394198E-2],"categories":[],"categories_nodes":[],"categories_segments":[],"categories_sizes":[],"default_left":[0,0,0,0,0,0,0,0,0,0,0,0,0,0,0],"id":42,"left_children":[1,-1,3,5,-1,7,9,-1,11,-1,13,-1,-1,-1,-1],"loss_changes":[8.712528E3,0E0,2.5968262E1,8.918221E0,0E0,5.9283357E0,3.608299E0,0E0,2.0631628E0,0E0,5.4792743E0,0E0,0E0,0E0,0E0],"parents":[2147483647,0,0,2,2,3,3,5,5,6,6,8,8,10,10],"right_children":[2,-1,4,6,-1,8,10,-1,12,-1,14,-1,-1,-1,-1],"split_conditions":[-1.9428657E-1,2.4301017E-2,-1.8976963E-1,5.722154E-1,-1.5726015E-2,-1.4544218E0,4.7194924E-2,-9.393359E-3,7.538498E-1,-1.5185188E-2,1.2951253E-1,2.1408506E-2,5.955327E-4,-1.2866271E-2,1.9394198E-2],"split_indices":[0,0,0,3,0,15,5,0,14,0,12,0,0,0,0],"split_type":[0,0,0,0,0,0,0,0,0,0,0,0,0,0,0],"sum_hessian":[1.2113103E4,5.051495E3,7.061608E3,5.221226E1,7.0093955E3,2.4806484E1,2.7405777E1,5.0041246E0,1.9802359E1,1.6597675E1,1.08081E1,1.4450094E1,5.3522644E0,5.794118E0,5.0139823E0],"tree_param":{"num_deleted":"0","num_feature":"19","num_nodes":"15","size_leaf_vector":"1"}},{"base_weights":[-1.1081504E-1,1.938076E-1,-6.806105E-1,-1.5631694E-2,1.0659342E0,-2.2919986E-1,-1.59065E-2,5.9295464E-1,2.4867935E-2,-4.193526E-1,1.4085344E-2,-2.9310484E-3,7.821954E-1,-1.0167163E-1,-5.640273E-1,2.0862233E-2,-0E0,-1.4091422E-2,1.0298615E-2,-1.3319863E-3,-1.5491054E-2],"categories":[],"categories_nodes":[],"categories_segments":[],"categories_sizes":[],"default_left":[0,0,0,0,0,0,0,0,0,0,0,0,0,0,0,0,0,0,0,0,0],"id":43,"left_children":[1,3,5,-1,7,9,-1,11,-1,13,-1,-1,15,17,19,-1,-1,-1,-1,-1,-1],"loss_changes":[2.0724902E3,5.8857163E3,8.630127E0,0E0,9.449707E0,7.4529934E0,0E0,7.33342E0,0E0,1.2917056E0,0E0,0E0,3.3674488E0,4.120705E0,7.691488E-1,0E0,0E0,0E0,0E0,0E0,0E0],"parents":[2147483647,0,0,1,1,2,2,4,4,5,5,7,7,9,9,12,12,13,13,14,14],"right_children":[2,4,6,-1,8,10,-1,12,-1,14,-1,-1,16,18,20,-1,-1,-1,-1,-1,-1],"split_conditions":[1.8906736E-1,-1.9428657E-1,1.9548163E-1,-1.5631694E-2,-1.8976963E-1,7.763536E-1,-1.59065E-2,-3.3449763E-1,2.4867935E-2,-5.551062E-1,1.4085344E-2,-2.9310484E-3,3.655464E-1,-5.798804E-1,-7.311072E-1,2.0862233E-2,-0E0,-1.4091422E-2,1.0298615E-2,-1.3319863E-3,-1.5491054E-2],"split_indices":[0,0,0,0,0,18,0,3,0,12,0,0,1,2,10,0,0,0,0,0,0],"split_type":[0,0,0,0,0,0,0,0,0,0,0,0,0,0,0,0,0,0,0,0,0],"sum_hessian":[1.1937676E4,7.7781284E3,4.159548E3,3.8988462E3,3.879282E3,4.7261543E1,4.112286E3,4.981131E1,3.8294707E3,3.933933E1,7.9222164E0,9.539142E0,4.027217E1,1.4085699E1,2.525363E1,3.4589893E1,5.6822777E0,8.032843E0,6.052856E0,5.607551E0,1.9646078E1],"tree_param":{"num_deleted":"0","num_feature":"19","num_nodes":"21","size_leaf_vector":"1"}},{"base_weights":[6.318444E-2,-1.5858777E-2,1.07275E0,7.767537E-1,2.4959473E-2,4.03902E-1,1.0054917E0,8.326805E-2,2.01998E-2,2.5804713E-2,6.634567E-3,9.7253E-3,-7.30301E-3],"categories":[],"categories_nodes":[],"categories_segments":[],"categories_sizes":[],"default_left":[0,0,0,0,0,0,0,0,0,0,0,0,0],"id":44,"left_children":[1,-1,3,5,-1,7,9,11,-1,-1,-1,-1,-1],"loss_changes":[9.232612E3,0E0,3.1035156E0,3.6402245E0,0E0,2.6995149E0,1.4324303E0,2.0948262E0,0E0,0E0,0E0,0E0,0E0],"parents":[2147483647,0,0,2,2,3,3,5,5,6,6,7,7],"right_children":[2,-1,4,6,-1,8,10,12,-1,-1,-1,-1,-1],"split_conditions":[1.8906736E-1,-1.5858777E-2,1.9548163E-1,-3.8427415E-1,2.4959473E-2,1.3665985E-1,7.9108375E-1,-4.4005942E-1,2.01998E-2,2.5804713E-2,6.634567E-3,9.7253E-3,-7.30301E-3],"split_indices":[0,0,0,11,0,16,7,5,0,0,0,0,0],"split_type":[0,0,0,0,0,0,0,0,0,0,0,0,0],"sum_hessian":[1.2246169E4,7.0390347E3,5.2071343E3,5.6192253E1,5.150942E3,2.2858208E1,3.3334045E1,1.4669567E1,8.188641E0,2.7998833E1,5.3352118E0,9.002144E0,5.6674232E0],"tree_param":{"num_deleted":"0","num_feature":"19","num_nodes":"13","size_leaf_vector":"1"}},{"base_weights":[4.532947E-2,2.3803977E-2,-6.685818E-1,-0E0,-1.5620565E-2,3.7794197E-1,-4.8809943E-1,1.4181781E-1,2.5943266E-2,-1.3775479E-2,-5.598997E-5,-9.2048105E-3,8.406078E-3],"categories":[],"categories_nodes":[],"categories_segments":[],"categories_sizes":[],"default_left":[0,0,0,0,0,0,0,0,0,0,0,0,0],"id":45,"left_children":[1,-1,3,5,-1,7,9,11,-1,-1,-1,-1,-1],"loss_changes":[8.461196E3,0E0,2.1906982E1,9.087341E0,0E0,3.8339865E0,6.4494324E-1,2.6152084E0,0E0,0E0,0E0,0E0,0E0],"parents":[2147483647,0,0,2,2,3,3,5,5,6,6,7,7],"right_children":[2,-1,4,6,-1,8,10,12,-1,-1,-1,-1,-1],"split_conditions":[-1.9428657E-1,2.3803977E-2,-1.8976963E-1,5.7901186E-1,-1.5620565E-2,4.8321745E-1,8.57082E-1,-4.8075128E-1,2.5943266E-2,-1.3775479E-2,-5.598997E-5,-9.2048105E-3,8.406078E-3],"split_indices":[0,0,0,3,0,4,3,2,0,0,0,0,0],"split_type":[0,0,0,0,0,0,0,0,0,0,0,0,0],"sum_hessian":[1.2084768E4,5.091632E3,6.9931357E3,4.8830788E1,6.9443047E3,2.7482784E1,2.1348001E1,2.1806925E1,5.675859E0,1.619168E1,5.1563206E0,5.2711806E0,1.6535746E1],"tree_param":{"num_deleted":"0","num_feature":"19","num_nodes":"13","size_leaf_vector":"1"}},{"base_weights":[-1.15034394E-1,1.7901981E-1,-1.5794424E-2,-1.552868E-2,1.0286671E0,1.04401E0,-1.2461177E-1,6.399188E-1,2.4342474E-2,2.1940173E-1,-5.168093E-1,1.8952802E-2,2.8968747E-3,-1.1831865E-3,2.3814058E-2,-1.644719E-3,-1.5235266E-2],"categories":[],"categories_nodes":[],"categories_segments":[],"categories_sizes":[],"default_left":[0,0,0,0,0,0,0,0,0,0,0,0,0,0,0,0,0],"id":46,"left_children":[1,3,-1,-1,5,7,9,11,-1,13,15,-1,-1,-1,-1,-1,-1],"loss_changes":[1.9760609E3,5.632321E3,0E0,0E0,6.98208E1,6.652832E0,7.1030326E0,3.9299927E0,0E0,6.468032E0,9.7773266E-1,0E0,0E0,0E0,0E0,0E0,0E0],"parents":[2147483647,0,0,1,1,4,4,5,5,6,6,7,7,9,9,10,10],"right_children":[2,4,-1,-1,6,8,10,12,-1,14,16,-1,-1,-1,-1,-1,-1],"split_conditions":[1.9548163E-1,-1.9428657E-1,-1.5794424E-2,-1.552868E-2,1.8906736E-1,-1.8976963E-1,-3.5761435E-2,5.0310273E-2,2.4342474E-2,7.763536E-1,-7.81362E-1,1.8952802E-2,2.8968747E-3,-1.1831865E-3,2.3814058E-2,-1.644719E-3,-1.5235266E-2],"split_indices":[0,0,0,0,0,0,10,1,0,18,12,0,0,0,0,0,0],"split_type":[0,0,0,0,0,0,0,0,0,0,0,0,0,0,0,0,0],"sum_hessian":[1.1875794E4,7.8133735E3,4.0624207E3,3.9092737E3,3.9040996E3,3.853522E3,5.0577785E1,5.111482E1,3.802407E3,2.5941711E1,2.4636074E1,3.6840183E1,1.4274635E1,1.8853874E1,7.0878377E0,7.2718616E0,1.7364212E1],"tree_param":{"num_deleted":"0","num_feature":"19","num_nodes":"17","size_leaf_vector":"1"}},{"base_weights":[6.0373913E-2,1.9306925E-1,-1.43004E-2,1.5193813E-1,2.5265193E-1,1.6780905E-1,-5.5300567E-2,1.6851224E-1,-2.1220108E-2,2.3227072E-1,4.4371903E-1,2.108539E-1,-1.3682143E-1,-1.3314655E-1,-1.33558875E-2,1.4998315E-2,1.8504827E-1,-1.4264108E-1,2.3279583E-1,2.4804665E-1,4.149254E-3,5.8049154E-1,2.734069E-1,5.068761E-1,1.8209018E-1,-3.113478E-1,5.284407E-2,-6.778231E-2,-2.05178E-1,1.6525881E-1,-2.4320148E-2,-7.7676686E-4,5.844456E-3,5.9866756E-3,3.1719296E-3,-7.891338E-4,-9.007047E-3,7.32203E-3,-9.811193E-3,2.9293974E-3,6.2436364E-3,-8.197156E-3,1.7535645E-3,1.4697082E-2,1.1543565E-3,1.8830987E-3,1.4051487E-2,-0E0,1.2749727E-2,-7.6862663E-4,4.6711513E-3,-9.023745E-3,4.457805E-3,-6.1610662E-3,6.799597E-3,1.674572E-3,-2.6145175E-3,-2.5741311E-3,-6.3408874E-3,6.494116E-3,5.606409E-4,-1.630773E-4,-3.0451717E-3],"categories":[],"categories_nodes":[],"categories_segments":[],"categories_sizes":[],"default_left":[0,0,0,0,0,0,0,0,0,0,0,0,0,0,0,0,0,0,0,0,0,0,0,0,0,0,0,0,0,0,0,0,0,0,0,0,0,0,0,0,0,0,0,0,0,0,0,0,0,0,0,0,0,0,0,0,0,0,0,0,0,0,0],"id":47,"left_children":[1,3,5,7,9,11,13,15,17,19,21,23,25,27,29,31,33,35,37,39,41,43,45,47,49,51,53,55,57,59,61,-1,-1,-1,-1,-1,-1,-1,-1,-1,-1,-1,-1,-1,-1,-1,-1,-1,-1,-1,-1,-1,-1,-1,-1,-1,-1,-1,-1,-1,-1,-1,-1],"loss_changes":[1.205358E2,1.041185E1,5.7940655E1,7.573059E0,6.390869E0,1.8744987E1,2.0610657E1,5.876297E0,6.8189774E0,5.6095886E0,3.2164803E0,1.0098358E1,5.9722133E0,1.0219559E1,7.98245E0,2.8784878E0,7.238594E0,3.7567976E0,3.7537124E0,3.549965E0,2.5407622E0,2.0063496E0,4.416294E0,2.6976643E0,4.8635902E0,3.7967997E0,6.2761035E0,7.3718653E0,6.4277725E0,3.5633492E0,7.0976906E0,0E0,0E0,0E0,0E0,0E0,0E0,0E0,0E0,0E0,0E0,0E0,0E0,0E0,0E0,0E0,0E0,0E0,0E0,0E0,0E0,0E0,0E0,0E0,0E0,0E0,0E0,0E0,0E0,0E0,0E0,0E0,0E0],"parents":[2147483647,0,0,1,1,2,2,3,3,4,4,5,5,6,6,7,7,8,8,9,9,10,10,11,11,12,12,13,13,14,14,15,15,16,16,17,17,18,18,19,19,20,20,21,21,22,22,23,23,24,24,25,25,26,26,27,27,28,28,29,29,30,30],"right_children":[2,4,6,8,10,12,14,16,18,20,22,24,26,28,30,32,34,36,38,40,42,44,46,48,50,52,54,56,58,60,62,-1,-1,-1,-1,-1,-1,-1,-1,-1,-1,-1,-1,-1,-1,-1,-1,-1,-1,-1,-1,-1,-1,-1,-1,-1,-1,-1,-1,-1,-1,-1,-1],"split_conditions":[-3.2881114E-1,5.0310273E-2,-3.8162494E-1,4.4461596E-1,1.690504E0,8.4340924E-1,-5.059888E-1,-1.8246424E0,3.465322E-1,7.9108375E-1,5.722154E-1,-1.4637867E0,1.4797005E-1,1.5759946E-1,-1.7289319E0,-1.2415175E0,-5.9362376E-1,7.105976E-1,1.6592222E0,-4.151263E-1,7.516759E-2,9.103316E-1,1.0516485E0,-1.4443794E0,-7.145813E-1,1.6120307E0,-1.0307338E-2,-6.6139424E-1,9.248894E-2,2.764802E-1,1.3382974E0,-7.7676686E-4,5.844456E-3,5.9866756E-3,3.1719296E-3,-7.891338E-4,-9.007047E-3,7.32203E-3,-9.811193E-3,2.9293974E-3,6.2436364E-3,-8.197156E-3,1.7535645E-3,1.4697082E-2,1.1543565E-3,1.8830987E-3,1.4051487E-2,-0E0,1.2749727E-2,-7.6862663E-4,4.6711513E-3,-9.023745E-3,4.457805E-3,-6.1610662E-3,6.799597E-3,1.674572E-3,-2.6145175E-3,-2.5741311E-3,-6.3408874E-3,6.494116E-3,5.606409E-4,-1.630773E-4,-3.0451717E-3],"split_indices":[10,1,7,7,15,10,1,10,8,7,3,7,6,12,3,14,11,7,8,8,8,5,1,14,11,15,17,3,7,5,12,0,0,0,0,0,0,0,0,0,0,0,0,0,0,0,0,0,0,0,0,0,0,0,0,0,0,0,0,0,0,0,0],"split_type":[0,0,0,0,0,0,0,0,0,0,0,0,0,0,0,0,0,0,0,0,0,0,0,0,0,0,0,0,0,0,0,0,0,0,0,0,0,0,0,0,0,0,0,0,0,0,0,0,0,0,0,0,0,0,0,0,0,0,0,0,0,0,0],"sum_hessian":[1.215017E4,4.3789165E3,7.771254E3,2.5986687E3,1.7802477E3,1.4245251E3,6.346729E3,2.3757363E3,2.2293231E2,1.612702E3,1.6754558E2,1.2504329E3,1.7409225E2,2.215708E3,4.131021E3,2.3559985E2,2.1401365E3,1.529491E2,6.9983215E1,1.5052057E3,1.0749638E2,9.014222E1,7.740336E1,1.0807075E2,1.142362E3,9.271859E1,8.1373665E1,1.1674359E3,1.0482721E3,2.3468155E2,3.8963394E3,1.9301442E2,4.2585434E1,8.4588806E2,1.2942484E3,1.0837985E2,4.4569244E1,6.327399E1,6.709225E0,2.275781E2,1.2776276E3,1.5972436E1,9.152395E1,8.060271E1,9.539508E0,5.0661106E1,2.6742252E1,7.224499E0,1.00846245E2,9.046052E1,1.0519016E3,8.170593E1,1.1012657E1,3.360231E1,4.7771355E1,2.7938785E2,8.8804803E2,4.448444E2,6.0342773E2,1.26346695E2,1.0833486E2,3.36039E3,5.359495E2],"tree_param":{"num_deleted":"0","num_feature":"19","num_nodes":"63","size_leaf_vector":"1"}},{"base_weights":[4.80089E-2,2.343073E-2,-6.6555434E-1,-2.1781156E-2,-1.5542986E-2,6.0170615E-1,-2.3398352E-1,2.3188882E-2,1.7976582E-3,-1.4679666E-2,-0E0,-9.656098E-3,6.2915934E-3],"categories":[],"categories_nodes":[],"categories_segments":[],"categories_sizes":[],"default_left":[0,0,0,0,0,0,0,0,0,0,0,0,0],"id":48,"left_children":[1,-1,3,5,-1,7,9,-1,-1,-1,11,-1,-1],"loss_changes":[8.236722E3,0E0,1.887378E1,6.0835953E0,0E0,1.5089827E0,3.292593E0,0E0,0E0,0E0,2.7361822E0,0E0,0E0],"parents":[2147483647,0,0,2,2,3,3,5,5,6,6,10,10],"right_children":[2,-1,4,6,-1,8,10,-1,-1,-1,12,-1,-1],"split_conditions":[-1.9428657E-1,2.343073E-2,-1.8976963E-1,-3.3449763E-1,-1.5542986E-2,-6.1350965E-1,-1.0515776E-1,2.3188882E-2,1.7976582E-3,-1.4679666E-2,-3.9885533E-1,-9.656098E-3,6.2915934E-3],"split_indices":[0,0,0,3,0,5,5,0,0,0,12,0,0],"split_type":[0,0,0,0,0,0,0,0,0,0,0,0,0],"sum_hessian":[1.1999534E4,5.110913E3,6.888621E3,4.771759E1,6.8409033E3,1.1099982E1,3.6617607E1,5.371131E0,5.728851E0,1.3060729E1,2.355688E1,9.578777E0,1.3978104E1],"tree_param":{"num_deleted":"0","num_feature":"19","num_nodes":"13","size_leaf_vector":"1"}},{"base_weights":[-1.0730572E-1,1.8868105E-1,-1.5745074E-2,-1.540699E-2,1.0139364E0,1.0272422E0,-1.4590074E-1,6.453736E-1,2.3944957E-2,2.290181E-1,-1.4301907E-2,-4.132777E-3,1.9329453E-2,-7.8739045E-5,2.2074345E-2],"categories":[],"categories_nodes":[],"categories_segments":[],"categories_sizes":[],"default_left":[0,0,0,0,0,0,0,0,0,0,0,0,0,0,0],"id":49,"left_children":[1,3,-1,-1,5,7,9,11,-1,13,-1,-1,-1,-1,-1],"loss_changes":[1.9801619E3,5.427009E3,0E0,0E0,6.1194824E1,5.7194824E0,8.083809E0,8.409773E0,0E0,4.71233E0,0E0,0E0,0E0,0E0,0E0],"parents":[2147483647,0,0,1,1,4,4,5,5,6,6,7,7,9,9],"right_children":[2,4,-1,-1,6,8,10,12,-1,14,-1,-1,-1,-1,-1],"split_conditions":[1.9548163E-1,-1.9428657E-1,-1.5745074E-2,-1.540699E-2,1.8906736E-1,-1.8976963E-1,-2.1277826E-1,-3.3449763E-1,2.3944957E-2,2.6271722E-1,-1.4301907E-2,-4.132777E-3,1.9329453E-2,-7.8739045E-5,2.2074345E-2],"split_indices":[0,0,0,0,0,0,13,3,0,2,0,0,0,0,0],"split_type":[0,0,0,0,0,0,0,0,0,0,0,0,0,0,0],"sum_hessian":[1.1706875E4,7.710927E3,3.9959485E3,3.7918481E3,3.9190789E3,3.8753096E3,4.3769424E1,5.072836E1,3.824581E3,2.3503176E1,2.0266249E1,8.656973E0,4.207139E1,1.7123272E1,6.379905E0],"tree_param":{"num_deleted":"0","num_feature":"19","num_nodes":"15","size_leaf_vector":"1"}},{"base_weights":[5.958788E-2,-1.5707815E-2,1.0394162E0,6.8579E-1,2.4194077E-2,-0E0,7.6986736E-1,5.432091E-1,2.3688056E-2,2.239995E-2,7.021022E-3],"categories":[],"categories_nodes":[],"categories_segments":[],"categories_sizes":[],"default_left":[0,0,0,0,0,0,0,0,0,0,0],"id":50,"left_children":[1,-1,3,5,-1,-1,7,9,-1,-1,-1],"loss_changes":[8.750161E3,0E0,4.765625E0,3.280344E0,0E0,0E0,1.3541908E0,1.6769996E0,0E0,0E0,0E0],"parents":[2147483647,0,0,2,2,3,3,6,6,7,7],"right_children":[2,-1,4,6,-1,-1,8,10,-1,-1,-1],"split_conditions":[1.8906736E-1,-1.5707815E-2,1.9548163E-1,-1.5229273E0,2.4194077E-2,-0E0,1.1655627E-1,-1.0670719E0,2.3688056E-2,2.239995E-2,7.021022E-3],"split_indices":[0,0,0,14,0,0,10,14,0,0,0],"split_type":[0,0,0,0,0,0,0,0,0,0,0],"sum_hessian":[1.212251E4,6.9196616E3,5.202848E3,5.199223E1,5.150856E3,5.242478E0,4.6749752E1,2.6518824E1,2.0230928E1,8.242879E0,1.8275946E1],"tree_param":{"num_deleted":"0","num_feature":"19","num_nodes":"11","size_leaf_vector":"1"}},{"base_weights":[5.0532766E-2,-1.2337504E-2,1.6377017E-1,-4.2946286E-2,2.3966874E-1,-1.09970085E-1,1.8157816E-1,-9.485602E-2,1.6817115E-2,2.1166678E-1,4.1203597E-1,1.3867063E-2,-2.1954304E-1,1.2614276E-1,2.3715332E-1,-1.4734216E-1,-4.3963104E-2,2.7413508E-3,1.1579537E-1,-8.894591E-3,2.2034326E-1,9.345003E-2,4.8086286E-1,6.98011E-2,-2.9591376E-1,-3.8523903E-1,-7.6069385E-2,1.9341113E-1,6.268778E-2,2.6253235E-1,1.0740727E-1,-4.3107774E-3,-1.3434663E-3,-4.159703E-3,2.3874907E-7,-2.3997546E-4,2.8608101E-3,5.876891E-4,7.4714827E-3,3.6571128E-3,6.979798E-3,7.834143E-3,-5.122192E-4,1.5264953E-2,7.89312E-3,5.190799E-4,1.5087594E-2,-6.091118E-4,-1.2387019E-2,-1.0961562E-2,-0E0,-5.207099E-3,2.5012626E-3,3.7301197E-3,1.0158544E-2,7.185975E-3,8.733786E-4,1.9561427E-3,6.6781407E-3,7.470038E-3,1.2146038E-3],"categories":[],"categories_nodes":[],"categories_segments":[],"categories_sizes":[],"default_left":[0,0,0,0,0,0,0,0,0,0,0,0,0,0,0,0,0,0,0,0,0,0,0,0,0,0,0,0,0,0,0,0,0,0,0,0,0,0,0,0,0,0,0,0,0,0,0,0,0,0,0,0,0,0,0,0,0,0,0,0,0],"id":51,"left_children":[1,3,5,7,9,11,13,15,17,19,21,23,25,27,29,31,33,35,37,-1,39,41,43,45,47,49,51,53,55,57,59,-1,-1,-1,-1,-1,-1,-1,-1,-1,-1,-1,-1,-1,-1,-1,-1,-1,-1,-1,-1,-1,-1,-1,-1,-1,-1,-1,-1,-1,-1],"loss_changes":[8.471181E1,5.8753056E1,2.0759605E1,2.1193754E1,3.4798164E0,3.6446888E0,1.2005356E1,9.607517E0,4.3105607E0,3.5740852E0,1.9845486E0,1.8646693E0,2.9564972E0,8.357258E0,6.245613E0,5.9687424E0,1.1219849E1,4.4626746E0,6.9425206E0,0E0,3.19347E0,8.6546516E-1,1.4103031E0,2.279381E0,5.8442366E-1,2.3138437E0,2.210788E0,7.2392387E0,6.1502776E0,7.173691E0,3.6070516E0,0E0,0E0,0E0,0E0,0E0,0E0,0E0,0E0,0E0,0E0,0E0,0E0,0E0,0E0,0E0,0E0,0E0,0E0,0E0,0E0,0E0,0E0,0E0,0E0,0E0,0E0,0E0,0E0,0E0,0E0],"parents":[2147483647,0,0,1,1,2,2,3,3,4,4,5,5,6,6,7,7,8,8,9,9,10,10,11,11,12,12,13,13,14,14,15,15,16,16,17,17,18,18,20,20,21,21,22,22,23,23,24,24,25,25,26,26,27,27,28,28,29,29,30,30],"right_children":[2,4,6,8,10,12,14,16,18,20,22,24,26,28,30,32,34,36,38,-1,40,42,44,46,48,50,52,54,56,58,60,-1,-1,-1,-1,-1,-1,-1,-1,-1,-1,-1,-1,-1,-1,-1,-1,-1,-1,-1,-1,-1,-1,-1,-1,-1,-1,-1,-1,-1,-1],"split_conditions":[2.5723407E-1,7.600307E-1,-8.27144E-1,-1.8613355E-1,9.371344E-1,-3.190417E-1,-9.60025E-2,-7.866378E-2,1.1863445E0,-1.1393268E0,4.2043024E-1,7.336344E-1,-1.085535E0,-5.399375E-1,1.495164E0,-1.9075264E-1,-7.8413826E-1,9.814812E-2,7.6517975E-1,-8.894591E-3,6.1765917E-2,-5.7069693E-2,3.655464E-1,4.6304476E-1,-6.0515666E-1,9.415517E-1,2.8750843E-1,3.284598E-1,-4.447529E-1,-4.4352037E-1,-1.9517295E-1,-4.3107774E-3,-1.3434663E-3,-4.159703E-3,2.3874907E-7,-2.3997546E-4,2.8608101E-3,5.876891E-4,7.4714827E-3,3.6571128E-3,6.979798E-3,7.834143E-3,-5.122192E-4,1.5264953E-2,7.89312E-3,5.190799E-4,1.5087594E-2,-6.091118E-4,-1.2387019E-2,-1.0961562E-2,-0E0,-5.207099E-3,2.5012626E-3,3.7301197E-3,1.0158544E-2,7.185975E-3,8.733786E-4,1.9561427E-3,6.6781407E-3,7.470038E-3,1.2146038E-3],"split_indices":[7,10,10,8,8,3,8,12,16,7,9,12,10,9,10,1,1,7,9,0,16,6,1,12,15,16,18,1,11,10,9,0,0,0,0,0,0,0,0,0,0,0,0,0,0,0,0,0,0,0,0,0,0,0,0,0,0,0,0,0,0],"split_type":[0,0,0,0,0,0,0,0,0,0,0,0,0,0,0,0,0,0,0,0,0,0,0,0,0,0,0,0,0,0,0,0,0,0,0,0,0,0,0,0,0,0,0,0,0,0,0,0,0,0,0,0,0,0,0,0,0,0,0,0,0],"sum_hessian":[1.1882271E4,7.6360405E3,4.246231E3,6.8118945E3,8.2414624E2,2.5665146E2,3.9895793E3,3.6523313E3,3.1595632E3,7.132053E2,1.1094094E2,1.1725641E2,1.3939503E2,2.0045831E3,1.9849962E3,1.7903661E3,1.8619651E3,2.7731921E3,3.863712E2,8.847535E0,7.043578E2,2.178609E1,8.9154854E1,1.015647E2,1.56917095E1,6.203464E1,7.73604E1,9.669483E2,1.0376348E3,1.6550953E3,3.299009E2,1.2457904E3,5.445757E2,4.6080182E2,1.4011632E3,2.4960732E3,2.7711893E2,2.713247E2,1.1504646E2,4.0163412E2,3.0272366E2,9.0203085E0,1.2765782E1,3.6712543E1,5.2442307E1,9.531409E1,6.2506113E0,8.981032E0,6.7106767E0,5.154285E1,1.0491791E1,4.5114635E1,3.224576E1,8.561319E2,1.1081641E2,9.246115E1,9.4517365E2,2.0970612E2,1.4453893E3,6.430372E1,2.6559717E2],"tree_param":{"num_deleted":"0","num_feature":"19","num_nodes":"61","size_leaf_vector":"1"}},{"base_weights":[-1.1297554E-1,1.7855376E-1,-6.6917264E-1,-1.5311291E-2,1.0061774E0,-2.3271087E-1,-1.5637886E-2,5.9278333E-1,2.3465725E-2,-4.1389292E-1,1.6504105E-2,-7.4485242E-3,7.341402E-1,1.62071E-3,-5.104283E-1,1.9719359E-2,3.3457528E-3,-4.394755E-3,-1.4537449E-2],"categories":[],"categories_nodes":[],"categories_segments":[],"categories_sizes":[],"default_left":[0,0,0,0,0,0,0,0,0,0,0,0,0,0,0,0,0,0,0],"id":52,"left_children":[1,3,5,-1,7,9,-1,11,-1,13,-1,-1,15,-1,17,-1,-1,-1,-1],"loss_changes":[1.8915969E3,5.310352E3,7.7593994E0,0E0,6.9821777E0,7.7201324E0,0E0,6.8914948E0,0E0,2.19279E0,0E0,0E0,2.2507954E0,0E0,6.252279E-1,0E0,0E0,0E0,0E0],"parents":[2147483647,0,0,1,1,2,2,4,4,5,5,7,7,9,9,12,12,14,14],"right_children":[2,4,6,-1,8,10,-1,12,-1,14,-1,-1,16,-1,18,-1,-1,-1,-1],"split_conditions":[1.8906736E-1,-1.9428657E-1,1.9548163E-1,-1.5311291E-2,-1.8976963E-1,7.763536E-1,-1.5637886E-2,-6.081466E-1,2.3465725E-2,-7.262407E-1,1.6504105E-2,-7.4485242E-3,6.096692E-1,1.62071E-3,-5.551062E-1,1.9719359E-2,3.3457528E-3,-4.394755E-3,-1.4537449E-2],"split_indices":[0,0,0,0,0,18,0,16,0,6,0,0,2,0,12,0,0,0,0],"split_type":[0,0,0,0,0,0,0,0,0,0,0,0,0,0,0,0,0,0,0],"sum_hessian":[1.1663203E4,7.6514575E3,4.0117456E3,3.8003145E3,3.851143E3,4.5936474E1,3.965809E3,5.0318806E1,3.8008242E3,3.931993E1,6.6165423E0,5.975214E0,4.434359E1,5.2195506E0,3.410038E1,3.5900005E1,8.443586E0,1.0966365E1,2.3134014E1],"tree_param":{"num_deleted":"0","num_feature":"19","num_nodes":"19","size_leaf_vector":"1"}},{"base_weights":[5.586146E-2,-1.560135E-2,1.0180825E0,6.6433156E-1,2.3701185E-2,8.261348E-1,-4.126973E-3,5.089426E-1,9.5871264E-1,1.8815828E-2,-0E0,9.563706E-3,2.4196962E-2],"categories":[],"categories_nodes":[],"categories_segments":[],"categories_sizes":[],"default_left":[0,0,0,0,0,0,0,0,0,0,0,0,0],"id":53,"left_children":[1,-1,3,5,-1,7,-1,9,11,-1,-1,-1,-1],"loss_changes":[8.5258125E3,0E0,5.0200195E0,7.8642178E0,0E0,7.020645E-1,0E0,2.7741284E0,1.9305038E-1,0E0,0E0,0E0,0E0],"parents":[2147483647,0,0,2,2,3,3,5,5,7,7,8,8],"right_children":[2,-1,4,6,-1,8,-1,10,12,-1,-1,-1,-1],"split_conditions":[1.8906736E-1,-1.560135E-2,1.9548163E-1,7.763536E-1,2.3701185E-2,-3.8427415E-1,-4.126973E-3,-9.526975E-1,-4.4770825E-1,1.8815828E-2,-0E0,9.563706E-3,2.4196962E-2],"split_indices":[0,0,0,18,0,11,0,13,2,0,0,0,0],"split_type":[0,0,0,0,0,0,0,0,0,0,0,0,0],"sum_hessian":[1.2165166E4,6.9237866E3,5.24138E3,5.362284E1,5.187757E3,4.575352E1,7.869317E0,1.5487087E1,3.0266436E1,1.0196514E1,5.290573E0,5.422309E0,2.4844126E1],"tree_param":{"num_deleted":"0","num_feature":"19","num_nodes":"13","size_leaf_vector":"1"}},{"base_weights":[4.533255E-2,-1.5434736E-2,1.5927397E-1,-4.54004E-2,2.2706771E-1,-1.5114714E-1,1.7844218E-1,-1.14033364E-1,-6.5014437E-3,3.424528E-1,1.4819327E-1,-3.5698358E-2,-2.4248753E-1,6.452275E-2,2.0497723E-1,-1.4989331E-1,-3.1228967E-2,-6.072659E-2,4.318993E-2,4.5770552E-2,4.0192512E-1,1.1829082E-1,3.1326592E-1,4.464227E-1,-1.16070524E-1,-3.063816E-1,-0E0,-4.9103018E-2,1.4655042E-1,3.0834278E-1,1.7184192E-1,-3.729091E-3,1.8773796E-3,-1.701169E-3,7.505034E-3,-2.8071885E-3,-1.7747465E-4,4.1480534E-4,4.3183984E-3,7.2503737E-3,-3.0295684E-3,1.593402E-2,8.164811E-3,-6.976438E-3,3.0930534E-3,3.6473353E-3,1.3997485E-2,2.972814E-3,1.5484106E-2,1.5421512E-3,-5.34226E-3,-9.524566E-3,-2.854978E-3,-4.293188E-3,5.015079E-3,1.3003296E-4,-8.530763E-3,5.23247E-4,4.8810863E-3,7.6541044E-3,2.159553E-3,3.7488493E-3,1.156056E-2],"categories":[],"categories_nodes":[],"categories_segments":[],"categories_sizes":[],"default_left":[0,0,0,0,0,0,0,0,0,0,0,0,0,0,0,0,0,0,0,0,0,0,0,0,0,0,0,0,0,0,0,0,0,0,0,0,0,0,0,0,0,0,0,0,0,0,0,0,0,0,0,0,0,0,0,0,0,0,0,0,0,0,0],"id":54,"left_children":[1,3,5,7,9,11,13,15,17,19,21,23,25,27,29,31,33,35,37,39,41,43,45,47,49,51,53,55,57,59,61,-1,-1,-1,-1,-1,-1,-1,-1,-1,-1,-1,-1,-1,-1,-1,-1,-1,-1,-1,-1,-1,-1,-1,-1,-1,-1,-1,-1,-1,-1,-1,-1],"loss_changes":[8.239282E1,5.6150146E1,2.4647316E1,1.8320385E1,7.338581E0,2.2975273E0,1.1577179E1,7.246361E0,1.189564E1,5.6607895E0,2.170186E0,3.9895093E0,1.9363308E0,6.9972277E0,1.0432526E1,4.390209E0,1.113788E1,6.6695633E0,8.14016E0,2.936684E0,3.1605682E0,2.6168318E0,2.7403202E0,3.7315345E-1,2.1137495E0,1.518527E0,1.1166561E0,5.639513E0,3.2639418E0,3.1973724E0,7.502228E0,0E0,0E0,0E0,0E0,0E0,0E0,0E0,0E0,0E0,0E0,0E0,0E0,0E0,0E0,0E0,0E0,0E0,0E0,0E0,0E0,0E0,0E0,0E0,0E0,0E0,0E0,0E0,0E0,0E0,0E0,0E0,0E0],"parents":[2147483647,0,0,1,1,2,2,3,3,4,4,5,5,6,6,7,7,8,8,9,9,10,10,11,11,12,12,13,13,14,14,15,15,16,16,17,17,18,18,19,19,20,20,21,21,22,22,23,23,24,24,25,25,26,26,27,27,28,28,29,29,30,30],"right_children":[2,4,6,8,10,12,14,16,18,20,22,24,26,28,30,32,34,36,38,40,42,44,46,48,50,52,54,56,58,60,62,-1,-1,-1,-1,-1,-1,-1,-1,-1,-1,-1,-1,-1,-1,-1,-1,-1,-1,-1,-1,-1,-1,-1,-1,-1,-1,-1,-1,-1,-1,-1,-1],"split_conditions":[2.767268E-1,7.600307E-1,-8.27144E-1,-4.6890217E-1,-1.0307338E-2,1.6157009E-1,-6.5433514E-1,6.1195797E-1,-1.9517295E-1,-7.0996505E-1,1.5033294E0,-5.0668955E-1,1.8675538E0,-6.771322E-2,-3.2877982E-1,9.5775765E-1,6.318625E-1,-4.0469667E-1,8.537193E-1,-8.8258065E-2,-4.8674965E-1,-1.2141538E0,1.276798E-1,-1.5177675E-2,-2.1889515E-1,-9.8896605E-1,-7.519937E-3,1.1950935E0,2.158614E-1,1.579487E0,2.680222E0,-3.729091E-3,1.8773796E-3,-1.701169E-3,7.505034E-3,-2.8071885E-3,-1.7747465E-4,4.1480534E-4,4.3183984E-3,7.2503737E-3,-3.0295684E-3,1.593402E-2,8.164811E-3,-6.976438E-3,3.0930534E-3,3.6473353E-3,1.3997485E-2,2.972814E-3,1.5484106E-2,1.5421512E-3,-5.34226E-3,-9.524566E-3,-2.854978E-3,-4.293188E-3,5.015079E-3,1.3003296E-4,-8.530763E-3,5.23247E-4,4.8810863E-3,7.6541044E-3,2.159553E-3,3.7488493E-3,1.156056E-2],"split_indices":[7,10,10,1,17,1,1,12,9,1,12,16,1,2,6,5,4,10,16,6,4,7,16,12,6,10,17,10,11,10,16,0,0,0,0,0,0,0,0,0,0,0,0,0,0,0,0,0,0,0,0,0,0,0,0,0,0,0,0,0,0,0,0],"split_type":[0,0,0,0,0,0,0,0,0,0,0,0,0,0,0,0,0,0,0,0,0,0,0,0,0,0,0,0,0,0,0,0,0,0,0,0,0,0,0,0,0,0,0,0,0,0,0,0,0,0,0,0,0,0,0,0,0,0,0,0,0,0,0],"sum_hessian":[1.1883438E4,7.7458257E3,4.137613E3,6.8969287E3,8.488971E2,2.3821213E2,3.899401E3,2.4875974E3,4.409331E3,3.404294E2,5.0846768E2,1.0907668E2,1.2913544E2,7.423126E2,3.1570884E3,1.7292341E3,7.583634E2,2.1158887E3,2.2934426E3,5.907349E1,2.8135593E2,4.347358E2,7.3731865E1,1.4083272E1,9.4993416E1,1.0144437E2,2.7691069E1,3.0730087E2,4.3501175E2,7.603188E2,2.3967695E3,1.6549357E3,7.429846E1,6.8000037E2,7.836305E1,9.8389E2,1.1319985E3,1.9532073E3,3.402352E2,2.5193462E1,3.3880028E1,3.933177E1,2.4202414E2,1.314035E1,4.2159546E2,4.9869152E1,2.386271E1,7.331547E0,6.751725E0,3.39857E1,6.1007717E1,6.18499E1,3.959447E1,1.5483933E1,1.2207135E1,2.6036288E2,4.6937973E1,1.520393E2,2.8297244E2,6.87734E2,7.258477E1,2.3263186E3,7.0450874E1],"tree_param":{"num_deleted":"0","num_feature":"19","num_nodes":"63","size_leaf_vector":"1"}},{"base_weights":[-1.11084044E-1,1.761897E-1,-6.646153E-1,-1.526855E-2,9.8921776E-1,-2.3609065E-1,-1.5512371E-2,5.2242655E-1,2.3102146E-2,-1.4493838E-2,-6.915584E-3,-1.10929824E-1,6.9539535E-1,-1.1267782E-2,1.4674604E-1,3.8537062E-3,-1.2918274E-2,2.2897167E-2,6.455399E-3,1.1139894E-2,-7.053178E-3],"categories":[],"categories_nodes":[],"categories_segments":[],"categories_sizes":[],"default_left":[0,0,0,0,0,0,0,0,0,0,0,0,0,0,0,0,0,0,0,0,0],"id":55,"left_children":[1,3,5,-1,7,9,-1,11,-1,-1,13,15,17,-1,19,-1,-1,-1,-1,-1,-1],"loss_changes":[1.8390981E3,5.1633535E3,6.0375977E0,0E0,1.0470947E1,2.9496515E0,0E0,6.5157623E0,0E0,0E0,2.1691155E0,1.6860504E0,4.362587E0,0E0,2.9322932E0,0E0,0E0,0E0,0E0,0E0,0E0],"parents":[2147483647,0,0,1,1,2,2,4,4,5,5,7,7,10,10,11,11,12,12,14,14],"right_children":[2,4,6,-1,8,10,-1,12,-1,-1,14,16,18,-1,20,-1,-1,-1,-1,-1,-1],"split_conditions":[1.8906736E-1,-1.9428657E-1,1.9548163E-1,-1.526855E-2,-1.8976963E-1,-6.90182E-1,-1.5512371E-2,-3.3449763E-1,2.3102146E-2,-1.4493838E-2,-7.1933717E-1,-4.947486E-1,4.7194924E-2,-1.1267782E-2,1.2034584E-1,3.8537062E-3,-1.2918274E-2,2.2897167E-2,6.455399E-3,1.1139894E-2,-7.053178E-3],"split_indices":[0,0,0,0,0,18,0,3,0,0,15,3,5,0,16,0,0,0,0,0,0],"split_type":[0,0,0,0,0,0,0,0,0,0,0,0,0,0,0,0,0,0,0,0,0],"sum_hessian":[1.1562849E4,7.611397E3,3.9514514E3,3.756123E3,3.855274E3,3.8406708E1,3.9130447E3,5.501839E1,3.8002554E3,1.2869981E1,2.5536728E1,1.0859825E1,4.4158566E1,7.3216734E0,1.8215054E1,5.706762E0,5.153063E0,2.474428E1,1.9414288E1,1.144781E1,6.767244E0],"tree_param":{"num_deleted":"0","num_feature":"19","num_nodes":"21","size_leaf_vector":"1"}},{"base_weights":[5.625951E-2,1.8411444E-1,-1.6612705E-2,2.2845876E-1,1.2840718E-1,1.4675443E-1,-6.0293343E-2,1.3310014E-1,2.6442873E-1,2.0863785E-1,7.328554E-2,1.7505099E-1,-1.1908199E-1,-1.3000177E-1,-1.5327471E-2,7.649219E-2,2.2919546E-1,3.7947473E-1,2.2876215E-1,2.1630311E-1,-8.835307E-3,9.679706E-2,-1.07952565E-1,4.2237955E-1,1.5303665E-1,-3.441282E-1,1.2591492E-2,-6.127878E-2,-1.8266366E-1,7.4829966E-2,-3.9631836E-2,-2.3200666E-3,2.9880502E-3,6.0471515E-3,-1.6041319E-3,5.9279627E-3,1.0484446E-2,5.41485E-3,-1.0539042E-2,3.8438207E-3,7.567462E-3,-1.561095E-4,3.5593282E-3,-1.0449847E-2,-5.4490974E-4,1.2125483E-2,3.8068616E-3,5.0808936E-3,2.571613E-3,3.680289E-3,-1.08816335E-2,-4.9353307E-3,5.8542923E-3,1.2612402E-3,-2.6131463E-3,-1.1488895E-3,-4.6615037E-3,4.624384E-4,4.8688143E-3,-1.1812701E-3,5.5051497E-3],"categories":[],"categories_nodes":[],"categories_segments":[],"categories_sizes":[],"default_left":[0,0,0,0,0,0,0,0,0,0,0,0,0,0,0,0,0,0,0,0,0,0,0,0,0,0,0,0,0,0,0,0,0,0,0,0,0,0,0,0,0,0,0,0,0,0,0,0,0,0,0,0,0,0,0,0,0,0,0,0,0],"id":56,"left_children":[1,3,5,7,9,11,13,15,17,19,21,23,25,27,29,31,33,35,37,39,-1,41,43,45,47,49,51,53,55,57,59,-1,-1,-1,-1,-1,-1,-1,-1,-1,-1,-1,-1,-1,-1,-1,-1,-1,-1,-1,-1,-1,-1,-1,-1,-1,-1,-1,-1,-1,-1],"loss_changes":[1.1164216E2,1.0461792E1,5.4309967E1,7.964302E0,8.339741E0,1.2112125E1,1.8745014E1,3.3904552E0,6.678833E0,3.4248772E0,4.9083166E0,7.4501457E0,4.7548494E0,8.322502E0,8.002192E0,3.9502985E0,2.423975E0,3.0926018E0,4.0819626E0,3.9139366E0,0E0,6.1202927E0,3.3566527E0,2.4491673E0,3.460907E0,3.9089007E0,5.1073585E0,6.1460705E0,3.0259552E0,5.539325E0,8.897277E0,0E0,0E0,0E0,0E0,0E0,0E0,0E0,0E0,0E0,0E0,0E0,0E0,0E0,0E0,0E0,0E0,0E0,0E0,0E0,0E0,0E0,0E0,0E0,0E0,0E0,0E0,0E0,0E0,0E0,0E0],"parents":[2147483647,0,0,1,1,2,2,3,3,4,4,5,5,6,6,7,7,8,8,9,9,10,10,11,11,12,12,13,13,14,14,15,15,16,16,17,17,18,18,19,19,21,21,22,22,23,23,24,24,25,25,26,26,27,27,28,28,29,29,30,30],"right_children":[2,4,6,8,10,12,14,16,18,20,22,24,26,28,30,32,34,36,38,40,-1,42,44,46,48,50,52,54,56,58,60,-1,-1,-1,-1,-1,-1,-1,-1,-1,-1,-1,-1,-1,-1,-1,-1,-1,-1,-1,-1,-1,-1,-1,-1,-1,-1,-1,-1,-1,-1],"split_conditions":[-3.1945232E-1,-2.0241743E-1,-3.237755E-1,-1.4854656E0,-7.8541213E-1,9.235404E-1,-5.051408E-1,-8.878075E-1,-6.1292344E-1,3.9489436E-4,7.9108375E-1,-1.4637867E0,-1.0603081E-2,-1.5177675E-2,-9.049647E-1,-3.1160778E-1,1.8093789E0,-2.871893E-1,7.694748E-1,1.693812E-1,-8.835307E-3,-6.179709E-1,2.1108143E-2,5.059485E-1,1.2951253E-1,-8.801092E-1,2.3193596E-2,1.6404351E-2,-1.7286392E-1,5.4291534E-1,2.5114932E0,-2.3200666E-3,2.9880502E-3,6.0471515E-3,-1.6041319E-3,5.9279627E-3,1.0484446E-2,5.41485E-3,-1.0539042E-2,3.8438207E-3,7.567462E-3,-1.561095E-4,3.5593282E-3,-1.0449847E-2,-5.4490974E-4,1.2125483E-2,3.8068616E-3,5.0808936E-3,2.571613E-3,3.680289E-3,-1.08816335E-2,-4.9353307E-3,5.8542923E-3,1.2612402E-3,-2.6131463E-3,-1.1488895E-3,-4.6615037E-3,4.624384E-4,4.8688143E-3,-1.1812701E-3,5.5051497E-3],"split_indices":[10,7,7,10,10,10,9,7,2,17,7,7,17,12,12,8,15,16,11,9,0,8,8,15,12,12,6,7,7,5,10,0,0,0,0,0,0,0,0,0,0,0,0,0,0,0,0,0,0,0,0,0,0,0,0,0,0,0,0,0,0],"split_type":[0,0,0,0,0,0,0,0,0,0,0,0,0,0,0,0,0,0,0,0,0,0,0,0,0,0,0,0,0,0,0,0,0,0,0,0,0,0,0,0,0,0,0,0,0,0,0,0,0,0,0,0,0,0,0,0,0,0,0,0,0],"sum_hessian":[1.1968389E4,4.3487544E3,7.619634E3,2.4132617E3,1.935493E3,1.6036769E3,6.015957E3,6.6711115E2,1.7461505E3,7.822902E2,1.1532028E3,1.4520847E3,1.5159213E2,2.352084E3,3.663873E3,4.2509116E2,2.4202003E2,4.0765442E2,1.3384961E3,7.736654E2,8.62484E0,1.0246334E3,1.285693E2,1.1552142E2,1.3365634E3,5.800266E1,9.358948E1,1.0269818E3,1.3251022E3,7.7113776E2,2.892735E3,9.375341E1,3.3133774E2,2.2130565E2,2.071438E1,1.545954E2,2.53059E2,1.330741E3,7.7551312E0,5.347703E2,2.3889511E2,3.5748764E2,6.671458E2,2.3458126E1,1.0511118E2,8.092098E1,3.4600437E1,5.139815E2,8.2258185E2,1.0300421E1,4.7702236E1,4.65973E1,4.6992172E1,3.111826E2,7.157992E2,1.6496954E2,1.1601327E3,5.5246533E2,2.1867242E2,2.7823184E3,1.1041678E2],"tree_param":{"num_deleted":"0","num_feature":"19","num_nodes":"61","size_leaf_vector":"1"}},{"base_weights":[4.461523E-2,2.268147E-2,-6.589949E-1,-0E0,-1.539176E-2,6.9235396E-1,-2.5016853E-1,5.2274894E-3,2.3236675E-2,-5.182992E-1,1.3993923E-1,-1.4880631E-3,-1.4806829E-2,-7.2885314E-3,1.9586021E-2],"categories":[],"categories_nodes":[],"categories_segments":[],"categories_sizes":[],"default_left":[0,0,0,0,0,0,0,0,0,0,0,0,0,0,0],"id":57,"left_children":[1,-1,3,5,-1,7,9,-1,-1,11,13,-1,-1,-1,-1],"loss_changes":[7.781334E3,0E0,1.9466309E1,7.806457E0,0E0,7.1800566E-1,3.8650613E0,0E0,0E0,6.135931E-1,4.5685177E0,0E0,0E0,0E0,0E0],"parents":[2147483647,0,0,2,2,3,3,5,5,6,6,9,9,10,10],"right_children":[2,-1,4,6,-1,8,10,-1,-1,12,14,-1,-1,-1,-1],"split_conditions":[-1.9428657E-1,2.268147E-2,-1.8976963E-1,-3.3449763E-1,-1.539176E-2,-5.193751E-1,4.7194924E-2,5.2274894E-3,2.3236675E-2,-3.9506143E-1,-5.319629E-3,-1.4880631E-3,-1.4806829E-2,-7.2885314E-3,1.9586021E-2],"split_indices":[0,0,0,3,0,3,5,0,0,4,1,0,0,0,0],"split_type":[0,0,0,0,0,0,0,0,0,0,0,0,0,0,0],"sum_hessian":[1.1852589E4,5.0961016E3,6.7564873E3,4.5466087E1,6.711021E3,1.1645044E1,3.382104E1,5.770183E0,5.8748612E0,2.117868E1,1.2642361E1,5.83244E0,1.5346241E1,7.086601E0,5.55576E0],"tree_param":{"num_deleted":"0","num_feature":"19","num_nodes":"15","size_leaf_vector":"1"}},{"base_weights":[-1.07213795E-1,1.7561974E-1,-1.5446224E-2,-1.5207476E-2,9.6461374E-1,9.792603E-1,-1.5406434E-1,5.7473665E-1,2.2843778E-2,-3.2110956E-1,1.1065222E-2,1.7716879E-2,-0E0,-0E0,-1.249673E-2],"categories":[],"categories_nodes":[],"categories_segments":[],"categories_sizes":[],"default_left":[0,0,0,0,0,0,0,0,0,0,0,0,0,0,0],"id":58,"left_children":[1,3,-1,-1,5,7,9,11,-1,13,-1,-1,-1,-1,-1],"loss_changes":[1.8207562E3,5.015829E3,0E0,0E0,6.496582E1,7.065918E0,5.202056E0,5.5773067E0,0E0,3.0810003E0,0E0,0E0,0E0,0E0,0E0],"parents":[2147483647,0,0,1,1,4,4,5,5,6,6,7,7,9,9],"right_children":[2,4,-1,-1,6,8,10,12,-1,14,-1,-1,-1,-1,-1],"split_conditions":[1.9548163E-1,-1.9428657E-1,-1.5446224E-2,-1.5207476E-2,1.8906736E-1,-1.8976963E-1,7.763536E-1,-2.098165E-1,2.2843778E-2,-3.8427415E-1,1.1065222E-2,1.7716879E-2,-0E0,-0E0,-1.249673E-2],"split_indices":[0,0,0,0,0,0,18,9,0,11,0,0,0,0,0],"split_type":[0,0,0,0,0,0,0,0,0,0,0,0,0,0,0],"sum_hessian":[1.1522798E4,7.648534E3,3.874264E3,3.724438E3,3.9240962E3,3.8740889E3,5.000729E1,5.2718563E1,3.8213704E3,4.058465E1,9.422644E0,3.93414E1,1.3377163E1,1.5669215E1,2.4915432E1],"tree_param":{"num_deleted":"0","num_feature":"19","num_nodes":"15","size_leaf_vector":"1"}},{"base_weights":[6.0218334E-2,-1.5503675E-2,9.9789256E-1,6.8545437E-1,2.3220325E-2,-0E0,7.661195E-1,2.5523102E-1,9.120063E-1,2.2034662E-2,-1.0757956E-2,1.1097611E-2,2.3229983E-2],"categories":[],"categories_nodes":[],"categories_segments":[],"categories_sizes":[],