{"learner":{"attributes":{"scikit_learn":"{\"_estimator_type\": \"classifier\"}"},"feature_names":["TargetReturn","C-O","BB_lower","BB_width","Return_lag1","Return_lag10","ATR14","StdDev20_Return","Williams_%R","Williams%R14","OBV","Volume_MA5","Volume_Change","DayOfWeek"],"feature_types":["float","float","float","float","float","float","float","float","float","float","float","float","float","float"],"gradient_booster":{"model":{"gbtree_model_param":{"num_parallel_tree":"1","num_trees":"417"},"iteration_indptr":[0,3,6,9,12,15,18,21,24,27,30,33,36,39,42,45,48,51,54,57,60,63,66,69,72,75,78,81,84,87,90,93,96,99,102,105,108,111,114,117,120,123,126,129,132,135,138,141,144,147,150,153,156,159,162,165,168,171,174,177,180,183,186,189,192,195,198,201,204,207,210,213,216,219,222,225,228,231,234,237,240,243,246,249,252,255,258,261,264,267,270,273,276,279,282,285,288,291,294,297,300,303,306,309,312,315,318,321,324,327,330,333,336,339,342,345,348,351,354,357,360,363,366,369,372,375,378,381,384,387,390,393,396,399,402,405,408,411,414,417],"tree_info":[0,1,2,0,1,2,0,1,2,0,1,2,0,1,2,0,1,2,0,1,2,0,1,2,0,1,2,0,1,2,0,1,2,0,1,2,0,1,2,0,1,2,0,1,2,0,1,2,0,1,2,0,1,2,0,1,2,0,1,2,0,1,2,0,1,2,0,1,2,0,1,2,0,1,2,0,1,2,0,1,2,0,1,2,0,1,2,0,1,2,0,1,2,0,1,2,0,1,2,0,1,2,0,1,2,0,1,2,0,1,2,0,1,2,0,1,2,0,1,2,0,1,2,0,1,2,0,1,2,0,1,2,0,1,2,0,1,2,0,1,2,0,1,2,0,1,2,0,1,2,0,1,2,0,1,2,0,1,2,0,1,2,0,1,2,0,1,2,0,1,2,0,1,2,0,1,2,0,1,2,0,1,2,0,1,2,0,1,2,0,1,2,0,1,2,0,1,2,0,1,2,0,1,2,0,1,2,0,1,2,0,1,2,0,1,2,0,1,2,0,1,2,0,1,2,0,1,2,0,1,2,0,1,2,0,1,2,0,1,2,0,1,2,0,1,2,0,1,2,0,1,2,0,1,2,0,1,2,0,1,2,0,1,2,0,1,2,0,1,2,0,1,2,0,1,2,0,1,2,0,1,2,0,1,2,0,1,2,0,1,2,0,1,2,0,1,2,0,1,2,0,1,2,0,1,2,0,1,2,0,1,2,0,1,2,0,1,2,0,1,2,0,1,2,0,1,2,0,1,2,0,1,2,0,1,2,0,1,2,0,1,2,0,1,2,0,1,2,0,1,2,0,1,2,0,1,2,0,1,2,0,1,2,0,1,2,0,1,2,0,1,2,0,1,2,0,1,2,0,1,2,0,1,2,0,1,2,0,1,2,0,1,2,0,1,2,0,1,2,0,1,2,0,1,2,0,1,2,0,1,2,0,1,2,0,1,2],"trees":[{"base_weights":[5.1476464E-2,1.4889213E0,-1.7396778E-2,3.479314E-2,5.101862E-1,9.533222E-1,-0E0,1.0654816E-2,2.8245246E-2,-9.342987E-3,2.0503235E-1,-0E0,9.342984E-3],"categories":[],"categories_nodes":[],"categories_segments":[],"categories_sizes":[],"default_left":[0,0,0,0,0,0,0,0,0,0,0,0,0],"id":0,"left_children":[1,3,-1,-1,5,7,9,-1,-1,-1,11,-1,-1],"loss_changes":[9.896079E3,3.0582031E1,0E0,0E0,7.781949E0,9.977894E-1,1.3538786E0,0E0,0E0,0E0,4.4035468E-1,0E0,0E0],"parents":[2147483647,0,0,1,1,4,4,5,5,6,6,10,10],"right_children":[2,4,-1,-1,6,8,10,-1,-1,-1,12,-1,-1],"split_conditions":[-1.9548932E-1,-2.0286658E-1,-1.7396778E-2,3.479314E-2,1.3799746E-1,-1.3150357E-1,4.5170978E-1,1.0654816E-2,2.8245246E-2,-9.342987E-3,6.005091E-2,-0E0,9.342984E-3],"split_indices":[0,0,0,0,10,11,2,0,0,0,5,0,0],"split_type":[0,0,0,0,0,0,0,0,0,0,0,0,0],"sum_hessian":[8.590666E3,3.0751108E3,5.515555E3,3.0408887E3,3.422222E1,1.8222221E1,1.5999999E1,7.5555553E0,1.0666666E1,5.333333E0,1.0666666E1,5.333333E0,5.333333E0],"tree_param":{"num_deleted":"0","num_feature":"14","num_nodes":"13","size_leaf_vector":"1"}},{"base_weights":[-6.8868145E-2,-1.7393563E-2,2.9466647E-1,1.4769312E0,-1.7393518E-2,1.5553631E-1,1.4946127E0,5.2144384E-1,-3.3939698E-1,3.4791667E-2,1.0964388E0,-0E0,2.3512894E-2,-0E0,-1.447657E-2,1.4106589E-2,3.1493023E-2],"categories":[],"categories_nodes":[],"categories_segments":[],"categories_sizes":[],"default_left":[0,0,0,0,0,0,0,0,0,0,0,0,0,0,0,0,0],"id":1,"left_children":[1,-1,3,5,-1,7,9,11,13,-1,15,-1,-1,-1,-1,-1,-1],"loss_changes":[2.1431685E3,0E0,6.9686265E3,6.053125E1,0E0,6.6508446E0,2.8393555E0,4.8484797E0,1.1848156E0,0E0,2.7622108E0,0E0,0E0,0E0,0E0,0E0,0E0],"parents":[2147483647,0,0,2,2,3,3,5,5,6,6,7,7,8,8,10,10],"right_children":[2,-1,4,6,-1,8,10,12,14,-1,16,-1,-1,-1,-1,-1,-1],"split_conditions":[-2.0286658E-1,-1.7393563E-2,1.9691353E-1,-1.9548932E-1,-1.7393518E-2,-5.6592494E-2,1.9028401E-1,-1.617057E-1,-1.7130353E-2,3.4791667E-2,-7.4003905E-1,-0E0,2.3512894E-2,-0E0,-1.447657E-2,1.4106589E-2,3.1493023E-2],"split_indices":[0,0,0,0,0,11,0,8,12,0,10,0,0,0,0,0,0],"split_type":[0,0,0,0,0,0,0,0,0,0,0,0,0,0,0,0,0],"sum_hessian":[8.657333E3,3.014222E3,5.643111E3,2.6471108E3,2.9959998E3,3.5555553E1,2.6115554E3,2.1333332E1,1.4222221E1,2.5768887E3,3.4666664E1,1.1111111E1,1.0222221E1,7.1111107E0,7.1111107E0,1.3333332E1,2.1333332E1],"tree_param":{"num_deleted":"0","num_feature":"14","num_nodes":"17","size_leaf_vector":"1"}},{"base_weights":[3.2533478E-2,-7.477048E-1,3.4793008E-2,-1.7396832E-2,-3.746099E-1,5.149083E-3,-5.1205397E-1,-2.3852676E-1,-1.6043907E-2,-1.4287274E-2,7.6967484E-4],"categories":[],"categories_nodes":[],"categories_segments":[],"categories_sizes":[],"default_left":[0,0,0,0,0,0,0,0,0,0,0],"id":2,"left_children":[1,3,-1,-1,5,-1,7,9,-1,-1,-1],"loss_changes":[9.872368E3,3.5507812E0,0E0,0E0,3.0688524E0,0E0,6.7688894E-1,1.8411342E0,0E0,0E0,0E0],"parents":[2147483647,0,0,1,1,4,4,6,6,7,7],"right_children":[2,4,-1,-1,6,-1,8,10,-1,-1,-1],"split_conditions":[1.9691353E-1,1.9028401E-1,3.4793008E-2,-1.7396832E-2,-1.445115E0,5.149083E-3,1.475702E-1,-4.1300368E-1,-1.6043907E-2,-1.4287274E-2,7.6967484E-4],"split_indices":[0,0,0,0,2,0,2,2,0,0,0],"split_type":[0,0,0,0,0,0,0,0,0,0,0],"sum_hessian":[8.623555E3,5.629333E3,2.994222E3,5.595111E3,3.422222E1,5.333333E0,2.8888887E1,1.3333332E1,1.5555554E1,6.666666E0,6.666666E0],"tree_param":{"num_deleted":"0","num_feature":"14","num_nodes":"11","size_leaf_vector":"1"}},{"base_weights":[3.0393533E-2,1.4390349E0,-1.7245514E-2,3.3613417E-2,4.6572912E-1,6.7290485E-1,-4.217023E-3,-0E0,8.589441E-1,4.932125E-3,2.4299357E-2],"categories":[],"categories_nodes":[],"categories_segments":[],"categories_sizes":[],"default_left":[0,0,0,0,0,0,0,0,0,0,0],"id":3,"left_children":[1,3,-1,-1,5,7,-1,-1,9,-1,-1],"loss_changes":[9.403891E3,2.7463379E1,0E0,0E0,4.624583E0,3.1191158E0,0E0,0E0,1.3499374E0,0E0,0E0],"parents":[2147483647,0,0,1,1,4,4,5,5,8,8],"right_children":[2,4,-1,-1,6,8,-1,-1,10,-1,-1],"split_conditions":[-1.9548932E-1,-2.0286658E-1,-1.7245514E-2,3.3613417E-2,6.704236E-1,-8.976595E-1,-4.217023E-3,-0E0,-5.069584E-1,4.932125E-3,2.4299357E-2],"split_indices":[0,0,0,0,2,6,0,0,5,0,0],"split_type":[0,0,0,0,0,0,0,0,0,0,0],"sum_hessian":[8.627521E3,3.0590044E3,5.568517E3,3.0277368E3,3.1267368E1,2.4585642E1,6.681725E0,5.345774E0,1.9239868E1,5.3629255E0,1.3876944E1],"tree_param":{"num_deleted":"0","num_feature":"14","num_nodes":"11","size_leaf_vector":"1"}},{"base_weights":[-6.494519E-2,-1.7242197E-2,2.9350945E-1,1.4283099E0,-1.7242113E-2,2.3404048E-1,1.4440122E0,-1.8508488E-1,6.7029005E-1,3.3612173E-2,1.0413276E0,1.2147248E-3,-1.4485584E-2,2.9957844E-2,7.863137E-3,1.3573648E-2,3.2350402E-2],"categories":[],"categories_nodes":[],"categories_segments":[],"categories_sizes":[],"default_left":[0,0,0,0,0,0,0,0,0,0,0,0,0,0,0,0,0],"id":4,"left_children":[1,-1,3,5,-1,7,9,11,13,-1,15,-1,-1,-1,-1,-1,-1],"loss_changes":[2.0988093E3,0E0,6.6432095E3,4.9195312E1,0E0,6.956624E0,2.8486328E0,2.2780035E0,2.46459E0,0E0,3.708023E0,0E0,0E0,0E0,0E0,0E0,0E0],"parents":[2147483647,0,0,2,2,3,3,5,5,6,6,7,7,8,8,10,10],"right_children":[2,-1,4,6,-1,8,10,12,14,-1,16,-1,-1,-1,-1,-1,-1],"split_conditions":[-2.0286658E-1,-1.7242197E-2,1.9691353E-1,-1.9548932E-1,-1.7242113E-2,1.475702E-1,1.9028401E-1,3.683274E-1,4.5170978E-1,3.3612173E-2,1.7153245E-1,1.2147248E-3,-1.4485584E-2,2.9957844E-2,7.863137E-3,1.3573648E-2,3.2350402E-2],"split_indices":[0,0,0,0,0,2,0,8,2,0,10,0,0,0,0,0,0],"split_type":[0,0,0,0,0,0,0,0,0,0,0,0,0,0,0,0,0],"sum_hessian":[8.631257E3,2.9851165E3,5.6461406E3,2.6958218E3,2.9503188E3,3.56641E1,2.6601577E3,1.7344576E1,1.8319527E1,2.626841E3,3.331666E1,1.0231232E1,7.1133432E0,5.363349E0,1.2956177E1,1.5717756E1,1.7598907E1],"tree_param":{"num_deleted":"0","num_feature":"14","num_nodes":"17","size_leaf_vector":"1"}},{"base_weights":[2.7459139E-2,-7.4119914E-1,3.3613447E-2,-1.7245565E-2,-3.879114E-1,-6.138308E-2,-1.6055357E-2,1.16527416E-1,-9.05648E-3,9.463776E-3,-9.021961E-4],"categories":[],"categories_nodes":[],"categories_segments":[],"categories_sizes":[],"default_left":[0,0,0,0,0,0,0,0,0,0,0],"id":5,"left_children":[1,3,-1,-1,5,7,-1,9,-1,-1,-1],"loss_changes":[9.454172E3,3.2675781E0,0E0,0E0,2.9873028E0,1.3217485E0,0E0,7.790675E-1,0E0,0E0,0E0],"parents":[2147483647,0,0,1,1,4,4,5,5,7,7],"right_children":[2,4,-1,-1,6,8,-1,10,-1,-1,-1],"split_conditions":[1.9691353E-1,1.9028401E-1,3.3613447E-2,-1.7245565E-2,1.7153245E-1,9.174864E-2,-1.6055357E-2,-1.4835797E-1,-9.05648E-3,9.463776E-3,-9.021961E-4],"split_indices":[0,0,0,0,10,4,0,7,0,0,0],"split_type":[0,0,0,0,0,0,0,0,0,0,0],"sum_hessian":[8.652602E3,5.615373E3,3.037228E3,5.5795435E3,3.5829517E1,1.8617458E1,1.7212059E1,1.0642624E1,7.9748344E0,5.3180857E0,5.324538E0],"tree_param":{"num_deleted":"0","num_feature":"14","num_nodes":"11","size_leaf_vector":"1"}},{"base_weights":[3.4258448E-2,1.3921005E0,-1.7098196E-2,3.2521646E-2,4.5216376E-1,7.855977E-1,-8.1536405E-2,4.232641E-4,2.5399672E-2,-9.9425325E-3,3.1869228E-3],"categories":[],"categories_nodes":[],"categories_segments":[],"categories_sizes":[],"default_left":[0,0,0,0,0,0,0,0,0,0,0],"id":6,"left_children":[1,3,-1,-1,5,7,9,-1,-1,-1,-1],"loss_changes":[8.945838E3,2.6490234E1,0E0,0E0,6.345328E0,4.102291E0,1.1327338E0,0E0,0E0,0E0,0E0],"parents":[2147483647,0,0,1,1,4,4,5,5,6,6],"right_children":[2,4,-1,-1,6,8,10,-1,-1,-1,-1],"split_conditions":[-1.9548932E-1,-2.0286658E-1,-1.7098196E-2,3.2521646E-2,4.1589364E-1,-5.71612E-1,-1.6476141E-2,4.232641E-4,2.5399672E-2,-9.9425325E-3,3.1869228E-3],"split_indices":[0,0,0,0,10,9,5,0,0,0,0],"split_type":[0,0,0,0,0,0,0,0,0,0,0],"sum_hessian":[8.541769E3,3.0944346E3,5.4473335E3,3.062103E3,3.2331608E1,2.0732172E1,1.1599435E1,6.7319813E0,1.4000191E1,5.777814E0,5.8216205E0],"tree_param":{"num_deleted":"0","num_feature":"14","num_nodes":"11","size_leaf_vector":"1"}},{"base_weights":[-6.956452E-2,2.7917686E-1,-1.7094895E-2,-7.275939E-1,1.3971864E0,-1.709487E-2,1.6706282E-1,3.2520384E-2,1.0386664E0,-1.0827411E-1,2.2570407E-2,4.600202E-3,2.6915248E-2,-1.3802169E-2,6.449449E-4],"categories":[],"categories_nodes":[],"categories_segments":[],"categories_sizes":[],"default_left":[0,0,0,0,0,0,0,0,0,0,0,0,0,0,0],"id":7,"left_children":[1,3,-1,5,7,-1,9,-1,11,13,-1,-1,-1,-1,-1],"loss_changes":[2.0059043E3,6.37098E3,0E0,2.5043457E1,2.1547852E0,0E0,7.278159E0,0E0,2.5948296E0,1.8716258E0,0E0,0E0,0E0,0E0,0E0],"parents":[2147483647,0,0,1,1,3,3,4,4,6,6,8,8,9,9],"right_children":[2,4,-1,6,8,-1,10,-1,12,14,-1,-1,-1,-1,-1],"split_conditions":[1.9691353E-1,-1.9548932E-1,-1.7094895E-2,-2.0286658E-1,1.9028401E-1,-1.709487E-2,6.704236E-1,3.2520384E-2,-1.4766508E0,-1.9251375E-2,2.2570407E-2,4.600202E-3,2.6915248E-2,-1.3802169E-2,6.449449E-4],"split_indices":[0,0,0,0,0,0,2,0,2,12,0,0,0,0,0],"split_type":[0,0,0,0,0,0,0,0,0,0,0,0,0,0,0],"sum_hessian":[8.618233E3,5.659341E3,2.9588926E3,2.9774856E3,2.6818555E3,2.9479822E3,2.9503311E1,2.6458997E3,3.5955887E1,2.1403234E1,8.100077E0,5.408406E0,3.054748E1,5.770797E0,1.5632438E1],"tree_param":{"num_deleted":"0","num_feature":"14","num_nodes":"15","size_leaf_vector":"1"}},{"base_weights":[3.3107437E-2,-1.6475642E-2,1.370839E-1,-1.6107985E-1,3.9671697E-3,2.0446742E-1,5.388124E-2,5.63069E-2,-2.0962232E-1,1.3247393E-1,-2.010286E-2,1.870149E-1,5.78645E-1,3.284692E-1,3.9718732E-2,-2.4054703E-1,1.4414315E-1,-6.852298E-2,-2.8715384E-1,-1.3558052E-2,1.4466015E-1,1.9199765E-1,-2.8831594E-2,2.2705103E-1,1.1241668E-2,6.748544E-1,-5.478175E-4,-0E0,6.791772E-1,-1.0701693E-1,6.008305E-2,8.741859E-3,-1.07428385E-2,1.1274608E-2,7.234714E-4,-4.950926E-3,6.925091E-4,-1.0242262E-2,-5.0792377E-3,1.9327624E-3,6.447669E-3,2.9021504E-3,1.9086197E-2,3.195772E-3,-8.7870087E-4,6.2925587E-3,2.71745E-3,-2.0244685E-3,5.611139E-3,2.4334932E-2,1.0948434E-2,1.3492512E-2,-3.2268425E-3,2.0577604E-2,8.542694E-3,1.817877E-3,-5.5295792E-3,1.2860767E-2,1.1785182E-3],"categories":[],"categories_nodes":[],"categories_segments":[],"categories_sizes":[],"default_left":[0,0,0,0,0,0,0,0,0,0,0,0,0,0,0,0,0,0,0,0,0,0,0,0,0,0,0,0,0,0,0,0,0,0,0,0,0,0,0,0,0,0,0,0,0,0,0,0,0,0,0,0,0,0,0,0,0,0,0],"id":8,"left_children":[1,3,5,7,9,11,13,15,17,19,21,23,25,27,29,31,33,35,37,-1,39,41,43,45,47,49,-1,51,53,55,57,-1,-1,-1,-1,-1,-1,-1,-1,-1,-1,-1,-1,-1,-1,-1,-1,-1,-1,-1,-1,-1,-1,-1,-1,-1,-1,-1,-1],"loss_changes":[4.424954E1,1.7250652E1,1.5331493E1,7.743786E0,1.5776749E1,9.349991E0,4.5553217E0,3.2991245E0,6.2138157E0,6.7118845E0,7.7752943E0,1.0089142E1,4.325693E0,6.2870755E0,3.5119586E0,3.8850677E0,3.5270207E0,3.1963577E0,3.465437E0,0E0,6.199726E0,6.2185507E0,6.1025877E0,5.449608E0,6.3615794E0,3.1264725E0,0E0,2.831369E0,7.2842026E-1,3.5378191E0,4.333078E0,0E0,0E0,0E0,0E0,0E0,0E0,0E0,0E0,0E0,0E0,0E0,0E0,0E0,0E0,0E0,0E0,0E0,0E0,0E0,0E0,0E0,0E0,0E0,0E0,0E0,0E0,0E0,0E0],"parents":[2147483647,0,0,1,1,2,2,3,3,4,4,5,5,6,6,7,7,8,8,9,9,10,10,11,11,12,12,13,13,14,14,15,15,16,16,17,17,18,18,20,20,21,21,22,22,23,23,24,24,25,25,27,27,28,28,29,29,30,30],"right_children":[2,4,6,8,10,12,14,16,18,20,22,24,26,28,30,32,34,36,38,-1,40,42,44,46,48,50,-1,52,54,56,58,-1,-1,-1,-1,-1,-1,-1,-1,-1,-1,-1,-1,-1,-1,-1,-1,-1,-1,-1,-1,-1,-1,-1,-1,-1,-1,-1,-1],"split_conditions":[3.0001745E-1,-1.2680674E0,1.8410482E-1,-3.2690677E-1,-1.0086391E0,1.5718716E0,-1.6201895E0,-1.7496247E-2,-6.952616E-2,-2.8675877E-2,-1.3129123E0,1.0159248E0,8.13891E-3,1.67161E-1,-2.3736993E-2,-1.1644858E0,-7.329091E-1,-5.323671E-1,2.1801705E-2,-1.3558052E-2,3.6909717E-1,-1.3515793E0,-9.848501E-1,-3.6658682E-2,1.3886619E0,7.074324E-1,-5.478175E-4,-1.9544104E-2,2.9691127E-1,-1.6105805E-1,-2.3270035E-2,8.741859E-3,-1.07428385E-2,1.1274608E-2,7.234714E-4,-4.950926E-3,6.925091E-4,-1.0242262E-2,-5.0792377E-3,1.9327624E-3,6.447669E-3,2.9021504E-3,1.9086197E-2,3.195772E-3,-8.7870087E-4,6.2925587E-3,2.71745E-3,-2.0244685E-3,5.611139E-3,2.4334932E-2,1.0948434E-2,1.3492512E-2,-3.2268425E-3,2.0577604E-2,8.542694E-3,1.817877E-3,-5.5295792E-3,1.2860767E-2,1.1785182E-3],"split_indices":[6,6,10,1,2,8,8,12,4,12,1,8,12,4,12,3,1,11,4,0,1,1,4,2,8,1,0,12,3,5,12,0,0,0,0,0,0,0,0,0,0,0,0,0,0,0,0,0,0,0,0,0,0,0,0,0,0,0,0],"split_type":[0,0,0,0,0,0,0,0,0,0,0,0,0,0,0,0,0,0,0,0,0,0,0,0,0,0,0,0,0,0,0,0,0,0,0,0,0,0,0,0,0,0,0,0,0,0,0,0,0,0,0,0,0,0,0,0,0,0,0],"sum_hessian":[8.56467E3,5.7942944E3,2.7703752E3,7.22194E2,5.0721006E3,1.525414E3,1.2449614E3,1.2891888E2,5.932751E2,8.050786E2,4.267022E3,1.4596924E3,6.572163E1,5.8171585E1,1.1867898E3,2.73497E1,1.0156918E2,2.1405391E2,3.792212E2,1.2242049E1,7.9283655E2,1.6500095E2,4.102021E3,1.18527E3,2.7442227E2,5.7753853E1,7.9677725E0,3.1088135E1,2.708345E1,1.3990845E2,1.0468813E3,6.289517E0,2.1060184E1,2.3367489E1,7.82017E1,8.964789E1,1.2440602E2,1.1246553E2,2.6675568E2,5.4705725E2,2.4577928E2,1.5049652E2,1.45044155E1,2.0665839E2,3.8953625E3,8.40302E2,3.4496808E2,1.9002965E2,8.4392624E1,1.8685476E1,3.906838E1,6.7708626E0,2.4317272E1,1.4526883E1,1.2556567E1,5.560913E1,8.4299324E1,1.755931E1,1.029322E3],"tree_param":{"num_deleted":"0","num_feature":"14","num_nodes":"59","size_leaf_vector":"1"}},{"base_weights":[3.0618893E-2,-1.1794258E-2,1.3343175E-1,-5.004602E-2,5.5040635E-2,5.1545613E-2,2.506534E-1,-1.393516E-1,-1.48585485E-2,-1.1248065E-2,1.100162E-1,1.1017507E-2,1.7202899E-1,2.2497861E-1,4.4017926E-1,-2.3781459E-1,-1.9743316E-2,1.05619185E-1,-3.473507E-2,-3.4970436E-2,2.3707405E-1,1.8486517E-2,1.7128266E-1,-1.8608285E-2,1.5162683E-1,3.3291098E-1,4.449089E-2,-1.2167127E-2,2.4524087E-1,4.9486774E-1,-2.826626E-3,-5.9678656E-4,-6.0988124E-3,-3.6388163E-3,9.0300397E-4,3.5095832E-3,-3.1898995E-3,-5.292737E-3,-4.5092497E-4,-0E0,-3.990279E-3,1.1085729E-2,-0E0,1.8606975E-3,-1.7735559E-3,5.6258654E-3,1.2392035E-3,-1.2404398E-3,3.9997986E-3,1.1535914E-3,8.974138E-3,-0E0,9.157579E-3,-1.1639016E-2,1.9225767E-3,-1.0357929E-2,2.6133857E-3,1.7627691E-3,6.4386013E-3,6.987459E-3,1.5320441E-2],"categories":[],"categories_nodes":[],"categories_segments":[],"categories_sizes":[],"default_left":[0,0,0,0,0,0,0,0,0,0,0,0,0,0,0,0,0,0,0,0,0,0,0,0,0,0,0,0,0,0,0,0,0,0,0,0,0,0,0,0,0,0,0,0,0,0,0,0,0,0,0,0,0,0,0,0,0,0,0,0,0],"id":9,"left_children":[1,3,5,7,9,11,13,15,17,19,21,23,25,27,29,31,33,35,37,39,41,43,45,47,49,51,53,55,57,59,-1,-1,-1,-1,-1,-1,-1,-1,-1,-1,-1,-1,-1,-1,-1,-1,-1,-1,-1,-1,-1,-1,-1,-1,-1,-1,-1,-1,-1,-1,-1],"loss_changes":[3.753928E1,1.552546E1,2.3887733E1,1.2043528E1,8.107492E0,7.103265E0,4.477005E0,1.2610886E1,6.6103663E0,5.6944313E0,6.644025E0,4.749121E0,7.269972E0,4.5571136E0,3.959074E0,2.9273758E0,4.072657E0,4.3281994E0,6.892799E0,4.4889913E0,4.910596E0,2.8798378E0,5.8148327E0,6.01411E0,4.419746E0,3.5499897E0,4.055781E0,4.0014544E0,4.3232384E0,2.7366104E0,0E0,0E0,0E0,0E0,0E0,0E0,0E0,0E0,0E0,0E0,0E0,0E0,0E0,0E0,0E0,0E0,0E0,0E0,0E0,0E0,0E0,0E0,0E0,0E0,0E0,0E0,0E0,0E0,0E0,0E0,0E0],"parents":[2147483647,0,0,1,1,2,2,3,3,4,4,5,5,6,6,7,7,8,8,9,9,10,10,11,11,12,12,13,13,14,14,15,15,16,16,17,17,18,18,19,19,20,20,21,21,22,22,23,23,24,24,25,25,26,26,27,27,28,28,29,29],"right_children":[2,4,6,8,10,12,14,16,18,20,22,24,26,28,30,32,34,36,38,40,42,44,46,48,50,52,54,56,58,60,-1,-1,-1,-1,-1,-1,-1,-1,-1,-1,-1,-1,-1,-1,-1,-1,-1,-1,-1,-1,-1,-1,-1,-1,-1,-1,-1,-1,-1,-1,-1],"split_conditions":[2.187569E-1,4.6893224E-1,4.0651834E-1,-7.6092124E-1,-2.3650001E-1,5.88564E-1,1.024692E-2,2.2288236E-1,-7.039089E-1,8.759417E-1,-4.514059E-1,5.846812E-1,-4.0206224E-1,-9.538606E-1,1.5165664E0,-8.1024283E-1,-1.0588697E0,2.7823406E-1,-1.2888739E0,6.995257E-1,-3.7436077E-1,-6.75823E-1,-9.725102E-3,5.4529583E-1,-1.7571118E-1,-1.6705811E0,-3.512879E-1,-3.6905136E-2,-8.856659E-1,1.5645944E-1,-2.826626E-3,-5.9678656E-4,-6.0988124E-3,-3.6388163E-3,9.0300397E-4,3.5095832E-3,-3.1898995E-3,-5.292737E-3,-4.5092497E-4,-0E0,-3.990279E-3,1.1085729E-2,-0E0,1.8606975E-3,-1.7735559E-3,5.6258654E-3,1.2392035E-3,-1.2404398E-3,3.9997986E-3,1.1535914E-3,8.974138E-3,-0E0,9.157579E-3,-1.1639016E-2,1.9225767E-3,-1.0357929E-2,2.6133857E-3,1.7627691E-3,6.4386013E-3,6.987459E-3,1.5320441E-2],"split_indices":[11,2,9,3,9,3,12,9,1,7,7,2,4,3,3,1,3,2,8,8,11,7,12,4,9,1,4,1,8,4,0,0,0,0,0,0,0,0,0,0,0,0,0,0,0,0,0,0,0,0,0,0,0,0,0,0,0,0,0,0,0],"split_type":[0,0,0,0,0,0,0,0,0,0,0,0,0,0,0,0,0,0,0,0,0,0,0,0,0,0,0,0,0,0,0,0,0,0,0,0,0,0,0,0,0,0,0,0,0,0,0,0,0,0,0,0,0,0,0,0,0,0,0,0,0],"sum_hessian":[8.586896E3,6.0739067E3,2.5129902E3,3.8703723E3,2.2035344E3,1.4835312E3,1.0294589E3,1.0875762E3,2.7827964E3,9.926831E2,1.2108512E3,1.115071E3,3.6846027E2,9.106092E2,1.18849625E2,5.9286755E2,4.9470862E2,3.884672E2,2.394329E3,9.091153E2,8.356778E1,4.9067114E2,7.2018005E2,9.1662274E2,1.9844827E2,1.6011252E2,2.0834776E2,6.868612E1,8.419231E2,1.09584E2,9.265629E0,6.593741E1,5.269301E2,1.5209656E2,3.4261206E2,3.2979166E2,5.867553E1,1.7162793E2,2.2227012E3,7.199624E2,1.8915292E2,4.1931393E1,4.1636387E1,3.0230908E2,1.8836208E2,4.447544E2,2.7542566E2,7.7870294E2,1.3791977E2,1.4091296E2,5.753531E1,2.3482262E1,1.3663025E2,1.219987E1,1.961479E2,1.6600203E1,5.2085915E1,1.3876636E2,7.0315674E2,5.2894615E1,5.668938E1],"tree_param":{"num_deleted":"0","num_feature":"14","num_nodes":"61","size_leaf_vector":"1"}},{"base_weights":[-6.7039795E-2,2.7775952E-1,-1.7041462E-2,-7.174463E-1,1.3620516E0,-1.690727E-2,2.5032634E-1,3.1678095E-2,1.0682406E0,-3.5743234E-1,7.9828304E-1,6.1319075E-3,2.7365578E-2,-0E0,-1.4670584E-2,4.7913846E-3,2.2810698E-2],"categories":[],"categories_nodes":[],"categories_segments":[],"categories_sizes":[],"default_left":[0,0,0,0,0,0,0,0,0,0,0,0,0,0,0,0,0],"id":10,"left_children":[1,3,-1,5,7,-1,9,-1,11,13,15,-1,-1,-1,-1,-1,-1],"loss_changes":[1.9675619E3,6.0818594E3,0E0,3.250305E1,4.716797E-1,0E0,1.1465157E1,0E0,1.8433228E0,1.4641024E0,1.033061E0,0E0,0E0,0E0,0E0,0E0,0E0],"parents":[2147483647,0,0,1,1,3,3,4,4,6,6,8,8,9,9,10,10],"right_children":[2,4,-1,6,8,-1,10,-1,12,14,16,-1,-1,-1,-1,-1,-1],"split_conditions":[1.9691353E-1,-1.9548932E-1,-1.7041462E-2,-2.0286658E-1,1.9028401E-1,-1.690727E-2,1.6440398E-1,3.1678095E-2,-1.6634201E0,-1.3150357E-1,4.984988E-1,6.1319075E-3,2.7365578E-2,-0E0,-1.4670584E-2,4.7913846E-3,2.2810698E-2],"split_indices":[0,0,0,0,0,0,10,0,10,11,10,0,0,0,0,0,0],"split_type":[0,0,0,0,0,0,0,0,0,0,0,0,0,0,0,0,0],"sum_hessian":[8.547276E3,5.63524E3,2.9120364E3,2.9379915E3,2.6972488E3,2.9049553E3,3.3036015E1,2.6636836E3,3.3565193E1,1.5027853E1,1.8008162E1,5.0059958E0,2.8559196E1,6.6996183E0,8.328235E0,5.381639E0,1.2626523E1],"tree_param":{"num_deleted":"0","num_feature":"14","num_nodes":"17","size_leaf_vector":"1"}},{"base_weights":[2.9278321E-2,-7.325382E-1,3.2138295E-2,-1.7049307E-2,-3.2779568E-1,8.585057E-2,-1.597736E-2,-1.4976818E-3,9.449484E-3],"categories":[],"categories_nodes":[],"categories_segments":[],"categories_sizes":[],"default_left":[0,0,0,0,0,0,0,0,0],"id":11,"left_children":[1,3,-1,-1,5,7,-1,-1,-1],"loss_changes":[8.880132E3,4.295166E0,0E0,0E0,5.492407E0,9.8705083E-1,0E0,0E0,0E0],"parents":[2147483647,0,0,1,1,4,4,5,5],"right_children":[2,4,-1,-1,6,8,-1,-1,-1],"split_conditions":[1.9691353E-1,1.9028401E-1,3.2138295E-2,-1.7049307E-2,1.7153245E-1,-6.357311E-1,-1.597736E-2,-1.4976818E-3,9.449484E-3],"split_indices":[0,0,0,0,10,2,0,0,0],"split_type":[0,0,0,0,0,0,0,0,0],"sum_hessian":[8.595746E3,5.50331E3,3.0924358E3,5.4699106E3,3.3399673E1,1.463509E1,1.8764584E1,8.441578E0,6.1935115E0],"tree_param":{"num_deleted":"0","num_feature":"14","num_nodes":"9","size_leaf_vector":"1"}},{"base_weights":[4.15186E-2,1.342303E0,-1.6936112E-2,3.13232E-2,4.840783E-1,2.0659717E-2,9.997101E-3,1.1008243E-2,-4.911419E-3],"categories":[],"categories_nodes":[],"categories_segments":[],"categories_sizes":[],"default_left":[0,0,0,0,0,0,0,0,0],"id":12,"left_children":[1,3,-1,-1,5,-1,7,-1,-1],"loss_changes":[8.629417E3,1.9841797E1,0E0,0E0,5.0785985E0,0E0,1.7586766E0,0E0,0E0],"parents":[2147483647,0,0,1,1,4,4,6,6],"right_children":[2,4,-1,-1,6,-1,8,-1,-1],"split_conditions":[-1.9548932E-1,-2.0286658E-1,-1.6936112E-2,3.13232E-2,1.8410482E-1,2.0659717E-2,-2.0264839E-1,1.1008243E-2,-4.911419E-3],"split_indices":[0,0,0,0,10,0,4,0,0],"split_type":[0,0,0,0,0,0,0,0,0],"sum_hessian":[8.598025E3,3.2013047E3,5.39672E3,3.1715251E3,2.9779715E1,1.5063482E1,1.4716231E1,5.806793E0,8.909438E0],"tree_param":{"num_deleted":"0","num_feature":"14","num_nodes":"9","size_leaf_vector":"1"}},{"base_weights":[-6.885603E-2,2.693873E-1,-1.6856667E-2,-7.1689624E-1,3.0828992E-2,-1.6855761E-2,1.1716652E-1,-2.0960526E-1,5.007106E-1,-0E0,-1.3194464E-2,-0E0,1.7216463E-2],"categories":[],"categories_nodes":[],"categories_segments":[],"categories_sizes":[],"default_left":[0,0,0,0,0,0,0,0,0,0,0,0,0],"id":13,"left_children":[1,3,-1,5,-1,-1,7,9,11,-1,-1,-1,-1],"loss_changes":[1.895167E3,5.8770107E3,0E0,2.3849487E1,0E0,0E0,4.3133783E0,1.0307164E0,1.5789008E0,0E0,0E0,0E0,0E0],"parents":[2147483647,0,0,1,1,3,3,6,6,7,7,8,8],"right_children":[2,4,-1,6,-1,-1,8,10,12,-1,-1,-1,-1],"split_conditions":[1.9691353E-1,-1.9548932E-1,-1.6856667E-2,-2.0286658E-1,3.0828992E-2,-1.6855761E-2,1.9193803E-1,2.4342978E-1,-2.0264839E-1,-0E0,-1.3194464E-2,-0E0,1.7216463E-2],"split_indices":[0,0,0,0,0,0,10,1,4,0,0,0,0],"split_type":[0,0,0,0,0,0,0,0,0,0,0,0,0],"sum_hessian":[8.51711E3,5.623814E3,2.8932961E3,2.9120637E3,2.7117502E3,2.879807E3,3.225698E1,1.6379044E1,1.5877939E1,1.1138959E1,5.240085E0,5.889696E0,9.988243E0],"tree_param":{"num_deleted":"0","num_feature":"14","num_nodes":"13","size_leaf_vector":"1"}},{"base_weights":[3.5235602E-2,-7.279967E-1,3.1325947E-2,-1.6935833E-2,-4.1407698E-1,-7.658578E-2,-1.5847156E-2,-3.2135642E-1,5.8280593E-3,-1.3926703E-2,-0E0],"categories":[],"categories_nodes":[],"categories_segments":[],"categories_sizes":[],"default_left":[0,0,0,0,0,0,0,0,0,0,0],"id":14,"left_children":[1,3,-1,-1,5,7,-1,9,-1,-1,-1],"loss_changes":[8.641272E3,2.4230957E0,0E0,0E0,2.7483835E0,1.5017431E0,0E0,1.0936114E0,0E0,0E0,0E0],"parents":[2147483647,0,0,1,1,4,4,5,5,7,7],"right_children":[2,4,-1,-1,6,8,-1,10,-1,-1,-1],"split_conditions":[1.9691353E-1,1.9028401E-1,3.1325947E-2,-1.6935833E-2,1.475702E-1,4.5089257E-1,-1.5847156E-2,-9.461108E-1,5.8280593E-3,-1.3926703E-2,-0E0],"split_indices":[0,0,0,0,2,11,0,2,0,0,0],"split_type":[0,0,0,0,0,0,0,0,0,0,0],"sum_hessian":[8.609166E3,5.4470825E3,3.162083E3,5.410427E3,3.665576E1,1.7643515E1,1.9012249E1,1.1451825E1,6.191689E0,6.1755166E0,5.2763085E0],"tree_param":{"num_deleted":"0","num_feature":"14","num_nodes":"11","size_leaf_vector":"1"}},{"base_weights":[3.1504486E-2,1.301789E0,-1.6796047E-2,3.0394197E-2,4.9178904E-1,9.1677046E-1,2.6444519E-2,5.961032E-3,2.620658E-2,-7.686513E-3,7.7999886E-3],"categories":[],"categories_nodes":[],"categories_segments":[],"categories_sizes":[],"default_left":[0,0,0,0,0,0,0,0,0,0,0],"id":15,"left_children":[1,3,-1,-1,5,7,9,-1,-1,-1,-1],"loss_changes":[8.270301E3,1.997705E1,0E0,0E0,5.9303665E0,1.2216511E0,1.9269575E0,0E0,0E0,0E0,0E0],"parents":[2147483647,0,0,1,1,4,4,5,5,6,6],"right_children":[2,4,-1,-1,6,8,10,-1,-1,-1,-1],"split_conditions":[-1.9548932E-1,-2.0286658E-1,-1.6796047E-2,3.0394197E-2,1.9193803E-1,-1.4259648E-1,4.5170978E-1,5.961032E-3,2.620658E-2,-7.686513E-3,7.7999886E-3],"split_indices":[0,0,0,0,10,13,2,0,0,0,0],"split_type":[0,0,0,0,0,0,0,0,0,0,0],"sum_hessian":[8.617358E3,3.2139553E3,5.4034033E3,3.1804592E3,3.3496082E1,1.6539188E1,1.6956892E1,5.024883E0,1.1514305E1,6.705439E0,1.0251453E1],"tree_param":{"num_deleted":"0","num_feature":"14","num_nodes":"11","size_leaf_vector":"1"}},{"base_weights":[-6.7753054E-2,-1.6719826E-2,2.651032E-1,1.2773174E0,-1.6720416E-2,2.00238E-1,2.9914057E-2,-1.3637113E-2,7.201646E-1,5.788162E-3,-1.1918126E-2,6.082129E-3,2.3185527E-2],"categories":[],"categories_nodes":[],"categories_segments":[],"categories_sizes":[],"default_left":[0,0,0,0,0,0,0,0,0,0,0,0,0],"id":16,"left_children":[1,-1,3,5,-1,7,-1,9,11,-1,-1,-1,-1],"loss_changes":[1.8481588E3,0E0,5.6191777E3,3.481201E1,0E0,4.06643E0,0E0,3.066767E0,2.8813028E-1,0E0,0E0,0E0,0E0],"parents":[2147483647,0,0,2,2,3,3,5,5,7,7,8,8],"right_children":[2,-1,4,6,-1,8,-1,10,12,-1,-1,-1,-1],"split_conditions":[-2.0286658E-1,-1.6719826E-2,1.9691353E-1,-1.9548932E-1,-1.6720416E-2,4.984988E-1,2.9914057E-2,-1.3150357E-1,-2.24773E-2,5.788162E-3,-1.1918126E-2,6.082129E-3,2.3185527E-2],"split_indices":[0,0,0,0,0,10,0,11,9,0,0,0,0],"split_type":[0,0,0,0,0,0,0,0,0,0,0,0,0],"sum_hessian":[8.502228E3,2.8716113E3,5.6306167E3,2.7784236E3,2.8521929E3,3.1445955E1,2.7469775E3,2.136538E1,1.0080577E1,1.3052647E1,8.312733E0,5.011004E0,5.069573E0],"tree_param":{"num_deleted":"0","num_feature":"14","num_nodes":"13","size_leaf_vector":"1"}},{"base_weights":[3.780819E-2,-7.215913E-1,3.0398183E-2,-1.6796527E-2,-3.2528386E-1,-0E0,-1.5559475E-2,9.787983E-3,-1.7044167E-1,-1.0627449E-2,1.1592442E-3],"categories":[],"categories_nodes":[],"categories_segments":[],"categories_sizes":[],"default_left":[0,0,0,0,0,0,0,0,0,0,0],"id":17,"left_children":[1,3,-1,-1,5,7,-1,-1,9,-1,-1],"loss_changes":[8.242738E3,4.159668E0,0E0,0E0,3.9931705E0,1.3255484E0,0E0,0E0,1.0856786E0,0E0,0E0],"parents":[2147483647,0,0,1,1,4,4,5,5,8,8],"right_children":[2,4,-1,-1,6,8,-1,-1,10,-1,-1],"split_conditions":[1.9691353E-1,1.9028401E-1,3.0398183E-2,-1.6796527E-2,1.7153245E-1,-5.602296E-1,-1.5559475E-2,9.787983E-3,-1.9027637E-1,-1.0627449E-2,1.1592442E-3],"split_indices":[0,0,0,0,10,7,0,0,3,0,0],"split_type":[0,0,0,0,0,0,0,0,0,0,0],"sum_hessian":[8.529634E3,5.341311E3,3.1883228E3,5.30746E3,3.3851116E1,1.7160917E1,1.6690199E1,5.2767353E0,1.1884182E1,6.5830584E0,5.301124E0],"tree_param":{"num_deleted":"0","num_feature":"14","num_nodes":"11","size_leaf_vector":"1"}},{"base_weights":[3.550786E-2,1.2644769E0,-1.6660655E-2,2.9528266E-2,5.050556E-1,-5.372381E-3,7.1593755E-1,9.004965E-1,-0E0,9.748298E-3,2.3660783E-2],"categories":[],"categories_nodes":[],"categories_segments":[],"categories_sizes":[],"default_left":[0,0,0,0,0,0,0,0,0,0,0],"id":18,"left_children":[1,3,-1,-1,5,-1,7,9,-1,-1,-1],"loss_changes":[7.9211895E3,1.885791E1,0E0,0E0,6.039152E0,0E0,3.5912714E0,1.091671E-1,0E0,0E0,0E0],"parents":[2147483647,0,0,1,1,4,4,6,6,7,7],"right_children":[2,4,-1,-1,6,-1,8,10,-1,-1,-1],"split_conditions":[-1.9548932E-1,-2.0286658E-1,-1.6660655E-2,2.9528266E-2,-5.273142E-1,-5.372381E-3,7.303176E-1,-5.069584E-1,-0E0,9.748298E-3,2.3660783E-2],"split_indices":[0,0,0,0,11,0,10,5,0,0,0],"split_type":[0,0,0,0,0,0,0,0,0,0,0],"sum_hessian":[8.551811E3,3.2510254E3,5.300785E3,3.214967E3,3.6058487E1,7.2060695E0,2.8852419E1,2.2593306E1,6.2591124E0,5.9625025E0,1.6630802E1],"tree_param":{"num_deleted":"0","num_feature":"14","num_nodes":"11","size_leaf_vector":"1"}},{"base_weights":[-6.077933E-2,2.6776254E-1,-1.658805E-2,-7.0556104E-1,1.2522597E0,-1.658725E-2,1.0652176E-1,2.9146278E-2,9.67275E-1,-2.3692876E-1,4.8381352E-1,7.539565E-4,2.4939775E-2,-1.0684159E-2,1.1870691E-3,-0E0,1.8257273E-2],"categories":[],"categories_nodes":[],"categories_segments":[],"categories_sizes":[],"default_left":[0,0,0,0,0,0,0,0,0,0,0,0,0,0,0,0,0],"id":19,"left_children":[1,3,-1,5,7,-1,9,-1,11,13,15,-1,-1,-1,-1,-1,-1],"loss_changes":[1.821427E3,5.4045835E3,0E0,2.2084229E1,1.2363281E0,0E0,4.309618E0,0E0,3.3988457E0,1.3262271E0,2.2963238E0,0E0,0E0,0E0,0E0,0E0,0E0],"parents":[2147483647,0,0,1,1,3,3,4,4,6,6,8,8,9,9,10,10],"right_children":[2,4,-1,6,8,-1,10,-1,12,14,16,-1,-1,-1,-1,-1,-1],"split_conditions":[1.9691353E-1,-1.9548932E-1,-1.658805E-2,-2.0286658E-1,1.9028401E-1,-1.658725E-2,1.475702E-1,2.9146278E-2,-1.3480012E0,-3.5071033E-1,-1.8866749E-1,7.539565E-4,2.4939775E-2,-1.0684159E-2,1.1870691E-3,-0E0,1.8257273E-2],"split_indices":[0,0,0,0,0,0,2,0,2,3,4,0,0,0,0,0,0],"split_type":[0,0,0,0,0,0,0,0,0,0,0,0,0,0,0,0,0],"sum_hessian":[8.472497E3,5.639325E3,2.8331716E3,2.8353887E3,2.8039363E3,2.8039766E3,3.141226E1,2.761801E3,4.2135254E1,1.5410827E1,1.6001434E1,5.1196675E0,3.7015587E1,1.011927E1,5.291556E0,6.3682237E0,9.63321E0],"tree_param":{"num_deleted":"0","num_feature":"14","num_nodes":"17","size_leaf_vector":"1"}},{"base_weights":[3.0818123E-2,-7.1650904E-1,2.9531015E-2,-1.6661368E-2,-4.1098127E-1,-6.298969E-2,-1.5422486E-2,-7.009184E-3,3.9775977E-3],"categories":[],"categories_nodes":[],"categories_segments":[],"categories_sizes":[],"default_left":[0,0,0,0,0,0,0,0,0],"id":20,"left_children":[1,3,-1,-1,5,7,-1,-1,-1],"loss_changes":[7.920909E3,1.7165527E0,0E0,0E0,2.1837392E0,9.3269914E-1,0E0,0E0,0E0],"parents":[2147483647,0,0,1,1,4,4,5,5],"right_children":[2,4,-1,-1,6,8,-1,-1,-1],"split_conditions":[1.9691353E-1,1.9028401E-1,2.9531015E-2,-1.6661368E-2,1.7153245E-1,-6.357311E-1,-1.5422486E-2,-7.009184E-3,3.9775977E-3],"split_indices":[0,0,0,0,10,2,0,0,0],"split_type":[0,0,0,0,0,0,0,0,0],"sum_hessian":[8.532789E3,5.326992E3,3.2057974E3,5.296003E3,3.0989128E1,1.4456007E1,1.6533121E1,8.758811E0,5.697196E0],"tree_param":{"num_deleted":"0","num_feature":"14","num_nodes":"9","size_leaf_vector":"1"}},{"base_weights":[3.289052E-2,1.2293594E0,-1.6528828E-2,2.8719971E-2,4.4267976E-1,2.6298882E-3,9.258936E-1,8.326781E-3,-2.259146E-1,2.8103925E-2,4.488053E-3,-0E0,-1.0035645E-2],"categories":[],"categories_nodes":[],"categories_segments":[],"categories_sizes":[],"default_left":[0,0,0,0,0,0,0,0,0,0,0,0,0],"id":21,"left_children":[1,3,-1,-1,5,7,9,-1,11,-1,-1,-1,-1],"loss_changes":[7.6023857E3,2.0537598E1,0E0,0E0,7.0138383E0,1.7525928E0,2.3167152E0,0E0,5.591228E-1,0E0,0E0,0E0,0E0],"parents":[2147483647,0,0,1,1,4,4,5,5,6,6,8,8],"right_children":[2,4,-1,-1,6,8,10,-1,12,-1,-1,-1,-1],"split_conditions":[-1.9548932E-1,-2.0286658E-1,-1.6528828E-2,2.8719971E-2,-1.3150357E-1,-1.9313812E-1,1.8410482E-1,8.326781E-3,6.527898E-1,2.8103925E-2,4.488053E-3,-0E0,-1.0035645E-2],"split_indices":[0,0,0,0,11,6,10,0,2,0,0,0,0],"split_type":[0,0,0,0,0,0,0,0,0,0,0,0,0],"sum_hessian":[8.524457E3,3.2722864E3,5.2521704E3,3.236126E3,3.6160557E1,1.9866556E1,1.6294E1,9.040022E0,1.0826533E1,1.0872654E1,5.421345E0,5.0295177E0,5.7970157E0],"tree_param":{"num_deleted":"0","num_feature":"14","num_nodes":"13","size_leaf_vector":"1"}},{"base_weights":[-6.516682E-2,2.5949323E-1,-1.6459052E-2,-1.6458333E-2,1.207745E0,2.5557286E-1,1.2181374E0,-1.35674365E-2,4.8814613E-1,2.8360836E-2,8.741408E-1,-0E0,1.6817736E-2,1.3621722E-2,2.7406888E-2],"categories":[],"categories_nodes":[],"categories_segments":[],"categories_sizes":[],"default_left":[0,0,0,0,0,0,0,0,0,0,0,0,0,0,0],"id":22,"left_children":[1,3,-1,-1,5,7,9,-1,11,-1,13,-1,-1,-1,-1],"loss_changes":[1.7696718E3,5.1674424E3,0E0,0E0,2.6929688E1,6.1864204E0,2.2944336E0,0E0,3.1118588E0,0E0,1.7896576E0,0E0,0E0,0E0,0E0],"parents":[2147483647,0,0,1,1,4,4,5,5,6,6,8,8,10,10],"right_children":[2,4,-1,-1,6,8,10,-1,12,-1,14,-1,-1,-1,-1],"split_conditions":[1.9691353E-1,-2.0286658E-1,-1.6459052E-2,-1.6458333E-2,-1.9548932E-1,-8.150663E-1,1.9028401E-1,-1.35674365E-2,-5.1057446E-1,2.8360836E-2,1.7188013E-1,-0E0,1.6817736E-2,1.3621722E-2,2.7406888E-2],"split_indices":[0,0,0,0,0,2,0,0,1,0,2,0,0,0,0],"split_type":[0,0,0,0,0,0,0,0,0,0,0,0,0,0,0],"sum_hessian":[8.458745E3,5.6236865E3,2.8350586E3,2.7812134E3,2.8424734E3,3.1546047E1,2.8109272E3,6.053096E0,2.5492952E1,2.7737708E3,3.715646E1,8.118268E0,1.7374683E1,2.0806347E1,1.6350113E1],"tree_param":{"num_deleted":"0","num_feature":"14","num_nodes":"15","size_leaf_vector":"1"}},{"base_weights":[3.3544917E-2,-7.10691E-1,2.8721737E-2,-1.653043E-2,-3.978529E-1,-1.04620874E-1,-1.526398E-2,3.954158E-3,-1.4052051E-2],"categories":[],"categories_nodes":[],"categories_segments":[],"categories_sizes":[],"default_left":[0,0,0,0,0,0,0,0,0],"id":23,"left_children":[1,3,-1,-1,5,7,-1,-1,-1],"loss_changes":[7.677429E3,2.0683594E0,0E0,0E0,1.9292555E0,2.7321558E0,0E0,0E0,0E0],"parents":[2147483647,0,0,1,1,4,4,5,5],"right_children":[2,4,-1,-1,6,8,-1,-1,-1],"split_conditions":[1.9691353E-1,1.9028401E-1,2.8721737E-2,-1.653043E-2,1.7153245E-1,9.174864E-2,-1.526398E-2,3.954158E-3,-1.4052051E-2],"split_indices":[0,0,0,0,10,4,0,0,0],"split_type":[0,0,0,0,0,0,0,0,0],"sum_hessian":[8.5641875E3,5.292975E3,3.2712124E3,5.2599727E3,3.3002575E1,1.703846E1,1.5964113E1,1.0089601E1,6.9488597E0],"tree_param":{"num_deleted":"0","num_feature":"14","num_nodes":"9","size_leaf_vector":"1"}},{"base_weights":[3.2383848E-2,1.1971236E0,-1.6400708E-2,2.7962683E-2,5.0688094E-1,7.1931E-1,-4.2690854E-3,-0E0,8.679698E-1,7.4741025E-3,2.3434004E-2],"categories":[],"categories_nodes":[],"categories_segments":[],"categories_sizes":[],"default_left":[0,0,0,0,0,0,0,0,0,0,0],"id":24,"left_children":[1,3,-1,-1,5,7,-1,-1,9,-1,-1],"loss_changes":[7.3128315E3,1.7037598E1,0E0,0E0,6.279232E0,2.9460278E0,0E0,0E0,8.783016E-1,0E0,0E0],"parents":[2147483647,0,0,1,1,4,4,5,5,8,8],"right_children":[2,4,-1,-1,6,8,-1,-1,10,-1,-1],"split_conditions":[-1.9548932E-1,-2.0286658E-1,-1.6400708E-2,2.7962683E-2,6.704236E-1,-9.1009194E-1,-4.2690854E-3,-0E0,-5.069584E-1,7.4741025E-3,2.3434004E-2],"split_indices":[0,0,0,0,2,6,0,0,5,0,0],"split_type":[0,0,0,0,0,0,0,0,0,0,0],"sum_hessian":[8.491853E3,3.2975293E3,5.194323E3,3.2579395E3,3.9589867E1,3.1128325E1,8.461541E0,5.901536E0,2.522679E1,6.4670444E0,1.8759745E1],"tree_param":{"num_deleted":"0","num_feature":"14","num_nodes":"11","size_leaf_vector":"1"}},{"base_weights":[-6.7433394E-2,2.4795294E-1,-1.6333401E-2,-6.939438E-1,2.7581554E-2,-1.63331E-2,1.3791105E-1,4.4132802E-1,-3.275796E-1,2.9896724E-3,2.1359034E-2,-1.3321973E-2,-0E0],"categories":[],"categories_nodes":[],"categories_segments":[],"categories_sizes":[],"default_left":[0,0,0,0,0,0,0,0,0,0,0,0,0],"id":25,"left_children":[1,3,-1,5,-1,-1,7,9,11,-1,-1,-1,-1],"loss_changes":[1.6802559E3,4.958417E3,0E0,2.3810303E1,0E0,0E0,4.720256E0,2.2842937E0,6.353197E-1,0E0,0E0,0E0,0E0],"parents":[2147483647,0,0,1,1,3,3,6,6,7,7,8,8],"right_children":[2,4,-1,6,-1,-1,8,10,12,-1,-1,-1,-1],"split_conditions":[1.9691353E-1,-1.9548932E-1,-1.6333401E-2,-2.0286658E-1,2.7581554E-2,-1.63331E-2,-5.6592494E-2,6.527898E-1,5.790401E-1,2.9896724E-3,2.1359034E-2,-1.3321973E-2,-0E0],"split_indices":[0,0,0,0,0,0,11,2,11,0,0,0,0],"split_type":[0,0,0,0,0,0,0,0,0,0,0,0,0],"sum_hessian":[8.367172E3,5.5943584E3,2.7728132E3,2.7952588E3,2.7990996E3,2.762862E3,3.2396576E1,2.0623219E1,1.1773357E1,1.3612201E1,7.0110173E0,5.624701E0,6.1486564E0],"tree_param":{"num_deleted":"0","num_feature":"14","num_nodes":"13","size_leaf_vector":"1"}},{"base_weights":[3.1201672E-2,-7.05457E-1,2.796505E-2,-1.6400488E-2,-4.1718912E-1,-7.617867E-4,-1.3190657E-2],"categories":[],"categories_nodes":[],"categories_segments":[],"categories_sizes":[],"default_left":[0,0,0,0,0,0,0],"id":26,"left_children":[1,3,-1,-1,5,-1,-1],"loss_changes":[7.3145605E3,1.2216797E0,0E0,0E0,1.2114425E0,0E0,0E0],"parents":[2147483647,0,0,1,1,4,4],"right_children":[2,4,-1,-1,6,-1,-1],"split_conditions":[1.9691353E-1,1.9028401E-1,2.796505E-2,-1.6400488E-2,-1.1846453E0,-7.617867E-4,-1.3190657E-2],"split_indices":[0,0,0,0,10,0,0],"split_type":[0,0,0,0,0,0,0],"sum_hessian":[8.455858E3,5.1955728E3,3.2602856E3,5.1668994E3,2.8673117E1,9.610831E0,1.9062286E1],"tree_param":{"num_deleted":"0","num_feature":"14","num_nodes":"7","size_leaf_vector":"1"}},{"base_weights":[3.187975E-2,-8.389127E-2,8.0481395E-2,-1.4610972E-1,-5.4852036E-3,-5.101917E-3,1.2775972E-1,-2.430254E-1,-9.212616E-2,-1.1502662E-1,5.863082E-2,-1.3151003E-1,1.2858043E-2,7.1358524E-2,1.8225518E-1,-9.969469E-2,-2.6742357E-1,3.3249755E-3,-1.2690996E-1,3.141231E-2,-2.6255563E-1,4.565598E-3,2.0046134E-1,3.191656E-1,-1.6728707E-1,-1.7534027E-2,1.0232287E-1,5.063141E-2,2.3763101E-1,-3.6218897E-2,1.9573049E-1,-6.424757E-3,2.524486E-3,-6.5344907E-3,-0E0,-2.6764614E-3,2.8712456E-3,-7.833993E-3,-2.4452568E-3,4.3717227E-3,-4.572418E-3,-4.858476E-3,-1.386922E-2,-1.8391567E-3,2.3001183E-3,1.4842762E-2,4.0292046E-3,-3.7038003E-4,1.32051315E-2,6.7599193E-4,-5.635693E-3,-5.430041E-4,1.05076255E-2,-0E0,3.8127794E-3,5.0516147E-3,7.6683087E-4,3.4292883E-3,1.09065045E-2,7.421078E-3,-2.1999103E-3,1.9343164E-3,5.1146667E-3],"categories":[],"categories_nodes":[],"categories_segments":[],"categories_sizes":[],"default_left":[0,0,0,0,0,0,0,0,0,0,0,0,0,0,0,0,0,0,0,0,0,0,0,0,0,0,0,0,0,0,0,0,0,0,0,0,0,0,0,0,0,0,0,0,0,0,0,0,0,0,0,0,0,0,0,0,0,0,0,0,0,0,0],"id":27,"left_children":[1,3,5,7,9,11,13,15,17,19,21,23,25,27,29,31,33,35,37,39,41,43,45,47,49,51,53,55,57,59,61,-1,-1,-1,-1,-1,-1,-1,-1,-1,-1,-1,-1,-1,-1,-1,-1,-1,-1,-1,-1,-1,-1,-1,-1,-1,-1,-1,-1,-1,-1,-1,-1],"loss_changes":[4.764228E1,1.2073925E1,2.424525E1,6.997837E0,7.850583E0,4.9010777E0,1.1636566E1,1.4291496E0,3.0730357E0,9.142553E0,5.184147E0,4.2288623E0,5.094923E0,6.3212194E0,5.869095E0,2.9582481E0,1.7538929E0,3.3509147E0,2.657958E0,7.382223E0,3.080821E0,4.0493946E0,1.5667562E0,1.9586133E0,3.8923173E0,3.4658172E0,2.991571E0,4.7791576E0,3.817707E0,2.1317255E0,4.8759995E0,0E0,0E0,0E0,0E0,0E0,0E0,0E0,0E0,0E0,0E0,0E0,0E0,0E0,0E0,0E0,0E0,0E0,0E0,0E0,0E0,0E0,0E0,0E0,0E0,0E0,0E0,0E0,0E0,0E0,0E0,0E0,0E0],"parents":[2147483647,0,0,1,1,2,2,3,3,4,4,5,5,6,6,7,7,8,8,9,9,10,10,11,11,12,12,13,13,14,14,15,15,16,16,17,17,18,18,19,19,20,20,21,21,22,22,23,23,24,24,25,25,26,26,27,27,28,28,29,29,30,30],"right_children":[2,4,6,8,10,12,14,16,18,20,22,24,26,28,30,32,34,36,38,40,42,44,46,48,50,52,54,56,58,60,62,-1,-1,-1,-1,-1,-1,-1,-1,-1,-1,-1,-1,-1,-1,-1,-1,-1,-1,-1,-1,-1,-1,-1,-1,-1,-1,-1,-1,-1,-1,-1,-1],"split_conditions":[-6.4098674E-1,2.2288236E-1,-5.328694E-1,-1.1748055E0,-6.380939E-3,-4.4022572E-1,-1.2385218E-1,-2.130456E-2,-4.332407E-1,-1.6257252E-1,-1.3400605E-2,-1.3515793E0,6.714224E-1,1.0827436E0,-1.2079117E0,3.0761914E-2,-1.7356767E-1,-2.727441E-1,-1.1641414E0,-6.830339E-1,8.725256E-1,8.032175E-2,6.913328E-2,9.459204E-2,-3.8750973E-1,4.620329E0,-5.744672E-1,-8.4890974E-1,-4.2080188E-1,-3.0873885E-2,-1.4220479E0,-6.424757E-3,2.524486E-3,-6.5344907E-3,-0E0,-2.6764614E-3,2.8712456E-3,-7.833993E-3,-2.4452568E-3,4.3717227E-3,-4.572418E-3,-4.858476E-3,-1.386922E-2,-1.8391567E-3,2.3001183E-3,1.4842762E-2,4.0292046E-3,-3.7038003E-4,1.32051315E-2,6.7599193E-4,-5.635693E-3,-5.430041E-4,1.05076255E-2,-0E0,3.8127794E-3,5.0516147E-3,7.6683087E-4,3.4292883E-3,1.09065045E-2,7.421078E-3,-2.1999103E-3,1.9343164E-3,5.1146667E-3],"split_indices":[6,9,9,6,8,6,11,12,1,1,11,1,10,10,5,1,7,11,8,7,10,4,8,10,2,6,11,1,11,11,2,0,0,0,0,0,0,0,0,0,0,0,0,0,0,0,0,0,0,0,0,0,0,0,0,0,0,0,0,0,0,0,0],"split_type":[0,0,0,0,0,0,0,0,0,0,0,0,0,0,0,0,0,0,0,0,0,0,0,0,0,0,0,0,0,0,0,0,0,0,0,0,0,0,0,0,0,0,0,0,0,0,0,0,0,0,0,0,0,0,0,0,0,0,0,0,0,0,0],"sum_hessian":[8.467268E3,2.4988574E3,5.96841E3,1.3876664E3,1.1111912E3,2.118088E3,3.8503223E3,4.9106503E2,8.966013E2,4.1465128E2,6.9653986E2,2.6869135E2,1.8493965E3,1.8992664E3,1.9510558E3,7.6182396E1,4.1488266E2,2.3358714E2,6.6301416E2,2.0554594E2,2.0910535E2,5.0839258E2,1.8814725E2,1.805812E1,2.5063322E2,1.374122E3,4.7527463E2,1.693111E3,2.0615532E2,1.09999596E2,1.8410563E3,4.3146984E1,3.3035408E1,3.9612308E2,1.875958E1,1.1442083E2,1.1916631E2,5.782039E1,6.051938E2,1.2385134E2,8.16946E1,1.8275813E2,2.6347204E1,2.6518292E2,2.4320967E2,8.898388E0,1.7924886E2,6.4751296E0,1.1582991E1,6.686497E1,1.8376826E2,1.3589937E3,1.5128265E1,1.803725E2,2.9490213E2,1.567677E2,1.5363433E3,1.513289E2,5.4826412E1,1.3557259E1,9.644234E1,3.378091E2,1.5032471E3],"tree_param":{"num_deleted":"0","num_feature":"14","num_nodes":"63","size_leaf_vector":"1"}},{"base_weights":[-6.631074E-2,-1.6210718E-2,2.4351257E-1,1.1469609E0,-1.6211422E-2,2.7800666E-2,1.1577562E0,1.5235801E-2,-2.0504083E-1,2.6934978E-2,8.747145E-1,-1.01282885E-2,2.576003E-3,1.1236089E-2,2.6311236E-2],"categories":[],"categories_nodes":[],"categories_segments":[],"categories_sizes":[],"default_left":[0,0,0,0,0,0,0,0,0,0,0,0,0,0,0],"id":28,"left_children":[1,-1,3,5,-1,7,9,-1,11,-1,13,-1,-1,-1,-1],"loss_changes":[1.6331711E3,0E0,4.7613086E3,3.357788E1,0E0,4.5002728E0,7.79541E-1,0E0,1.710741E0,0E0,2.1875095E0,0E0,0E0,0E0,0E0],"parents":[2147483647,0,0,2,2,3,3,5,5,6,6,8,8,10,10],"right_children":[2,-1,4,6,-1,8,10,-1,12,-1,14,-1,-1,-1,-1],"split_conditions":[-2.0286658E-1,-1.6210718E-2,1.9691353E-1,-1.9548932E-1,-1.6211422E-2,-5.273142E-1,1.9028401E-1,1.5235801E-2,4.984988E-1,2.6934978E-2,1.0823216E-1,-1.01282885E-2,2.576003E-3,1.1236089E-2,2.6311236E-2],"split_indices":[0,0,0,0,0,11,0,0,10,0,2,0,0,0,0],"split_type":[0,0,0,0,0,0,0,0,0,0,0,0,0,0,0],"sum_hessian":[8.333208E3,2.740873E3,5.5923354E3,2.855354E3,2.7369812E3,2.7969568E1,2.8273845E3,8.355842E0,1.9613728E1,2.7925583E3,3.4826176E1,1.268794E1,6.925787E0,1.5316456E1,1.950972E1],"tree_param":{"num_deleted":"0","num_feature":"14","num_nodes":"15","size_leaf_vector":"1"}},{"base_weights":[2.8828556E-2,-7.002905E-1,2.7255122E-2,-1.6276428E-2,-4.52259E-1,-0E0,-1.2845013E-2],"categories":[],"categories_nodes":[],"categories_segments":[],"categories_sizes":[],"default_left":[0,0,0,0,0,0,0],"id":29,"left_children":[1,3,-1,-1,5,-1,-1],"loss_changes":[7.093756E3,6.5893555E-1,0E0,0E0,1.420145E0,0E0,0E0],"parents":[2147483647,0,0,1,1,4,4],"right_children":[2,4,-1,-1,6,-1,-1],"split_conditions":[1.9691353E-1,1.9028401E-1,2.7255122E-2,-1.6276428E-2,-1.445115E0,-0E0,-1.2845013E-2],"split_indices":[0,0,0,0,2,0,0],"split_type":[0,0,0,0,0,0,0],"sum_hessian":[8.489496E3,5.18794E3,3.3015557E3,5.158395E3,2.9544994E1,5.2629604E0,2.4282034E1],"tree_param":{"num_deleted":"0","num_feature":"14","num_nodes":"7","size_leaf_vector":"1"}},{"base_weights":[3.0474791E-2,1.1553655E0,-1.6230702E-2,2.698031E-2,4.1147906E-1,-3.3292556E-3,6.014048E-1,2.2013556E-2,9.544466E-2,1.0067072E-2,-2.8109178E-3],"categories":[],"categories_nodes":[],"categories_segments":[],"categories_sizes":[],"default_left":[0,0,0,0,0,0,0,0,0,0,0],"id":30,"left_children":[1,3,-1,-1,5,-1,7,-1,9,-1,-1],"loss_changes":[6.8838877E3,1.7183594E1,0E0,0E0,3.998958E0,0E0,3.8724785E0,0E0,1.1319984E0,0E0,0E0],"parents":[2147483647,0,0,1,1,4,4,6,6,8,8],"right_children":[2,4,-1,-1,6,-1,8,-1,10,-1,-1],"split_conditions":[-1.9548932E-1,-2.0286658E-1,-1.6230702E-2,2.698031E-2,-5.273142E-1,-3.3292556E-3,1.475702E-1,2.2013556E-2,-2.785732E-1,1.0067072E-2,-2.8109178E-3],"split_indices":[0,0,0,0,11,0,2,0,1,0,0],"split_type":[0,0,0,0,0,0,0,0,0,0,0],"sum_hessian":[8.381649E3,3.299135E3,5.0825146E3,3.264912E3,3.4222977E1,7.7014256E0,2.6521553E1,1.4716303E1,1.180525E1,5.920178E0,5.885072E0],"tree_param":{"num_deleted":"0","num_feature":"14","num_nodes":"11","size_leaf_vector":"1"}},{"base_weights":[-5.535665E-2,2.5313085E-1,-1.606214E-2,-6.874672E-1,2.6344003E-2,-1.6162498E-2,6.263145E-2,-2.2722413E-1,2.0061245E-2,6.7120246E-3,-1.05578685E-2],"categories":[],"categories_nodes":[],"categories_segments":[],"categories_sizes":[],"default_left":[0,0,0,0,0,0,0,0,0,0,0],"id":31,"left_children":[1,3,-1,5,-1,-1,7,9,-1,-1,-1],"loss_changes":[1.6275847E3,4.6303057E3,0E0,1.9060913E1,0E0,0E0,7.9144526E0,2.8347983E0,0E0,0E0,0E0],"parents":[2147483647,0,0,1,1,3,3,6,6,7,7],"right_children":[2,4,-1,6,-1,-1,8,10,-1,-1,-1],"split_conditions":[1.9691353E-1,-1.9548932E-1,-1.606214E-2,-2.0286658E-1,2.6344003E-2,-1.6162498E-2,6.704236E-1,-1.4259648E-1,2.0061245E-2,6.7120246E-3,-1.05578685E-2],"split_indices":[0,0,0,0,0,0,2,13,0,0,0],"split_type":[0,0,0,0,0,0,0,0,0,0,0],"sum_hessian":[8.281131E3,5.578342E3,2.7027896E3,2.6996377E3,2.878704E3,2.668078E3,3.1559837E1,2.2579338E1,8.980499E0,5.857354E0,1.6721983E1],"tree_param":{"num_deleted":"0","num_feature":"14","num_nodes":"11","size_leaf_vector":"1"}},{"base_weights":[2.7363282E-2,-6.9619155E-1,2.6717206E-2,-1.6181758E-2,-4.3092364E-1,-1.4363857E-2,-0E0],"categories":[],"categories_nodes":[],"categories_segments":[],"categories_sizes":[],"default_left":[0,0,0,0,0,0,0],"id":32,"left_children":[1,3,-1,-1,5,-1,-1],"loss_changes":[6.851949E3,7.9785156E-1,0E0,0E0,2.73356E0,0E0,0E0],"parents":[2147483647,0,0,1,1,4,4],"right_children":[2,4,-1,-1,6,-1,-1],"split_conditions":[1.9691353E-1,1.9028401E-1,2.6717206E-2,-1.6181758E-2,4.374808E-1,-1.4363857E-2,-0E0],"split_indices":[0,0,0,0,11,0,0],"split_type":[0,0,0,0,0,0,0],"sum_hessian":[8.422819E3,5.124185E3,3.2986345E3,5.096513E3,2.7671637E1,2.0435366E1,7.23627E0],"tree_param":{"num_deleted":"0","num_feature":"14","num_nodes":"7","size_leaf_vector":"1"}},{"base_weights":[2.9144427E-2,1.1277835E0,-1.6110042E-2,2.6329912E-2,3.83229E-1,-0E0,1.9486556E-2,1.0930367E-2,-2.464702E-1,-0E0,-1.3739347E-2],"categories":[],"categories_nodes":[],"categories_segments":[],"categories_sizes":[],"default_left":[0,0,0,0,0,0,0,0,0,0,0],"id":33,"left_children":[1,3,-1,-1,5,7,-1,-1,9,-1,-1],"loss_changes":[6.642407E3,1.6243652E1,0E0,0E0,5.1029706E0,2.3649032E0,0E0,0E0,1.3893043E0,0E0,0E0],"parents":[2147483647,0,0,1,1,4,4,5,5,8,8],"right_children":[2,4,-1,-1,6,8,-1,-1,10,-1,-1],"split_conditions":[-1.9548932E-1,-2.0286658E-1,-1.6110042E-2,2.6329912E-2,-1.3150357E-1,-1.8866749E-1,1.9486556E-2,1.0930367E-2,6.527898E-1,-0E0,-1.3739347E-2],"split_indices":[0,0,0,0,11,4,0,0,2,0,0],"split_type":[0,0,0,0,0,0,0,0,0,0,0],"sum_hessian":[8.355634E3,3.3181208E3,5.037513E3,3.2857178E3,3.2403088E1,1.8580795E1,1.3822292E1,7.31978E0,1.1261015E1,5.5130167E0,5.7479987E0],"tree_param":{"num_deleted":"0","num_feature":"14","num_nodes":"11","size_leaf_vector":"1"}},{"base_weights":[-6.154963E-2,-1.6044935E-2,2.4201693E-1,1.0991929E0,-1.5947852E-2,2.110834E-1,1.1087497E0,-1.1894797E-3,2.1022277E-2,2.5788255E-2,8.485868E-1,2.6070238E-3,-1.0624063E-2,7.717542E-3,2.3027135E-2],"categories":[],"categories_nodes":[],"categories_segments":[],"categories_sizes":[],"default_left":[0,0,0,0,0,0,0,0,0,0,0,0,0,0,0],"id":34,"left_children":[1,-1,3,5,-1,7,9,11,-1,-1,13,-1,-1,-1,-1],"loss_changes":[1.5756553E3,0E0,4.4280684E3,2.347754E1,0E0,5.4041414E0,3.6083984E-1,1.5102934E0,0E0,0E0,1.4299412E0,0E0,0E0,0E0,0E0],"parents":[2147483647,0,0,2,2,3,3,5,5,6,6,7,7,10,10],"right_children":[2,-1,4,6,-1,8,10,12,-1,-1,14,-1,-1,-1,-1],"split_conditions":[-2.0286658E-1,-1.6044935E-2,1.9691353E-1,-1.9548932E-1,-1.5947852E-2,6.4412886E-1,1.9028401E-1,4.5170978E-1,2.1022277E-2,2.5788255E-2,-7.4003905E-1,2.6070238E-3,-1.0624063E-2,7.717542E-3,2.3027135E-2],"split_indices":[0,0,0,0,0,2,0,2,0,0,10,0,0,0,0],"split_type":[0,0,0,0,0,0,0,0,0,0,0,0,0,0,0],"sum_hessian":[8.236448E3,2.6789316E3,5.5575166E3,2.8915037E3,2.666013E3,3.1693262E1,2.8598105E3,2.3578981E1,8.114281E0,2.8260884E3,3.372221E1,1.7649704E1,5.9292784E0,8.6689825E0,2.5053226E1],"tree_param":{"num_deleted":"0","num_feature":"14","num_nodes":"15","size_leaf_vector":"1"}},{"base_weights":[3.1907152E-2,-6.895624E-1,2.6082825E-2,-1.606422E-2,-1.8178248E-1,1.18459396E-1,-1.4525087E-2,3.4108952E-1,-2.9295264E-3,-0E0,1.4674449E-2],"categories":[],"categories_nodes":[],"categories_segments":[],"categories_sizes":[],"default_left":[0,0,0,0,0,0,0,0,0,0,0],"id":35,"left_children":[1,3,-1,-1,5,7,-1,9,-1,-1,-1],"loss_changes":[6.62795E3,6.590332E0,0E0,0E0,4.39499E0,1.0991294E0,0E0,9.2776537E-1,0E0,0E0,0E0],"parents":[2147483647,0,0,1,1,4,4,5,5,7,7],"right_children":[2,4,-1,-1,6,8,-1,10,-1,-1,-1],"split_conditions":[1.9691353E-1,1.9028401E-1,2.6082825E-2,-1.606422E-2,1.7153245E-1,9.174864E-2,-1.4525087E-2,-3.7410724E-1,-2.9295264E-3,-0E0,1.4674449E-2],"split_indices":[0,0,0,0,10,4,0,9,0,0,0],"split_type":[0,0,0,0,0,0,0,0,0,0,0],"sum_hessian":[8.409551E3,5.0640913E3,3.345459E3,5.0343906E3,2.9700525E1,1.67729E1,1.2927626E1,1.0394363E1,6.3785357E0,5.1933002E0,5.201063E0],"tree_param":{"num_deleted":"0","num_feature":"14","num_nodes":"11","size_leaf_vector":"1"}},{"base_weights":[3.4125216E-2,-2.4746139E-2,1.0963533E-1,-9.5957205E-2,1.9681398E-2,4.8697997E-2,2.019022E-1,-1.3707368E-1,-1.5338637E-2,-1.9503793E-1,2.6457034E-2,4.342867E-3,1.2096683E-1,-4.2593792E-2,2.1819413E-1,-3.0885246E-1,-1.03581674E-1,1.0101845E-1,-6.914538E-2,-4.108219E-2,-3.7422845E-1,-2.3058807E-2,5.848852E-2,8.196372E-2,-5.6539558E-2,4.4639283E-1,1.07527874E-1,-1.435886E-1,3.507438E-1,1.9744249E-1,3.2218394E-1,-8.297937E-3,-1.889825E-3,-2.9728627E-3,1.0925862E-3,9.00434E-5,5.791666E-3,-5.212041E-3,-3.3436494E-4,-4.618098E-3,6.9896053E-3,-1.0632296E-2,-1.3951847E-3,5.1725935E-4,-2.146263E-3,2.6119822E-3,2.3635056E-4,1.3784671E-3,1.3111978E-2,-3.6166764E-3,3.638808E-4,-0E0,1.3394555E-2,4.2214687E-3,8.3792827E-4,-4.829322E-3,1.2056166E-2,-0E0,1.5908489E-2,4.7256765E-3,-2.3357328E-3,8.542353E-3,-0E0],"categories":[],"categories_nodes":[],"categories_segments":[],"categories_sizes":[],"default_left":[0,0,0,0,0,0,0,0,0,0,0,0,0,0,0,0,0,0,0,0,0,0,0,0,0,0,0,0,0,0,0,0,0,0,0,0,0,0,0,0,0,0,0,0,0,0,0,0,0,0,0,0,0,0,0,0,0,0,0,0,0,0,0],"id":36,"left_children":[1,3,5,7,9,11,13,15,17,19,21,23,25,27,29,31,33,35,37,39,41,43,45,47,49,51,53,55,57,59,61,-1,-1,-1,-1,-1,-1,-1,-1,-1,-1,-1,-1,-1,-1,-1,-1,-1,-1,-1,-1,-1,-1,-1,-1,-1,-1,-1,-1,-1,-1,-1,-1],"loss_changes":[3.722751E1,1.490263E1,2.0428009E1,5.879055E0,4.0647383E0,7.0012603E0,5.928646E0,6.531782E0,3.8437204E0,2.013424E0,4.4656963E0,6.537416E0,3.2168884E0,3.347062E0,2.5339203E0,1.7702618E0,3.7686434E0,2.559051E0,3.4490323E0,2.5347245E0,5.658407E-1,3.4871845E0,4.3690596E0,6.1772537E0,5.6147614E0,2.131627E0,4.108487E0,2.8532968E0,2.3130038E0,2.2154922E0,3.3192558E0,0E0,0E0,0E0,0E0,0E0,0E0,0E0,0E0,0E0,0E0,0E0,0E0,0E0,0E0,0E0,0E0,0E0,0E0,0E0,0E0,0E0,0E0,0E0,0E0,0E0,0E0,0E0,0E0,0E0,0E0,0E0,0E0],"parents":[2147483647,0,0,1,1,2,2,3,3,4,4,5,5,6,6,7,7,8,8,9,9,10,10,11,11,12,12,13,13,14,14,15,15,16,16,17,17,18,18,19,19,20,20,21,21,22,22,23,23,24,24,25,25,26,26,27,27,28,28,29,29,30,30],"right_children":[2,4,6,8,10,12,14,16,18,20,22,24,26,28,30,32,34,36,38,40,42,44,46,48,50,52,54,56,58,60,62,-1,-1,-1,-1,-1,-1,-1,-1,-1,-1,-1,-1,-1,-1,-1,-1,-1,-1,-1,-1,-1,-1,-1,-1,-1,-1,-1,-1,-1,-1,-1,-1],"split_conditions":[2.2288236E-1,-5.059781E-1,1.0387689E-2,-5.6592494E-2,-2.198298E0,7.359659E-1,-1.0445553E0,-1.0851907E0,-5.4924136E-1,1.7366545E-1,-1.7548232E-1,-1.4323907E-1,-9.848501E-1,4.111785E-3,1.3095434E0,4.6893224E-1,2.0315351E0,5.3741604E-1,-1.0386995E0,4.8867337E-2,4.7772235E-1,4.0093642E-1,-2.3127747E-1,1.4225322E0,1.1776241E-1,-6.5149623E-1,-4.3916744E-1,1.4235512E0,3.0761914E-2,3.0081122E0,8.404952E-1,-8.297937E-3,-1.889825E-3,-2.9728627E-3,1.0925862E-3,9.00434E-5,5.791666E-3,-5.212041E-3,-3.3436494E-4,-4.618098E-3,6.9896053E-3,-1.0632296E-2,-1.3951847E-3,5.1725935E-4,-2.146263E-3,2.6119822E-3,2.3635056E-4,1.3784671E-3,1.3111978E-2,-3.6166764E-3,3.638808E-4,-0E0,1.3394555E-2,4.2214687E-3,8.3792827E-4,-4.829322E-3,1.2056166E-2,-0E0,1.5908489E-2,4.7256765E-3,-2.3357328E-3,8.542353E-3,-0E0],"split_indices":[9,7,11,11,5,8,3,7,1,8,3,1,4,12,8,2,13,10,9,11,10,13,4,4,1,3,3,9,1,1,5,0,0,0,0,0,0,0,0,0,0,0,0,0,0,0,0,0,0,0,0,0,0,0,0,0,0,0,0,0,0,0,0],"split_type":[0,0,0,0,0,0,0,0,0,0,0,0,0,0,0,0,0,0,0,0,0,0,0,0,0,0,0,0,0,0,0,0,0,0,0,0,0,0,0,0,0,0,0,0,0,0,0,0,0,0,0,0,0,0,0,0,0,0,0,0,0,0,0],"sum_hessian":[8.3593545E3,4.6915225E3,3.6678323E3,1.8090393E3,2.882483E3,2.2141667E3,1.4536654E3,1.1915936E3,6.1744574E2,8.452111E1,2.797962E3,1.3788136E3,8.353531E2,8.783209E1,1.3658334E3,1.9039192E2,1.00120166E3,1.906464E2,4.2679938E2,4.791108E1,3.6610027E1,1.089581E3,1.7083809E3,6.116359E2,7.6717773E2,3.0596237E1,8.0475684E2,7.155011E1,1.6281984E1,1.145288E3,2.2054536E2,1.5386064E2,3.6531284E1,8.6533923E2,1.3586247E2,1.1855556E2,7.209083E1,1.07280334E2,3.1951904E2,3.4384323E1,1.3526757E1,2.6870369E1,9.739656E0,6.524891E2,4.3709195E2,7.982115E2,9.101694E2,5.8610504E2,2.5530848E1,3.2735382E2,4.3982394E2,5.9891124E0,2.4607124E1,3.8861786E2,4.1613898E2,6.63881E1,5.1620092E0,7.248859E0,9.033125E0,1.1243955E3,2.0892534E1,1.9331067E2,2.7234705E1],"tree_param":{"num_deleted":"0","num_feature":"14","num_nodes":"63","size_leaf_vector":"1"}},{"base_weights":[-5.718095E-2,9.707134E-2,-1.5507165E-1,2.1066934E-1,2.9812388E-2,-9.149625E-2,-2.740979E-1,3.0363578E-1,1.0232906E-1,1.1453519E-1,-3.8406014E-2,-2.959786E-2,-1.4210723E-1,-2.019258E-1,-3.0830073E-1,-3.441006E-1,3.1549427E-1,-1.4887065E-1,1.5713526E-1,-8.316211E-3,1.4310265E-1,-2.0224634E-1,3.1633344E-3,1.9567038E-3,-1.0999348E-1,-2.1131688E-1,-1.031778E-1,-1.6574809E-1,-4.1756195E-1,-2.9706442E-1,-4.9893206E-1,-1.1986504E-2,-1.7027081E-4,-0E0,7.698525E-3,-5.527644E-3,2.0951815E-3,5.2654627E-3,-1.991629E-3,1.15161585E-2,-1.5431162E-3,3.808464E-3,-8.851693E-4,-5.378763E-3,2.3718216E-3,-8.81823E-3,5.2044756E-4,-1.659543E-3,1.1679326E-3,-8.653066E-3,-2.027839E-3,-5.2572065E-3,1.6855479E-3,3.9810585E-4,-3.1515937E-3,-7.611397E-3,-2.9509186E-3,-1.0758146E-2,-1.6727553E-3,-9.119747E-3,-6.3460125E-3,-1.5567837E-3,-1.2805595E-2],"categories":[],"categories_nodes":[],"categories_segments":[],"categories_sizes":[],"default_left":[0,0,0,0,0,0,0,0,0,0,0,0,0,0,0,0,0,0,0,0,0,0,0,0,0,0,0,0,0,0,0,0,0,0,0,0,0,0,0,0,0,0,0,0,0,0,0,0,0,0,0,0,0,0,0,0,0,0,0,0,0,0,0],"id":37,"left_children":[1,3,5,7,9,11,13,15,17,19,21,23,25,27,29,31,33,35,37,39,41,43,45,47,49,51,53,55,57,59,61,-1,-1,-1,-1,-1,-1,-1,-1,-1,-1,-1,-1,-1,-1,-1,-1,-1,-1,-1,-1,-1,-1,-1,-1,-1,-1,-1,-1,-1,-1,-1,-1],"loss_changes":[1.25208954E2,2.4377934E1,3.810833E1,1.1679718E1,1.1757309E1,1.0241999E1,3.9437103E0,4.8941917E0,7.6425776E0,3.290512E0,7.7564993E0,3.881009E0,4.643444E0,4.0172443E0,1.9005356E0,1.9777739E-1,3.231617E0,2.1891594E0,7.876526E0,4.560886E0,2.9282923E0,2.1738358E0,6.2743034E0,3.782739E0,2.1854863E0,2.9254017E0,4.6877775E0,2.7401733E0,8.43977E-1,2.0091705E0,9.341135E-1,0E0,0E0,0E0,0E0,0E0,0E0,0E0,0E0,0E0,0E0,0E0,0E0,0E0,0E0,0E0,0E0,0E0,0E0,0E0,0E0,0E0,0E0,0E0,0E0,0E0,0E0,0E0,0E0,0E0,0E0,0E0,0E0],"parents":[2147483647,0,0,1,1,2,2,3,3,4,4,5,5,6,6,7,7,8,8,9,9,10,10,11,11,12,12,13,13,14,14,15,15,16,16,17,17,18,18,19,19,20,20,21,21,22,22,23,23,24,24,25,25,26,26,27,27,28,28,29,29,30,30],"right_children":[2,4,6,8,10,12,14,16,18,20,22,24,26,28,30,32,34,36,38,40,42,44,46,48,50,52,54,56,58,60,62,-1,-1,-1,-1,-1,-1,-1,-1,-1,-1,-1,-1,-1,-1,-1,-1,-1,-1,-1,-1,-1,-1,-1,-1,-1,-1,-1,-1,-1,-1,-1,-1],"split_conditions":[-4.671E-1,-1.0686929E0,2.3018156E-1,-3.9354602E-1,-4.6125987E-1,1.1729772E-1,2.3164392E-1,-7.814964E-1,-3.9457384E-1,-5.0651896E-1,-4.9124104E-1,3.2076356E-1,-1.1673535E-1,6.9355947E-1,3.4876256E0,-3.923774E-2,-6.65242E-1,2.940664E-1,9.898648E-1,-5.828801E-1,8.826865E-3,2.7520543E-2,-1.8914716E0,-4.0424055E-1,-9.371443E-1,1.7128512E-1,-1.0864888E0,-1.4766508E0,1.4235512E0,-1.22635804E-1,1.0678189E0,-1.1986504E-2,-1.7027081E-4,-0E0,7.698525E-3,-5.527644E-3,2.0951815E-3,5.2654627E-3,-1.991629E-3,1.15161585E-2,-1.5431162E-3,3.808464E-3,-8.851693E-4,-5.378763E-3,2.3718216E-3,-8.81823E-3,5.2044756E-4,-1.659543E-3,1.1679326E-3,-8.653066E-3,-2.027839E-3,-5.2572065E-3,1.6855479E-3,3.9810585E-4,-3.1515937E-3,-7.611397E-3,-2.9509186E-3,-1.0758146E-2,-1.6727553E-3,-9.119747E-3,-6.3460125E-3,-1.5567837E-3,-1.2805595E-2],"split_indices":[6,6,11,11,11,6,6,4,1,2,1,1,2,2,6,5,1,5,8,4,12,12,2,1,4,11,9,2,9,7,7,0,0,0,0,0,0,0,0,0,0,0,0,0,0,0,0,0,0,0,0,0,0,0,0,0,0,0,0,0,0,0,0],"split_type":[0,0,0,0,0,0,0,0,0,0,0,0,0,0,0,0,0,0,0,0,0,0,0,0,0,0,0,0,0,0,0,0,0,0,0,0,0,0,0,0,0,0,0,0,0,0,0,0,0,0,0,0,0,0,0,0,0,0,0,0,0,0,0],"sum_hessian":[8.288694E3,3.2148982E3,5.0737964E3,1.1911621E3,2.0237361E3,3.3117393E3,1.7620573E3,6.3703674E2,5.5412537E2,9.07663E2,1.116073E3,1.4967511E3,1.814988E3,5.74257E2,1.1878003E3,1.0182035E1,6.2685474E2,9.6660126E1,4.5746527E2,1.6617084E2,7.414922E2,2.2946703E2,8.86606E2,1.0681141E3,4.2863696E2,6.459268E2,1.1690613E3,4.951221E2,7.913492E1,1.1259906E3,6.18096E1,5.146126E0,5.035909E0,3.0836504E1,5.9601825E2,7.271565E1,2.3944479E1,3.578377E2,9.962754E1,1.5653432E1,1.505174E2,6.681763E2,7.331598E1,2.114979E2,1.7969122E1,4.034638E1,8.4625964E2,4.1767734E2,6.504368E2,3.0960268E1,3.976767E2,6.1556696E2,3.0359882E1,2.4454039E2,9.245208E2,9.090812E1,4.04214E2,6.778003E1,1.1354892E1,2.1463031E2,9.1136035E2,8.400222E0,5.3409378E1],"tree_param":{"num_deleted":"0","num_feature":"14","num_nodes":"63","size_leaf_vector":"1"}},{"base_weights":[2.8990984E-2,-6.857101E-1,2.5486046E-2,-1.5948098E-2,-3.5930035E-1,-0E0,-1.4802632E-2,-4.2244243E-3,5.4341606E-3],"categories":[],"categories_nodes":[],"categories_segments":[],"categories_sizes":[],"default_left":[0,0,0,0,0,0,0,0,0],"id":38,"left_children":[1,3,-1,-1,5,7,-1,-1,-1],"loss_changes":[6.4230337E3,1.9082031E0,0E0,0E0,3.2326632E0,5.411577E-1,0E0,0E0,0E0],"parents":[2147483647,0,0,1,1,4,4,5,5],"right_children":[2,4,-1,-1,6,8,-1,-1,-1],"split_conditions":[1.9691353E-1,1.9028401E-1,2.5486046E-2,-1.5948098E-2,1.3166247E-1,-2.861793E-1,-1.4802632E-2,-4.2244243E-3,5.4341606E-3],"split_indices":[0,0,0,0,10,4,0,0,0],"split_type":[0,0,0,0,0,0,0,0,0],"sum_hessian":[8.402166E3,5.036112E3,3.3660544E3,5.007717E3,2.8394922E1,1.1584271E1,1.681065E1,5.1525784E0,6.431693E0],"tree_param":{"num_deleted":"0","num_feature":"14","num_nodes":"9","size_leaf_vector":"1"}},{"base_weights":[3.186575E-2,1.0960293E0,-1.5969414E-2,2.5571873E-2,4.6532422E-1,7.8693026E-1,-0E0,2.3441223E-2,1.0731903E-2,-9.246928E-3,6.8623438E-3],"categories":[],"categories_nodes":[],"categories_segments":[],"categories_sizes":[],"default_left":[0,0,0,0,0,0,0,0,0,0,0],"id":39,"left_children":[1,3,-1,-1,5,7,9,-1,-1,-1,-1],"loss_changes":[6.401485E3,1.1797607E1,0E0,0E0,4.577381E0,1.7190266E-1,1.726606E0,0E0,0E0,0E0,0E0],"parents":[2147483647,0,0,1,1,4,4,5,5,6,6],"right_children":[2,4,-1,-1,6,8,10,-1,-1,-1,-1],"split_conditions":[-1.9548932E-1,-2.0286658E-1,-1.5969414E-2,2.5571873E-2,1.9193803E-1,-5.0651896E-1,-8.802306E-2,2.3441223E-2,1.0731903E-2,-9.246928E-3,6.8623438E-3],"split_indices":[0,0,0,0,10,2,5,0,0,0,0],"split_type":[0,0,0,0,0,0,0,0,0,0,0],"sum_hessian":[8.352017E3,3.3713445E3,4.980672E3,3.3373477E3,3.399699E1,1.9149662E1,1.4847327E1,9.680497E0,9.469166E0,5.306985E0,9.540342E0],"tree_param":{"num_deleted":"0","num_feature":"14","num_nodes":"11","size_leaf_vector":"1"}},{"base_weights":[-5.636548E-2,-1.5944216E-2,2.451617E-1,1.0688676E0,-1.5760608E-2,1.0860594E-1,2.5063341E-2,4.425767E-1,-3.2801926E-1,2.9964412E-3,2.6147392E-2,-0E0,-1.401203E-2],"categories":[],"categories_nodes":[],"categories_segments":[],"categories_sizes":[],"default_left":[0,0,0,0,0,0,0,0,0,0,0,0,0],"id":40,"left_children":[1,-1,3,5,-1,7,-1,9,11,-1,-1,-1,-1],"loss_changes":[1.5625939E3,0E0,4.2313423E3,3.1251709E1,0E0,5.29663E0,0E0,3.5512705E0,1.1643525E0,0E0,0E0,0E0,0E0],"parents":[2147483647,0,0,2,2,3,3,5,5,7,7,8,8],"right_children":[2,-1,4,6,-1,8,-1,10,12,-1,-1,-1,-1],"split_conditions":[-2.0286658E-1,-1.5944216E-2,1.9691353E-1,-1.9548932E-1,-1.5760608E-2,-5.6592494E-2,2.5063341E-2,-2.0346676E-1,-1.5924633E-2,2.9964412E-3,2.6147392E-2,-0E0,-1.401203E-2],"split_indices":[0,0,0,0,0,11,0,11,12,0,0,0,0],"split_type":[0,0,0,0,0,0,0,0,0,0,0,0,0],"sum_hessian":[8.212441E3,2.6565906E3,5.5558506E3,2.9384734E3,2.6173772E3,3.5319824E1,2.9031536E3,2.1013071E1,1.4306753E1,1.5348785E1,5.6642847E0,7.0343175E0,7.2724357E0],"tree_param":{"num_deleted":"0","num_feature":"14","num_nodes":"13","size_leaf_vector":"1"}},{"base_weights":[2.8416935E-2,-6.827461E-1,2.5126439E-2,-1.5878879E-2,-3.8785207E-1,-6.899733E-2,-1.4710661E-2,-9.484128E-3,7.3357136E-3],"categories":[],"categories_nodes":[],"categories_segments":[],"categories_sizes":[],"default_left":[0,0,0,0,0,0,0,0,0],"id":41,"left_children":[1,3,-1,-1,5,7,-1,-1,-1],"loss_changes":[6.27878E3,1.5705566E0,0E0,0E0,1.8892083E0,2.078292E0,0E0,0E0,0E0],"parents":[2147483647,0,0,1,1,4,4,5,5],"right_children":[2,4,-1,-1,6,8,-1,-1,-1],"split_conditions":[1.9691353E-1,1.9028401E-1,2.5126439E-2,-1.5878879E-2,1.475702E-1,-6.357311E-1,-1.4710661E-2,-9.484128E-3,7.3357136E-3],"split_indices":[0,0,0,0,2,2,0,0,0],"split_type":[0,0,0,0,0,0,0,0,0],"sum_hessian":[8.371151E3,4.9992246E3,3.3719268E3,4.9683315E3,3.0893314E1,1.4938171E1,1.5955143E1,8.995511E0,5.9426603E0],"tree_param":{"num_deleted":"0","num_feature":"14","num_nodes":"9","size_leaf_vector":"1"}},{"base_weights":[2.8398601E-2,1.0734991E0,-1.585533E-2,2.500386E-2,6.198042E-1,8.0876577E-1,-5.014188E-3,9.164305E-4,2.1978209E-2],"categories":[],"categories_nodes":[],"categories_segments":[],"categories_sizes":[],"default_left":[0,0,0,0,0,0,0,0,0],"id":42,"left_children":[1,3,-1,-1,5,7,-1,-1,-1],"loss_changes":[6.1670396E3,4.977051E0,0E0,0E0,5.7145777E0,2.1889648E0,0E0,0E0,0E0],"parents":[2147483647,0,0,1,1,4,4,5,5],"right_children":[2,4,-1,-1,6,8,-1,-1,-1],"split_conditions":[-1.9548932E-1,-2.0286658E-1,-1.585533E-2,2.500386E-2,6.704236E-1,-9.9652046E-1,-5.014188E-3,9.164305E-4,2.1978209E-2],"split_indices":[0,0,0,0,2,6,0,0,0],"split_type":[0,0,0,0,0,0,0,0,0],"sum_hessian":[8.289407E3,3.358792E3,4.930615E3,3.3259302E3,3.286189E1,2.7561798E1,5.3000903E0,5.095727E0,2.246607E1],"tree_param":{"num_deleted":"0","num_feature":"14","num_nodes":"9","size_leaf_vector":"1"}},{"base_weights":[-5.858619E-2,-1.5832096E-2,2.4232233E-1,1.0465424E0,-1.5654517E-2,1.6220555E-1,2.4508482E-2,-2.3319796E-1,5.429153E-1,-0E0,-1.3666256E-2,2.105517E-2,4.3786364E-3],"categories":[],"categories_nodes":[],"categories_segments":[],"categories_sizes":[],"default_left":[0,0,0,0,0,0,0,0,0,0,0,0,0],"id":43,"left_children":[1,-1,3,5,-1,7,-1,9,11,-1,-1,-1,-1],"loss_changes":[1.5351644E3,0E0,4.0679124E3,2.4542236E1,0E0,5.287426E0,0E0,1.4549938E0,1.4509516E0,0E0,0E0,0E0,0E0],"parents":[2147483647,0,0,2,2,3,3,5,5,7,7,8,8],"right_children":[2,-1,4,6,-1,8,-1,10,12,-1,-1,-1,-1],"split_conditions":[-2.0286658E-1,-1.5832096E-2,1.9691353E-1,-1.9548932E-1,-1.5654517E-2,1.8410482E-1,2.4508482E-2,4.4649425E-1,-5.5994964E-1,-0E0,-1.3666256E-2,2.105517E-2,4.3786364E-3],"split_indices":[0,0,0,0,0,10,0,8,3,0,0,0,0],"split_type":[0,0,0,0,0,0,0,0,0,0,0,0,0],"sum_hessian":[8.1762607E3,2.6613643E3,5.5148965E3,2.93865E3,2.5762466E3,3.316976E1,2.90548E3,1.5313642E1,1.7856121E1,8.887627E0,6.4260144E0,7.5713773E0,1.0284744E1],"tree_param":{"num_deleted":"0","num_feature":"14","num_nodes":"13","size_leaf_vector":"1"}},{"base_weights":[2.4922257E-2,-6.7779046E-1,2.4582814E-2,-1.5769439E-2,-3.0270013E-1,-1.1865866E-2,5.9228437E-3],"categories":[],"categories_nodes":[],"categories_segments":[],"categories_sizes":[],"default_left":[0,0,0,0,0,0,0],"id":44,"left_children":[1,3,-1,-1,5,-1,-1],"loss_changes":[6.0032646E3,2.706787E0,0E0,0E0,3.392214E0,0E0,0E0],"parents":[2147483647,0,0,1,1,4,4],"right_children":[2,4,-1,-1,6,-1,-1],"split_conditions":[1.9691353E-1,1.9028401E-1,2.4582814E-2,-1.5769439E-2,4.374808E-1,-1.1865866E-2,5.9228437E-3],"split_indices":[0,0,0,0,11,0,0],"split_type":[0,0,0,0,0,0,0],"sum_hessian":[8.256146E3,4.916356E3,3.3397898E3,4.889352E3,2.7004353E1,2.0671701E1,6.33265E0],"tree_param":{"num_deleted":"0","num_feature":"14","num_nodes":"7","size_leaf_vector":"1"}},{"base_weights":[2.8407648E-2,1.0492282E0,-1.5744854E-2,2.4467899E-2,4.6334568E-1,8.4089184E-1,6.72374E-2,8.731912E-3,2.3883581E-2,1.4424329E-2,-2.0931377E-1,-0E0,-9.753711E-3],"categories":[],"categories_nodes":[],"categories_segments":[],"categories_sizes":[],"default_left":[0,0,0,0,0,0,0,0,0,0,0,0,0],"id":45,"left_children":[1,3,-1,-1,5,7,9,-1,-1,-1,11,-1,-1],"loss_changes":[5.9732944E3,9.411865E0,0E0,0E0,4.1471305E0,2.0557976E-1,2.9621868E0,0E0,0E0,0E0,5.252526E-1,0E0,0E0],"parents":[2147483647,0,0,1,1,4,4,5,5,6,6,10,10],"right_children":[2,4,-1,-1,6,8,10,-1,-1,-1,12,-1,-1],"split_conditions":[-1.9548932E-1,-2.0286658E-1,-1.5744854E-2,2.4467899E-2,1.475702E-1,-9.510022E-3,-1.5759889E-2,8.731912E-3,2.3883581E-2,1.4424329E-2,-7.963278E-1,-0E0,-9.753711E-3],"split_indices":[0,0,0,0,2,4,12,0,0,0,7,0,0],"split_type":[0,0,0,0,0,0,0,0,0,0,0,0,0],"sum_hessian":[8.275211E3,3.3866208E3,4.8885903E3,3.3543242E3,3.2296703E1,1.5423374E1,1.6873331E1,5.8069806E0,9.616393E0,6.461863E0,1.0411468E1,5.0080743E0,5.4033937E0],"tree_param":{"num_deleted":"0","num_feature":"14","num_nodes":"13","size_leaf_vector":"1"}},{"base_weights":[-6.086189E-2,-1.5722878E-2,2.3456493E-1,1.0214702E0,-1.5551473E-2,-0E0,1.0333432E0,3.4425226E-1,-3.6993954E-1,2.4045885E-2,7.949684E-1,-0E0,1.2481499E-2,-0E0,-1.2571099E-2,2.0339081E-2,3.8979051E-3],"categories":[],"categories_nodes":[],"categories_segments":[],"categories_sizes":[],"default_left":[0,0,0,0,0,0,0,0,0,0,0,0,0,0,0,0,0],"id":46,"left_children":[1,-1,3,5,-1,7,9,11,13,-1,15,-1,-1,-1,-1,-1,-1],"loss_changes":[1.4864675E3,0E0,3.9262444E3,3.571704E1,0E0,4.3716354E0,5.6152344E-1,1.4369543E0,9.086449E-1,0E0,1.2752705E0,0E0,0E0,0E0,0E0,0E0,0E0],"parents":[2147483647,0,0,2,2,3,3,5,5,6,6,7,7,8,8,10,10],"right_children":[2,-1,4,6,-1,8,10,12,14,-1,16,-1,-1,-1,-1,-1,-1],"split_conditions":[-2.0286658E-1,-1.5722878E-2,1.9691353E-1,-1.9548932E-1,-1.5551473E-2,-1.3150357E-1,1.9028401E-1,-1.6604615E-2,-7.37E-1,2.4045885E-2,1.1225505E0,-0E0,1.2481499E-2,-0E0,-1.2571099E-2,2.0339081E-2,3.8979051E-3],"split_indices":[0,0,0,0,0,11,0,12,4,0,11,0,0,0,0,0,0],"split_type":[0,0,0,0,0,0,0,0,0,0,0,0,0,0,0,0,0],"sum_hessian":[8.1550225E3,2.64172E3,5.5133022E3,2.9492986E3,2.5640037E3,3.394019E1,2.9153584E3,1.7661024E1,1.6279163E1,2.8743313E3,4.1027126E1,5.5816197E0,1.2079405E1,5.7017865E0,1.0577377E1,3.513829E1,5.888837E0],"tree_param":{"num_deleted":"0","num_feature":"14","num_nodes":"17","size_leaf_vector":"1"}},{"base_weights":[3.173951E-2,-6.7273617E-1,2.4069114E-2,-1.5662566E-2,-2.2973524E-1,8.269472E-2,-1.4223402E-2,1.0576376E-2,-8.517626E-3],"categories":[],"categories_nodes":[],"categories_segments":[],"categories_sizes":[],"default_left":[0,0,0,0,0,0,0,0,0],"id":47,"left_children":[1,3,-1,-1,5,7,-1,-1,-1],"loss_changes":[5.7984517E3,4.2788086E0,0E0,0E0,3.7034187E0,2.4806287E0,0E0,0E0,0E0],"parents":[2147483647,0,0,1,1,4,4,5,5],"right_children":[2,4,-1,-1,6,8,-1,-1,-1],"split_conditions":[1.9691353E-1,1.9028401E-1,2.4069114E-2,-1.5662566E-2,1.7153245E-1,9.174864E-2,-1.4223402E-2,1.0576376E-2,-8.517626E-3],"split_indices":[0,0,0,0,10,4,0,0,0],"split_type":[0,0,0,0,0,0,0,0,0],"sum_hessian":[8.183568E3,4.8120513E3,3.3715168E3,4.78483E3,2.7220818E1,1.3973083E1,1.3247735E1,8.574158E0,5.3989244E0],"tree_param":{"num_deleted":"0","num_feature":"14","num_nodes":"9","size_leaf_vector":"1"}},{"base_weights":[2.9379206E-2,1.0266622E0,-1.5636994E-2,2.3959968E-2,4.3459243E-1,7.776768E-1,-0E0,4.4083116E-3,2.162755E-2,1.1644468E-2,-2.2848155E-1,-9.922798E-3,-0E0],"categories":[],"categories_nodes":[],"categories_segments":[],"categories_sizes":[],"default_left":[0,0,0,0,0,0,0,0,0,0,0,0,0],"id":48,"left_children":[1,3,-1,-1,5,7,9,-1,-1,-1,11,-1,-1],"loss_changes":[5.756672E3,1.0949951E1,0E0,0E0,5.0864973E0,8.828745E-1,2.019713E0,0E0,0E0,0E0,5.1482785E-1,0E0,0E0],"parents":[2147483647,0,0,1,1,4,4,5,5,6,6,10,10],"right_children":[2,4,-1,-1,6,8,10,-1,-1,-1,12,-1,-1],"split_conditions":[-1.9548932E-1,-2.0286658E-1,-1.5636994E-2,2.3959968E-2,1.9193803E-1,-3.5136294E-1,-2.0264839E-1,4.4083116E-3,2.162755E-2,1.1644468E-2,2.1442361E-2,-9.922798E-3,-0E0],"split_indices":[0,0,0,0,10,11,4,0,0,0,5,0,0],"split_type":[0,0,0,0,0,0,0,0,0,0,0,0,0],"sum_hessian":[8.206019E3,3.3943071E3,4.811712E3,3.3585002E3,3.580673E1,1.9456104E1,1.6350624E1,5.1832027E0,1.4272902E1,5.536956E0,1.0813668E1,5.758641E0,5.055027E0],"tree_param":{"num_deleted":"0","num_feature":"14","num_nodes":"13","size_leaf_vector":"1"}},{"base_weights":[-5.615784E-2,-1.5616595E-2,2.3518722E-1,1.002387E0,-1.5450272E-2,9.235505E-2,1.0121824E0,-2.8708437E-1,4.7347307E-1,2.3562407E-2,7.316267E-1,-0E0,-1.2090498E-2,-0E0,1.5355884E-2,2.4358798E-3,1.8782565E-2],"categories":[],"categories_nodes":[],"categories_segments":[],"categories_sizes":[],"default_left":[0,0,0,0,0,0,0,0,0,0,0,0,0,0,0,0,0],"id":49,"left_children":[1,-1,3,5,-1,7,9,11,13,-1,15,-1,-1,-1,-1,-1,-1],"loss_changes":[1.4435062E3,0E0,3.770128E3,2.5387451E1,0E0,4.8604307E0,1.2824707E0,1.1409918E0,1.2276227E0,0E0,1.1484718E0,0E0,0E0,0E0,0E0,0E0,0E0],"parents":[2147483647,0,0,2,2,3,3,5,5,6,6,7,7,8,8,10,10],"right_children":[2,-1,4,6,-1,8,10,12,14,-1,16,-1,-1,-1,-1,-1,-1],"split_conditions":[-2.0286658E-1,-1.5616595E-2,1.9691353E-1,-1.9548932E-1,-1.5450272E-2,1.475702E-1,1.9028401E-1,6.634177E-2,-2.0264839E-1,2.3562407E-2,-1.4766508E0,-0E0,-1.2090498E-2,-0E0,1.5355884E-2,2.4358798E-3,1.8782565E-2],"split_indices":[0,0,0,0,0,2,0,4,4,0,2,0,0,0,0,0,0],"split_type":[0,0,0,0,0,0,0,0,0,0,0,0,0,0,0,0,0],"sum_hessian":[8.028636E3,2.576046E3,5.4525903E3,2.945596E3,2.5069944E3,3.2229496E1,2.9133665E3,1.5159516E1,1.706998E1,2.875242E3,3.812458E1,6.495734E0,8.663782E0,5.6292543E0,1.1440726E1,5.364797E0,3.2759785E1],"tree_param":{"num_deleted":"0","num_feature":"14","num_nodes":"17","size_leaf_vector":"1"}},{"base_weights":[2.8392712E-2,-6.6864985E-1,2.3584463E-2,-1.5557989E-2,-3.0170754E-1,-0E0,-1.4010011E-2,7.1908E-3,-6.651982E-3],"categories":[],"categories_nodes":[],"categories_segments":[],"categories_sizes":[],"default_left":[0,0,0,0,0,0,0,0,0],"id":50,"left_children":[1,3,-1,-1,5,7,-1,-1,-1],"loss_changes":[5.59833E3,2.5803223E0,0E0,0E0,2.076282E0,1.3377817E0,0E0,0E0,0E0],"parents":[2147483647,0,0,1,1,4,4,5,5],"right_children":[2,4,-1,-1,6,8,-1,-1,-1],"split_conditions":[1.9691353E-1,1.9028401E-1,2.3584463E-2,-1.5557989E-2,1.7153245E-1,-2.2180806E-1,-1.4010011E-2,7.1908E-3,-6.651982E-3],"split_indices":[0,0,0,0,10,8,0,0,0],"split_type":[0,0,0,0,0,0,0,0,0],"sum_hessian":[8.1271514E3,4.7650967E3,3.3620547E3,4.7379326E3,2.7163935E1,1.4837996E1,1.2325938E1,5.9619794E0,8.876017E0],"tree_param":{"num_deleted":"0","num_feature":"14","num_nodes":"9","size_leaf_vector":"1"}},{"base_weights":[2.8770367E-2,1.0046536E0,-1.5532621E-2,2.348311E-2,2.0437302E-1,-9.8616555E-3,6.1855584E-1,8.987111E-3,-2.3488331E-1,3.0404897E-3,2.0223841E-2,1.8232758E-3,-1.2806093E-2],"categories":[],"categories_nodes":[],"categories_segments":[],"categories_sizes":[],"default_left":[0,0,0,0,0,0,0,0,0,0,0,0,0],"id":51,"left_children":[1,3,-1,-1,5,7,9,-1,11,-1,-1,-1,-1],"loss_changes":[5.5159546E3,1.9317139E1,0E0,0E0,3.364216E0,1.7286749E0,7.265496E-1,0E0,1.8077371E0,0E0,0E0,0E0,0E0],"parents":[2147483647,0,0,1,1,4,4,5,5,6,6,8,8],"right_children":[2,4,-1,-1,6,8,10,-1,12,-1,-1,-1,-1],"split_conditions":[-1.9548932E-1,-2.0286658E-1,-1.5532621E-2,2.348311E-2,-5.6592494E-2,-1.5228901E-2,-1.5924633E-2,8.987111E-3,-7.3494184E-1,3.0404897E-3,2.0223841E-2,1.8232758E-3,-1.2806093E-2],"split_indices":[0,0,0,0,11,12,12,0,7,0,0,0,0],"split_type":[0,0,0,0,0,0,0,0,0,0,0,0,0],"sum_hessian":[8.0940767E3,3.3763281E3,4.7177485E3,3.3439238E3,3.2404316E1,2.0256298E1,1.2148019E1,6.0323596E0,1.4223938E1,5.297624E0,6.8503947E0,6.0031695E0,8.220768E0],"tree_param":{"num_deleted":"0","num_feature":"14","num_nodes":"13","size_leaf_vector":"1"}},{"base_weights":[-6.0877904E-2,-1.55137945E-2,2.2987597E-1,9.837752E-1,-1.5352195E-2,1.4708601E-1,2.3049496E-2,4.165069E-1,-2.6785386E-1,-0E0,1.7743938E-2,-0E0,-1.3027199E-2],"categories":[],"categories_nodes":[],"categories_segments":[],"categories_sizes":[],"default_left":[0,0,0,0,0,0,0,0,0,0,0,0,0],"id":52,"left_children":[1,-1,3,5,-1,7,-1,9,11,-1,-1,-1,-1],"loss_changes":[1.414689E3,0E0,3.6386792E3,2.2898682E1,0E0,4.0234847E0,0E0,2.9014103E0,8.87089E-1,0E0,0E0,0E0,0E0],"parents":[2147483647,0,0,2,2,3,3,5,5,7,7,8,8],"right_children":[2,-1,4,6,-1,8,-1,10,12,-1,-1,-1,-1],"split_conditions":[-2.0286658E-1,-1.55137945E-2,1.9691353E-1,-1.9548932E-1,-1.5352195E-2,-5.6592494E-2,2.3049496E-2,-6.5262385E-2,-2.1781452E-1,-0E0,1.7743938E-2,-0E0,-1.3027199E-2],"split_indices":[0,0,0,0,0,11,0,8,7,0,0,0,0],"split_type":[0,0,0,0,0,0,0,0,0,0,0,0,0],"sum_hessian":[8.003023E3,2.5904065E3,5.4126167E3,2.9332148E3,2.4794019E3,3.4566456E1,2.8986482E3,2.2086208E1,1.24802475E1,1.0715085E1,1.1371123E1,6.9800234E0,5.5002236E0],"tree_param":{"num_deleted":"0","num_feature":"14","num_nodes":"13","size_leaf_vector":"1"}},{"base_weights":[2.4871321E-2,-6.638945E-1,2.3124684E-2,-1.5457019E-2,-2.6349294E-1,1.0087418E-1,-1.4327061E-2,-6.9992273E-4,1.04369745E-2],"categories":[],"categories_nodes":[],"categories_segments":[],"categories_sizes":[],"default_left":[0,0,0,0,0,0,0,0,0],"id":53,"left_children":[1,3,-1,-1,5,7,-1,-1,-1],"loss_changes":[5.455381E3,3.6987305E0,0E0,0E0,4.262433E0,9.582523E-1,0E0,0E0,0E0],"parents":[2147483647,0,0,1,1,4,4,5,5],"right_children":[2,4,-1,-1,6,8,-1,-1,-1],"split_conditions":[1.9691353E-1,1.9028401E-1,2.3124684E-2,-1.5457019E-2,1.7153245E-1,9.4545625E-2,-1.4327061E-2,-6.9992273E-4,1.04369745E-2],"split_indices":[0,0,0,0,10,3,0,0,0],"split_type":[0,0,0,0,0,0,0,0,0],"sum_hessian":[8.1491987E3,4.768756E3,3.3804434E3,4.7391006E3,2.9655325E1,1.3609368E1,1.6045956E1,8.417316E0,5.1920524E0],"tree_param":{"num_deleted":"0","num_feature":"14","num_nodes":"9","size_leaf_vector":"1"}},{"base_weights":[3.473653E-2,9.8585314E-1,-1.5430772E-2,2.3027774E-2,3.3668244E-1,7.707561E-1,-3.5456866E-2,6.2250644E-3,2.1782434E-2,1.3576327E-2,-3.3276576E-1,-0E0,-1.2227168E-2],"categories":[],"categories_nodes":[],"categories_segments":[],"categories_sizes":[],"default_left":[0,0,0,0,0,0,0,0,0,0,0,0,0],"id":54,"left_children":[1,3,-1,-1,5,7,9,-1,-1,-1,11,-1,-1],"loss_changes":[5.379419E3,1.3778564E1,0E0,0E0,6.454226E0,5.1876354E-1,3.3189216E0,0E0,0E0,0E0,8.744379E-1,0E0,0E0],"parents":[2147483647,0,0,1,1,4,4,5,5,6,6,10,10],"right_children":[2,4,-1,-1,6,8,10,-1,-1,-1,12,-1,-1],"split_conditions":[-1.9548932E-1,-2.0286658E-1,-1.5430772E-2,2.3027774E-2,1.3799746E-1,-2.286744E-1,-2.1650873E-2,6.2250644E-3,2.1782434E-2,1.3576327E-2,-8.048009E-1,-0E0,-1.2227168E-2],"split_indices":[0,0,0,0,10,11,12,0,0,0,8,0,0],"split_type":[0,0,0,0,0,0,0,0,0,0,0,0,0],"sum_hessian":[8.081038E3,3.425958E3,4.65508E3,3.3897502E3,3.620784E1,1.7572767E1,1.8635073E1,5.6864696E0,1.1886298E1,5.1321173E0,1.3502955E1,5.0905995E0,8.412355E0],"tree_param":{"num_deleted":"0","num_feature":"14","num_nodes":"13","size_leaf_vector":"1"}},{"base_weights":[-5.8170494E-2,-1.5413221E-2,2.2463249E-1,9.6323943E-1,-1.5256898E-2,8.1123255E-2,2.2613715E-2,-1.2702385E-1,5.2669305E-1,7.76995E-3,-8.36811E-3,-0E0,2.002966E-2],"categories":[],"categories_nodes":[],"categories_segments":[],"categories_sizes":[],"default_left":[0,0,0,0,0,0,0,0,0,0,0,0,0],"id":55,"left_children":[1,-1,3,5,-1,7,-1,9,11,-1,-1,-1,-1],"loss_changes":[1.3554031E3,0E0,3.5120608E3,2.8810303E1,0E0,3.909838E0,0E0,2.7796526E0,2.5027447E0,0E0,0E0,0E0,0E0],"parents":[2147483647,0,0,2,2,3,3,5,5,7,7,8,8],"right_children":[2,-1,4,6,-1,8,-1,10,12,-1,-1,-1,-1],"split_conditions":[-2.0286658E-1,-1.5413221E-2,1.9691353E-1,-1.9548932E-1,-1.5256898E-2,4.1589364E-1,2.2613715E-2,-1.4259648E-1,-2.0264839E-1,7.76995E-3,-8.36811E-3,-0E0,2.002966E-2],"split_indices":[0,0,0,0,0,10,0,13,4,0,0,0,0],"split_type":[0,0,0,0,0,0,0,0,0,0,0,0,0],"sum_hessian":[7.9042827E3,2.5153264E3,5.3889565E3,2.9337078E3,2.4552488E3,3.8487328E1,2.8952205E3,2.5148266E1,1.3339063E1,7.3085866E0,1.7839678E1,5.141038E0,8.198025E0],"tree_param":{"num_deleted":"0","num_feature":"14","num_nodes":"13","size_leaf_vector":"1"}},{"base_weights":[2.5985038E-2,-6.0557835E-2,5.7664126E-2,3.5533335E-2,-9.5956504E-2,1.4064944E-1,2.8212499E-2,1.3212629E-1,-2.532235E-2,-1.6622104E-1,-4.930715E-2,9.9341154E-2,2.0002607E-1,-8.720847E-2,4.155824E-2,2.1108116E-3,2.3453096E-1,9.352818E-2,-1.0196904E-1,-1.3643451E-1,-3.285167E-1,6.703826E-2,-8.743244E-2,1.4667954E-1,3.9321147E-2,9.089589E-2,2.49625E-1,-0E0,-1.7832577E-1,7.975111E-2,1.1611949E-2,4.369614E-3,-2.955696E-3,2.4274404E-3,9.9401055E-3,-6.6107814E-3,3.484827E-3,8.989104E-3,-3.119286E-3,-1.276594E-3,-4.3271384E-3,-1.7019798E-3,-8.827275E-3,-2.5341446E-3,2.4816652E-3,7.265012E-3,-2.266401E-3,1.2377292E-3,5.4690395E-3,-7.119434E-4,3.656592E-3,3.32197E-3,-4.3103127E-3,7.213582E-3,4.123163E-3,-7.025763E-4,7.0553753E-3,-2.197046E-3,-7.6617156E-3,1.1896709E-3,4.486229E-3,7.4557727E-3,1.580064E-4],"categories":[],"categories_nodes":[],"categories_segments":[],"categories_sizes":[],"default_left":[0,0,0,0,0,0,0,0,0,0,0,0,0,0,0,0,0,0,0,0,0,0,0,0,0,0,0,0,0,0,0,0,0,0,0,0,0,0,0,0,0,0,0,0,0,0,0,0,0,0,0,0,0,0,0,0,0,0,0,0,0,0,0],"id":56,"left_children":[1,3,5,7,9,11,13,15,17,19,21,23,25,27,29,31,33,35,37,39,41,43,45,47,49,51,53,55,57,59,61,-1,-1,-1,-1,-1,-1,-1,-1,-1,-1,-1,-1,-1,-1,-1,-1,-1,-1,-1,-1,-1,-1,-1,-1,-1,-1,-1,-1,-1,-1,-1,-1],"loss_changes":[2.1949167E1,7.32321E0,1.4209814E1,3.4344509E0,4.9751015E0,3.5177307E0,6.647395E0,2.8167803E0,3.1514218E0,2.6263065E0,4.2304068E0,2.4418488E0,3.0877666E0,3.5830994E0,4.3834157E0,2.5308573E0,2.6702757E0,2.7234042E0,3.213365E0,1.9626093E0,8.621273E-1,1.6161246E0,2.7991552E0,3.9437504E0,3.484889E0,2.849447E0,1.4681549E0,2.1631427E0,2.4450054E0,5.3092318E0,3.0098367E0,0E0,0E0,0E0,0E0,0E0,0E0,0E0,0E0,0E0,0E0,0E0,0E0,0E0,0E0,0E0,0E0,0E0,0E0,0E0,0E0,0E0,0E0,0E0,0E0,0E0,0E0,0E0,0E0,0E0,0E0,0E0,0E0],"parents":[2147483647,0,0,1,1,2,2,3,3,4,4,5,5,6,6,7,7,8,8,9,9,10,10,11,11,12,12,13,13,14,14,15,15,16,16,17,17,18,18,19,19,20,20,21,21,22,22,23,23,24,24,25,25,26,26,27,27,28,28,29,29,30,30],"right_children":[2,4,6,8,10,12,14,16,18,20,22,24,26,28,30,32,34,36,38,40,42,44,46,48,50,52,54,56,58,60,62,-1,-1,-1,-1,-1,-1,-1,-1,-1,-1,-1,-1,-1,-1,-1,-1,-1,-1,-1,-1,-1,-1,-1,-1,-1,-1,-1,-1,-1,-1,-1,-1],"split_conditions":[-7.156967E-1,-2.6890644E-1,-8.816229E-1,1.1020215E-2,-1.203087E0,7.516529E-1,-8.1997967E-1,-8.4368265E-1,-1.323738E-1,4.2642617E-1,-4.8884517E-1,2.2288236E-1,-2.7108812E-1,5.348439E-1,-2.3650001E-1,-1.3834409E-2,-6.43864E-3,7.221771E-2,-1.2979679E0,-6.952616E-2,-3.3203393E-1,-1.0686929E0,-1.2979679E0,-1.3742219E0,1.23910844E-1,-1.3490658E-3,4.309061E-1,3.8475534E-1,1.5749949E-1,6.32661E-1,-7.9328716E-1,4.369614E-3,-2.955696E-3,2.4274404E-3,9.9401055E-3,-6.6107814E-3,3.484827E-3,8.989104E-3,-3.119286E-3,-1.276594E-3,-4.3271384E-3,-1.7019798E-3,-8.827275E-3,-2.5341446E-3,2.4816652E-3,7.265012E-3,-2.266401E-3,1.2377292E-3,5.4690395E-3,-7.119434E-4,3.656592E-3,3.32197E-3,-4.3103127E-3,7.213582E-3,4.123163E-3,-7.025763E-4,7.0553753E-3,-2.197046E-3,-7.6617156E-3,1.1896709E-3,4.486229E-3,7.4557727E-3,1.580064E-4],"split_indices":[6,1,2,2,6,7,11,2,4,5,2,9,4,2,9,12,12,2,7,4,10,6,7,10,7,12,9,6,9,11,11,0,0,0,0,0,0,0,0,0,0,0,0,0,0,0,0,0,0,0,0,0,0,0,0,0,0,0,0,0,0,0,0],"split_type":[0,0,0,0,0,0,0,0,0,0,0,0,0,0,0,0,0,0,0,0,0,0,0,0,0,0,0,0,0,0,0,0,0,0,0,0,0,0,0,0,0,0,0,0,0,0,0,0,0,0,0,0,0,0,0,0,0,0,0,0,0,0,0],"sum_hessian":[8.0063364E3,2.1388196E3,5.8675166E3,5.699231E2,1.5688965E3,1.5298671E3,4.33765E3,2.2509653E2,3.4482657E2,6.1919086E2,9.497056E2,9.1018726E2,6.196798E2,4.4345483E2,3.8941948E3,1.0258985E2,1.22506676E2,1.3122548E2,2.1360109E2,5.275013E2,9.168959E1,2.2936266E2,7.2034296E2,5.0149762E2,4.086896E2,1.9867569E2,4.210041E2,2.2487343E2,2.1858142E2,1.6999702E3,2.1942246E3,4.4488766E1,5.810108E1,7.592834E1,4.6578342E1,1.52123785E1,1.1601311E2,1.1677728E1,2.0192337E2,2.0692056E2,3.205807E2,1.8106945E1,7.358265E1,3.8722927E1,1.9063972E2,1.5952634E1,7.043903E2,2.4924684E2,2.522508E2,2.5272931E2,1.5596028E2,1.695255E2,2.9150198E1,2.2112372E2,1.9988037E2,2.0370284E2,2.1170597E1,1.4445937E2,7.4122055E1,1.3649648E3,3.3500537E2,3.0839893E1,2.1633848E3],"tree_param":{"num_deleted":"0","num_feature":"14","num_nodes":"63","size_leaf_vector":"1"}},{"base_weights":[2.96117E-2,9.732623E-1,-1.5354469E-2,2.2685617E-2,4.2531663E-1,-1.5962101E-3,6.512652E-1,2.0063333E-2,2.2209731E-3],"categories":[],"categories_nodes":[],"categories_segments":[],"categories_sizes":[],"default_left":[0,0,0,0,0,0,0,0,0],"id":57,"left_children":[1,3,-1,-1,5,-1,7,-1,-1],"loss_changes":[5.237493E3,7.259033E0,0E0,0E0,3.7613344E0,0E0,1.7789106E0,0E0,0E0],"parents":[2147483647,0,0,1,1,4,4,6,6],"right_children":[2,4,-1,-1,6,-1,8,-1,-1],"split_conditions":[-1.9548932E-1,-2.0286658E-1,-1.5354469E-2,2.2685617E-2,-5.273142E-1,-1.5962101E-3,4.1589364E-1,2.0063333E-2,2.2209731E-3],"split_indices":[0,0,0,0,11,0,10,0,0],"split_type":[0,0,0,0,0,0,0,0,0],"sum_hessian":[8.0265796E3,3.3946194E3,4.63196E3,3.3652366E3,2.9382816E1,8.190914E0,2.1191902E1,1.4224511E1,6.9673915E0],"tree_param":{"num_deleted":"0","num_feature":"14","num_nodes":"9","size_leaf_vector":"1"}},{"base_weights":[-5.284651E-2,-1.5296047E-2,2.2702363E-1,9.515847E-1,-1.5217113E-2,1.648887E-1,2.228263E-2,-1.6289122E-1,4.7814283E-1,-0E0,-1.2695162E-2,2.1823527E-2,3.1987976E-3],"categories":[],"categories_nodes":[],"categories_segments":[],"categories_sizes":[],"default_left":[0,0,0,0,0,0,0,0,0,0,0,0,0],"id":58,"left_children":[1,-1,3,5,-1,7,-1,9,11,-1,-1,-1,-1],"loss_changes":[1.3373518E3,0E0,3.4479565E3,1.9683594E1,0E0,3.7602797E0,0E0,1.3550643E0,2.082882E0,0E0,0E0,0E0,0E0],"parents":[2147483647,0,0,2,2,3,3,5,5,7,7,8,8],"right_children":[2,-1,4,6,-1,8,-1,10,12,-1,-1,-1,-1],"split_conditions":[-2.0286658E-1,-1.5296047E-2,1.9691353E-1,-1.9548932E-1,-1.5217113E-2,1.9193803E-1,2.228263E-2,4.4649425E-1,-1.6476141E-2,-0E0,-1.2695162E-2,2.1823527E-2,3.1987976E-3],"split_indices":[0,0,0,0,0,10,0,8,5,0,0,0,0],"split_type":[0,0,0,0,0,0,0,0,0,0,0,0,0],"sum_hessian":[7.8771914E3,2.4881636E3,5.389028E3,2.960416E3,2.4286118E3,3.390145E1,2.9265144E3,1.5408549E1,1.8492903E1,9.6984E0,5.71015E0,6.7280507E0,1.1764852E1],"tree_param":{"num_deleted":"0","num_feature":"14","num_nodes":"13","size_leaf_vector":"1"}},{"base_weights":[2.2831393E-2,-6.5864193E-1,2.2507707E-2,-1.5320997E-2,-3.5960248E-1,2.4208617E-3,-1.2012152E-2],"categories":[],"categories_nodes":[],"categories_segments":[],"categories_sizes":[],"default_left":[0,0,0,0,0,0,0],"id":59,"left_children":[1,3,-1,-1,5,-1,-1],"loss_changes":[5.218437E3,1.5845947E0,0E0,0E0,2.524116E0,0E0,0E0],"parents":[2147483647,0,0,1,1,4,4],"right_children":[2,4,-1,-1,6,-1,-1],"split_conditions":[1.9691353E-1,1.9028401E-1,2.2507707E-2,-1.5320997E-2,-1.3207992E0,2.4208617E-3,-1.2012152E-2],"split_indices":[0,0,0,0,10,0,0],"split_type":[0,0,0,0,0,0,0],"sum_hessian":[8.0828857E3,4.700578E3,3.3823079E3,4.6708716E3,2.970634E1,6.3275557E0,2.3378784E1],"tree_param":{"num_deleted":"0","num_feature":"14","num_nodes":"7","size_leaf_vector":"1"}},{"base_weights":[3.0816002E-2,9.537656E-1,-1.5257637E-2,2.2271354E-2,2.9295844E-1,6.5280193E-1,-1.2152427E-2,2.1008242E-2,6.309311E-3,4.197264E-3,-5.693823E-3],"categories":[],"categories_nodes":[],"categories_segments":[],"categories_sizes":[],"default_left":[0,0,0,0,0,0,0,0,0,0,0],"id":60,"left_children":[1,3,-1,-1,5,7,9,-1,-1,-1,-1],"loss_changes":[5.095145E3,1.294751E1,0E0,0E0,4.13507E0,6.1745024E-1,8.2281E-1,0E0,0E0,0E0,0E0],"parents":[2147483647,0,0,1,1,4,4,5,5,6,6],"right_children":[2,4,-1,-1,6,8,10,-1,-1,-1,-1],"split_conditions":[-1.9548932E-1,-2.0286658E-1,-1.5257637E-2,2.2271354E-2,1.3744E-1,-8.2626656E-2,-2.785732E-1,2.1008242E-2,6.309311E-3,4.197264E-3,-5.693823E-3],"split_indices":[0,0,0,0,2,6,1,0,0,0,0],"split_type":[0,0,0,0,0,0,0,0,0,0,0],"sum_hessian":[8.018007E3,3.426033E3,4.591974E3,3.3930894E3,3.2943497E1,1.6173399E1,1.6770098E1,8.339168E0,7.834232E0,7.3887024E0,9.381394E0],"tree_param":{"num_deleted":"0","num_feature":"14","num_nodes":"11","size_leaf_vector":"1"}},{"base_weights":[-5.8899943E-2,-1.5201581E-2,2.1293858E-1,9.340934E-1,-1.5125499E-2,1.3061638E-1,9.4274026E-1,4.766918E-1,-2.8777078E-1,2.193649E-2,7.146647E-1,-0E0,1.6871147E-2,-0E0,-1.3400429E-2,-0E0,1.975071E-2],"categories":[],"categories_nodes":[],"categories_segments":[],"categories_sizes":[],"default_left":[0,0,0,0,0,0,0,0,0,0,0,0,0,0,0,0,0],"id":61,"left_children":[1,-1,3,5,-1,7,9,11,13,-1,15,-1,-1,-1,-1,-1,-1],"loss_changes":[1.257989E3,0E0,3.3235886E3,1.9337158E1,0E0,4.8244114E0,3.9453125E-1,2.653716E0,1.1471891E0,0E0,3.2232857E0,0E0,0E0,0E0,0E0,0E0,0E0],"parents":[2147483647,0,0,2,2,3,3,5,5,6,6,7,7,8,8,10,10],"right_children":[2,-1,4,6,-1,8,10,12,14,-1,16,-1,-1,-1,-1,-1,-1],"split_conditions":[-2.0286658E-1,-1.5201581E-2,1.9691353E-1,-1.9548932E-1,-1.5125499E-2,-5.6592494E-2,1.9028401E-1,-1.6604615E-2,3.2545424E-1,2.193649E-2,-1.6634201E0,-0E0,1.6871147E-2,-0E0,-1.3400429E-2,-0E0,1.975071E-2],"split_indices":[0,0,0,0,0,11,0,12,8,0,10,0,0,0,0,0,0],"split_type":[0,0,0,0,0,0,0,0,0,0,0,0,0,0,0,0,0],"sum_hessian":[7.758016E3,2.4300093E3,5.328007E3,2.9058845E3,2.4221226E3,3.1924671E1,2.8739597E3,1.8467262E1,1.3457409E1,2.8356006E3,3.835906E1,5.6261663E0,1.2841096E1,6.827392E0,6.630017E0,6.935632E0,3.1423426E1],"tree_param":{"num_deleted":"0","num_feature":"14","num_nodes":"17","size_leaf_vector":"1"}},{"base_weights":[2.7458593E-2,-6.5404147E-1,2.2102585E-2,-1.5225992E-2,-2.465197E-1,7.9133905E-2,-1.3970659E-2,7.31274E-3,-4.0735182E-4],"categories":[],"categories_nodes":[],"categories_segments":[],"categories_sizes":[],"default_left":[0,0,0,0,0,0,0,0,0],"id":62,"left_children":[1,3,-1,-1,5,7,-1,-1,-1],"loss_changes":[4.9845244E3,3.400879E0,0E0,0E0,3.5331447E0,5.3003544E-1,0E0,0E0,0E0],"parents":[2147483647,0,0,1,1,4,4,5,5],"right_children":[2,4,-1,-1,6,8,-1,-1,-1],"split_conditions":[1.9691353E-1,1.9028401E-1,2.2102585E-2,-1.5225992E-2,1.190903E-1,-4.2149022E-1,-1.3970659E-2,7.31274E-3,-4.0735182E-4],"split_indices":[0,0,0,0,2,8,0,0,0],"split_type":[0,0,0,0,0,0,0,0,0],"sum_hessian":[7.90458E3,4.5513228E3,3.3532573E3,4.5245845E3,2.673861E1,1.290492E1,1.383369E1,5.9402575E0,6.9646626E0],"tree_param":{"num_deleted":"0","num_feature":"14","num_nodes":"9","size_leaf_vector":"1"}},{"base_weights":[2.5934039E-2,9.367861E-1,-1.51628535E-2,2.1878611E-2,3.9429533E-1,5.808357E-1,-6.0079573E-3,-0E0,7.40911E-1,2.0257121E-2,4.683915E-3],"categories":[],"categories_nodes":[],"categories_segments":[],"categories_sizes":[],"default_left":[0,0,0,0,0,0,0,0,0,0,0],"id":63,"left_children":[1,3,-1,-1,5,7,-1,-1,9,-1,-1],"loss_changes":[4.8750396E3,1.0254395E1,0E0,0E0,5.1424522E0,2.8851147E0,0E0,0E0,9.121561E-1,0E0,0E0],"parents":[2147483647,0,0,1,1,4,4,5,5,8,8],"right_children":[2,4,-1,-1,6,8,-1,-1,10,-1,-1],"split_conditions":[-1.9548932E-1,-2.0286658E-1,-1.51628535E-2,2.1878611E-2,6.704236E-1,-8.480429E-1,-6.0079573E-3,-0E0,4.1589364E-1,2.0257121E-2,4.683915E-3],"split_indices":[0,0,0,0,2,3,0,0,10,0,0],"split_type":[0,0,0,0,0,0,0,0,0,0,0],"sum_hessian":[7.87611E3,3.3655764E3,4.5105337E3,3.3258599E3,3.9716743E1,3.1831268E1,7.885475E0,7.0894675E0,2.47418E1,1.8619194E1,6.1226077E0],"tree_param":{"num_deleted":"0","num_feature":"14","num_nodes":"11","size_leaf_vector":"1"}},{"base_weights":[-5.4076165E-2,-1.5110147E-2,2.175922E-1,9.1723233E-1,-1.5035745E-2,8.323688E-2,9.2626965E-1,-2.3794617E-1,4.321945E-1,2.1560906E-2,6.645522E-1,-0E0,-1.35338E-2,-0E0,1.4820152E-2,1.8293971E-2,4.2810263E-3],"categories":[],"categories_nodes":[],"categories_segments":[],"categories_sizes":[],"default_left":[0,0,0,0,0,0,0,0,0,0,0,0,0,0,0,0,0],"id":64,"left_children":[1,-1,3,5,-1,7,9,11,13,-1,15,-1,-1,-1,-1,-1,-1],"loss_changes":[1.2555269E3,0E0,3.2204285E3,2.1371094E1,0E0,3.8310544E0,9.641113E-1,1.548092E0,1.630276E0,0E0,1.4249821E0,0E0,0E0,0E0,0E0,0E0,0E0],"parents":[2147483647,0,0,2,2,3,3,5,5,6,6,7,7,8,8,10,10],"right_children":[2,-1,4,6,-1,8,10,12,14,-1,16,-1,-1,-1,-1,-1,-1],"split_conditions":[-2.0286658E-1,-1.5110147E-2,1.9691353E-1,-1.9548932E-1,-1.5035745E-2,1.9193803E-1,1.9028401E-1,4.4649425E-1,-1.7932827E-2,2.1560906E-2,4.374808E-1,-0E0,-1.35338E-2,-0E0,1.4820152E-2,1.8293971E-2,4.2810263E-3],"split_indices":[0,0,0,0,0,10,0,8,12,0,11,0,0,0,0,0,0],"split_type":[0,0,0,0,0,0,0,0,0,0,0,0,0,0,0,0,0],"sum_hessian":[7.736261E3,2.4196956E3,5.316566E3,2.9407148E3,2.375851E3,3.24622E1,2.9082527E3,1.5784368E1,1.6677832E1,2.871388E3,3.6864815E1,8.774142E0,7.0102253E0,5.1552796E0,1.1522552E1,2.7919218E1,8.945598E0],"tree_param":{"num_deleted":"0","num_feature":"14","num_nodes":"17","size_leaf_vector":"1"}},{"base_weights":[2.7273124E-2,-6.5027285E-1,2.1717342E-2,-1.513324E-2,-3.3307165E-1,-7.887554E-3,-1.3985902E-2,-1.2390598E-2,1.9827245E-1,-0E0,1.1763803E-2],"categories":[],"categories_nodes":[],"categories_segments":[],"categories_sizes":[],"default_left":[0,0,0,0,0,0,0,0,0,0,0],"id":65,"left_children":[1,3,-1,-1,5,7,-1,-1,9,-1,-1],"loss_changes":[4.8384517E3,2.0477295E0,0E0,0E0,2.2460866E0,1.9673567E0,0E0,0E0,9.388088E-1,0E0,0E0],"parents":[2147483647,0,0,1,1,4,4,5,5,8,8],"right_children":[2,4,-1,-1,6,8,-1,-1,10,-1,-1],"split_conditions":[1.9691353E-1,1.9028401E-1,2.1717342E-2,-1.513324E-2,1.7153245E-1,-6.2518734E-1,-1.3985902E-2,-1.2390598E-2,-9.91621E-1,-0E0,1.1763803E-2],"split_indices":[0,0,0,0,10,8,0,0,2,0,0],"split_type":[0,0,0,0,0,0,0,0,0,0,0],"sum_hessian":[7.8571533E3,4.500788E3,3.3563655E3,4.4699937E3,3.079457E1,1.5353289E1,1.5441283E1,5.287672E0,1.0065617E1,5.043149E0,5.022468E0],"tree_param":{"num_deleted":"0","num_feature":"14","num_nodes":"11","size_leaf_vector":"1"}},{"base_weights":[2.689975E-2,9.216656E-1,-1.5072076E-2,2.1504715E-2,3.549763E-1,6.2666833E-1,-4.240772E-3,1.7561452E-2,6.827931E-4],"categories":[],"categories_nodes":[],"categories_segments":[],"categories_sizes":[],"default_left":[0,0,0,0,0,0,0,0,0],"id":66,"left_children":[1,3,-1,-1,5,7,-1,-1,-1],"loss_changes":[4.743446E3,8.939453E0,0E0,0E0,5.1156106E0,1.1463671E0,0E0,0E0,0E0],"parents":[2147483647,0,0,1,1,4,4,5,5],"right_children":[2,4,-1,-1,6,8,-1,-1,-1],"split_conditions":[-1.9548932E-1,-2.0286658E-1,-1.5072076E-2,2.1504715E-2,4.1589364E-1,1.0823216E-1,-4.240772E-3,1.7561452E-2,6.827931E-4],"split_indices":[0,0,0,0,10,2,0,0,0],"split_type":[0,0,0,0,0,0,0,0,0],"sum_hessian":[7.8352686E3,3.373989E3,4.46128E3,3.3416765E3,3.2312473E1,2.2399036E1,9.913436E0,1.7283262E1,5.1157746E0],"tree_param":{"num_deleted":"0","num_feature":"14","num_nodes":"9","size_leaf_vector":"1"}},{"base_weights":[-4.9991805E-2,-1.5020156E-2,2.1597782E-1,9.017315E-1,-1.4949163E-2,1.0343026E-1,2.1144455E-2,-6.913116E-2,5.292551E-1,6.1302446E-3,-6.2870015E-3,3.3150704E-3,1.9005613E-2],"categories":[],"categories_nodes":[],"categories_segments":[],"categories_sizes":[],"default_left":[0,0,0,0,0,0,0,0,0,0,0,0,0],"id":67,"left_children":[1,-1,3,5,-1,7,-1,9,11,-1,-1,-1,-1],"loss_changes":[1.2160315E3,0E0,3.1231482E3,2.185376E1,0E0,3.0304692E0,0E0,1.6829419E0,5.537591E-1,0E0,0E0,0E0,0E0],"parents":[2147483647,0,0,2,2,3,3,5,5,7,7,8,8],"right_children":[2,-1,4,6,-1,8,-1,10,12,-1,-1,-1,-1],"split_conditions":[-2.0286658E-1,-1.5020156E-2,1.9691353E-1,-1.9548932E-1,-1.4949163E-2,7.303176E-1,2.1144455E-2,-1.4259648E-1,-2.2817527E-1,6.1302446E-3,-6.2870015E-3,3.3150704E-3,1.9005613E-2],"split_indices":[0,0,0,0,0,10,0,13,3,0,0,0,0],"split_type":[0,0,0,0,0,0,0,0,0,0,0,0,0],"sum_hessian":[7.6507515E3,2.3576846E3,5.293067E3,2.9458374E3,2.3472292E3,3.6108253E1,2.9097292E3,2.4523336E1,1.1584918E1,7.782795E0,1.6740541E1,6.2354355E0,5.3494825E0],"tree_param":{"num_deleted":"0","num_feature":"14","num_nodes":"13","size_leaf_vector":"1"}},{"base_weights":[2.6148442E-2,-6.4659655E-1,2.1351516E-2,-1.5043393E-2,-3.3175653E-1,-2.0089864E-3,-1.3779543E-2,-4.4415323E-3,2.3295602E-3],"categories":[],"categories_nodes":[],"categories_segments":[],"categories_sizes":[],"default_left":[0,0,0,0,0,0,0,0,0],"id":68,"left_children":[1,3,-1,-1,5,7,-1,-1,-1],"loss_changes":[4.683929E3,1.7199707E0,0E0,0E0,1.9705052E0,3.4492934E-1,0E0,0E0,0E0],"parents":[2147483647,0,0,1,1,4,4,5,5],"right_children":[2,4,-1,-1,6,8,-1,-1,-1],"split_conditions":[1.9691353E-1,1.9028401E-1,2.1351516E-2,-1.5043393E-2,1.14843234E-1,-7.1454175E-2,-1.3779543E-2,-4.4415323E-3,2.3295602E-3],"split_indices":[0,0,0,0,10,11,0,0,0],"split_type":[0,0,0,0,0,0,0,0,0],"sum_hessian":[7.7859595E3,4.442584E3,3.3433752E3,4.4146626E3,2.7921326E1,1.376008E1,1.4161245E1,7.4142575E0,6.345823E0],"tree_param":{"num_deleted":"0","num_feature":"14","num_nodes":"9","size_leaf_vector":"1"}},{"base_weights":[3.5154704E-2,9.0720755E-1,-1.4982855E-2,2.1150041E-2,4.7310188E-1,7.656272E-1,5.028773E-2,8.918753E-3,2.2105973E-2,8.894104E-3,-1.8709798E-3],"categories":[],"categories_nodes":[],"categories_segments":[],"categories_sizes":[],"default_left":[0,0,0,0,0,0,0,0,0,0,0],"id":69,"left_children":[1,3,-1,-1,5,7,9,-1,-1,-1,-1],"loss_changes":[4.6115728E3,5.346924E0,0E0,0E0,3.8557024E0,3.4878063E-1,9.441283E-1,0E0,0E0,0E0,0E0],"parents":[2147483647,0,0,1,1,4,4,5,5,6,6],"right_children":[2,4,-1,-1,6,8,10,-1,-1,-1,-1],"split_conditions":[-1.9548932E-1,-2.0286658E-1,-1.4982855E-2,2.1150041E-2,1.475702E-1,-1.3150357E-1,-2.0264839E-1,8.918753E-3,2.2105973E-2,8.894104E-3,-1.8709798E-3],"split_indices":[0,0,0,0,2,11,4,0,0,0,0],"split_type":[0,0,0,0,0,0,0,0,0,0,0],"sum_hessian":[7.765229E3,3.4052935E3,4.3599355E3,3.369162E3,3.6131325E1,2.0181284E1,1.5950041E1,8.204493E0,1.1976791E1,6.057028E0,9.893013E0],"tree_param":{"num_deleted":"0","num_feature":"14","num_nodes":"11","size_leaf_vector":"1"}},{"base_weights":[-4.9860384E-2,-1.4933676E-2,2.1546434E-1,8.889528E-1,-1.4863923E-2,2.1597683E-1,8.9647794E-1,2.2327432E-2,-1.4045788E-3,2.08601E-2,6.7655295E-1,-5.954996E-3,1.8086022E-2,5.032943E-3,1.8992594E-2],"categories":[],"categories_nodes":[],"categories_segments":[],"categories_sizes":[],"default_left":[0,0,0,0,0,0,0,0,0,0,0,0,0,0,0],"id":70,"left_children":[1,-1,3,5,-1,7,9,-1,11,-1,13,-1,-1,-1,-1],"loss_changes":[1.1945592E3,0E0,3.0205706E3,1.3952881E1,0E0,6.2302012E0,3.3911133E-1,0E0,4.73767E0,0E0,1.6812954E0,0E0,0E0,0E0,0E0],"parents":[2147483647,0,0,2,2,3,3,5,5,6,6,8,8,10,10],"right_children":[2,-1,4,6,-1,8,10,-1,12,-1,14,-1,-1,-1,-1],"split_conditions":[-2.0286658E-1,-1.4933676E-2,1.9691353E-1,-1.9548932E-1,-1.4863923E-2,-5.273142E-1,1.9028401E-1,2.2327432E-2,6.704236E-1,2.08601E-2,-1.1846453E0,-5.954996E-3,1.8086022E-2,5.032943E-3,1.8992594E-2],"split_indices":[0,0,0,0,0,11,0,0,2,0,10,0,0,0,0],"split_type":[0,0,0,0,0,0,0,0,0,0,0,0,0,0,0],"sum_hessian":[7.579523E3,2.3415833E3,5.23794E3,2.9321794E3,2.3057605E3,3.3625015E1,2.8985544E3,8.232005E0,2.539301E1,2.8602163E3,3.8338123E1,1.9983341E1,5.409668E0,1.0453948E1,2.7884176E1],"tree_param":{"num_deleted":"0","num_feature":"14","num_nodes":"15","size_leaf_vector":"1"}},{"base_weights":[2.4948841E-2,-6.42183E-1,2.1003438E-2,-1.4956291E-2,-2.646324E-1,-0E0,-1.372205E-2,-4.8387456E-3,8.916087E-3],"categories":[],"categories_nodes":[],"categories_segments":[],"categories_sizes":[],"default_left":[0,0,0,0,0,0,0,0,0],"id":71,"left_children":[1,3,-1,-1,5,7,-1,-1,-1],"loss_changes":[4.529295E3,3.3392334E0,0E0,0E0,2.9372108E0,1.4134614E0,0E0,0E0,0E0],"parents":[2147483647,0,0,1,1,4,4,5,5],"right_children":[2,4,-1,-1,6,8,-1,-1,-1],"split_conditions":[1.9691353E-1,1.9028401E-1,2.1003438E-2,-1.4956291E-2,1.7153245E-1,4.374808E-1,-1.372205E-2,-4.8387456E-3,8.916087E-3],"split_indices":[0,0,0,0,10,11,0,0,0],"split_type":[0,0,0,0,0,0,0,0,0],"sum_hessian":[7.711303E3,4.3864043E3,3.3248994E3,4.35583E3,3.0573845E1,1.6215363E1,1.4358483E1,9.783292E0,6.4320707E0],"tree_param":{"num_deleted":"0","num_feature":"14","num_nodes":"9","size_leaf_vector":"1"}},{"base_weights":[2.4327025E-2,8.9095634E-1,-1.4896572E-2,2.081134E-2,3.591655E-1,6.9331175E-1,-6.0729798E-2,1.852518E-3,1.9402105E-2,4.956511E-3,-2.961547E-1,-1.3876824E-2,-0E0],"categories":[],"categories_nodes":[],"categories_segments":[],"categories_sizes":[],"default_left":[0,0,0,0,0,0,0,0,0,0,0,0,0],"id":72,"left_children":[1,3,-1,-1,5,7,9,-1,-1,-1,11,-1,-1],"loss_changes":[4.4275713E3,9.69043E0,0E0,0E0,6.005682E0,1.2878904E0,1.1457809E0,0E0,0E0,0E0,9.407858E-1,0E0,0E0],"parents":[2147483647,0,0,1,1,4,4,5,5,6,6,10,10],"right_children":[2,4,-1,-1,6,8,10,-1,-1,-1,12,-1,-1],"split_conditions":[-1.9548932E-1,-2.0286658E-1,-1.4896572E-2,2.081134E-2,1.9193803E-1,-1.4259648E-1,-1.7932827E-2,1.852518E-3,1.9402105E-2,4.956511E-3,-1.1657422E-2,-1.3876824E-2,-0E0],"split_indices":[0,0,0,0,10,13,12,0,0,0,12,0,0],"split_type":[0,0,0,0,0,0,0,0,0,0,0,0,0],"sum_hessian":[7.665811E3,3.332754E3,4.333057E3,3.29369E3,3.9063965E1,2.270523E1,1.6358734E1,5.3704824E0,1.7334747E1,6.0482597E0,1.0310474E1,5.0075903E0,5.302884E0],"tree_param":{"num_deleted":"0","num_feature":"14","num_nodes":"13","size_leaf_vector":"1"}},{"base_weights":[-5.3648233E-2,-1.4848771E-2,2.1008594E-1,8.739362E-1,-1.4781577E-2,1.533622E-1,8.8223916E-1,4.1194054E-1,-2.0299101E-1,2.0532025E-2,6.5245974E-1,1.450311E-3,1.570069E-2,-0E0,-1.0535622E-2,3.3853976E-3,1.6568748E-2],"categories":[],"categories_nodes":[],"categories_segments":[],"categories_sizes":[],"default_left":[0,0,0,0,0,0,0,0,0,0,0,0,0,0,0,0,0],"id":73,"left_children":[1,-1,3,5,-1,7,9,11,13,-1,15,-1,-1,-1,-1,-1,-1],"loss_changes":[1.1522856E3,0E0,2.8895251E3,1.640918E1,0E0,3.3217149E0,4.831543E-1,1.3722854E0,1.010117E0,0E0,4.865322E-1,0E0,0E0,0E0,0E0,0E0,0E0],"parents":[2147483647,0,0,2,2,3,3,5,5,6,6,7,7,8,8,10,10],"right_children":[2,-1,4,6,-1,8,10,12,14,-1,16,-1,-1,-1,-1,-1,-1],"split_conditions":[-2.0286658E-1,-1.4848771E-2,1.9691353E-1,-1.9548932E-1,-1.4781577E-2,-5.6592494E-2,1.9028401E-1,-6.5262385E-2,-2.96936E-1,2.0532025E-2,-5.833499E-1,1.450311E-3,1.570069E-2,-0E0,-1.0535622E-2,3.3853976E-3,1.6568748E-2],"split_indices":[0,0,0,0,0,11,0,8,8,0,5,0,0,0,0,0,0],"split_type":[0,0,0,0,0,0,0,0,0,0,0,0,0,0,0,0,0],"sum_hessian":[7.448722E3,2.3117175E3,5.1370044E3,2.8806687E3,2.256336E3,3.391849E1,2.8467502E3,2.0893646E1,1.3024847E1,2.809458E3,3.7292164E1,1.0370385E1,1.0523261E1,5.6827507E0,7.342096E0,5.479887E0,3.1812277E1],"tree_param":{"num_deleted":"0","num_feature":"14","num_nodes":"17","size_leaf_vector":"1"}},{"base_weights":[2.6078574E-2,-6.3863474E-1,2.0671451E-2,-1.4869832E-2,-2.5151375E-1,3.7715737E-2,-1.3634298E-2,-4.427006E-3,6.481551E-3],"categories":[],"categories_nodes":[],"categories_segments":[],"categories_sizes":[],"default_left":[0,0,0,0,0,0,0,0,0],"id":74,"left_children":[1,3,-1,-1,5,7,-1,-1,-1],"loss_changes":[4.4171465E3,3.1165771E0,0E0,0E0,3.1289463E0,8.4539E-1,0E0,0E0,0E0],"parents":[2147483647,0,0,1,1,4,4,5,5],"right_children":[2,4,-1,-1,6,8,-1,-1,-1],"split_conditions":[1.9691353E-1,1.9028401E-1,2.0671451E-2,-1.4869832E-2,1.14843234E-1,-4.570749E-1,-1.3634298E-2,-4.427006E-3,6.481551E-3],"split_indices":[0,0,0,0,10,9,0,0,0],"split_type":[0,0,0,0,0,0,0,0,0],"sum_hessian":[7.682465E3,4.343472E3,3.3389924E3,4.315902E3,2.7570538E1,1.3679516E1,1.3891022E1,5.4097004E0,8.269815E0],"tree_param":{"num_deleted":"0","num_feature":"14","num_nodes":"9","size_leaf_vector":"1"}},{"base_weights":[2.693852E-2,8.7770313E-1,-1.4812719E-2,2.0487638E-2,3.6252293E-1,5.4448754E-1,-5.371224E-3,-0E0,6.510386E-1,4.0383353E-3,1.7695157E-2],"categories":[],"categories_nodes":[],"categories_segments":[],"categories_sizes":[],"default_left":[0,0,0,0,0,0,0,0,0,0,0],"id":75,"left_children":[1,3,-1,-1,5,7,-1,-1,9,-1,-1],"loss_changes":[4.3140815E3,8.196777E0,0E0,0E0,4.1808276E0,1.4213142E0,0E0,0E0,5.006647E-1,0E0,0E0],"parents":[2147483647,0,0,1,1,4,4,5,5,8,8],"right_children":[2,4,-1,-1,6,8,-1,-1,10,-1,-1],"split_conditions":[-1.9548932E-1,-2.0286658E-1,-1.4812719E-2,2.0487638E-2,6.704236E-1,-8.480429E-1,-5.371224E-3,-0E0,-5.069584E-1,4.0383353E-3,1.7695157E-2],"split_indices":[0,0,0,0,2,3,0,0,5,0,0],"split_type":[0,0,0,0,0,0,0,0,0,0,0],"sum_hessian":[7.6200693E3,3.3446885E3,4.275381E3,3.3086768E3,3.6011642E1,2.8575077E1,7.4365664E0,5.294367E0,2.328071E1,5.824386E0,1.7456324E1],"tree_param":{"num_deleted":"0","num_feature":"14","num_nodes":"11","size_leaf_vector":"1"}},{"base_weights":[-5.5155825E-2,9.2430286E-2,-1.2802541E-1,2.067164E-1,3.375731E-2,-7.673492E-2,-2.3469643E-1,2.6417753E-1,7.560613E-2,9.7443655E-2,-3.091344E-2,-2.8783526E-2,-1.2474146E-1,-2.8647068E-1,-1.874946E-1,2.9127952E-1,5.8767747E-2,1.00373045E-1,-8.642518E-3,1.1670405E-1,-6.9473006E-2,