{"learner":{"attributes":{"scikit_learn":"{\"_estimator_type\": \"classifier\"}"},"feature_names":["TargetReturn","H-L","C-O","BB_lower","Return_lag1","Return_lag2","SMA10_vs_SMA20","ATR14","StdDev20_Return","MACD_signal","Williams_%R","Stochastic_D","OBV","Volume_MA5","Volume_MA5_vs_MA20","Month"],"feature_types":["float","float","float","float","float","float","float","float","float","float","float","float","float","float","float","float"],"gradient_booster":{"model":{"gbtree_model_param":{"num_parallel_tree":"1","num_trees":"648"},"iteration_indptr":[0,3,6,9,12,15,18,21,24,27,30,33,36,39,42,45,48,51,54,57,60,63,66,69,72,75,78,81,84,87,90,93,96,99,102,105,108,111,114,117,120,123,126,129,132,135,138,141,144,147,150,153,156,159,162,165,168,171,174,177,180,183,186,189,192,195,198,201,204,207,210,213,216,219,222,225,228,231,234,237,240,243,246,249,252,255,258,261,264,267,270,273,276,279,282,285,288,291,294,297,300,303,306,309,312,315,318,321,324,327,330,333,336,339,342,345,348,351,354,357,360,363,366,369,372,375,378,381,384,387,390,393,396,399,402,405,408,411,414,417,420,423,426,429,432,435,438,441,444,447,450,453,456,459,462,465,468,471,474,477,480,483,486,489,492,495,498,501,504,507,510,513,516,519,522,525,528,531,534,537,540,543,546,549,552,555,558,561,564,567,570,573,576,579,582,585,588,591,594,597,600,603,606,609,612,615,618,621,624,627,630,633,636,639,642,645,648],"tree_info":[0,1,2,0,1,2,0,1,2,0,1,2,0,1,2,0,1,2,0,1,2,0,1,2,0,1,2,0,1,2,0,1,2,0,1,2,0,1,2,0,1,2,0,1,2,0,1,2,0,1,2,0,1,2,0,1,2,0,1,2,0,1,2,0,1,2,0,1,2,0,1,2,0,1,2,0,1,2,0,1,2,0,1,2,0,1,2,0,1,2,0,1,2,0,1,2,0,1,2,0,1,2,0,1,2,0,1,2,0,1,2,0,1,2,0,1,2,0,1,2,0,1,2,0,1,2,0,1,2,0,1,2,0,1,2,0,1,2,0,1,2,0,1,2,0,1,2,0,1,2,0,1,2,0,1,2,0,1,2,0,1,2,0,1,2,0,1,2,0,1,2,0,1,2,0,1,2,0,1,2,0,1,2,0,1,2,0,1,2,0,1,2,0,1,2,0,1,2,0,1,2,0,1,2,0,1,2,0,1,2,0,1,2,0,1,2,0,1,2,0,1,2,0,1,2,0,1,2,0,1,2,0,1,2,0,1,2,0,1,2,0,1,2,0,1,2,0,1,2,0,1,2,0,1,2,0,1,2,0,1,2,0,1,2,0,1,2,0,1,2,0,1,2,0,1,2,0,1,2,0,1,2,0,1,2,0,1,2,0,1,2,0,1,2,0,1,2,0,1,2,0,1,2,0,1,2,0,1,2,0,1,2,0,1,2,0,1,2,0,1,2,0,1,2,0,1,2,0,1,2,0,1,2,0,1,2,0,1,2,0,1,2,0,1,2,0,1,2,0,1,2,0,1,2,0,1,2,0,1,2,0,1,2,0,1,2,0,1,2,0,1,2,0,1,2,0,1,2,0,1,2,0,1,2,0,1,2,0,1,2,0,1,2,0,1,2,0,1,2,0,1,2,0,1,2,0,1,2,0,1,2,0,1,2,0,1,2,0,1,2,0,1,2,0,1,2,0,1,2,0,1,2,0,1,2,0,1,2,0,1,2,0,1,2,0,1,2,0,1,2,0,1,2,0,1,2,0,1,2,0,1,2,0,1,2,0,1,2,0,1,2,0,1,2,0,1,2,0,1,2,0,1,2,0,1,2,0,1,2,0,1,2,0,1,2,0,1,2,0,1,2,0,1,2,0,1,2,0,1,2,0,1,2,0,1,2,0,1,2,0,1,2,0,1,2,0,1,2,0,1,2,0,1,2,0,1,2,0,1,2,0,1,2,0,1,2,0,1,2,0,1,2,0,1,2,0,1,2,0,1,2,0,1,2,0,1,2,0,1,2,0,1,2,0,1,2,0,1,2,0,1,2,0,1,2,0,1,2,0,1,2,0,1,2,0,1,2,0,1,2,0,1,2,0,1,2,0,1,2,0,1,2,0,1,2,0,1,2,0,1,2,0,1,2,0,1,2,0,1,2,0,1,2,0,1,2,0,1,2,0,1,2,0,1,2,0,1,2],"trees":[{"base_weights":[8.651887E-2,3.814784E-2,-7.436801E-1,2.795774E-1,-1.9075135E-2,2.6498351E-2,1.2656502E-2,-1.5241806E-2,3.6211014E-1,1.6074788E-2,-7.597541E-3],"categories":[],"categories_nodes":[],"categories_segments":[],"categories_sizes":[],"default_left":[0,0,0,0,0,0,0,0,0,0,0],"id":0,"left_children":[1,-1,3,5,-1,-1,7,-1,9,-1,-1],"loss_changes":[1.2556904E4,0E0,4.2573486E1,7.0438924E0,0E0,0E0,6.623574E0,0E0,4.28482E0,0E0,0E0],"parents":[2147483647,0,0,2,2,3,3,6,6,8,8],"right_children":[2,-1,4,6,-1,-1,8,-1,10,-1,-1],"split_conditions":[-1.9420369E-1,3.814784E-2,-1.8715738E-1,-1.0038623E0,-1.9075135E-2,2.6498351E-2,-8.471791E-1,-1.5241806E-2,1.0526448E0,1.6074788E-2,-7.597541E-3],"split_indices":[0,0,0,3,0,0,3,0,15,0,0],"split_type":[0,0,0,0,0,0,0,0,0,0,0],"sum_hessian":[1.0702666E4,3.961333E3,6.741333E3,3.8666664E1,6.7026665E3,8.444444E0,3.0222221E1,9.777777E0,2.0444443E1,1.5555554E1,4.8888884E0],"tree_param":{"num_deleted":"0","num_feature":"16","num_nodes":"11","size_leaf_vector":"1"}},{"base_weights":[-1.9673344E-1,-1.3688586E-2,-2.7950773E-1,-1.6000658E-1,1.2343268E-1,-2.0099235E-1,-3.7422374E-1,-9.681746E-2,-2.3409031E-1,3.7430146E-1,4.900111E-2,-1.4517178E-1,-3.016561E-1,-3.1411287E-1,-4.4503778E-1,1.4255472E-2,-1.0677711E-1,-4.0434864E-1,-1.829875E-1,4.808223E-1,1.00135855E-1,8.506512E-2,-1.3398434E-1,-7.151496E-2,-1.9463263E-1,-2.580517E-1,-3.929495E-1,-3.864718E-1,-2.542398E-1,-5.6528413E-1,-4.0839806E-1,-2.1185332E-3,-9.317396E-3,-1.1928753E-2,-1.7342308E-3,-3.6034582E-3,-9.002502E-3,1.4537327E-2,4.6697957E-3,1.7207103E-2,-0E0,9.465649E-3,1.479374E-3,8.670903E-3,-4.9193143E-3,6.892841E-4,-4.138254E-3,-2.1055294E-3,-6.4282254E-3,-6.9483807E-3,1.4125056E-3,-5.859386E-3,-1.1886035E-2,-9.167936E-3,-1.5262052E-2,-1.7296915E-3,-7.3101013E-3,-1.4764769E-2,-0E0,-9.150274E-3,-1.2264444E-2],"categories":[],"categories_nodes":[],"categories_segments":[],"categories_sizes":[],"default_left":[0,0,0,0,0,0,0,0,0,0,0,0,0,0,0,0,0,0,0,0,0,0,0,0,0,0,0,0,0,0,0,0,0,0,0,0,0,0,0,0,0,0,0,0,0,0,0,0,0,0,0,0,0,0,0,0,0,0,0,0,0],"id":1,"left_children":[1,3,5,7,9,11,13,15,17,19,21,23,25,27,29,-1,31,33,35,37,39,41,43,45,47,49,51,53,55,57,59,-1,-1,-1,-1,-1,-1,-1,-1,-1,-1,-1,-1,-1,-1,-1,-1,-1,-1,-1,-1,-1,-1,-1,-1,-1,-1,-1,-1,-1,-1],"loss_changes":[1.6322849E2,6.756295E1,5.462848E1,7.3066406E0,3.1968367E1,2.240207E1,1.3464203E1,5.4451237E0,5.8514786E0,1.0911297E1,8.81599E0,9.300335E0,5.0477295E0,7.227783E0,5.634247E0,0E0,4.903864E0,3.0819855E0,3.5718899E0,6.7602234E0,6.79057E0,8.269687E0,6.034682E0,9.689815E0,9.808636E0,4.87912E0,4.7812195E0,3.4680634E0,5.871773E0,2.5897217E0,3.3067322E0,0E0,0E0,0E0,0E0,0E0,0E0,0E0,0E0,0E0,0E0,0E0,0E0,0E0,0E0,0E0,0E0,0E0,0E0,0E0,0E0,0E0,0E0,0E0,0E0,0E0,0E0,0E0,0E0,0E0,0E0],"parents":[2147483647,0,0,1,1,2,2,3,3,4,4,5,5,6,6,7,7,8,8,9,9,10,10,11,11,12,12,13,13,14,14,16,16,17,17,18,18,19,19,20,20,21,21,22,22,23,23,24,24,25,25,26,26,27,27,28,28,29,29,30,30],"right_children":[2,4,6,8,10,12,14,16,18,20,22,24,26,28,30,-1,32,34,36,38,40,42,44,46,48,50,52,54,56,58,60,-1,-1,-1,-1,-1,-1,-1,-1,-1,-1,-1,-1,-1,-1,-1,-1,-1,-1,-1,-1,-1,-1,-1,-1,-1,-1,-1,-1,-1,-1],"split_conditions":[-3.8569665E-1,-1.7274527E-1,2.3288852E-2,-9.204649E-2,-8.314813E-1,3.2943198E-1,5.8454037E-1,-1.0412623E0,-4.479994E-1,1.0632355E-1,8.744202E-2,-4.4802565E-2,6.894309E-1,-2.794644E-1,-5.509422E-1,1.4255472E-2,8.176512E-1,9.6870565E-1,3.411435E-1,2.2675015E-1,2.557286E-3,-1.1279551E0,-2.3321072E-2,-4.5604876E-1,-1.7451422E-1,4.707195E0,8.260833E-1,-3.5028175E-1,-7.841398E-1,3.9045405E0,1.9218942E0,-2.1185332E-3,-9.317396E-3,-1.1928753E-2,-1.7342308E-3,-3.6034582E-3,-9.002502E-3,1.4537327E-2,4.6697957E-3,1.7207103E-2,-0E0,9.465649E-3,1.479374E-3,8.670903E-3,-4.9193143E-3,6.892841E-4,-4.138254E-3,-2.1055294E-3,-6.4282254E-3,-6.9483807E-3,1.4125056E-3,-5.859386E-3,-1.1886035E-2,-9.167936E-3,-1.5262052E-2,-1.7296915E-3,-7.3101013E-3,-1.4764769E-2,-0E0,-9.150274E-3,-1.2264444E-2],"split_indices":[1,3,14,14,1,8,1,1,4,4,14,1,1,3,3,0,4,10,2,5,3,8,3,8,14,3,8,3,2,2,1,0,0,0,0,0,0,0,0,0,0,0,0,0,0,0,0,0,0,0,0,0,0,0,0,0,0,0,0,0,0],"split_type":[0,0,0,0,0,0,0,0,0,0,0,0,0,0,0,0,0,0,0,0,0,0,0,0,0,0,0,0,0,0,0,0,0,0,0,0,0,0,0,0,0,0,0,0,0,0,0,0,0,0,0,0,0,0,0,0,0,0,0,0,0],"sum_hessian":[1.0790666E4,3.3639998E3,7.426666E3,1.6306666E3,1.7333333E3,4.0675554E3,3.3591108E3,8.8799994E2,7.426666E2,3.9288885E2,1.3404443E3,2.6239998E3,1.4435554E3,1.8266665E3,1.5324443E3,1.1111111E1,8.7688885E2,1.6577777E2,5.7688885E2,2.7999997E2,1.12888885E2,1.1244443E3,2.1599998E2,1.0626666E3,1.5613333E3,9.8622217E2,4.573333E2,8.177777E2,1.00888885E3,3.4888885E2,1.1835555E3,8.084444E2,6.844444E1,1.3644444E2,2.9333332E1,4.702222E2,1.0666666E2,2.1155554E2,6.844444E1,1.6444443E1,9.6444435E1,9.244444E1,1.0319999E3,2.1777777E1,1.9422221E2,5.0577774E2,5.5688885E2,5.3955554E2,1.0217777E3,9.4399994E2,4.222222E1,1.4844444E2,3.088889E2,7.346666E2,8.311111E1,1.5688889E2,8.5199994E2,3.3866666E2,1.0222221E1,7.231111E2,4.6044443E2],"tree_param":{"num_deleted":"0","num_feature":"16","num_nodes":"61","size_leaf_vector":"1"}},{"base_weights":[1.0983454E-1,2.567459E-1,3.165576E-2,3.5766637E-1,2.1319273E-1,1.23592E-1,-1.052506E-2,2.3984382E-1,4.436054E-1,1.6954121E-1,3.5332465E-1,3.9516723E-1,1.05379485E-1,-2.081837E-2,2.5606284E-1,3.3311895E-1,1.3583517E-1,6.9045705E-1,3.9839116E-1,2.9578775E-1,1.2186735E-1,1.22720286E-1,4.0687448E-1,2.2751792E-1,5.886437E-1,3.5976365E-2,1.513946E-1,-5.1284827E-2,5.2100427E-2,4.42658E-1,3.662569E-2,4.494092E-3,1.1854928E-2,-1.3323687E-2,4.079413E-3,9.955551E-3,2.3460738E-2,8.405702E-3,1.2450806E-2,1.8875627E-3,8.592691E-3,-5.224314E-4,3.917199E-3,-6.430779E-3,5.3817397E-3,1.0788864E-2,-8.090321E-3,-7.366747E-5,8.2899295E-3,1.6918128E-2,-2.4714397E-4,-2.3062765E-3,2.2199762E-3,1.14847375E-2,3.2441737E-3,-2.4295587E-4,-3.1131108E-3,-1.1360565E-2,1.5503449E-3,4.8089363E-3,1.5323466E-2,9.908381E-3,-7.6090836E-4],"categories":[],"categories_nodes":[],"categories_segments":[],"categories_sizes":[],"default_left":[0,0,0,0,0,0,0,0,0,0,0,0,0,0,0,0,0,0,0,0,0,0,0,0,0,0,0,0,0,0,0,0,0,0,0,0,0,0,0,0,0,0,0,0,0,0,0,0,0,0,0,0,0,0,0,0,0,0,0,0,0,0,0],"id":2,"left_children":[1,3,5,7,9,11,13,15,17,19,21,23,25,27,29,31,33,35,37,39,41,43,45,47,49,51,53,55,57,59,61,-1,-1,-1,-1,-1,-1,-1,-1,-1,-1,-1,-1,-1,-1,-1,-1,-1,-1,-1,-1,-1,-1,-1,-1,-1,-1,-1,-1,-1,-1,-1,-1],"loss_changes":[1.2270187E2,1.5722931E1,2.72289E1,1.0522385E1,1.5381073E1,1.0406826E1,1.292239E1,4.1325493E0,5.8443527E0,1.1564568E1,7.0207977E0,3.4960613E0,6.4376526E0,1.025249E1,6.687334E0,4.4225426E0,3.4695916E0,4.9738083E0,2.451271E0,4.610817E0,6.7696304E0,4.0110354E0,6.367012E0,2.036226E0,3.3418598E0,5.4296308E0,8.27281E0,9.557559E0,5.615566E0,2.880106E0,2.3098245E0,0E0,0E0,0E0,0E0,0E0,0E0,0E0,0E0,0E0,0E0,0E0,0E0,0E0,0E0,0E0,0E0,0E0,0E0,0E0,0E0,0E0,0E0,0E0,0E0,0E0,0E0,0E0,0E0,0E0,0E0,0E0,0E0],"parents":[2147483647,0,0,1,1,2,2,3,3,4,4,5,5,6,6,7,7,8,8,9,9,10,10,11,11,12,12,13,13,14,14,15,15,16,16,17,17,18,18,19,19,20,20,21,21,22,22,23,23,24,24,25,25,26,26,27,27,28,28,29,29,30,30],"right_children":[2,4,6,8,10,12,14,16,18,20,22,24,26,28,30,32,34,36,38,40,42,44,46,48,50,52,54,56,58,60,62,-1,-1,-1,-1,-1,-1,-1,-1,-1,-1,-1,-1,-1,-1,-1,-1,-1,-1,-1,-1,-1,-1,-1,-1,-1,-1,-1,-1,-1,-1,-1,-1],"split_conditions":[-3.1654778E-1,-6.1211544E-1,-6.5861017E-1,-8.367539E-2,5.9148777E-1,-1.2414693E0,2.0951426E0,6.425255E-1,-9.552068E-1,-4.2088583E-1,2.4806625E-1,3.270779E-1,-1.9751158E-1,1.5435641E-2,1.4145359E0,-2.0655325E-1,-9.93102E-1,-1.1613497E0,1.901291E-1,-2.3076598E-1,-2.1015815E-1,-5.118028E-1,3.7303085E0,-1.4928586E0,1.3343997E0,-2.3285544E-1,-1.7234547E-1,8.071795E-1,-1.2966454E0,-2.2393851E-1,-1.2849088E0,4.494092E-3,1.1854928E-2,-1.3323687E-2,4.079413E-3,9.955551E-3,2.3460738E-2,8.405702E-3,1.2450806E-2,1.8875627E-3,8.592691E-3,-5.224314E-4,3.917199E-3,-6.430779E-3,5.3817397E-3,1.0788864E-2,-8.090321E-3,-7.366747E-5,8.2899295E-3,1.6918128E-2,-2.4714397E-4,-2.3062765E-3,2.2199762E-3,1.14847375E-2,3.2441737E-3,-2.4295587E-4,-3.1131108E-3,-1.1360565E-2,1.5503449E-3,4.8089363E-3,1.5323466E-2,9.908381E-3,-7.6090836E-4],"split_indices":[6,10,10,14,8,4,8,12,3,3,7,3,13,13,6,14,8,3,4,14,14,4,12,10,15,4,13,10,8,14,4,0,0,0,0,0,0,0,0,0,0,0,0,0,0,0,0,0,0,0,0,0,0,0,0,0,0,0,0,0,0,0,0],"split_type":[0,0,0,0,0,0,0,0,0,0,0,0,0,0,0,0,0,0,0,0,0,0,0,0,0,0,0,0,0,0,0,0,0,0,0,0,0,0,0,0,0,0,0,0,0,0,0,0,0,0,0,0,0,0,0,0,0,0,0,0,0,0,0],"sum_hessian":[1.0706666E4,3.7137776E3,6.9928887E3,1.1111111E3,2.6026665E3,2.2057776E3,4.787111E3,4.7466663E2,6.364444E2,1.991111E3,6.1155554E2,1.3422221E2,2.0715554E3,4.613333E3,1.7377777E2,2.4444443E2,2.3022221E2,9.333333E1,5.431111E2,5.391111E2,1.4519999E3,1.1911111E2,4.9244443E2,7.555555E1,5.8666664E1,8.346666E2,1.2368888E3,3.2631108E3,1.3502222E3,9.111111E1,8.2666664E1,1.16444435E2,1.2799999E2,6.222222E0,2.2399998E2,4.3555553E1,4.9777775E1,3.1911108E2,2.2399998E2,8.977777E1,4.493333E2,2.6177777E2,1.1902222E3,2.0444443E1,9.8666664E1,4.8266663E2,9.777777E0,1.9999998E1,5.5555553E1,5.333333E1,5.333333E0,2.351111E2,5.9955554E2,8.711111E1,1.1497777E3,2.0648887E3,1.1982222E3,2.0888887E1,1.3293333E3,3.822222E1,5.2888885E1,1.4666666E1,6.799999E1],"tree_param":{"num_deleted":"0","num_feature":"16","num_nodes":"63","size_leaf_vector":"1"}},{"base_weights":[8.779195E-2,1.3195427E-2,1.6246136E-1,-5.9348527E-2,6.1753076E-2,7.369734E-2,2.282347E-1,-1.1013473E-1,5.5171862E-2,4.114812E-2,1.8225011E-1,-7.4543077E-3,1.7961049E-1,1.9398905E-1,3.286099E-1,-3.2563457E-1,-8.128824E-2,-5.6669027E-2,1.70074E-1,-7.819108E-2,5.588494E-2,-2.3440562E-2,2.3197044E-1,-7.0040025E-2,7.241129E-2,3.0489293E-1,9.9924184E-2,2.0863087E-1,-1.2811109E-2,1.9337347E-1,3.9546585E-1,-1.0141694E-2,5.7949107E-3,-3.3366017E-3,1.8028336E-4,1.4705037E-2,-1.9170287E-3,-7.0926207E-3,5.2373656E-3,-3.1904823E-3,6.5950574E-3,2.1624758E-3,-9.362583E-5,5.007021E-3,-8.607969E-3,6.94052E-3,-1.329237E-3,-3.5582432E-3,7.865842E-4,-4.409877E-3,2.8114119E-3,-3.4730863E-3,8.658219E-3,8.4968E-4,8.789615E-3,1.0347325E-2,5.0332816E-3,-7.697555E-3,1.911479E-3,-5.940687E-3,5.8285575E-3,-4.0846025E-3,1.0507347E-2],"categories":[],"categories_nodes":[],"categories_segments":[],"categories_sizes":[],"default_left":[0,0,0,0,0,0,0,0,0,0,0,0,0,0,0,0,0,0,0,0,0,0,0,0,0,0,0,0,0,0,0,0,0,0,0,0,0,0,0,0,0,0,0,0,0,0,0,0,0,0,0,0,0,0,0,0,0,0,0,0,0,0,0],"id":3,"left_children":[1,3,5,7,9,11,13,15,17,19,21,23,25,27,29,31,33,35,37,39,41,43,45,47,49,51,53,55,57,59,61,-1,-1,-1,-1,-1,-1,-1,-1,-1,-1,-1,-1,-1,-1,-1,-1,-1,-1,-1,-1,-1,-1,-1,-1,-1,-1,-1,-1,-1,-1,-1,-1],"loss_changes":[5.959581E1,1.8937603E1,3.09691E1,1.2548197E1,7.797287E0,1.9818356E1,1.0003784E1,8.880423E0,8.529037E0,4.844274E0,4.9504023E0,6.4533424E0,9.546993E0,7.1444473E0,6.363861E0,7.1981773E0,5.9448013E0,3.459271E0,5.240098E0,4.637648E0,4.3562136E0,6.2640467E0,4.603958E0,5.256238E0,5.2084937E0,6.2159843E0,9.686729E0,3.9577866E0,4.019045E0,4.0388174E0,5.2827454E0,0E0,0E0,0E0,0E0,0E0,0E0,0E0,0E0,0E0,0E0,0E0,0E0,0E0,0E0,0E0,0E0,0E0,0E0,0E0,0E0,0E0,0E0,0E0,0E0,0E0,0E0,0E0,0E0,0E0,0E0,0E0,0E0],"parents":[2147483647,0,0,1,1,2,2,3,3,4,4,5,5,6,6,7,7,8,8,9,9,10,10,11,11,12,12,13,13,14,14,15,15,16,16,17,17,18,18,19,19,20,20,21,21,22,22,23,23,24,24,25,25,26,26,27,27,28,28,29,29,30,30],"right_children":[2,4,6,8,10,12,14,16,18,20,22,24,26,28,30,32,34,36,38,40,42,44,46,48,50,52,54,56,58,60,62,-1,-1,-1,-1,-1,-1,-1,-1,-1,-1,-1,-1,-1,-1,-1,-1,-1,-1,-1,-1,-1,-1,-1,-1,-1,-1,-1,-1,-1,-1,-1,-1],"split_conditions":[2.2993073E-2,-2.1818241E-1,-1.7234547E-1,3.1435102E-1,8.7454987E-1,2.6528528E-1,3.143745E-1,-1.2403525E0,-1.9964999E-1,-6.5990263E-1,-1.2409022E0,-1.07846424E-1,-2.4891177E-1,2.6386008E-1,-5.430077E-1,1.1600343E0,-5.975147E-1,-1.7434024E0,-1.3532372E0,2.916519E-1,1.0632355E-1,-1.3968645E0,2.1808739E0,3.4247328E-2,-1.1376331E0,-3.9282548E-1,1.010955E0,-1.2556033E0,-9.308157E-1,-1.6503155E0,-1.1844834E0,-1.0141694E-2,5.7949107E-3,-3.3366017E-3,1.8028336E-4,1.4705037E-2,-1.9170287E-3,-7.0926207E-3,5.2373656E-3,-3.1904823E-3,6.5950574E-3,2.1624758E-3,-9.362583E-5,5.007021E-3,-8.607969E-3,6.94052E-3,-1.329237E-3,-3.5582432E-3,7.865842E-4,-4.409877E-3,2.8114119E-3,-3.4730863E-3,8.658219E-3,8.4968E-4,8.789615E-3,1.0347325E-2,5.0332816E-3,-7.697555E-3,1.911479E-3,-5.940687E-3,5.8285575E-3,-4.0846025E-3,1.0507347E-2],"split_indices":[11,7,13,2,4,10,14,7,13,8,11,14,3,14,2,3,11,11,9,13,4,11,8,7,7,13,2,3,10,10,7,0,0,0,0,0,0,0,0,0,0,0,0,0,0,0,0,0,0,0,0,0,0,0,0,0,0,0,0,0,0,0,0],"split_type":[0,0,0,0,0,0,0,0,0,0,0,0,0,0,0,0,0,0,0,0,0,0,0,0,0,0,0,0,0,0,0,0,0,0,0,0,0,0,0,0,0,0,0,0,0,0,0,0,0,0,0,0,0,0,0,0,0,0,0,0,0,0,0],"sum_hessian":[1.0728356E4,5.373618E3,5.3547383E3,2.1468015E3,3.226817E3,2.2859414E3,3.068797E3,1.4929591E3,6.5384247E2,2.763292E3,4.635248E2,1.2897128E3,9.9622864E2,2.2970742E3,7.717228E2,1.7132057E2,1.3216385E3,3.2742136E2,3.2642114E2,2.9629352E2,2.4669985E3,8.66471E1,3.7687772E2,7.297368E2,5.599759E2,3.8173996E2,6.144887E2,2.1494263E3,1.4764804E2,2.611014E2,5.106214E2,1.5307845E2,1.8242138E1,8.514606E2,4.7017795E2,7.157919E0,3.2026343E2,2.17145E1,3.0470663E2,2.6285947E2,3.343406E1,1.6674294E3,7.99569E2,4.942848E1,3.7218624E1,3.3245792E2,4.4419796E1,4.3669388E2,2.9304294E2,7.141638E1,4.885595E2,2.6199505E1,3.5554044E2,4.873083E2,1.27180435E2,1.0489001E2,2.0445361E3,3.6358124E1,1.1128991E2,1.774862E1,2.433528E2,1.3747214E1,4.9687418E2],"tree_param":{"num_deleted":"0","num_feature":"16","num_nodes":"63","size_leaf_vector":"1"}},{"base_weights":[-1.9692968E-1,-8.486192E-2,-3.2290855E-1,-1.9687189E-1,2.2211302E-2,-2.3403515E-1,-4.0600777E-1,-1.4772326E-1,-2.6920822E-1,3.6833933E-1,-3.1259406E-2,-2.582139E-1,-4.8375458E-2,-3.14836E-1,-4.563049E-1,-1.7345369E-1,4.269202E-3,2.139808E-2,-2.806606E-1,6.419927E-1,2.2763583E-1,1.13867216E-1,-9.7935855E-2,-2.2954914E-1,-3.459831E-1,3.1602365E-1,-9.396248E-2,-3.2786354E-1,1.4327264E-1,-1.4010987E-2,-4.2983204E-1,-5.4491265E-3,-2.4625761E-3,3.8428057E-3,-5.775673E-3,-2.4949387E-3,1.6996332E-2,-7.7403216E-3,-3.4635335E-3,3.159759E-3,1.8890152E-2,8.133908E-3,4.93616E-4,1.0516502E-2,2.12149E-3,5.80116E-4,-4.395115E-3,-2.3721834E-4,-6.329813E-3,-0E0,-9.308796E-3,-1.1322951E-2,1.2765277E-2,1.5341907E-3,-4.113726E-3,-2.8822639E-3,-8.932286E-3,-3.5576252E-3,1.4700099E-2,-1.0517317E-2,-1.5159326E-2],"categories":[],"categories_nodes":[],"categories_segments":[],"categories_sizes":[],"default_left":[0,0,0,0,0,0,0,0,0,0,0,0,0,0,0,0,0,0,0,0,0,0,0,0,0,0,0,0,0,0,0,0,0,0,0,0,0,0,0,0,0,0,0,0,0,0,0,0,0,0,0,0,0,0,0,0,0,0,0,0,0],"id":4,"left_children":[1,3,5,7,9,11,13,15,17,19,21,23,25,27,29,31,33,35,37,39,41,43,45,47,49,51,53,55,57,-1,59,-1,-1,-1,-1,-1,-1,-1,-1,-1,-1,-1,-1,-1,-1,-1,-1,-1,-1,-1,-1,-1,-1,-1,-1,-1,-1,-1,-1,-1,-1],"loss_changes":[1.5057031E2,6.8104675E1,3.6463318E1,9.430786E0,5.386277E1,1.0646042E1,1.1037048E1,6.6545677E0,3.9530869E0,1.4048962E1,2.4225325E1,4.803894E0,4.577655E0,5.773979E0,3.0215454E0,4.1403847E0,7.9717546E0,3.6779127E0,3.208702E0,5.841919E0,4.6776285E0,6.661705E0,1.5687557E1,6.679146E0,3.6344643E0,4.4614544E0,2.7959661E0,4.052696E0,3.483234E0,0E0,2.4077606E0,0E0,0E0,0E0,0E0,0E0,0E0,0E0,0E0,0E0,0E0,0E0,0E0,0E0,0E0,0E0,0E0,0E0,0E0,0E0,0E0,0E0,0E0,0E0,0E0,0E0,0E0,0E0,0E0,0E0,0E0],"parents":[2147483647,0,0,1,1,2,2,3,3,4,4,5,5,6,6,7,7,8,8,9,9,10,10,11,11,12,12,13,13,14,14,15,15,16,16,17,17,18,18,19,19,20,20,21,21,22,22,23,23,24,24,25,25,26,26,27,27,28,28,30,30],"right_children":[2,4,6,8,10,12,14,16,18,20,22,24,26,28,30,32,34,36,38,40,42,44,46,48,50,52,54,56,58,-1,60,-1,-1,-1,-1,-1,-1,-1,-1,-1,-1,-1,-1,-1,-1,-1,-1,-1,-1,-1,-1,-1,-1,-1,-1,-1,-1,-1,-1,-1,-1],"split_conditions":[-1.8579941E-2,-1.7274527E-1,-2.3980193E-2,-2.0092164E-1,-8.314813E-1,4.76928E0,5.583178E-1,9.993188E-1,-5.711747E-1,-1.1844834E0,-2.9502642E-1,8.20544E-1,8.631055E-2,3.401186E0,-7.5520587E-1,5.538847E-1,1.19121335E-1,1.1442165E0,1.1567502E0,-1.1437876E0,9.755364E-2,-5.6980014E-1,-4.6436453E-1,-1.3735739E0,-1.1802717E0,-6.5017754E-1,-2.7642155E-1,-1.2719784E0,9.972467E-2,-1.4010987E-2,7.386409E0,-5.4491265E-3,-2.4625761E-3,3.8428057E-3,-5.775673E-3,-2.4949387E-3,1.6996332E-2,-7.7403216E-3,-3.4635335E-3,3.159759E-3,1.8890152E-2,8.133908E-3,4.93616E-4,1.0516502E-2,2.12149E-3,5.80116E-4,-4.395115E-3,-2.3721834E-4,-6.329813E-3,-0E0,-9.308796E-3,-1.1322951E-2,1.2765277E-2,1.5341907E-3,-4.113726E-3,-2.8822639E-3,-8.932286E-3,-3.5576252E-3,1.4700099E-2,-1.0517317E-2,-1.5159326E-2],"split_indices":[1,3,13,7,1,3,1,12,8,7,13,1,1,12,3,11,4,12,9,11,4,2,1,2,12,2,13,12,9,0,7,0,0,0,0,0,0,0,0,0,0,0,0,0,0,0,0,0,0,0,0,0,0,0,0,0,0,0,0,0,0],"split_type":[0,0,0,0,0,0,0,0,0,0,0,0,0,0,0,0,0,0,0,0,0,0,0,0,0,0,0,0,0,0,0,0,0,0,0,0,0,0,0,0,0,0,0,0,0,0,0,0,0,0,0,0,0,0,0,0,0,0,0,0,0],"sum_hessian":[1.069298E4,5.663671E3,5.029309E3,2.7719453E3,2.8917256E3,2.4373352E3,2.591974E3,1.659866E3,1.1120795E3,3.8859076E2,2.5031348E3,2.1517053E3,2.8562982E2,9.30488E2,1.6614861E3,1.4247316E3,2.351344E2,3.902414E1,1.0730553E3,1.2860414E2,2.599866E2,7.833617E2,1.7197732E3,1.6324868E3,5.192185E2,2.8877855E1,2.5675195E2,9.070002E2,2.348778E1,3.522197E2,1.3092665E3,9.213728E2,5.0335873E2,1.4652295E2,8.861145E1,3.235341E1,6.67073E0,9.1611285E2,1.5694244E2,2.2747791E1,1.05856346E2,1.7681544E2,8.317117E1,6.847679E1,7.148849E2,6.533985E2,1.0663748E3,1.3524345E2,1.4972434E3,2.7902174E1,4.913163E2,4.427254E0,2.44506E1,7.4132195E1,1.8261975E2,9.304927E1,8.139509E2,1.3280076E1,1.0207704E1,1.1992699E3,1.0999648E2],"tree_param":{"num_deleted":"0","num_feature":"16","num_nodes":"61","size_leaf_vector":"1"}},{"base_weights":[1.01227954E-1,2.1185173E-1,5.568063E-2,1.3427855E-1,2.9770055E-1,1.3419427E-2,1.6836391E-1,-1.0948181E-1,1.6281353E-1,1.3610542E-1,3.3572137E-1,1.1076161E-1,-2.9720685E-2,3.775461E-1,1.3641237E-1,8.309551E-2,-2.2936074E-1,3.1560946E-1,1.2613495E-1,2.959611E-1,2.0161273E-2,5.374298E-1,3.0183318E-1,3.2770798E-2,1.7643188E-1,-1.0516684E-1,4.327215E-3,8.1910014E-2,4.5448256E-1,2.664536E-1,1.0265256E-1,-8.390199E-3,5.308894E-3,-1.622724E-3,-1.0453044E-2,1.1731241E-2,4.0320554E-3,-5.8555915E-3,3.628149E-3,1.175722E-2,1.4292332E-3,7.2404398E-3,-9.3451416E-4,1.7372921E-2,8.908418E-3,1.4684687E-2,7.174931E-3,-2.0738833E-3,2.6865776E-3,7.347666E-3,2.1294076E-3,-2.9881564E-3,8.450768E-3,-1.928039E-4,6.0103736E-3,1.4073338E-2,-4.551624E-3,6.7263935E-3,1.808558E-2,8.197916E-3,1.3436739E-3,4.0380517E-3,5.2654487E-4],"categories":[],"categories_nodes":[],"categories_segments":[],"categories_sizes":[],"default_left":[0,0,0,0,0,0,0,0,0,0,0,0,0,0,0,0,0,0,0,0,0,0,0,0,0,0,0,0,0,0,0,0,0,0,0,0,0,0,0,0,0,0,0,0,0,0,0,0,0,0,0,0,0,0,0,0,0,0,0,0,0,0,0],"id":5,"left_children":[1,3,5,7,9,11,13,15,17,19,21,23,25,27,29,31,33,35,37,39,41,43,45,47,49,51,53,55,57,59,61,-1,-1,-1,-1,-1,-1,-1,-1,-1,-1,-1,-1,-1,-1,-1,-1,-1,-1,-1,-1,-1,-1,-1,-1,-1,-1,-1,-1,-1,-1,-1,-1],"loss_changes":[5.4144432E1,2.048851E1,3.628559E1,1.1601299E1,8.6418915E0,2.3489565E1,1.338657E1,4.099267E0,7.8909073E0,5.0564947E0,7.2494354E0,8.60149E0,1.0002595E1,5.6375046E0,7.58123E0,3.2249494E0,2.793178E0,5.81242E0,7.029087E0,4.1943808E0,2.8290312E0,3.365425E0,4.673195E0,6.633376E0,9.281879E0,6.3226337E0,7.5327387E0,7.7745266E0,9.28194E0,4.0056744E0,6.4694576E0,0E0,0E0,0E0,0E0,0E0,0E0,0E0,0E0,0E0,0E0,0E0,0E0,0E0,0E0,0E0,0E0,0E0,0E0,0E0,0E0,0E0,0E0,0E0,0E0,0E0,0E0,0E0,0E0,0E0,0E0,0E0,0E0],"parents":[2147483647,0,0,1,1,2,2,3,3,4,4,5,5,6,6,7,7,8,8,9,9,10,10,11,11,12,12,13,13,14,14,15,15,16,16,17,17,18,18,19,19,20,20,21,21,22,22,23,23,24,24,25,25,26,26,27,27,28,28,29,29,30,30],"right_children":[2,4,6,8,10,12,14,16,18,20,22,24,26,28,30,32,34,36,38,40,42,44,46,48,50,52,54,56,58,60,62,-1,-1,-1,-1,-1,-1,-1,-1,-1,-1,-1,-1,-1,-1,-1,-1,-1,-1,-1,-1,-1,-1,-1,-1,-1,-1,-1,-1,-1,-1,-1,-1],"split_conditions":[-7.1686757E-1,-3.7010938E-2,4.796499E-1,-1.2532967E0,-4.6436453E-1,-6.3364315E-1,-1.3437958E0,-2.4040009E-1,-8.795773E-1,-2.9218984E-1,-9.6253717E-1,-3.3325142E-1,-6.0166645E-1,7.9432136E-1,-5.814647E-1,-4.6480837E-1,1.4395681E-1,-1.1831224E0,-1.1844834E0,1.4609815E-1,-8.637461E-1,6.79669E-1,-1.9290811E0,-1.07188165E-1,4.860818E-1,4.991596E-1,1.8884054E0,-1.595944E0,-1.481717E0,1.227317E0,7.454091E-1,-8.390199E-3,5.308894E-3,-1.622724E-3,-1.0453044E-2,1.1731241E-2,4.0320554E-3,-5.8555915E-3,3.628149E-3,1.175722E-2,1.4292332E-3,7.2404398E-3,-9.3451416E-4,1.7372921E-2,8.908418E-3,1.4684687E-2,7.174931E-3,-2.0738833E-3,2.6865776E-3,7.347666E-3,2.1294076E-3,-2.9881564E-3,8.450768E-3,-1.928039E-4,6.0103736E-3,1.4073338E-2,-4.551624E-3,6.7263935E-3,1.808558E-2,8.197916E-3,1.3436739E-3,4.0380517E-3,5.2654487E-4],"split_indices":[11,14,1,12,1,10,10,5,3,5,3,1,7,1,3,4,3,11,7,14,3,12,5,5,12,8,8,10,10,10,11,0,0,0,0,0,0,0,0,0,0,0,0,0,0,0,0,0,0,0,0,0,0,0,0,0,0,0,0,0,0,0,0],"split_type":[0,0,0,0,0,0,0,0,0,0,0,0,0,0,0,0,0,0,0,0,0,0,0,0,0,0,0,0,0,0,0,0,0,0,0,0,0,0,0,0,0,0,0,0,0,0,0,0,0,0,0,0,0,0,0,0,0,0,0,0,0,0,0],"sum_hessian":[1.0796975E4,3.1419702E3,7.655004E3,1.6574935E3,1.4844767E3,5.5738887E3,2.0811152E3,1.6997942E2,1.487514E3,2.8823508E2,1.1962416E3,1.7179187E3,3.85597E3,2.7058057E2,1.8105347E3,6.2313896E1,1.0766552E2,2.8167804E2,1.205836E3,1.17181305E2,1.7105377E2,1.6616698E2,1.0300746E3,7.9244684E2,9.254719E2,1.2070385E3,2.6489316E3,5.877821E1,2.1180235E2,3.6614908E2,1.4443856E3,1.2448228E1,4.986567E1,5.964182E1,4.8023697E1,1.4224957E2,1.3942845E2,5.024999E1,1.155586E3,6.641192E1,5.0769386E1,3.2576397E1,1.3847737E2,8.937905E1,7.678792E1,6.4286934E1,9.657877E2,3.0336816E2,4.8907864E2,4.1299432E2,5.124776E2,1.1767856E3,3.0252802E1,2.5165566E3,1.3237482E2,2.1867033E1,3.691118E1,1.2477127E2,8.703109E1,2.865048E2,7.964427E1,8.50361E2,5.9402466E2],"tree_param":{"num_deleted":"0","num_feature":"16","num_nodes":"63","size_leaf_vector":"1"}},{"base_weights":[8.7822005E-2,3.7040282E-2,-7.4021673E-1,2.1970148E-1,-1.8976491E-2,-2.6699665E-1,4.4660744E-1,-1.3307542E-2,-0E0,7.0716536E-1,-4.3605505E-3,3.1118738E-2,-2.70795E-4],"categories":[],"categories_nodes":[],"categories_segments":[],"categories_sizes":[],"default_left":[0,0,0,0,0,0,0,0,0,0,0,0,0],"id":6,"left_children":[1,-1,3,5,-1,7,9,-1,-1,11,-1,-1,-1],"loss_changes":[1.2114151E4,0E0,3.6867676E1,4.560658E0,0E0,1.120139E0,5.1392274E0,0E0,0E0,8.936597E0,0E0,0E0,0E0],"parents":[2147483647,0,0,2,2,3,3,5,5,6,6,9,9],"right_children":[2,-1,4,6,-1,8,10,-1,-1,12,-1,-1,-1],"split_conditions":[-1.9420369E-1,3.7040282E-2,-1.8715738E-1,-3.561294E-1,-1.8976491E-2,-9.616678E-2,1.0526448E0,-1.3307542E-2,-0E0,9.7934705E-1,-4.3605505E-3,3.1118738E-2,-2.70795E-4],"split_indices":[0,0,0,15,0,8,15,0,0,12,0,0,0],"split_type":[0,0,0,0,0,0,0,0,0,0,0,0,0],"sum_hessian":[1.0691518E4,4.031391E3,6.660127E3,3.79083E1,6.6222183E3,1.0686943E1,2.7221357E1,6.2170954E0,4.4698477E0,2.0126759E1,7.0945997E0,1.2104611E1,8.022146E0],"tree_param":{"num_deleted":"0","num_feature":"16","num_nodes":"13","size_leaf_vector":"1"}},{"base_weights":[-1.9576234E-1,-8.342687E-2,-3.2258758E-1,-1.9446841E-1,2.1199765E-2,-2.5301594E-1,-3.8538525E-1,-1.6243078E-1,-3.2367152E-1,3.4038413E-1,-2.7926173E-2,-1.8701573E-1,-3.4092444E-1,-2.4477272E-1,-4.1446805E-1,4.354572E-1,-1.6777214E-1,-6.330204E-2,-3.4558406E-1,4.3776646E-1,8.538483E-2,3.0078486E-2,-1.7705712E-1,-3.1126365E-1,-1.4049499E-1,-2.7942598E-1,-4.1166717E-1,-0E0,-2.8425136E-1,-3.3976275E-1,-4.582734E-1,-5.531616E-3,1.7751493E-2,-4.5789927E-3,4.54223E-4,1.192505E-2,-5.309433E-3,5.0995355E-3,-9.026861E-3,1.2692893E-2,4.4911116E-4,1.8020695E-2,-5.152164E-4,2.2526304E-3,-1.8960307E-3,-5.655265E-4,-6.484211E-3,-9.1272494E-4,-8.855768E-3,-2.9018577E-3,-1.0074032E-2,-7.4097435E-3,2.4918143E-3,-1.4267034E-2,-9.157248E-3,-4.362546E-3,1.4036044E-2,-4.555955E-3,-8.751901E-3,-2.7687678E-3,-9.222736E-3,-1.4389474E-2,-1.0665246E-2],"categories":[],"categories_nodes":[],"categories_segments":[],"categories_sizes":[],"default_left":[0,0,0,0,0,0,0,0,0,0,0,0,0,0,0,0,0,0,0,0,0,0,0,0,0,0,0,0,0,0,0,0,0,0,0,0,0,0,0,0,0,0,0,0,0,0,0,0,0,0,0,0,0,0,0,0,0,0,0,0,0,0,0],"id":7,"left_children":[1,3,5,7,9,11,13,15,17,19,21,23,25,27,29,31,33,35,37,39,41,43,45,47,49,51,53,55,57,59,61,-1,-1,-1,-1,-1,-1,-1,-1,-1,-1,-1,-1,-1,-1,-1,-1,-1,-1,-1,-1,-1,-1,-1,-1,-1,-1,-1,-1,-1,-1,-1,-1],"loss_changes":[1.5165942E2,6.598436E1,2.1197693E1,1.0891083E1,4.5983448E1,1.3291153E1,1.0020264E1,6.882637E0,2.6785164E0,9.189537E0,2.1967566E1,7.4608116E0,3.6681366E0,4.6620407E0,6.203766E0,3.7190073E0,5.1316986E0,3.4292107E0,2.7000961E0,6.703644E0,8.021919E0,1.1104456E1,8.302307E0,3.3516273E0,6.265215E0,2.6753616E0,2.530014E0,6.219577E0,1.9474907E0,3.78936E0,4.546997E0,0E0,0E0,0E0,0E0,0E0,0E0,0E0,0E0,0E0,0E0,0E0,0E0,0E0,0E0,0E0,0E0,0E0,0E0,0E0,0E0,0E0,0E0,0E0,0E0,0E0,0E0,0E0,0E0,0E0,0E0,0E0,0E0],"parents":[2147483647,0,0,1,1,2,2,3,3,4,4,5,5,6,6,7,7,8,8,9,9,10,10,11,11,12,12,13,13,14,14,15,15,16,16,17,17,18,18,19,19,20,20,21,21,22,22,23,23,24,24,25,25,26,26,27,27,28,28,29,29,30,30],"right_children":[2,4,6,8,10,12,14,16,18,20,22,24,26,28,30,32,34,36,38,40,42,44,46,48,50,52,54,56,58,60,62,-1,-1,-1,-1,-1,-1,-1,-1,-1,-1,-1,-1,-1,-1,-1,-1,-1,-1,-1,-1,-1,-1,-1,-1,-1,-1,-1,-1,-1,-1,-1,-1],"split_conditions":[-1.8579941E-2,-1.8213627E-1,5.2081826E-3,9.598254E-2,-8.314813E-1,3.0340263E-1,-6.809109E-1,-1.0412623E0,-6.5017754E-1,1.0632355E-1,2.0416979E-2,-1.2155537E-1,6.894309E-1,8.631055E-2,5.8454037E-1,-8.276302E-1,1.2338715E0,-5.2316225E-1,-9.88817E-1,5.033025E-2,2.557286E-3,-2.0783249E-1,-4.6436453E-1,-9.852157E-1,1.653974E0,3.499443E0,-8.932136E-1,9.3217796E-1,2.6036647E-1,-1.2719784E0,-5.509422E-1,-5.531616E-3,1.7751493E-2,-4.5789927E-3,4.54223E-4,1.192505E-2,-5.309433E-3,5.0995355E-3,-9.026861E-3,1.2692893E-2,4.4911116E-4,1.8020695E-2,-5.152164E-4,2.2526304E-3,-1.8960307E-3,-5.655265E-4,-6.484211E-3,-9.1272494E-4,-8.855768E-3,-2.9018577E-3,-1.0074032E-2,-7.4097435E-3,2.4918143E-3,-1.4267034E-2,-9.157248E-3,-4.362546E-3,1.4036044E-2,-4.555955E-3,-8.751901E-3,-2.7687678E-3,-9.222736E-3,-1.4389474E-2,-1.0665246E-2],"split_indices":[1,3,14,14,1,8,8,1,2,4,14,3,1,1,1,3,12,4,1,14,3,8,1,9,2,9,11,12,12,12,3,0,0,0,0,0,0,0,0,0,0,0,0,0,0,0,0,0,0,0,0,0,0,0,0,0,0,0,0,0,0,0,0],"split_type":[0,0,0,0,0,0,0,0,0,0,0,0,0,0,0,0,0,0,0,0,0,0,0,0,0,0,0,0,0,0,0,0,0,0,0,0,0,0,0,0,0,0,0,0,0,0,0,0,0,0,0,0,0,0,0,0,0,0,0,0,0,0,0],"sum_hessian":[1.0672597E4,5.664318E3,5.008279E3,2.7519016E3,2.912416E3,2.3852236E3,2.6230552E3,2.2125596E3,5.3934216E2,3.9030685E2,2.5221091E3,1.370078E3,1.0151456E3,4.565261E2,2.166529E3,1.739588E1,2.1951636E3,4.5465565E1,4.938766E2,2.7931348E2,1.10993385E2,1.8118158E3,7.102934E2,3.663474E2,1.00373065E3,5.525284E2,4.6261725E2,6.0536377E1,3.9598975E2,8.116424E2,1.3548866E3,4.002766E0,1.3393113E1,2.0644785E3,1.3068513E2,7.943974E0,3.7521587E1,6.2026577E0,4.8767392E2,2.4173221E2,3.7581257E1,1.6642397E1,9.435099E1,1.1680907E3,6.437251E2,2.4199045E2,4.6830295E2,4.6420013E1,3.1992737E2,9.1411176E2,8.96189E1,5.383617E2,1.416668E1,1.1222163E2,3.5039563E2,4.5476376E1,1.50599985E1,1.504483E2,2.4554143E2,7.6932396E1,7.3471E2,3.519804E2,1.0029062E3],"tree_param":{"num_deleted":"0","num_feature":"16","num_nodes":"63","size_leaf_vector":"1"}},{"base_weights":[1.04056515E-1,2.4355933E-1,3.0067228E-2,1.3175696E-1,2.7690503E-1,-5.731751E-2,7.6044954E-2,4.0648974E-2,3.2931307E-1,3.040653E-1,1.5890448E-1,-2.4457048E-1,-3.649643E-2,-2.2109268E-2,9.347047E-2,3.369257E-1,1.0471305E-2,2.4924907E-1,5.285776E-1,4.697659E-1,2.7832398E-1,3.5475764E-1,6.966463E-2,-5.406775E-1,-1.12369455E-1,1.10144585E-1,-6.1952718E-2,9.3021266E-2,-8.158734E-2,1.9219437E-1,7.29509E-2,-1.1454939E-3,1.1026758E-2,-4.423798E-3,1.2394178E-3,3.07317E-3,9.874416E-3,-0E0,1.5795134E-2,9.059014E-3,1.6128782E-2,1.5129376E-2,6.7176637E-3,5.039417E-3,1.2186076E-2,3.4157531E-3,-2.3574727E-3,-1.609817E-2,-1.2430259E-3,-8.0878387E-4,-1.0263172E-2,-1.7174656E-3,4.0535317E-3,-1.002885E-3,-4.6790214E-3,-1.2185189E-3,5.6845373E-3,-2.5798203E-3,5.708659E-3,4.192452E-3,1.144418E-2,2.2404192E-3,-1.8157023E-3],"categories":[],"categories_nodes":[],"categories_segments":[],"categories_sizes":[],"default_left":[0,0,0,0,0,0,0,0,0,0,0,0,0,0,0,0,0,0,0,0,0,0,0,0,0,0,0,0,0,0,0,0,0,0,0,0,0,0,0,0,0,0,0,0,0,0,0,0,0,0,0,0,0,0,0,0,0,0,0,0,0,0,0],"id":8,"left_children":[1,3,5,7,9,11,13,15,17,19,21,23,25,27,29,31,33,35,37,39,41,43,45,47,49,51,53,55,57,59,61,-1,-1,-1,-1,-1,-1,-1,-1,-1,-1,-1,-1,-1,-1,-1,-1,-1,-1,-1,-1,-1,-1,-1,-1,-1,-1,-1,-1,-1,-1,-1,-1],"loss_changes":[1.1074918E2,1.3462845E1,2.8279427E1,1.5181836E1,8.68895E0,9.156202E0,7.963915E0,4.9922175E0,3.4452515E0,9.0659485E0,9.078852E0,8.621776E0,8.105436E0,4.7108593E0,7.6961937E0,2.30298E0,3.7253869E0,2.9951792E0,3.6082172E0,4.569397E0,8.148361E0,2.522007E0,4.0115514E0,2.538847E0,3.5050569E0,2.8707724E0,4.909411E0,4.393411E0,2.6926174E0,4.0698204E0,7.13385E0,0E0,0E0,0E0,0E0,0E0,0E0,0E0,0E0,0E0,0E0,0E0,0E0,0E0,0E0,0E0,0E0,0E0,0E0,0E0,0E0,0E0,0E0,0E0,0E0,0E0,0E0,0E0,0E0,0E0,0E0,0E0,0E0],"parents":[2147483647,0,0,1,1,2,2,3,3,4,4,5,5,6,6,7,7,8,8,9,9,10,10,11,11,12,12,13,13,14,14,15,15,16,16,17,17,18,18,19,19,20,20,21,21,22,22,23,23,24,24,25,25,26,26,27,27,28,28,29,29,30,30],"right_children":[2,4,6,8,10,12,14,16,18,20,22,24,26,28,30,32,34,36,38,40,42,44,46,48,50,52,54,56,58,60,62,-1,-1,-1,-1,-1,-1,-1,-1,-1,-1,-1,-1,-1,-1,-1,-1,-1,-1,-1,-1,-1,-1,-1,-1,-1,-1,-1,-1,-1,-1,-1,-1],"split_conditions":[-3.2554626E-1,-2.0655325E-1,-3.5947403E-1,8.260833E-1,-1.8461822E-2,-9.101491E-1,-2.8763875E-1,-3.8406503E-1,2.502323E0,-9.7349316E-1,-7.945923E-1,-1.3485246E0,-7.1686757E-1,-1.9197214E-1,-8.249815E-1,-1.7203115E0,-6.479229E-1,-3.8514572E-1,-1.1106342E0,2.9609153E-1,-1.7307879E0,4.0729383E-1,8.0360126E-1,1.19121335E-1,7.250998E-1,-3.3714727E-1,1.0432428E0,-3.8431016E-1,8.5212845E-1,4.9739933E0,4.76928E0,-1.1454939E-3,1.1026758E-2,-4.423798E-3,1.2394178E-3,3.07317E-3,9.874416E-3,-0E0,1.5795134E-2,9.059014E-3,1.6128782E-2,1.5129376E-2,6.7176637E-3,5.039417E-3,1.2186076E-2,3.4157531E-3,-2.3574727E-3,-1.609817E-2,-1.2430259E-3,-8.0878387E-4,-1.0263172E-2,-1.7174656E-3,4.0535317E-3,-1.002885E-3,-4.6790214E-3,-1.2185189E-3,5.6845373E-3,-2.5798203E-3,5.708659E-3,4.192452E-3,1.144418E-2,2.2404192E-3,-1.8157023E-3],"split_indices":[6,14,1,8,11,1,13,13,8,3,6,7,11,3,4,6,1,14,3,1,5,5,5,4,3,13,3,7,5,7,3,0,0,0,0,0,0,0,0,0,0,0,0,0,0,0,0,0,0,0,0,0,0,0,0,0,0,0,0,0,0,0,0],"split_type":[0,0,0,0,0,0,0,0,0,0,0,0,0,0,0,0,0,0,0,0,0,0,0,0,0,0,0,0,0,0,0,0,0,0,0,0,0,0,0,0,0,0,0,0,0,0,0,0,0,0,0,0,0,0,0,0,0,0,0,0,0,0,0],"sum_hessian":[1.0754373E4,3.7219978E3,7.0323755E3,8.625668E2,2.8594312E3,2.4173442E3,4.6150312E3,5.94317E2,2.682498E2,2.3167993E3,5.4263184E2,2.3641583E2,2.1809285E3,6.876256E2,3.9274055E3,5.122038E1,5.430966E2,1.9616153E2,7.208824E1,3.045343E2,2.012265E3,1.6572588E2,3.7690594E2,6.992491E1,1.6649092E2,3.1669913E2,1.8642294E3,2.286779E2,4.589477E2,6.666658E2,3.2607397E3,8.462313E0,4.2758064E1,8.854481E1,4.5455182E2,1.0628541E2,8.987613E1,1.0718283E1,6.1369957E1,1.8498967E2,1.1954463E2,8.251155E1,1.9297534E3,7.765987E1,8.806601E1,2.7386923E2,1.0303671E2,5.7073776E1,1.2851133E1,1.3369469E2,3.279623E1,6.445276E1,2.5224637E2,1.5810034E3,2.8322598E2,1.0672252E2,1.2195538E2,4.3448032E2,2.4467373E1,6.071846E2,5.948125E1,2.957905E3,3.028346E2],"tree_param":{"num_deleted":"0","num_feature":"16","num_nodes":"63","size_leaf_vector":"1"}},{"base_weights":[8.090643E-2,3.5684907E-3,1.5979771E-1,-2.2757092E-2,1.799131E-1,7.4967556E-2,2.2943018E-1,-1.6175188E-1,1.5009542E-3,-1.937518E-2,2.145366E-1,1.4113277E-1,-2.749091E-3,1.4616203E-1,2.9933015E-1,-2.0644424E-2,-2.4810927E-1,-6.732915E-2,3.168676E-2,9.541094E-2,-2.0025575E-1,2.9349276E-1,1.0976461E-1,-3.270648E-1,1.5464225E-1,-1.3955855E-1,5.3010836E-2,2.3296122E-1,9.626573E-2,3.5311612E-1,2.4166031E-1,-2.2603108E-3,8.970361E-3,-1.0489548E-2,-4.3925177E-3,-4.0548206E-3,6.3310796E-4,4.2187655E-4,6.5605068E-3,-4.845534E-3,8.574536E-3,-9.56652E-3,8.363696E-3,4.4471826E-3,1.1870705E-2,1.6390788E-3,1.4260284E-2,-1.4215958E-2,-0E0,1.17665E-2,3.4254973E-3,-5.7476945E-3,4.2344647E-5,-1.7892657E-3,2.2746872E-3,3.4487634E-3,1.16383685E-2,1.7579731E-3,1.2333435E-2,9.153008E-3,-3.7548642E-3,4.5372513E-3,9.582326E-3],"categories":[],"categories_nodes":[],"categories_segments":[],"categories_sizes":[],"default_left":[0,0,0,0,0,0,0,0,0,0,0,0,0,0,0,0,0,0,0,0,0,0,0,0,0,0,0,0,0,0,0,0,0,0,0,0,0,0,0,0,0,0,0,0,0,0,0,0,0,0,0,0,0,0,0,0,0,0,0,0,0,0,0],"id":9,"left_children":[1,3,5,7,9,11,13,15,17,19,21,23,25,27,29,31,33,35,37,39,41,43,45,47,49,51,53,55,57,59,61,-1,-1,-1,-1,-1,-1,-1,-1,-1,-1,-1,-1,-1,-1,-1,-1,-1,-1,-1,-1,-1,-1,-1,-1,-1,-1,-1,-1,-1,-1,-1,-1],"loss_changes":[6.5354034E1,2.5353287E1,3.105835E1,1.6064348E1,5.0853443E0,1.2475181E1,1.6474792E1,8.359053E0,8.30727E0,2.2309215E0,4.629383E0,8.126623E0,8.46658E0,5.45463E0,4.2487946E0,6.743025E0,4.768961E0,1.0437435E1,9.3042755E0,4.3225584E0,4.15488E0,6.342207E0,4.8619566E0,2.4384763E0,7.198572E0,4.1521597E0,3.5074968E0,9.882965E0,8.488972E0,2.924408E0,6.00906E0,0E0,0E0,0E0,0E0,0E0,0E0,0E0,0E0,0E0,0E0,0E0,0E0,0E0,0E0,0E0,0E0,0E0,0E0,0E0,0E0,0E0,0E0,0E0,0E0,0E0,0E0,0E0,0E0,0E0,0E0,0E0,0E0],"parents":[2147483647,0,0,1,1,2,2,3,3,4,4,5,5,6,6,7,7,8,8,9,9,10,10,11,11,12,12,13,13,14,14,15,15,16,16,17,17,18,18,19,19,20,20,21,21,22,22,23,23,24,24,25,25,26,26,27,27,28,28,29,29,30,30],"right_children":[2,4,6,8,10,12,14,16,18,20,22,24,26,28,30,32,34,36,38,40,42,44,46,48,50,52,54,56,58,60,62,-1,-1,-1,-1,-1,-1,-1,-1,-1,-1,-1,-1,-1,-1,-1,-1,-1,-1,-1,-1,-1,-1,-1,-1,-1,-1,-1,-1,-1,-1,-1,-1],"split_conditions":[3.3937138E-2,1.1876607E0,-1.4969306E-1,-6.741455E-1,-1.3193004E0,-7.478093E-2,-1.8583208E-1,-1.9197214E-1,-6.3364315E-1,4.8653027E-3,2.6167743E0,-9.625944E-1,-8.3944935E-1,-2.732064E-1,8.514428E-1,-2.497484E-1,2.0991224E-1,-6.8113283E-4,1.2106836E0,-7.280127E-1,2.0185845E0,6.614079E-1,1.693833E0,-7.437455E-2,-1.2721401E0,1.0598724E0,-3.3984053E-1,4.6991795E-1,2.0185845E0,2.0951426E0,1.5023322E0,-2.2603108E-3,8.970361E-3,-1.0489548E-2,-4.3925177E-3,-4.0548206E-3,6.3310796E-4,4.2187655E-4,6.5605068E-3,-4.845534E-3,8.574536E-3,-9.56652E-3,8.363696E-3,4.4471826E-3,1.1870705E-2,1.6390788E-3,1.4260284E-2,-1.4215958E-2,-0E0,1.17665E-2,3.4254973E-3,-5.7476945E-3,4.2344647E-5,-1.7892657E-3,2.2746872E-3,3.4487634E-3,1.16383685E-2,1.7579731E-3,1.2333435E-2,9.153008E-3,-3.7548642E-3,4.5372513E-3,9.582326E-3],"split_indices":[11,1,1,1,10,3,10,3,10,4,7,1,7,8,7,11,3,7,4,4,4,10,5,15,3,11,5,5,4,8,1,0,0,0,0,0,0,0,0,0,0,0,0,0,0,0,0,0,0,0,0,0,0,0,0,0,0,0,0,0,0,0,0],"split_type":[0,0,0,0,0,0,0,0,0,0,0,0,0,0,0,0,0,0,0,0,0,0,0,0,0,0,0,0,0,0,0,0,0,0,0,0,0,0,0,0,0,0,0,0,0,0,0,0,0,0,0,0,0,0,0,0,0,0,0,0,0,0,0],"sum_hessian":[1.0735858E4,5.427787E3,5.308071E3,4.7187944E3,7.089929E2,2.3998228E3,2.908248E3,7.061758E2,4.0126187E3,1.0098668E2,6.080062E2,1.3023805E3,1.0974423E3,1.3346074E3,1.5736406E3,2.7265195E2,4.335238E2,1.2134553E3,2.7991633E3,5.886192E1,4.2124756E1,3.406863E2,2.6731995E2,3.3992477E1,1.268388E3,3.222621E2,7.7518024E2,4.7908438E2,8.555231E2,8.034372E2,7.702034E2,2.3323341E2,3.9418552E1,1.3132718E2,3.0219662E2,6.120462E2,6.014092E2,2.6287256E3,1.7043767E2,2.5267658E1,3.359426E1,3.3146427E1,8.978329E0,2.0638771E2,1.342986E2,2.4571132E2,2.160863E1,1.8868195E1,1.5124281E1,7.330702E1,1.1950809E3,2.0377144E2,1.1849065E2,1.7055923E2,6.04621E2,3.3803397E2,1.4105042E2,8.028534E2,5.2669674E1,7.950091E2,8.428095E0,5.304144E2,2.3978903E2],"tree_param":{"num_deleted":"0","num_feature":"16","num_nodes":"63","size_leaf_vector":"1"}},{"base_weights":[-1.8766278E-1,1.5972644E-1,-1.9045338E-2,-1.869904E-2,1.4556404E0,1.4777173E0,-0E0,4.8102862E-1,3.7969984E-2,-1.9039991E-1,1.916562E-2,3.0822206E-2,4.308447E-3,5.5422387E-3,-8.760509E-3],"categories":[],"categories_nodes":[],"categories_segments":[],"categories_sizes":[],"default_left":[0,0,0,0,0,0,0,0,0,0,0,0,0,0,0],"id":10,"left_children":[1,3,-1,-1,5,7,9,11,-1,13,-1,-1,-1,-1,-1],"loss_changes":[2.0662104E3,7.5912285E3,0E0,0E0,8.5887695E1,3.6141113E1,6.009604E0,7.757455E0,0E0,2.2788067E0,0E0,0E0,0E0,0E0,0E0],"parents":[2147483647,0,0,1,1,4,4,5,5,6,6,7,7,9,9],"right_children":[2,4,-1,-1,6,8,10,12,-1,14,-1,-1,-1,-1,-1],"split_conditions":[1.7698054E-1,-1.9420369E-1,-1.9045338E-2,-1.869904E-2,1.6938187E-1,-1.8715738E-1,1.0526448E0,-3.561294E-1,3.7969984E-2,-6.3788426E-1,1.916562E-2,3.0822206E-2,4.308447E-3,5.5422387E-3,-8.760509E-3],"split_indices":[0,0,0,0,0,0,15,15,0,15,0,0,0,0,0],"split_type":[0,0,0,0,0,0,0,0,0,0,0,0,0,0,0],"sum_hessian":[1.0599303E4,6.544912E3,4.0543904E3,3.8716047E3,2.6733071E3,2.633332E3,3.997525E1,3.968277E1,2.5936492E3,3.2407627E1,7.5676246E0,1.0194179E1,2.948859E1,7.1010547E0,2.5306572E1],"tree_param":{"num_deleted":"0","num_feature":"16","num_nodes":"15","size_leaf_vector":"1"}},{"base_weights":[1.0323031E-1,-1.9054787E-2,1.4561573E0,7.095335E-1,3.7224546E-2,9.383163E-1,-1.4072134E-3,1.029534E0,3.2007252E-3,2.9404668E-2,3.1449557E-3],"categories":[],"categories_nodes":[],"categories_segments":[],"categories_sizes":[],"default_left":[0,0,0,0,0,0,0,0,0,0,0],"id":11,"left_children":[1,-1,3,5,-1,7,-1,9,-1,-1,-1],"loss_changes":[1.2366764E4,0E0,1.862207E1,8.113056E0,0E0,1.2319355E0,0E0,1.9125805E0,0E0,0E0,0E0],"parents":[2147483647,0,0,2,2,3,3,5,5,7,7],"right_children":[2,-1,4,6,-1,8,-1,10,-1,-1,-1],"split_conditions":[1.6938187E-1,-1.9054787E-2,1.7698054E-1,1.0526448E0,3.7224546E-2,1.4197495E0,-1.4072134E-3,7.090609E-1,3.2007252E-3,2.9404668E-2,3.1449557E-3],"split_indices":[0,0,0,15,0,11,0,3,0,0,0],"split_type":[0,0,0,0,0,0,0,0,0,0,0],"sum_hessian":[1.0723862E4,6.579334E3,4.144528E3,4.0463593E1,4.1040645E3,3.193615E1,8.527441E0,2.745821E1,4.47794E0,2.297318E1,4.48503E0],"tree_param":{"num_deleted":"0","num_feature":"16","num_nodes":"11","size_leaf_vector":"1"}},{"base_weights":[8.331648E-2,3.561328E-2,-7.3385304E-1,1.6063626E-1,-1.8813418E-2,-1.3134357E-1,5.7609963E-1,-8.184703E-3,6.383277E-3,-0E0,2.3872461E-2],"categories":[],"categories_nodes":[],"categories_segments":[],"categories_sizes":[],"default_left":[0,0,0,0,0,0,0,0,0,0,0],"id":12,"left_children":[1,-1,3,5,-1,7,9,-1,-1,-1,-1],"loss_changes":[1.1585626E4,0E0,3.4049316E1,5.4802184E0,0E0,1.854596E0,3.0313044E0,0E0,0E0,0E0,0E0],"parents":[2147483647,0,0,2,2,3,3,5,5,6,6],"right_children":[2,-1,4,6,-1,8,10,-1,-1,-1,-1],"split_conditions":[-1.9420369E-1,3.561328E-2,-1.8715738E-1,2.2993073E-2,-1.8813418E-2,2.9826602E-1,-7.158493E-3,-8.184703E-3,6.383277E-3,-0E0,2.3872461E-2],"split_indices":[0,0,0,11,0,5,2,0,0,0,0],"split_type":[0,0,0,0,0,0,0,0,0,0,0],"sum_hessian":[1.0767066E4,4.1238804E3,6.643186E3,4.0278927E1,6.602907E3,2.2686142E1,1.7592783E1,1.687952E1,5.806622E0,8.0756645E0,9.517118E0],"tree_param":{"num_deleted":"0","num_feature":"16","num_nodes":"11","size_leaf_vector":"1"}},{"base_weights":[-1.8527241E-1,1.5114155E-1,-1.88015E-2,-1.8633595E-2,1.4119158E0,1.4331741E0,-1.1746159E-2,4.3309274E-1,3.6812913E-2,-1.9107562E-1,2.336324E-2,2.7342638E-2,3.7361763E-3,2.7713038E-3,-8.598015E-3],"categories":[],"categories_nodes":[],"categories_segments":[],"categories_sizes":[],"default_left":[0,0,0,0,0,0,0,0,0,0,0,0,0,0,0],"id":13,"left_children":[1,3,-1,-1,5,7,9,11,-1,13,-1,-1,-1,-1,-1],"loss_changes":[1.9779319E3,7.3565E3,0E0,0E0,8.3708984E1,3.4631836E1,6.190901E0,5.81034E0,0E0,1.805787E0,0E0,0E0,0E0,0E0,0E0],"parents":[2147483647,0,0,1,1,4,4,5,5,6,6,7,7,9,9],"right_children":[2,4,-1,-1,6,8,10,12,-1,14,-1,-1,-1,-1,-1],"split_conditions":[1.7698054E-1,-1.9420369E-1,-1.88015E-2,-1.8633595E-2,1.6938187E-1,-1.8715738E-1,1.3343997E0,-3.561294E-1,3.6812913E-2,-2.171845E-1,2.336324E-2,2.7342638E-2,3.7361763E-3,2.7713038E-3,-8.598015E-3],"split_indices":[0,0,0,0,0,0,15,15,0,14,0,0,0,0,0],"split_type":[0,0,0,0,0,0,0,0,0,0,0,0,0,0,0],"sum_hessian":[1.0613481E4,6.601664E3,4.011817E3,3.8812952E3,2.720369E3,2.6809897E3,3.937911E1,3.7759556E1,2.6432302E3,3.4456474E1,4.9226313E0,9.875608E0,2.7883947E1,9.29837E0,2.5158106E1],"tree_param":{"num_deleted":"0","num_feature":"16","num_nodes":"15","size_leaf_vector":"1"}},{"base_weights":[1.0052954E-1,-1.8911038E-2,1.4132282E0,7.138725E-1,3.6128312E-2,8.6681134E-1,-4.5147785E-3,3.1071159E-3,2.5243996E-2],"categories":[],"categories_nodes":[],"categories_segments":[],"categories_sizes":[],"default_left":[0,0,0,0,0,0,0,0,0],"id":14,"left_children":[1,-1,3,5,-1,7,-1,-1,-1],"loss_changes":[1.1932829E4,0E0,1.7185547E1,6.7593136E0,0E0,2.4364605E0,0E0,0E0,0E0],"parents":[2147483647,0,0,2,2,3,3,5,5],"right_children":[2,-1,4,6,-1,8,-1,-1,-1],"split_conditions":[1.6938187E-1,-1.8911038E-2,1.7698054E-1,1.3343997E0,3.6128312E-2,-6.5445334E-1,-4.5147785E-3,3.1071159E-3,2.5243996E-2],"split_indices":[0,0,0,15,0,7,0,0,0],"split_type":[0,0,0,0,0,0,0,0,0],"sum_hessian":[1.077024E4,6.5557153E3,4.214525E3,4.292906E1,4.171596E3,3.756254E1,5.366523E0,6.748712E0,3.0813828E1],"tree_param":{"num_deleted":"0","num_feature":"16","num_nodes":"9","size_leaf_vector":"1"}},{"base_weights":[8.6157456E-2,3.4403045E-2,-7.2653997E-1,1.8737668E-1,-1.8639736E-2,-1.158857E-2,4.6412307E-1,8.5622317E-1,-0E0,3.170597E-2,-0E0,-1.1319514E-2,4.59637E-3],"categories":[],"categories_nodes":[],"categories_segments":[],"categories_sizes":[],"default_left":[0,0,0,0,0,0,0,0,0,0,0,0,0],"id":15,"left_children":[1,-1,3,5,-1,-1,7,9,11,-1,-1,-1,-1],"loss_changes":[1.1044664E4,0E0,3.7114502E1,7.8611374E0,0E0,0E0,6.1732078E0,6.840209E0,1.3911098E0,0E0,0E0,0E0,0E0],"parents":[2147483647,0,0,2,2,3,3,6,6,7,7,8,8],"right_children":[2,-1,4,6,-1,-1,8,10,12,-1,-1,-1,-1],"split_conditions":[-1.9420369E-1,3.4403045E-2,-1.8715738E-1,-3.561294E-1,-1.8639736E-2,-1.158857E-2,4.8913515E-1,7.2367345E-3,-4.8502982E-1,3.170597E-2,-0E0,-1.1319514E-2,4.59637E-3],"split_indices":[0,0,0,15,0,0,15,13,10,0,0,0,0],"split_type":[0,0,0,0,0,0,0,0,0,0,0,0,0],"sum_hessian":[1.0731742E4,4.1958003E3,6.5359414E3,4.2181705E1,6.49376E3,1.1498445E1,3.0683262E1,1.6804167E1,1.3879096E1,1.1864194E1,4.939972E0,4.426498E0,9.452598E0],"tree_param":{"num_deleted":"0","num_feature":"16","num_nodes":"13","size_leaf_vector":"1"}},{"base_weights":[-1.815295E-1,-8.770939E-2,-3.2079536E-1,-1.8698011E-1,4.3428545E-3,-2.1783377E-1,-3.974891E-1,-1.5289243E-1,-3.1471315E-1,1.4764202E-1,-9.777779E-2,-2.416332E-1,-4.716245E-2,-3.649133E-1,-1.2626451E-2,-2.3427106E-1,-9.8378725E-2,-0E0,-3.310051E-1,7.146598E-1,1.2074281E-1,3.714955E-2,-1.662062E-1,-1.8905608E-1,-2.9225457E-1,9.553578E-2,-2.7282962E-1,-4.5190594E-1,-3.217923E-1,-4.558719E-3,-8.973332E-3,5.330935E-3,-2.8185695E-3,1.1129424E-2,-4.0159533E-3,-2.887169E-3,-9.118357E-3,-0E0,1.9811679E-2,6.9034547E-3,1.637086E-3,2.4950597E-3,-4.5385915E-3,-4.857405E-3,1.3177097E-3,-5.9011905E-4,-6.688623E-3,3.713676E-4,-7.788743E-3,-7.5417883E-3,4.9409326E-3,-0E0,-8.431105E-3,-7.880408E-3,-1.2723911E-2,2.4504718E-4,-8.627098E-3],"categories":[],"categories_nodes":[],"categories_segments":[],"categories_sizes":[],"default_left":[0,0,0,0,0,0,0,0,0,0,0,0,0,0,0,0,0,0,0,0,0,0,0,0,0,0,0,0,0,0,0,0,0,0,0,0,0,0,0,0,0,0,0,0,0,0,0,0,0,0,0,0,0,0,0,0,0],"id":16,"left_children":[1,3,5,7,9,11,13,15,17,19,21,23,25,27,-1,29,31,33,35,37,39,41,43,45,47,49,51,53,55,-1,-1,-1,-1,-1,-1,-1,-1,-1,-1,-1,-1,-1,-1,-1,-1,-1,-1,-1,-1,-1,-1,-1,-1,-1,-1,-1,-1],"loss_changes":[1.3746997E2,5.783619E1,3.2850708E1,1.2758629E1,4.7914375E1,7.105377E0,6.8352966E0,1.0349243E1,3.333477E0,1.9955982E1,1.7725779E1,3.7328186E0,7.548223E0,6.0249023E0,0E0,5.6965103E0,5.469139E0,2.2959557E0,3.11689E0,3.0380268E0,1.0759197E1,8.311318E0,6.9800606E0,9.426764E0,3.6860886E0,5.2965207E0,1.7317419E0,3.2033234E0,7.4049225E0,0E0,0E0,0E0,0E0,0E0,0E0,0E0,0E0,0E0,0E0,0E0,0E0,0E0,0E0,0E0,0E0,0E0,0E0,0E0,0E0,0E0,0E0,0E0,0E0,0E0,0E0,0E0,0E0],"parents":[2147483647,0,0,1,1,2,2,3,3,4,4,5,5,6,6,7,7,8,8,9,9,10,10,11,11,12,12,13,13,15,15,16,16,17,17,18,18,19,19,20,20,21,21,22,22,23,23,24,24,25,25,26,26,27,27,28,28],"right_children":[2,4,6,8,10,12,14,16,18,20,22,24,26,28,-1,30,32,34,36,38,40,42,44,46,48,50,52,54,56,-1,-1,-1,-1,-1,-1,-1,-1,-1,-1,-1,-1,-1,-1,-1,-1,-1,-1,-1,-1,-1,-1,-1,-1,-1,-1,-1,-1],"split_conditions":[1.12533174E-1,-1.8213627E-1,-4.131868E-2,1.0007621E-1,-4.9058715E-1,4.8312182E0,2.000562E0,-6.3788426E-1,-1.1595678E0,-1.6789045E0,-2.6418033E-1,-3.6550313E-2,-1.1221503E-1,-5.509422E-1,-1.2626451E-2,8.978264E-2,-9.3637174E-1,-7.79036E-1,-6.5017754E-1,-2.4829063E-1,-8.314813E-1,-4.4802565E-2,7.966153E-1,-2.5829118E-1,-5.632595E-1,-5.3338414E-1,-7.16546E-1,3.485368E-1,-1.9898006E0,-4.558719E-3,-8.973332E-3,5.330935E-3,-2.8185695E-3,1.1129424E-2,-4.0159533E-3,-2.887169E-3,-9.118357E-3,-0E0,1.9811679E-2,6.9034547E-3,1.637086E-3,2.4950597E-3,-4.5385915E-3,-4.857405E-3,1.3177097E-3,-5.9011905E-4,-6.688623E-3,3.713676E-4,-7.788743E-3,-7.5417883E-3,4.9409326E-3,-0E0,-8.431105E-3,-7.880408E-3,-1.2723911E-2,2.4504718E-4,-8.627098E-3],"split_indices":[1,3,13,14,1,3,1,15,7,7,13,9,14,3,0,7,1,1,2,2,1,1,2,13,14,4,4,1,2,0,0,0,0,0,0,0,0,0,0,0,0,0,0,0,0,0,0,0,0,0,0,0,0,0,0,0,0],"split_type":[0,0,0,0,0,0,0,0,0,0,0,0,0,0,0,0,0,0,0,0,0,0,0,0,0,0,0,0,0,0,0,0,0,0,0,0,0,0,0,0,0,0,0,0,0,0,0,0,0,0,0,0,0,0,0,0,0],"sum_hessian":[1.0551655E4,6.309379E3,4.242276E3,3.0401318E3,3.269247E3,1.8176978E3,2.4245781E3,2.4070828E3,6.3304913E2,1.3640154E3,1.9052317E3,1.5900892E3,2.2760844E2,1.8336978E3,5.9088043E2,9.575125E2,1.4495702E3,3.0444275E1,6.0260486E2,5.9159782E1,1.3048556E3,6.3662067E2,1.2686111E3,7.9115936E2,7.9892993E2,1.3720262E2,9.040582E1,5.9767444E2,1.2360233E3,6.604761E2,2.9703644E2,5.2661903E1,1.3969083E3,8.073903E0,2.237037E1,7.1759605E1,5.308453E2,4.4628787E0,5.4696903E1,3.5003748E2,9.548182E2,5.0011542E2,1.3650522E2,1.1433926E3,1.2521854E2,2.4800844E2,5.4315094E2,3.1659447E1,7.672705E2,2.5316679E1,1.1188594E2,1.3647549E1,7.675827E1,1.5798547E2,4.3968893E2,5.8647457E1,1.1773759E3],"tree_param":{"num_deleted":"0","num_feature":"16","num_nodes":"57","size_leaf_vector":"1"}},{"base_weights":[9.413602E-2,-1.8731957E-2,1.3651794E0,7.114562E-1,3.487574E-2,9.0390176E-1,-0E0,9.484461E-4,1.0282261E0,7.293445E-3,3.0549332E-2],"categories":[],"categories_nodes":[],"categories_segments":[],"categories_sizes":[],"default_left":[0,0,0,0,0,0,0,0,0,0,0],"id":17,"left_children":[1,-1,3,5,-1,7,-1,-1,9,-1,-1],"loss_changes":[1.1362135E4,0E0,1.2835449E1,6.1020813E0,0E0,2.4143562E0,0E0,0E0,1.7514648E0,0E0,0E0],"parents":[2147483647,0,0,2,2,3,3,5,5,8,8],"right_children":[2,-1,4,6,-1,8,-1,-1,10,-1,-1],"split_conditions":[1.6938187E-1,-1.8731957E-2,1.7698054E-1,1.0526448E0,3.487574E-2,-6.537395E-1,-0E0,9.484461E-4,-6.3788426E-1,7.293445E-3,3.0549332E-2],"split_indices":[0,0,0,15,0,8,0,0,15,0,0],"split_type":[0,0,0,0,0,0,0,0,0,0,0],"sum_hessian":[1.0762557E4,6.509416E3,4.2531406E3,3.873194E1,4.2144087E3,3.11232E1,7.6087413E0,4.9987345E0,2.6124466E1,6.408328E0,1.9716137E1],"tree_param":{"num_deleted":"0","num_feature":"16","num_nodes":"11","size_leaf_vector":"1"}},{"base_weights":[7.728436E-2,-9.025914E-3,1.6787852E-1,-8.3794214E-2,5.7799965E-2,1.2951039E-1,2.5985122E-1,-2.313812E-1,-5.7320803E-2,-2.2687295E-3,1.4158525E-1,6.840568E-2,1.708567E-1,1.6167915E-1,3.0552882E-1,-2.602003E-1,8.4651835E-2,2.1590576E-2,-9.425387E-2,1.1300914E-1,-4.3121457E-2,2.7649794E-2,1.9303986E-1,1.4370705E-3,2.1193373E-1,3.0998164E-1,1.1536746E-1,8.09599E-3,2.626826E-1,2.3862277E-1,4.2108437E-1,-7.0806323E-3,1.964258E-3,-3.218701E-3,6.7325123E-3,7.9012215E-3,-5.2446296E-7,-3.7821468E-3,-5.6125544E-4,1.4197687E-3,8.308662E-3,-2.6630436E-3,8.0258306E-4,-6.774459E-3,1.4117088E-3,3.1113415E-3,8.029302E-3,3.1300436E-3,-1.4058142E-3,4.8556887E-3,1.6082585E-2,6.640069E-3,1.4102754E-2,2.1999446E-3,5.597778E-3,-2.9669108E-3,3.069709E-3,-0E0,7.87842E-3,8.347495E-3,3.9035091E-3,1.4342795E-2,7.940164E-3],"categories":[],"categories_nodes":[],"categories_segments":[],"categories_sizes":[],"default_left":[0,0,0,0,0,0,0,0,0,0,0,0,0,0,0,0,0,0,0,0,0,0,0,0,0,0,0,0,0,0,0,0,0,0,0,0,0,0,0,0,0,0,0,0,0,0,0,0,0,0,0,0,0,0,0,0,0,0,0,0,0,0,0],"id":18,"left_children":[1,3,5,7,9,11,13,15,17,19,21,23,25,27,29,31,33,35,37,39,41,43,45,47,49,51,53,55,57,59,61,-1,-1,-1,-1,-1,-1,-1,-1,-1,-1,-1,-1,-1,-1,-1,-1,-1,-1,-1,-1,-1,-1,-1,-1,-1,-1,-1,-1,-1,-1,-1,-1],"loss_changes":[8.435293E1,2.75605E1,1.8163208E1,9.905069E0,1.4744439E1,9.163475E0,6.422928E0,3.7449036E0,6.5330744E0,7.876329E0,6.934149E0,1.4332397E1,1.6621887E1,7.4605293E0,7.3580017E0,2.414919E0,1.3233396E0,4.66088E0,5.8023243E0,4.9418693E0,5.8216686E0,2.9732592E0,6.7844715E0,7.2135935E0,3.3397827E0,6.579632E0,4.4898224E0,2.851636E0,3.6637344E0,4.5954094E0,4.8712997E0,0E0,0E0,0E0,0E0,0E0,0E0,0E0,0E0,0E0,0E0,0E0,0E0,0E0,0E0,0E0,0E0,0E0,0E0,0E0,0E0,0E0,0E0,0E0,0E0,0E0,0E0,0E0,0E0,0E0,0E0,0E0,0E0],"parents":[2147483647,0,0,1,1,2,2,3,3,4,4,5,5,6,6,7,7,8,8,9,9,10,10,11,11,12,12,13,13,14,14,15,15,16,16,17,17,18,18,19,19,20,20,21,21,22,22,23,23,24,24,25,25,26,26,27,27,28,28,29,29,30,30],"right_children":[2,4,6,8,10,12,14,16,18,20,22,24,26,28,30,32,34,36,38,40,42,44,46,48,50,52,54,56,58,60,62,-1,-1,-1,-1,-1,-1,-1,-1,-1,-1,-1,-1,-1,-1,-1,-1,-1,-1,-1,-1,-1,-1,-1,-1,-1,-1,-1,-1,-1,-1,-1,-1],"split_conditions":[1.3021765E-2,-1.2347043E-1,9.598254E-2,-1.0407283E0,4.751058E-1,4.3482578E-1,-5.430077E-1,-2.747142E-2,-6.266342E-1,-1.0320908E0,-1.0308026E0,2.6076612E-1,1.9697802E-1,4.3482578E-1,3.1340492E-1,6.4099085E-1,-4.283496E-2,-1.2339978E0,-3.1654778E-1,2.368962E0,6.3099936E-2,-1.453123E0,7.9432136E-1,-7.257102E-1,2.0290685E0,1.2435647E0,-3.070672E-2,4.2720464E-1,-1.1725299E0,-4.570416E-1,5.552891E-2,-7.0806323E-3,1.964258E-3,-3.218701E-3,6.7325123E-3,7.9012215E-3,-5.2446296E-7,-3.7821468E-3,-5.6125544E-4,1.4197687E-3,8.308662E-3,-2.6630436E-3,8.0258306E-4,-6.774459E-3,1.4117088E-3,3.1113415E-3,8.029302E-3,3.1300436E-3,-1.4058142E-3,4.8556887E-3,1.6082585E-2,6.640069E-3,1.4102754E-2,2.1999446E-3,5.597778E-3,-2.9669108E-3,3.069709E-3,-0E0,7.87842E-3,8.347495E-3,3.9035091E-3,1.4342795E-2,7.940164E-3],"split_indices":[6,1,14,7,2,6,2,6,9,9,6,2,9,6,4,4,3,3,6,12,14,4,1,12,2,6,14,1,4,4,7,0,0,0,0,0,0,0,0,0,0,0,0,0,0,0,0,0,0,0,0,0,0,0,0,0,0,0,0,0,0,0,0],"split_type":[0,0,0,0,0,0,0,0,0,0,0,0,0,0,0,0,0,0,0,0,0,0,0,0,0,0,0,0,0,0,0,0,0,0,0,0,0,0,0,0,0,0,0,0,0,0,0,0,0,0,0,0,0,0,0,0,0,0,0,0,0,0,0],"sum_hessian":[1.0767761E4,5.5093574E3,5.2584033E3,2.606689E3,2.9026687E3,3.719228E3,1.5391754E3,3.9000885E2,2.2166802E3,1.6845857E3,1.218083E3,1.5111029E3,2.2081252E3,4.9656616E2,1.0426093E3,3.6028525E2,2.9723589E1,6.987216E2,1.5179585E3,4.343534E2,1.2502323E3,3.850671E2,8.3301587E2,1.0354315E3,4.756714E2,6.235925E2,1.5845327E3,2.01079E2,2.9548715E2,6.671855E2,3.7542377E2,3.447254E2,1.5559846E1,1.1396992E1,1.8326597E1,5.0811367E1,6.479102E2,8.5765717E2,6.603013E2,3.469503E2,8.7403114E1,6.92008E2,5.582243E2,2.9732342E1,3.5533478E2,5.3413586E2,2.9887997E2,3.3419772E2,7.012337E2,4.5631888E2,1.9352507E1,5.241878E2,9.940473E1,1.2499998E3,3.34533E2,9.141572E1,1.0966328E2,4.4906857E1,2.5058029E2,3.1878113E2,3.4840433E2,1.5724246E2,2.181813E2],"tree_param":{"num_deleted":"0","num_feature":"16","num_nodes":"63","size_leaf_vector":"1"}},{"base_weights":[-1.796851E-1,-6.524961E-2,-2.57976E-1,2.422407E-1,-9.121302E-2,-1.7972872E-1,-3.4758186E-1,4.2433798E-1,1.1880704E-1,-3.422875E-2,-2.0081574E-1,6.765277E-2,-1.9091512E-1,-3.085029E-1,-4.0656406E-1,1.7569533E-1,5.9870243E-1,8.9910604E-2,2.415455E-2,-1.5913962E-1,1.45999985E-2,4.931119E-2,-2.1723785E-1,-1.0452531E-3,3.83068E-1,-1.6592267E-1,-3.090234E-1,-1.1493929E-2,-2.8929117E-1,1.4801717E-3,-4.1049E-1,-3.6840566E-4,1.2362828E-2,-0E0,1.6514663E-2,7.063668E-3,-0E0,-0E0,-5.190844E-3,-6.7420746E-3,5.951499E-4,-8.501898E-3,6.406685E-3,-4.5411373E-3,-7.6908986E-3,3.6182534E-3,-3.053777E-3,2.026279E-2,-0E0,-3.209575E-3,-6.001472E-3,-8.040519E-3,6.0871146E-3,-6.9112605E-3,-1.1236547E-2,-1.1225689E-2,-8.382323E-3],"categories":[],"categories_nodes":[],"categories_segments":[],"categories_sizes":[],"default_left":[0,0,0,0,0,0,0,0,0,0,0,0,0,0,0,0,0,0,0,0,0,0,0,0,0,0,0,0,0,0,0,0,0,0,0,0,0,0,0,0,0,0,0,0,0,0,0,0,0,0,0,0,0,0,0,0,0],"id":19,"left_children":[1,3,5,7,9,11,13,15,17,19,21,23,25,27,29,31,33,35,-1,37,39,41,43,45,47,49,51,-1,53,-1,55,-1,-1,-1,-1,-1,-1,-1,-1,-1,-1,-1,-1,-1,-1,-1,-1,-1,-1,-1,-1,-1,-1,-1,-1,-1,-1],"loss_changes":[9.394473E1,3.4048378E1,4.321469E1,6.8774586E0,2.4445435E1,9.369354E0,5.907959E0,4.8219547E0,3.7812777E0,1.603112E1,5.6940155E0,3.4256191E0,8.951012E0,4.030075E0,2.4408112E0,3.8207414E0,2.6163292E0,3.5704925E0,0E0,5.1460857E0,4.3730345E0,6.218282E0,3.6731415E0,1.9487711E0,4.305113E0,7.0038223E0,2.2592163E0,0E0,3.4148407E0,0E0,1.9780884E0,0E0,0E0,0E0,0E0,0E0,0E0,0E0,0E0,0E0,0E0,0E0,0E0,0E0,0E0,0E0,0E0,0E0,0E0,0E0,0E0,0E0,0E0,0E0,0E0,0E0,0E0],"parents":[2147483647,0,0,1,1,2,2,3,3,4,4,5,5,6,6,7,7,8,8,9,9,10,10,11,11,12,12,13,13,14,14,15,15,16,16,17,17,19,19,20,20,21,21,22,22,23,23,24,24,25,25,26,26,28,28,30,30],"right_children":[2,4,6,8,10,12,14,16,18,20,22,24,26,28,30,32,34,36,-1,38,40,42,44,46,48,50,52,-1,54,-1,56,-1,-1,-1,-1,-1,-1,-1,-1,-1,-1,-1,-1,-1,-1,-1,-1,-1,-1,-1,-1,-1,-1,-1,-1,-1,-1],"split_conditions":[-2.1818241E-1,-1.3058627E0,-2.3980193E-2,-8.573859E-2,2.0416979E-2,-8.8376033E-1,3.647165E-1,-3.0360736E-2,1.0229421E0,-3.561294E-1,-1.0493697E0,8.385204E-1,5.2081826E-3,-1.3437958E0,-1.8419445E0,7.7089E-1,-3.561294E-1,-1.9111209E-1,2.415455E-2,-2.2055142E-1,-9.666621E-1,-1.0727863E0,2.4954745E-1,-1.0183056E-1,1.227317E0,4.47885E-1,3.3246346E0,-1.1493929E-2,1.377014E0,1.4801717E-3,2.073803E-1,-3.6840566E-4,1.2362828E-2,-0E0,1.6514663E-2,7.063668E-3,-0E0,-0E0,-5.190844E-3,-6.7420746E-3,5.951499E-4,-8.501898E-3,6.406685E-3,-4.5411373E-3,-7.6908986E-3,3.6182534E-3,-3.053777E-3,2.026279E-2,-0E0,-3.209575E-3,-6.001472E-3,-8.040519E-3,6.0871146E-3,-6.9112605E-3,-1.1236547E-2,-1.1225689E-2,-8.382323E-3],"split_indices":[7,7,13,14,14,8,13,5,13,15,5,10,14,10,11,15,15,9,0,14,4,11,14,4,10,8,4,0,10,0,15,0,0,0,0,0,0,0,0,0,0,0,0,0,0,0,0,0,0,0,0,0,0,0,0,0,0],"split_type":[0,0,0,0,0,0,0,0,0,0,0,0,0,0,0,0,0,0,0,0,0,0,0,0,0,0,0,0,0,0,0,0,0,0,0,0,0,0,0,0,0,0,0,0,0,0,0,0,0,0,0,0,0,0,0,0,0],"sum_hessian":[1.0520455E4,4.2792466E3,6.241208E3,3.2979327E2,3.9494534E3,3.338808E3,2.9024001E3,1.2927931E2,2.0051395E2,2.6048794E3,1.3445737E3,1.4061772E2,3.1981904E3,1.7586805E3,1.1437196E3,5.6250732E1,7.302858E1,1.9582408E2,4.689873E0,7.369292E2,1.8679503E3,7.920422E1,1.2653695E3,1.1375494E2,2.6862785E1,2.64797E3,5.502205E2,1.9977725E2,1.5589032E3,7.472551E0,1.1362471E3,3.3524567E1,2.2726168E1,4.8278527E0,6.820073E1,6.605406E1,1.2977002E2,1.6532925E2,5.716E2,5.2898518E1,1.8150518E3,2.5567171E1,5.3637054E1,8.788509E2,3.8651868E2,4.7950294E1,6.580465E1,1.2313508E1,1.4549276E1,1.6985157E3,9.494541E2,5.453367E2,4.8838525E0,1.404911E3,1.5399223E2,8.1240234E2,3.2384476E2],"tree_param":{"num_deleted":"0","num_feature":"16","num_nodes":"57","size_leaf_vector":"1"}},{"base_weights":[9.3905635E-2,2.3832685E-1,1.4755077E-2,3.3298603E-1,1.971042E-1,1.6005029E-1,-1.41921565E-2,1.6671209E-1,3.8019282E-1,6.245873E-1,1.8581682E-1,1.2980679E-1,3.7704262E-1,-3.448818E-2,8.652401E-2,8.255769E-2,3.8285598E-1,3.0503148E-1,4.373889E-1,2.5914276E-1,8.197896E-1,3.295318E-1,1.4964241E-1,1.9169183E-1,3.4662504E-2,4.8769304E-1,2.3183315E-1,5.7948413E-3,-8.690536E-2,-1.0528258E-2,1.3724408E-1,2.7540133E-3,-1.0355868E-2,1.6186912E-2,2.8481288E-3,-9.835742E-4,8.352611E-3,-0E0,1.1370645E-2,1.2097908E-2,-4.8701983E-4,2.416283E-2,7.636684E-3,5.987564E-3,1.1076112E-2,2.8687199E-3,7.615756E-3,5.1634214E-3,-8.567404E-3,-3.151809E-3,2.9003816E-3,6.625086E-3,1.986112E-2,-5.870459E-3,9.092757E-3,-2.2704261E-3,9.160853E-4,-3.7130532E-3,-5.6092336E-4,3.785923E-3,-1.6838767E-3,-1.160621E-3,4.2240415E-3],"categories":[],"categories_nodes":[],"categories_segments":[],"categories_sizes":[],"default_left":[0,0,0,0,0,0,0,0,0,0,0,0,0,0,0,0,0,0,0,0,0,0,0,0,0,0,0,0,0,0,0,0,0,0,0,0,0,0,0,0,0,0,0,0,0,0,0,0,0,0,0,0,0,0,0,0,0,0,0,0,0,0,0],"id":20,"left_children":[1,3,5,7,9,11,13,15,17,19,21,23,25,27,29,31,33,35,37,39,41,43,45,47,49,51,53,55,57,59,61,-1,-1,-1,-1,-1,-1,-1,-1,-1,-1,-1,-1,-1,-1,-1,-1,-1,-1,-1,-1,-1,-1,-1,-1,-1,-1,-1,-1,-1,-1,-1,-1],"loss_changes":[1.22493744E2,1.4259247E1,2.933198E1,8.406395E0,1.1941498E1,7.083317E0,1.1775579E1,4.2435727E0,2.9905396E0,3.4871292E0,1.2966911E1,5.7990456E0,1.4313927E0,1.0257799E1,4.8580217E0,2.1562295E0,3.9818172E0,3.425232E0,2.3884583E0,1.9951916E0,1.3237648E0,4.408413E0,1.1042854E1,3.5831776E0,5.1588182E0,3.736023E0,3.957806E0,7.754428E0,7.9013824E0,2.8117583E0,3.4808836E0,0E0,0E0,0E0,0E0,0E0,0E0,0E0,0E0,0E0,0E0,0E0,0E0,0E0,0E0,0E0,0E0,0E0,0E0,0E0,0E0,0E0,0E0,0E0,0E0,0E0,0E0,0E0,0E0,0E0,0E0,0E0,0E0],"parents":[2147483647,0,0,1,1,2,2,3,3,4,4,5,5,6,6,7,7,8,8,9,9,10,10,11,11,12,12,13,13,14,14,15,15,16,16,17,17,18,18,19,19,20,20,21,21,22,22,23,23,24,24,25,25,26,26,27,27,28,28,29,29,30,30],"right_children":[2,4,6,8,10,12,14,16,18,20,22,24,26,28,30,32,34,36,38,40,42,44,46,48,50,52,54,56,58,60,62,-1,-1,-1,-1,-1,-1,-1,-1,-1,-1,-1,-1,-1,-1,-1,-1,-1,-1,-1,-1,-1,-1,-1,-1,-1,-1,-1,-1,-1,-1,-1,-1],"split_conditions":[-3.075493E-1,-6.1211544E-1,-8.3772475E-1,-4.6436453E-1,-2.0959432E0,1.7273644E0,6.5830886E-1,-4.4625904E-2,-6.7651427E-1,-6.1670977E-1,-8.1337607E-1,5.5518055E-1,1.3974417E0,3.952706E-1,2.052121E-1,-8.786033E-2,-6.741455E-1,-8.317483E-1,-1.8850124E0,8.992119E-1,4.4363604E0,2.4806625E-1,1.0814684E-1,7.290706E-2,1.6185345E-1,2.0820966E0,1.790781E0,-6.479229E-1,2.210037E-1,-1.0691278E0,-5.69255E-1,2.7540133E-3,-1.0355868E-2,1.6186912E-2,2.8481288E-3,-9.835742E-4,8.352611E-3,-0E0,1.1370645E-2,1.2097908E-2,-4.8701983E-4,2.416283E-2,7.636684E-3,5.987564E-3,1.1076112E-2,2.8687199E-3,7.615756E-3,5.1634214E-3,-8.567404E-3,-3.151809E-3,2.9003816E-3,6.625086E-3,1.986112E-2,-5.870459E-3,9.092757E-3,-2.2704261E-3,9.160853E-4,-3.7130532E-3,-5.6092336E-4,3.785923E-3,-1.6838767E-3,-1.160621E-3,4.2240415E-3],"split_indices":[6,10,2,1,5,9,8,9,9,3,3,6,1,10,9,9,1,8,12,1,7,7,9,10,9,7,1,1,9,3,1,0,0,0,0,0,0,0,0,0,0,0,0,0,0,0,0,0,0,0,0,0,0,0,0,0,0,0,0,0,0,0,0],"split_type":[0,0,0,0,0,0,0,0,0,0,0,0,0,0,0,0,0,0,0,0,0,0,0,0,0,0,0,0,0,0,0,0,0,0,0,0,0,0,0,0,0,0,0,0,0,0,0,0,0,0,0,0,0,0,0,0,0,0,0,0,0,0,0],"sum_hessian":[1.0736089E4,3.7960312E3,6.9400576E3,1.1427716E3,2.6532598E3,1.1576837E3,5.7823735E3,2.5799753E2,8.847741E2,6.486316E1,2.5883965E3,1.0211235E3,1.3656026E2,4.8208145E3,9.615595E2,1.8971594E2,6.828158E1,3.9188773E2,4.928864E2,2.4984528E1,3.987863E1,5.1382526E2,2.0745713E3,6.12167E2,4.089565E2,7.263303E1,6.3927227E1,2.716237E3,2.1045771E3,3.2392276E2,6.376368E2,1.8274292E2,6.9730344E0,3.286672E1,3.541486E1,2.2255903E1,3.696318E2,8.900327E0,4.8398608E2,1.5598326E1,9.386202E0,2.986215E1,1.0016481E1,2.780811E2,2.3574422E2,1.6707474E3,4.038238E2,6.0167596E2,1.0491047E1,1.322771E2,2.766794E2,4.3658337E1,2.8974695E1,1.1890555E1,5.2036674E1,6.472918E2,2.068945E3,1.0935465E3,1.01103076E3,7.909946E1,2.4482332E2,8.220963E1,5.554271E2],"tree_param":{"num_deleted":"0","num_feature":"16","num_nodes":"63","size_leaf_vector":"1"}},{"base_weights":[7.705864E-2,3.3325005E-2,-7.2129196E-1,2.3098691E-1,-1.8508777E-2,-1.0200289E-2,5.399002E-1,8.010614E-1,-6.314416E-3,2.967885E-2,1.4333033E-3],"categories":[],"categories_nodes":[],"categories_segments":[],"categories_sizes":[],"default_left":[0,0,0,0,0,0,0,0,0,0,0],"id":21,"left_children":[1,-1,3,5,-1,-1,7,9,-1,-1,-1],"loss_changes":[1.0585148E4,0E0,3.9195312E1,8.516136E0,0E0,0E0,6.7825937E0,5.1380377E0,0E0,0E0,0E0],"parents":[2147483647,0,0,2,2,3,3,6,6,7,7],"right_children":[2,-1,4,6,-1,-1,8,10,-1,-1,-1],"split_conditions":[-1.9420369E-1,3.3325005E-2,-1.8715738E-1,-3.561294E-1,-1.8508777E-2,-1.0200289E-2,1.0526448E0,9.7934705E-1,-6.314416E-3,2.967885E-2,1.4333033E-3],"split_indices":[0,0,0,15,0,0,15,12,0,0,0],"split_type":[0,0,0,0,0,0,0,0,0,0,0],"sum_hessian":[1.0752683E4,4.2266133E3,6.5260693E3,4.1070232E1,6.484999E3,1.2398966E1,2.8671267E1,2.241927E1,6.251997E0,1.3852557E1,8.566713E0],"tree_param":{"num_deleted":"0","num_feature":"16","num_nodes":"11","size_leaf_vector":"1"}},{"base_weights":[-1.809862E-1,-7.612045E-2,-3.0013677E-1,-1.8880358E-1,3.068228E-2,-2.1183206E-1,-3.8271934E-1,-1.2576967E-1,-2.5986242E-1,3.4285673E-1,-1.9228708E-2,-2.3412174E-1,-3.0525504E-2,-2.9526594E-1,-4.2983368E-1,-2.616972E-1,-8.176669E-2,-3.564075E-2,-2.8339005E-1,6.8266374E-1,2.732485E-1,8.444453E-2,-8.665199E-2,-1.896308E-1,-2.77831E-1,1.1205653E-1,-2.4959503E-1,-3.0644533E-1,5.5369068E-2,-1.3476268E-2,-4.0252876E-1,-3.8593372E-3,-8.686238E-3,-5.258426E-4,-3.6849522E-3,-2.0188896E-3,1.7928218E-2,-6.3653197E-3,-9.649492E-3,1.9665577E-2,-1.6617542E-3,7.918771E-3,-1.5157566E-4,3.1770605E-3,-2.664974E-3,1.5717199E-3,-4.1586477E-3,-2.095864E-3,-6.1448705E-3,2.5007208E-3,-7.3588984E-3,5.9636626E-3,-3.3028221E-3,-1.1068599E-2,-2.4221593E-3,-7.052907E-3,-1.0151874E-2,-4.346529E-3,1.3629614E-2,-9.81037E-3,-1.4411161E-2],"categories":[],"categories_nodes":[],"categories_segments":[],"categories_sizes":[],"default_left":[0,0,0,0,0,0,0,0,0,0,0,0,0,0,0,0,0,0,0,0,0,0,0,0,0,0,0,0,0,0,0,0,0,0,0,0,0,0,0,0,0,0,0,0,0,0,0,0,0,0,0,0,0,0,0,0,0,0,0,0,0],"id":22,"left_children":[1,3,5,7,9,11,13,15,17,19,21,23,25,27,29,31,33,35,37,39,41,43,45,47,49,51,53,55,57,-1,59,-1,-1,-1,-1,-1,-1,-1,-1,-1,-1,-1,-1,-1,-1,-1,-1,-1,-1,-1,-1,-1,-1,-1,-1,-1,-1,-1,-1,-1,-1],"loss_changes":[1.3113211E2,6.758974E1,3.52648E1,1.1841064E1,4.507777E1,9.388512E0,9.658356E0,8.366695E0,6.422394E0,8.365585E0,1.731192E1,3.6368866E0,8.4907055E0,3.7714462E0,3.4045715E0,2.5635796E0,4.105602E0,3.5396848E0,2.9871902E0,5.0933323E0,3.8399334E0,7.4539657E0,1.7272118E1,5.601322E0,4.742813E0,4.8511963E0,2.5599995E0,1.6280212E0,3.2401414E0,0E0,2.5134888E0,0E0,0E0,0E0,0E0,0E0,0E0,0E0,0E0,0E0,0E0,0E0,0E0,0E0,0E0,0E0,0E0,0E0,0E0,0E0,0E0,0E0,0E0,0E0,0E0,0E0,0E0,0E0,0E0,0E0,0E0],"parents":[2147483647,0,0,1,1,2,2,3,3,4,4,5,5,6,6,7,7,8,8,9,9,10,10,11,11,12,12,13,13,14,14,15,15,16,16,17,17,18,18,19,19,20,20,21,21,22,22,23,23,24,24,25,25,26,26,27,27,28,28,30,30],"right_children":[2,4,6,8,10,12,14,16,18,20,22,24,26,28,30,32,34,36,38,40,42,44,46,48,50,52,54,56,58,-1,60,-1,-1,-1,-1,-1,-1,-1,-1,-1,-1,-1,-1,-1,-1,-1,-1,-1,-1,-1,-1,-1,-1,-1,-1,-1,-1,-1,-1,-1,-1],"split_conditions":[-1.8579941E-2,-1.7274527E-1,-2.3980193E-2,-8.367539E-2,-8.314813E-1,4.8312182E0,5.583178E-1,-9.196391E-1,-1.0945226E0,-1.5009059E0,-4.9058715E-1,-3.1211596E-2,-1.1221503E-1,5.5143657E0,-7.419078E-1,-2.5654298E-1,1.9633967E-2,7.60816E-1,7.801247E-2,3.2811332E-1,1.2844789E0,1.5448658E-1,-2.6418033E-1,-2.5654298E-1,-1.4526118E0,1.1876607E0,-2.5805762E-1,4.7011423E-1,4.2720464E-1,-1.3476268E-2,2.8520439E0,-3.8593372E-3,-8.686238E-3,-5.258426E-4,-3.6849522E-3,-2.0188896E-3,1.7928218E-2,-6.3653197E-3,-9.649492E-3,1.9665577E-2,-1.6617542E-3,7.918771E-3,-1.5157566E-4,3.1770605E-3,-2.664974E-3,1.5717199E-3,-4.1586477E-3,-2.095864E-3,-6.1448705E-3,2.5007208E-3,-7.3588984E-3,5.9636626E-3,-3.3028221E-3,-1.1068599E-2,-2.4221593E-3,-7.052907E-3,-1.0151874E-2,-4.346529E-3,1.3629614E-2,-9.81037E-3,-1.4411161E-2],"split_indices":[1,3,13,14,1,3,1,15,7,7,1,9,14,3,3,13,2,5,7,5,3,7,13,13,5,1,6,13,1,0,6,0,0,0,0,0,0,0,0,0,0,0,0,0,0,0,0,0,0,0,0,0,0,0,0,0,0,0,0,0,0],"split_type":[0,0,0,0,0,0,0,0,0,0,0,0,0,0,0,0,0,0,0,0,0,0,0,0,0,0,0,0,0,0,0,0,0,0,0,0,0,0,0,0,0,0,0,0,0,0,0,0,0,0,0,0,0,0,0,0,0,0,0,0,0],"sum_hessian":[1.0523951E4,5.6024897E3,4.9214614E3,2.7301409E3,2.8723489E3,2.3853726E3,2.5360889E3,1.4550844E3,1.2750566E3,3.9780426E2,2.4745447E3,2.1193757E3,2.6599683E2,8.971841E2,1.6389048E3,3.4954465E2,1.1055397E3,1.25092224E2,1.1499644E3,6.399954E1,3.3380475E2,9.695533E2,1.5049915E3,1.0633154E3,1.0560603E3,1.5879388E2,1.07202934E2,8.7216864E2,2.5015438E1,3.4098517E2,1.2979197E3,1.5291933E2,1.9662534E2,5.6972925E2,5.358104E2,1.20070496E2,5.021725E0,8.6390393E2,2.860605E2,5.8199284E1,5.800252E0,2.9668427E2,3.712047E1,8.031788E2,1.6637451E2,5.0909634E2,9.958951E2,3.533967E2,7.099187E2,2.8481493E1,1.0275789E3,1.08050316E2,5.074357E1,4.5197334E1,6.2005604E1,6.733287E2,1.9883998E2,1.6068842E1,8.946596E0,1.18435E3,1.1356963E2],"tree_param":{"num_deleted":"0","num_feature":"16","num_nodes":"61","size_leaf_vector":"1"}},{"base_weights":[9.860667E-2,-1.8604938E-2,1.3211958E0,7.146249E-1,3.3759918E-2,8.839262E-1,-0E0,-0E0,2.604128E-2],"categories":[],"categories_nodes":[],"categories_segments":[],"categories_sizes":[],"default_left":[0,0,0,0,0,0,0,0,0],"id":23,"left_children":[1,-1,3,5,-1,7,-1,-1,-1],"loss_changes":[1.0980822E4,0E0,1.2518066E1,6.1067657E0,0E0,5.082199E0,0E0,0E0,0E0],"parents":[2147483647,0,0,2,2,3,3,5,5],"right_children":[2,-1,4,6,-1,8,-1,-1,-1],"split_conditions":[1.6938187E-1,-1.8604938E-2,1.7698054E-1,1.0526448E0,3.3759918E-2,-6.5445334E-1,-0E0,-0E0,2.604128E-2],"split_indices":[0,0,0,15,0,7,0,0,0],"split_type":[0,0,0,0,0,0,0,0,0],"sum_hessian":[1.0820424E4,6.445115E3,4.375309E3,4.3732063E1,4.3315767E3,3.6090034E1,7.642031E0,4.552232E0,3.1537802E1],"tree_param":{"num_deleted":"0","num_feature":"16","num_nodes":"9","size_leaf_vector":"1"}},{"base_weights":[7.591459E-2,3.241267E-2,-7.157222E-1,2.2492802E-1,-1.8370664E-2,-7.92139E-3,4.7039926E-1,8.5446584E-1,-0E0,3.0168355E-2,-0E0],"categories":[],"categories_nodes":[],"categories_segments":[],"categories_sizes":[],"default_left":[0,0,0,0,0,0,0,0,0,0,0],"id":24,"left_children":[1,-1,3,5,-1,-1,7,9,-1,-1,-1],"loss_changes":[1.0188745E4,0E0,3.9231934E1,5.9469476E0,0E0,0E0,5.9249606E0,4.807129E0,0E0,0E0,0E0],"parents":[2147483647,0,0,2,2,3,3,6,6,7,7],"right_children":[2,-1,4,6,-1,-1,8,10,-1,-1,-1],"split_conditions":[-1.9420369E-1,3.241267E-2,-1.8715738E-1,-3.561294E-1,-1.8370664E-2,-7.92139E-3,4.8913515E-1,7.2367345E-3,-0E0,3.0168355E-2,-0E0],"split_indices":[0,0,0,15,0,0,15,13,0,0,0],"split_type":[0,0,0,0,0,0,0,0,0,0,0],"sum_hessian":[1.0740233E4,4.2733965E3,6.4668364E3,4.2149677E1,6.4246865E3,1.1957823E1,3.0191853E1,1.6641773E1,1.3550078E1,1.1629864E1,5.01191E0],"tree_param":{"num_deleted":"0","num_feature":"16","num_nodes":"11","size_leaf_vector":"1"}},{"base_weights":[-1.7755902E-1,1.4929552E-1,-1.840703E-2,-1.8249938E-2,1.3377534E0,1.3570536E0,-0E0,3.9868614E-1,3.4891017E-2,-3.303643E-1,4.2015645E-1,-9.36515E-3,1.6203558E-2,-0E0,-1.2202001E-2,2.0621143E-2,-2.3397424E-3],"categories":[],"categories_nodes":[],"categories_segments":[],"categories_sizes":[],"default_left":[0,0,0,0,0,0,0,0,0,0,0,0,0,0,0,0,0],"id":25,"left_children":[1,3,-1,-1,5,7,9,11,-1,13,15,-1,-1,-1,-1,-1,-1],"loss_changes":[1.863706E3,6.727379E3,0E0,0E0,7.207715E1,3.5223145E1,5.550993E0,8.192093E0,0E0,1.5409622E0,4.113469E0,0E0,0E0,0E0,0E0,0E0,0E0],"parents":[2147483647,0,0,1,1,4,4,5,5,6,6,7,7,9,9,10,10],"right_children":[2,4,-1,-1,6,8,10,12,-1,14,16,-1,-1,-1,-1,-1,-1],"split_conditions":[1.7698054E-1,-1.9420369E-1,-1.840703E-2,-1.8249938E-2,1.6938187E-1,-1.8715738E-1,-1.7274527E-1,-1.0038623E0,3.4891017E-2,-6.3788426E-1,3.485368E-1,-9.36515E-3,1.6203558E-2,-0E0,-1.2202001E-2,2.0621143E-2,-2.3397424E-3],"split_indices":[0,0,0,0,0,0,3,3,0,15,1,0,0,0,0,0,0],"split_type":[0,0,0,0,0,0,0,0,0,0,0,0,0,0,0,0,0],"sum_hessian":[1.0439797E4,6.52951E3,3.9102876E3,3.775783E3,2.7537268E3,2.7150696E3,3.8657436E1,4.142475E1,2.6736448E3,2.268686E1,1.5970578E1,8.768044E0,3.2656704E1,5.6935577E0,1.6993301E1,9.807685E0,6.162894E0],"tree_param":{"num_deleted":"0","num_feature":"16","num_nodes":"17","size_leaf_vector":"1"}},{"base_weights":[9.1019325E-2,1.9369715E-1,4.8281655E-2,3.157599E-1,1.6671681E-1,-1.743069E-3,1.2915155E-1,4.308312E-1,2.1432818E-1,7.071054E-2,2.021702E-1,3.450229E-2,-7.220997E-2,2.1861951E-1,6.360915E-2,5.0342655E-1,1.7309429E-1,4.5689833E-1,1.6834126E-1,2.35797E-1,2.853375E-2,2.9377487E-1,1.5852872E-1,-1.2258064E-2,8.872584E-2,-8.4782094E-2,2.8884688E-1,3.065106E-1,1.6545527E-1,3.3867493E-2,2.1760139E-1,1.3376382E-2,-0E0,1.416446E-2,1.3889158E-3,-0E0,1.3263504E-2,2.7874734E-3,1.0453275E-2,-6.288966E-3,7.0093777E-3,-5.644523E-3,1.3744371E-3,4.3492396E-3,8.863209E-3,1.3755089E-2,3.6852022E-3,3.5553586E-3,-1.2256722E-3,-8.545225E-3,2.4708882E-3,-1.5057782E-4,-3.1778077E-3,1.009648E-2,-3.6064445E-3,9.674618E-3,3.7959653E-3,3.71424E-3,1.2704271E-2,-3.1096912E-3,1.4652906E-3,2.4240927E-3,8.390527E-3],"categories":[],"categories_nodes":[],"categories_segments":[],"categories_sizes":[],"default_left":[0,0,0,0,0,0,0,0,0,0,0,0,0,0,0,0,0,0,0,0,0,0,0,0,0,0,0,0,0,0,0,0,0,0,0,0,0,0,0,0,0,0,0,0,0,0,0,0,0,0,0,0,0,0,0,0,0,0,0,0,0,0,0],"id":26,"left_children":[1,3,5,7,9,11,13,15,17,19,21,23,25,27,29,31,33,35,37,39,41,43,45,47,49,51,53,55,57,59,61,-1,-1,-1,-1,-1,-1,-1,-1,-1,-1,-1,-1,-1,-1,-1,-1,-1,-1,-1,-1,-1,-1,-1,-1,-1,-1,-1,-1,-1,-1,-1,-1],"loss_changes":[4.6875137E1,9.868523E0,3.0817831E1,5.878395E0,8.535439E0,1.1995603E1,1.6770096E1,4.120762E0,2.7479181E0,4.662368E0,7.0551376E0,7.890938E0,7.089882E0,5.225006E0,7.475738E0,2.328453E0,2.1712313E0,1.3698521E0,3.1943789E0,2.7543E0,3.4782243E0,3.4766388E0,5.993866E0,8.912804E0,4.9271393E0,4.7769756E0,2.685185E0,4.70969E0,4.3363247E0,5.1997523E0,3.2439308E0,0E0,0E0,0E0,0E0,0E0,0E0,0E0,0E0,0E0,0E0,0E0,0E0,0E0,0E0,0E0,0E0,0E0,0E0,0E0,0E0,0E0,0E0,0E0,0E0,0E0,0E0,0E0,0E0,0E0,0E0,0E0,0E0],"parents":[2147483647,0,0,1,1,2,2,3,3,4,4,5,5,6,6,7,7,8,8,9,9,10,10,11,11,12,12,13,13,14,14,15,15,16,16,17,17,18,18,19,19,20,20,21,21,22,22,23,23,24,24,25,25,26,26,27,27,28,28,29,29,30,30],"right_children":[2,4,6,8,10,12,14,16,18,20,22,24,26,28,30,32,34,36,38,40,42,44,46,48,50,52,54,56,58,60,62,-1,-1,-1,-1,-1,-1,-1,-1,-1,-1,-1,-1,-1,-1,-1,-1,-1,-1,-1,-1,-1,-1,-1,-1,-1,-1,-1,-1,-1,-1,-1,-1],"split_conditions":[-7.1686757E-1,-8.795773E-1,1.6497841E-1,-1.2409022E0,-4.6436453E-1,5.07397E-1,-3.461655E-1,-9.6253717E-1,5.240532E-1,-1.5755674E0,-6.1211544E-1,-3.5947403E-1,1.9589207E0,-4.9014132E-2,1.319174E0,1.0042113E0,-7.3752934E-1,-1.0520644E0,-9.4678396E-1,-9.917292E-1,-1.3956441E0,-1.319989E0,-2.0959432E0,-8.276302E-1,-1.2931966E0,-4.1616666E-1,2.281302E0,-1.0520644E0,7.386409E0,-9.022469E-1,1.0613605E-1,1.3376382E-2,-0E0,1.416446E-2,1.3889158E-3,-0E0,1.3263504E-2,2.7874734E-3,1.0453275E-2,-6.288966E-3,7.0093777E-3,-5.644523E-3,1.3744371E-3,4.3492396E-3,8.863209E-3,1.3755089E-2,3.6852022E-3,3.5553586E-3,-1.2256722E-3,-8.545225E-3,2.4708882E-3,-1.5057782E-4,-3.1778077E-3,1.009648E-2,-3.6064445E-3,9.674618E-3,3.7959653E-3,3.71424E-3,1.2704271E-2,-3.1096912E-3,1.4652906E-3,2.4240927E-3,8.390527E-3],"split_indices":[11,3,1,11,1,10,10,3,12,11,10,1,8,3,8,5,7,2,3,5,7,2,5,3,2,3,7,2,7,12,5,0,0,0,0,0,0,0,0,0,0,0,0,0,0,0,0,0,0,0,0,0,0,0,0,0,0,0,0,0,0,0,0],"split_type":[0,0,0,0,0,0,0,0,0,0,0,0,0,0,0,0,0,0,0,0,0,0,0,0,0,0,0,0,0,0,0,0,0,0,0,0,0,0,0,0,0,0,0,0,0,0,0,0,0,0,0,0,0,0,0,0,0,0,0,0,0,0,0],"sum_hessian":[1.0734878E4,3.147595E3,7.587283E3,5.617524E2,2.5858425E3,4.680972E3,2.9063108E3,2.5748022E2,3.0427216E2,7.0524567E2,1.8805969E3,3.082554E3,1.5984183E3,1.221919E3,1.6843918E3,1.9738551E2,6.0094715E1,4.3961304E1,2.6031085E2,1.3814433E2,5.671013E2,5.982329E2,1.282364E3,1.6462532E3,1.4363007E3,1.5478098E3,5.060851E1,4.5227777E2,7.696412E2,1.4177616E3,2.6663022E2,1.8931657E2,8.068941E0,1.1529814E1,4.8564903E1,5.3622684E0,3.8599037E1,2.1369435E2,4.661648E1,8.342597E0,1.2980174E2,4.8352913E1,5.187484E2,1.905276E2,4.0770532E2,4.0755543E1,1.2416084E3,3.091574E2,1.3370958E3,2.4997175E1,1.4113035E3,5.301781E2,1.0176318E3,4.2260803E1,8.347706E0,3.029803E2,1.4929745E2,7.311194E2,3.852179E1,1.8135155E2,1.23641E3,1.3235565E2,1.3427458E2],"tree_param":{"num_deleted":"0","num_feature":"16","num_nodes":"63","size_leaf_vector":"1"}},{"base_weights":[7.4060775E-2,3.1633317E-2,-7.11524E-1,1.4138426E-1,-1.8244965E-2,-3.344547E-1,3.956939E-1,-0E0,-1.4449082E-2,7.108838E-1,-8.271987E-3,4.0939334E-3,2.7196078E-2],"categories":[],"categories_nodes":[],"categories_segments":[],"categories_sizes":[],"default_left":[0,0,0,0,0,0,0,0,0,0,0,0,0],"id":27,"left_children":[1,-1,3,5,-1,7,9,-1,-1,11,-1,-1,-1],"loss_changes":[9.8601455E3,0E0,3.1324219E1,5.206271E0,0E0,1.4493107E0,7.109671E0,0E0,0E0,2.8688793E0,0E0,0E0,0E0],"parents":[2147483647,0,0,2,2,3,3,5,5,6,6,9,9],"right_children":[2,-1,4,6,-1,8,10,-1,-1,12,-1,-1,-1],"split_conditions":[-1.9420369E-1,3.1633317E-2,-1.8715738E-1,-3.561294E-1,-1.8244965E-2,-5.6980014E-1,1.0526448E0,-0E0,-1.4449082E-2,-2.788528E-1,-8.271987E-3,4.0939334E-3,2.7196078E-2],"split_indices":[0,0,0,15,0,2,15,0,0,11,0,0,0],"split_type":[0,0,0,0,0,0,0,0,0,0,0,0,0],"sum_hessian":[1.073171E4,4.312874E3,6.418836E3,4.067444E1,6.3781616E3,1.27819E1,2.7892536E1,4.4402065E0,8.341694E0,2.0322168E1,7.5703683E0,9.559843E0,1.0762324E1],"tree_param":{"num_deleted":"0","num_feature":"16","num_nodes":"13","size_leaf_vector":"1"}},{"base_weights":[-1.7084159E-1,1.562958E-1,-1.8337987E-2,-1.8047167E-2,1.303264E0,1.3219105E0,-4.949886E-2,4.159828E-1,3.3963367E-2,1.13863135E-2,-1.8966855E-1,1.3731096E-2,-7.191463E-3,1.7433664E-3,-1.2932791E-2],"categories":[],"categories_nodes":[],"categories_segments":[],"categories_sizes":[],"default_left":[0,0,0,0,0,0,0,0,0,0,0,0,0,0,0],"id":28,"left_children":[1,3,-1,-1,5,7,9,11,-1,-1,13,-1,-1,-1,-1],"loss_changes":[1.8705345E3,6.47163E3,0E0,0E0,7.197461E1,3.0537598E1,2.5019145E0,3.9719114E0,0E0,0E0,3.075254E0,0E0,0E0,0E0,0E0],"parents":[2147483647,0,0,1,1,4,4,5,5,6,6,7,7,10,10],"right_children":[2,4,-1,-1,6,8,10,12,-1,-1,14,-1,-1,-1,-1],"split_conditions":[1.7698054E-1,-1.9420369E-1,-1.8337987E-2,-1.8047167E-2,1.6938187E-1,-1.8715738E-1,-1.2532967E0,7.1006215E-1,3.3963367E-2,1.13863135E-2,7.642682E-3,1.3731096E-2,-7.191463E-3,1.7433664E-3,-1.2932791E-2],"split_indices":[0,0,0,0,0,0,12,5,0,0,1,0,0,0,0],"split_type":[0,0,0,0,0,0,0,0,0,0,0,0,0,0,0],"sum_hessian":[1.0392811E4,6.5157886E3,3.8770217E3,3.7130002E3,2.802788E3,2.7653853E3,3.7402985E1,4.0681564E1,2.7247036E3,6.3216023E0,3.108138E1,3.587638E1,4.805181E0,1.5929139E1,1.5152243E1],"tree_param":{"num_deleted":"0","num_feature":"16","num_nodes":"15","size_leaf_vector":"1"}},{"base_weights":[8.850278E-2,1.8522283E-1,3.462874E-2,1.0930052E-1,2.6724643E-1,1.309818E-1,-2.354559E-3,-1.5253198E-1,1.2328002E-1,4.2136428E-1,2.4796794E-1,2.261735E-1,8.0091484E-2,-6.1087318E-2,5.4755464E-2,-2.6586413E-1,4.7557193E-1,2.3309119E-1,8.891539E-2,4.5034644E-1,-0E0,3.5266778E-1,2.1433172E-1,2.5536913E-1,-1.6905165E-1,6.985397E-2,4.6870312E-1,-2.5247502E-1,-4.6723824E-2,5.9314292E-2,-3.2267302E-1,1.1179203E-2,-8.209064E-3,-0E0,1.8265102E-2,4.0318705E-3,9.382899E-3,-3.9848024E-3,2.7635891E-3,1.9183628E-2,1.0162646E-2,8.382861E-3,-9.100126E-3,6.2289503E-3,1.1364326E-2,6.314304E-3,2.299739E-3,9.692485E-3,4.402379E-3,-9.1519095E-3,9.0488256E-4,2.7898292E-3,6.696527E-6,-0E0,1.3842217E-2,-7.7013248E-3,-0E0,1.8902647E-4,-2.417329E-3,4.0481245E-4,2.5044587E-3,-0E0,-1.0559523E-2],"categories":[],"categories_nodes":[],"categories_segments":[],"categories_sizes":[],"default_left":[0,0,0,0,0,0,0,0,0,0,0,0,0,0,0,0,0,0,0,0,0,0,0,0,0,0,0,0,0,0,0,0,0,0,0,0,0,0,0,0,0,0,0,0,0,0,0,0,0,0,0,0,0,0,0,0,0,0,0,0,0,0,0],"id":29,"left_children":[1,3,5,7,9,11,13,15,17,19,21,23,25,27,29,31,33,35,37,39,41,43,45,47,49,51,53,55,57,59,61,-1,-1,-1,-1,-1,-1,-1,-1,-1,-1,-1,-1,-1,-1,-1,-1,-1,-1,-1,-1,-1,-1,-1,-1,-1,-1,-1,-1,-1,-1,-1,-1],"loss_changes":[5.5844696E1,2.3546982E1,2.4768719E1,7.3200226E0,4.7454987E0,9.024094E0,1.6753622E1,6.928019E0,6.868252E0,2.375576E0,5.186882E0,7.780136E0,4.4877586E0,6.4973307E0,4.11151E0,3.4336414E0,1.8239057E0,3.9789848E0,7.0308933E0,1.5057755E0,1.7334228E0,3.2203484E0,4.9186745E0,5.8398857E0,2.0323477E0,3.313508E0,1.0934167E0,2.3299484E0,6.1052322E0,4.130535E0,1.1988754E0,0E0,0E0,0E0,0E0,0E0,0E0,0E0,0E0,0E0,0E0,0E0,0E0,0E0,0E0,0E0,0E0,0E0,0E0,0E0,0E0,0E0,0E0,0E0,0E0,0E0,0E0,0E0,0E0,0E0,0E0,0E0,0E0],"parents":[2147483647,0,0,1,1,2,2,3,3,4,4,5,5,6,6,7,7,8,8,9,9,10,10,11,11,12,12,13,13,14,14,15,15,16,16,17,17,18,18,19,19,20,20,21,21,22,22,23,23,24,24,25,25,26,26,27,27,28,28,29,29,30,30],"right_children":[2,4,6,8,10,12,14,16,18,20,22,24,26,28,30,32,34,36,38,40,42,44,46,48,50,52,54,56,58,60,62,-1,-1,-1,-1,-1,-1,-1,-1,-1,-1,-1,-1,-1,-1,-1,-1,-1,-1,-1,-1,-1,-1,-1,-1,-1,-1,-1,-1,-1,-1,-1,-1],"split_conditions":[-4.9388945E-1,-3.7010938E-2,-7.852769E-1,-1.1844834E0,-1.1725299E0,2.9408816E-1,1.2348744E-2,8.5138726E-1,-1.4426191E0,1.1354502E0,-8.877362E-1,1.6161546E0,6.33045E0,-1.3058627E0,3.8831449E0,-8.258131E-1,-2.1339367E-1,1.24469705E-1,-1.2719784E0,-1.5362775E-1,1.1125747E0,1.600221E-2,1.0526448E0,-1.3852257E0,-1.7617774E-1,8.2750255E-1,-1.0901008E-2,3.9869286E-2,4.0398312E-1,-4.7262177E-2,-7.594901E-1,1.1179203E-2,-8.209064E-3,-0E0,1.8265102E-2,4.0318705E-3,9.382899E-3,-3.9848024E-3,2.7635891E-3,1.9183628E-2,1.0162646E-2,8.382861E-3,-9.100126E-3,6.2289503E-3,1.1364326E-2,6.314304E-3,2.299739E-3,9.692485E-3,4.402379E-3,-9.1519095E-3,9.0488256E-4,2.7898292E-3,6.696527E-6,-0E0,1.3842217E-2,-7.7013248E-3,-0E0,1.8902647E-4,-2.417329E-3,4.0481245E-4,2.5044587E-3,-0E0,-1.0559523E-2],"split_indices":[11,14,10,7,4,11,7,12,11,5,10,15,7,7,12,9,14,4,12,13,12,4,15,10,13,12,13,13,10,13,5,0,0,0,0,0,0,0,0,0,0,0,0,0,0,0,0,0,0,0,0,0,0,0,0,0,0,0,0,0,0,0,0],"split_type":[0,0,0,0,0,0,0,0,0,0,0,0,0,0,0,0,0,0,0,0,0,0,0,0,0,0,0,0,0,0,0,0,0,0,0,0,0,0,0,0,0,0,0,0,0,0,0,0,0,0,0,0,0,0,0,0,0,0,0,0,0,0,0],"sum_hessian":[1.0757158E4,3.8412827E3,6.915876E3,2.0018658E3,1.839417E3,1.9246611E3,4.991215E3,9.7608536E1,1.9042573E3,1.9701607E2,1.6424009E3,6.6298553E2,1.2616755E3,2.468728E3,2.5224866E3,8.439291E1,1.3215629E1,4.461343E2,1.4581229E3,1.840757E2,1.2940369E1,3.9049255E2,1.2519083E3,6.198877E2,4.3097862E1,1.2326754E3,2.9000116E1,1.6674017E2,2.3019878E3,2.4955867E3,2.6899916E1,4.607847E0,7.9785065E1,4.3798656E0,8.835763E0,2.9358008E2,1.5255424E2,1.0434083E2,1.3537821E3,2.1999022E1,1.6207668E2,6.90588E0,6.034488E0,1.8803387E2,2.0245868E2,9.766453E2,2.7526306E2,2.3964316E2,3.8024454E2,2.4334976E1,1.8762884E1,7.7525696E2,4.5741843E2,4.015513E0,2.4984604E1,1.4114977E2,2.5590412E1,1.076309E3,1.2256788E3,1.1950936E3,1.300493E3,4.0360017E0,2.2863914E1],"tree_param":{"num_deleted":"0","num_feature":"16","num_nodes":"63","size_leaf_vector":"1"}},{"base_weights":[7.750882E-2,1.3734765E-2,1.8658814E-1,-1.671567E-1,3.0881027E-2,2.5244662E-1,1.5337558E-1,-2.4445352E-1,-2.235647E-2,-7.7487524E-3,1.0218023E-1,9.911704E-2,3.327418E-1,9.516558E-2,2.216409E-1,-1.6343141E-2,-3.006668E-1,-1.5834746E-1,1.2682469E-1,-5.0660115E-2,4.8620798E-2,5.679234E-2,1.9309351E-1,1.9257143E-1,-0E0,1.7837085E-1,3.9848647E-1,3.0974077E-2,1.6287078E-1,5.831073E-1,2.1091966E-1,-4.223983E-3,1.0272538E-2,-8.380511E-3,2.6207801E-3,-5.8774315E-3,6.545901E-4,4.20342E-3,-1.02120275E-2,4.665589E-4,-2.4436873E-3,-3.3267686E-4,3.961601E-3,1.2041736E-4,3.8485986E-3,2.547503E-3,6.485474E-3,-0E0,7.354562E-3,3.634107E-3,-2.852157E-3,-1.3536705E-3,6.35285E-3,1.0405986E-2,2.3460372E-3,1.7621437E-3,-2.9822935E-3,1.4673022E-2,3.665642E-3,-0E0,1.6761785E-2,2.048881E-3,5.87744E-3],"categories":[],"categories_nodes":[],"categories_segments":[],"categories_sizes":[],"default_left":[0,0,0,0,0,0,0,0,0,0,0,0,0,0,0,0,0,0,0,0,0,0,0,0,0,0,0,0,0,0,0,0,0,0,0,0,0,0,0,0,0,0,0,0,0,0,0,0,0,0,0,0,0,0,0,0,0,0,0,0,0,0,0],"id":30,"left_children":[1,3,5,7,9,11,13,15,17,19,21,23,25,27,29,31,33,35,37,39,41,43,45,47,49,51,53,55,57,59,61,-1,-1,-1,-1,-1,-1,-1,-1,-1,-1,-1,-1,-1,-1,-1,-1,-1,-1,-1,-1,-1,-1,-1,-1,-1,-1,-1,-1,-1,-1,-1,-1],"loss_changes":[7.384736E1,2.0727888E1,8.161133E0,6.207659E0,1.7017653E1,1.5615295E1,1.0088497E1,4.469942E0,4.230573E0,9.628053E0,8.703083E0,4.2910357E0,8.033516E0,5.994875E0,3.7829056E0,4.730874E0,3.667509E0,1.6904058E0,1.774752E0,7.180477E0,1.1438558E1,7.006773E0,3.75169E0,4.610091E0,3.4976997E0,4.4935846E0,1.4040146E0,4.1515555E0,4.574497E0,1.0235863E0,2.7472382E0,0E0,0E0,0E0,0E0,0E0,0E0,0E0,0E0,0E0,0E0,0E0,0E0,0E0,0E0,0E0,0E0,0E0,0E0,0E0,0E0,0E0,0E0,0E0,0E0,0E0,0E0,0E0,0E0,0E0,0E0,0E0,0E0],"parents":[2147483647,0,0,1,1,2,2,3,3,4,4,5,5,6,6,7,7,8,8,9,9,10,10,11,11,12,12,13,13,14,14,15,15,16,16,17,17,18,18,19,19,20,20,21,21,22,22,23,23,24,24,25,25,26,26,27,27,28,28,29,29,30,30],"right_children":[2,4,6,8,10,12,14,16,18,20,22,24,26,28,30,32,34,36,38,40,42,44,46,48,50,52,54,56,58,60,62,-1,-1,-1,-1,-1,-1,-1,-1,-1,-1,-1,-1,-1,-1,-1,-1,-1,-1,-1,-1,-1,-1,-1,-1,-1,-1,-1,-1,-1,-1,-1,-1],"split_conditions":[2.582305E-1,-1.0582951E0,2.1273132E-1,-2.747142E-2,6.0123518E-2,4.3482578E-1,-3.070672E-2,-3.6308864E-1,9.809171E-2,3.3079788E-1,9.5429635E-3,6.055923E-1,-2.3746133E-1,8.139031E-2,-1.0582951E0,3.8137376E-1,1.2913381E0,5.364497E-2,6.6685516E-1,-3.561294E-1,-2.5805762E-1,5.896368E-1,-3.7918812E-1,-7.12854E-1,-4.8173308E-1,5.090633E-1,1.5593611E0,1.3933258E0,3.122214E-1,-3.5607183E-1,3.6393616E-1,-4.223983E-3,1.0272538E-2,-8.380511E-3,2.6207801E-3,-5.8774315E-3,6.545901E-4,4.20342E-3,-1.02120275E-2,4.665589E-4,-2.4436873E-3,-3.3267686E-4,3.961601E-3,1.2041736E-4,3.8485986E-3,2.547503E-3,6.485474E-3,-0E0,7.354562E-3,3.634107E-3,-2.852157E-3,-1.3536705E-3,6.35285E-3,1.0405986E-2,2.3460372E-3,1.7621437E-3,-2.9822935E-3,1.4673022E-2,3.665642E-3,-0E0,1.6761785E-2,2.048881E-3,5.87744E-3],"split_indices":[6,7,9,6,14,6,14,3,10,10,11,11,13,10,7,5,3,14,5,15,6,10,10,10,7,6,10,11,6,13,9,0,0,0,0,0,0,0,0,0,0,0,0,0,0,0,0,0,0,0,0,0,0,0,0,0,0,0,0,0,0,0,0],"split_type":[0,0,0,0,0,0,0,0,0,0,0,0,0,0,0,0,0,0,0,0,0,0,0,0,0,0,0,0,0,0,0,0,0,0,0,0,0,0,0,0,0,0,0,0,0,0,0,0,0,0,0,0,0,0,0,0,0,0,0,0,0,0,0],"sum_hessian":[1.0642187E4,6.7218345E3,3.920352E3,5.765599E2,6.145275E3,1.3027946E3,2.6175576E3,3.7126712E2,2.0529274E2,3.977755E3,2.1675198E3,4.524699E2,8.503246E2,1.4214166E3,1.1961409E3,7.693545E1,2.9433167E2,1.1065985E2,9.46329E1,2.2679976E3,1.7097573E3,1.4536047E3,7.1391516E2,2.3492206E2,2.1754787E2,2.5923755E2,5.9108704E2,7.374339E2,6.839828E2,3.0555626E1,1.1655852E3,5.8772633E1,1.8162813E1,2.770994E2,1.7232271E1,8.2834595E1,2.7825256E1,9.045196E1,4.180935E0,8.919587E2,1.376039E3,1.0797286E3,6.300286E2,9.4421405E2,5.0939072E2,2.9214886E2,4.2176627E2,7.599974E1,1.5892232E2,9.368804E1,1.2385982E2,5.7999496E1,2.0123805E2,5.6818976E2,2.2897308E1,5.9144324E2,1.4599068E2,2.6380594E1,6.576022E2,4.456058E0,2.609957E1,1.6250221E2,1.003083E3],"tree_param":{"num_deleted":"0","num_feature":"16","num_nodes":"63","size_leaf_vector":"1"}},{"base_weights":[-1.6805784E-1,-7.123668E-2,-2.808414E-1,-1.7643757E-1,1.8433802E-2,-1.9530009E-1,-3.6072457E-1,-1.3314846E-1,-2.6405102E-1,2.9858348E-1,-2.5507921E-2,-2.2388528E-1,-7.974002E-2,-2.903719E-1,-4.0115142E-1,-1.6577438E-1,-2.894584E-3,-3.5538178E-2,-2.901132E-1,3.8406044E-1,7.7579565E-2,2.3179745E-2,-1.4897686E-1,-2.6242563E-1,-1.3840745E-1,-2.0228175E-2,-3.246683E-1,-3.2207364E-1,-1.3790387E-1,-4.8011023E-1,-3.7356126E-1,-3.907397E-3,-1.2193204E-2,-1.3634863E-3,8.385651E-3,-4.3786373E-3,3.4622585E-3,-7.538315E-3,9.883648E-3,-9.340914E-3,1.048898E-2,1.2839726E-2,-4.5295645E-4,3.6901943E-3,-2.6290503E-4,2.447061E-4,-5.2051656E-3,-4.743798E-3,-7.702745E-3,-1.3669565E-3,-5.7981485E-3,3.9379398E-4,-9.043304E-3,-1.1194609E-2,-0E0,-1.6441805E-2,-7.854112E-3,-2.0758708E-3,-1.3226465E-2,-1.2816506E-2,-6.3332766E-3,-8.204144E-3,-1.150003E-2],"categories":[],"categories_nodes":[],"categories_segments":[],"categories_sizes":[],"default_left":[0,0,0,0,0,0,0,0,0,0,0,0,0,0,0,0,0,0,0,0,0,0,0,0,0,0,0,0,0,0,0,0,0,0,0,0,0,0,0,0,0,0,0,0,0,0,0,0,0,0,0,0,0,0,0,0,0,0,0,0,0,0,0],"id":31,"left_children":[1,3,5,7,9,11,13,15,17,19,21,23,25,27,29,31,33,35,37,39,41,43,45,47,49,51,53,55,57,59,61,-1,-1,-1,-1,-1,-1,-1,-1,-1,-1,-1,-1,-1,-1,-1,-1,-1,-1,-1,-1,-1,-1,-1,-1,-1,-1,-1,-1,-1,-1,-1,-1],"loss_changes":[1.13039795E2,5.2911716E1,3.2157684E1,9.37487E0,3.7382698E1,7.3674774E0,6.2740784E0,7.213318E0,4.7149734E0,7.318825E0,1.5777478E1,5.699089E0,6.495886E0,3.9434357E0,2.4325867E0,4.6196404E0,5.7266846E0,2.1918452E0,3.1823425E0,6.402088E0,5.314728E0,7.737348E0,6.7307873E0,3.3794403E0,4.162677E0,4.882212E0,3.441821E0,2.1753616E0,2.9224408E0,1.3216705E0,3.8227997E0,0E0,0E0,0E0,0E0,0E0,0E0,0E0,0E0,0E0,0E0,0E0,0E0,0E0,0E0,0E0,0E0,0E0,0E0,0E0,0E0,0E0,0E0,0E0,0E0,0E0,0E0,0E0,0E0,0E0,0E0,0E0,0E0],"parents":[2147483647,0,0,1,1,2,2,3,3,4,4,5,5,6,6,7,7,8,8,9,9,10,10,11,11,12,12,13,13,14,14,15,15,16,16,17,17,18,18,19,19,20,20,21,21,22,22,23,23,24,24,25,25,26,26,27,27,28,28,29,29,30,30],"right_children":[2,4,6,8,10,12,14,16,18,20,22,24,26,28,30,32,34,36,38,40,42,44,46,48,50,52,54,56,58,60,62,-1,-1,-1,-1,-1,-1,-1,-1,-1,-1,-1,-1,-1,-1,-1,-1,-1,-1,-1,-1,-1,-1,-1,-1,-1,-1,-1,-1,-1,-1,-1,-1],"split_conditions":[-1.8579941E-2,-2.1901679E-1,-2.3980193E-2,-1.5025913E-2,-8.314813E-1,3.7086103E0,5.8454037E-1,4.8913515E-1,-7.2659075E-1,9.755364E-2,1.7259553E-2,4.8913515E-1,1.2788795E0,1.7063179E0,-5.509422E-1,2.0935051E-1,-1.7591567E-1,4.6426427E-2,1.1181248E0,-1.6488707E-1,2.557286E-3,-8.5504866E-1,-5.430324E-1,-2.6894325E-1,3.485368E-1,1.790781E0,2.1578977E0,-1.595944E0,6.5129125E-1,1.2020866E0,2.000562E0,-3.907397E-3,-1.2193204E-2,-1.3634863E-3,8.385651E-3,-4.3786373E-3,3.4622585E-3,-7.538315E-3,9.883648E-3,-9.340914E-3,1.048898E-2,1.2839726E-2,-4.5295645E-4,3.6901943E-3,-2.6290503E-4,2.447061E-4,-5.2051656E-3,-4.743798E-3,-7.702745E-3,-1.3669565E-3,-5.7981485E-3,3.9379398E-4,-9.043304E-3,-1.1194609E-2,-0E0,-1.6441805E-2,-7.854112E-3,-2.0758708E-3,-1.3226465E-2,-1.2816506E-2,-6.3332766E-3,-8.204144E-3,-1.150003E-2],"split_indices":[1,3,13,14,1,3,1,15,1,4,14,15,2,3,3,13,1,2,2,3,3,8,1,4,1,1,1,10,13,13,1,0,0,0,0,0,0,0,0,0,0,0,0,0,0,0,0,0,0,0,0,0,0,0,0,0,0,0,0,0,0,0,0],"split_type":[0,0,0,0,0,0,0,0,0,0,0,0,0,0,0,0,0,0,0,0,0,0,0,0,0,0,0,0,0,0,0,0,0,0,0,0,0,0,0,0,0,0,0,0,0,0,0,0,0,0,0,0,0,0,0,0,0,0,0,0,0,0,0],"sum_hessian":[1.0382819E4,5.5920283E3,4.7907915E3,2.5776064E3,3.0144219E3,2.3206316E3,2.47016E3,1.7338854E3,8.4372107E2,4.1090424E2,2.6035176E3,1.853241E3,4.6739072E2,9.125903E2,1.5575696E3,1.3806132E3,3.5327216E2,9.028316E1,7.534379E2,2.9276227E2,1.18141975E2,1.8622799E3,7.412376E2,1.2684686E3,5.847723E2,3.798907E2,8.750002E1,7.495777E2,1.630126E2,3.907046E2,1.166865E3,1.3330981E3,4.751508E1,3.096361E2,4.3636044E1,5.332358E1,3.6959576E1,7.4850446E2,4.9334254E0,9.003532E0,2.8375873E2,2.2665163E1,9.5476814E1,4.070757E2,1.4552042E3,1.8825328E2,5.529843E2,4.4974396E2,8.187247E2,3.0659738E2,2.781749E2,3.4156027E2,3.8330437E1,6.500829E1,2.2491732E1,2.521378E1,7.243639E2,1.4515872E2,1.785388E1,3.4979956E2,4.090502E1,7.166829E2,4.5018213E2],"tree_param":{"num_deleted":"0","num_feature":"16","num_nodes":"63","size_leaf_vector":"1"}},{"base_weights":[8.634355E-2,2.1503244E-1,1.5223666E-2,1.7919381E-1,2.856472E-1,-1.01830594E-1,4.5349795E-2,2.780133E-1,1.4902344E-1,4.569913E-1,2.6427308E-1,7.680728E-3,-1.5505451E-1,1.0159896E-1,-2.8031722E-3,4.761196E-1,2.2895141E-1,2.3968743E-1,9.597702E-2,1.1688847E-1,5.438683E-1,2.8942594E-1,1.5549879E-1,3.283098E-1,-2.9103663E-2,-3.1320816E-1,-1.227717E-1,1.604257E-1,4.8289776E-2,1.4209019E-1,-1.5305266E-2,8.33404E-3,1.854617E-2,2.8037867E-3,8.686847E-3,6.5890234E-3,-2.2013409E-3,2.1342908E-3,1.0389474E-2,1.2086311E-2,-6.5274426E-4,5.690433E-3,1.5845526E-2,9.265772E-3,5.955734E-3,7.0927413E-3,-0E0,2.1607468E-2,4.763526E-3,1.6493171E-2,-1.3642821E-3,-1.2325741E-2,-5.121573E-3,-2.744679E-3,-1.0729259E-2,4.5874626E-3,-1.79431E-3,9.1149326E-4,1.1077174E-2,9.273063E-3,1.3366729E-3,-9.449281E-5,-5.0390107E-3],"categories":[],"categories_nodes":[],"categories_segments":[],"categories_sizes":[],"default_left":[0,0,0,0,0,0,0,0,0,0,0,0,0,0,0,0,0,0,0,0,0,0,0,0,0,0,0,0,0,0,0,0,0,0,0,0,0,0,0,0,0,0,0,0,0,0,0,0,0,0,0,0,0,0,0,0,0,0,0,0,0,0,0],"id":32,"left_children":[1,3,5,7,9,11,13,15,17,19,21,23,25,27,29,31,33,35,37,39,41,43,45,47,49,51,53,55,57,59,61,-1,-1,-1,-1,-1,-1,-1,-1,-1,-1,-1,-1,-1,-1,-1,-1,-1,-1,-1,-1,-1,-1,-1,-1,-1,-1,-1,-1,-1,-1,-1,-1],"loss_changes":[9.792722E1,9.165161E0,2.4326693E1,7.1345673E0,3.8767624E0,8.350704E0,1.5002277E1,4.9335594E0,9.067028E0,3.31398E0,2.6576996E0,5.6657686E0,4.425932E0,7.786974E0,5.2403216E0,2.9870625E0,5.8874474E0,4.6803284E0,4.194644E0,2.007038E0,1.7385464E0,3.1551971E0,4.0361347E0,2.5305028E0,6.2343106E0,2.2616377E0,3.016429E0,5.6374836E0,6.0383053E0,4.1525164E0,5.591603E0,0E0,0E0,0E0,0E0,0E0,0E0,0E0,0E0,0E0,0E0,0E0,0E0,0E0,0E0,0E0,0E0,0E0,0E0,0E0,0E0,0E0,0E0,0E0,0E0,0E0,0E0,0E0,0E0,0E0,0E0,0E0,0E0],"parents":[2147483647,0,0,1,1,2,2,3,3,4,4,5,5,6,6,7,7,8,8,9,9,10,10,11,11,12,12,13,13,14,14,15,15,16,16,17,17,18,18,19,19,20,20,21,21,22,22,23,23,24,24,25,25,26,26,27,27,28,28,29,29,30,30],"right_children":[2,4,6,8,10,12,14,16,18,20,22,24,26,28,30,32,34,36,38,40,42,44,46,48,50,52,54,56,58,60,62,-1,-1,-1,-1,-1,-1,-1,-1,-1,-1,-1,-1,-1,-1,-1,-1,-1,-1,-1,-1,-1,-1,-1,-1,-1,-1,-1,-1,-1,-1,-1,-1],"split_conditions":[-3.075493E-1,3.747594E-1,-5.69255E-1,-8.0935097E-1,-1.3950633E0,-3.9606598E-1,-2.0296173E-1,-7.3752934E-1,-4.1616666E-1,-1.319989E0,-5.212633E-1,-1.0270907E0,-9.3637174E-1,3.5046497E-1,-1.2849088E0,-1.1165031E0,-2.021383E-1,1.1181248E0,1.7650535E0,-1.446231E0,-1.11840755E-1,6.7960703E-1,-3.6012094E-2,-6.289382E-1,-1.5699071E0,-1.3485246E0,5.018982E-1,1.2439525E0,6.33045E0,1.3675094E-1,5.06961E0,8.33404E-3,1.854617E-2,2.8037867E-3,8.686847E-3,6.5890234E-3,-2.2013409E-3,2.1342908E-3,1.0389474E-2,1.2086311E-2,-6.5274426E-4,5.690433E-3,1.5845526E-2,9.265772E-3,5.955734E-3,7.0927413E-3,-0E0,2.1607468E-2,4.763526E-3,1.6493171E-2,-1.3642821E-3,-1.2325741E-2,-5.121573E-3,-2.744679E-3,-1.0729259E-2,4.5874626E-3,-1.79431E-3,9.1149326E-4,1.1077174E-2,9.273063E-3,1.3366729E-3,-9.449281E-5,-5.0390107E-3],"split_indices":[6,1,1,10,4,3,10,7,3,2,6,12,1,6,4,10,1,2,8,10,8,3,8,4,10,7,2,4,7,6,3,0,0,0,0,0,0,0,0,0,0,0,0,0,0,0,0,0,0,0,0,0,0,0,0,0,0,0,0,0,0,0,0],"split_type":[0,0,0,0,0,0,0,0,0,0,0,0,0,0,0,0,0,0,0,0,0,0,0,0,0,0,0,0,0,0,0,0,0,0,0,0,0,0,0,0,0,0,0,0,0,0,0,0,0,0,0,0,0,0,0,0,0,0,0,0,0,0,0],"sum_hessian":[1.0722755E4,3.811308E3,6.911447E3,2.5391177E3,1.2721904E3,1.4078741E3,5.5035728E3,5.8488965E2,1.954228E3,1.3419943E2,1.1379911E3,4.549342E2,9.5293994E2,2.546931E3,2.9566418E3,1.1075107E2,4.7413855E2,7.136456E2,1.2405824E3,2.9932737E1,1.04266685E2,9.160429E2,2.2194814E2,4.87198E1,4.0621442E2,1.5528906E2,7.976509E2,1.2015729E3,1.345358E3,2.2814352E2,2.7284983E3,7.339961E1,3.735146E1,2.355797E2,2.3855887E2,6.766789E2,3.6966713E1,1.1983562E3,4.2226208E1,9.803389E0,2.0129349E1,2.3655434E1,8.061125E1,3.8024307E2,5.3579987E2,1.2036547E2,1.0158266E2,8.005281E0,4.0714516E1,1.2057075E1,3.9415735E2,5.687235E1,9.841671E1,7.63959E2,3.3691868E1,1.1102345E3,9.133838E1,1.3066932E3,3.866477E1,6.169385E1,1.6644968E2,2.5714592E3,1.5703911E2],"tree_param":{"num_deleted":"0","num_feature":"16","num_nodes":"63","size_leaf_vector":"1"}},{"base_weights":[7.440838E-2,1.2029182E0,-1.8136641E-2,3.0822981E-2,2.9981795E-1,-9.002697E-3,5.5823046E-1,7.5192845E-1,-2.5446552E-3,-8.117922E-4,2.3851778E-2],"categories":[],"categories_nodes":[],"categories_segments":[],"categories_sizes":[],"default_left":[0,0,0,0,0,0,0,0,0,0,0],"id":33,"left_children":[1,3,-1,-1,5,-1,7,9,-1,-1,-1],"loss_changes":[9.485409E3,3.232373E1,0E0,0E0,7.7331204E0,0E0,4.8391924E0,4.719782E0,0E0,0E0,0E0],"parents":[2147483647,0,0,1,1,4,4,6,6,7,7],"right_children":[2,4,-1,-1,6,-1,8,10,-1,-1,-1],"split_conditions":[-1.8715738E-1,-1.9420369E-1,-1.8136641E-2,3.0822981E-2,-3.561294E-1,-9.002697E-3,1.0526448E0,-7.638683E-1,-2.5446552E-3,-8.117922E-4,2.3851778E-2],"split_indices":[0,0,0,0,15,0,15,8,0,0,0],"split_type":[0,0,0,0,0,0,0,0,0,0,0],"sum_hessian":[1.067404E4,4.3867163E3,6.2873237E3,4.3440137E3,4.2702473E1,1.0974774E1,3.17277E1,2.5518494E1,6.209207E0,4.0578427E0,2.1460651E1],"tree_param":{"num_deleted":"0","num_feature":"16","num_nodes":"11","size_leaf_vector":"1"}},{"base_weights":[-1.6612361E-1,1.59973E-1,-1.8233463E-2,-1.7817788E-2,1.2728826E0,1.2902479E0,-1.6144516E-2,4.2247093E-1,3.31579E-2,-1.0476254E-2,3.7431392E-1,-9.248819E-3,1.6629986E-2,2.392746E-2,-7.363569E-4],"categories":[],"categories_nodes":[],"categories_segments":[],"categories_sizes":[],"default_left":[0,0,0,0,0,0,0,0,0,0,0,0,0,0,0],"id":34,"left_children":[1,3,-1,-1,5,7,9,11,-1,-1,13,-1,-1,-1,-1],"loss_changes":[1.8600867E3,6.228747E3,0E0,0E0,6.471045E1,2.9574707E1,6.0231543E0,8.452801E0,0E0,0E0,5.066408E0,0E0,0E0,0E0,0E0],"parents":[2147483647,0,0,1,1,4,4,5,5,6,6,7,7,10,10],"right_children":[2,4,-1,-1,6,8,10,12,-1,-1,14,-1,-1,-1,-1],"split_conditions":[1.7698054E-1,-1.9420369E-1,-1.8233463E-2,-1.7817788E-2,1.6938187E-1,-1.8715738E-1,-1.8213627E-1,-1.0038623E0,3.31579E-2,-1.0476254E-2,1.6281689E-2,-9.248819E-3,1.6629986E-2,2.392746E-2,-7.363569E-4],"split_indices":[0,0,0,0,0,0,3,3,0,0,3,0,0,0,0],"split_type":[0,0,0,0,0,0,0,0,0,0,0,0,0,0,0],"sum_hessian":[1.0356275E4,6.5032725E3,3.8530027E3,3.6675984E3,2.8356743E3,2.7986992E3,3.6975006E1,4.295345E1,2.7557458E3,1.9536741E1,1.7438265E1,8.722218E0,3.423123E1,7.7271204E0,9.711144E0],"tree_param":{"num_deleted":"0","num_feature":"16","num_nodes":"15","size_leaf_vector":"1"}},{"base_weights":[9.1341265E-2,-1.83795E-2,1.2477361E0,6.2668663E-1,3.189787E-2,2.4192546E-2,1.7617856E-1,-8.355357E-3,1.3193168E-2],"categories":[],"categories_nodes":[],"categories_segments":[],"categories_sizes":[],"default_left":[0,0,0,0,0,0,0,0,0],"id":35,"left_children":[1,-1,3,5,-1,-1,7,-1,-1],"loss_changes":[1.0162426E4,0E0,1.4232422E1,5.535713E0,0E0,0E0,4.0688486E0,0E0,0E0],"parents":[2147483647,0,0,2,2,3,3,6,6],"right_children":[2,-1,4,6,-1,-1,8,-1,-1],"split_conditions":[1.6938187E-1,-1.83795E-2,1.7698054E-1,-1.8213627E-1,3.189787E-2,2.4192546E-2,1.6281689E-2,-8.355357E-3,1.3193168E-2],"split_indices":[0,0,0,3,0,0,3,0,0],"split_type":[0,0,0,0,0,0,0,0,0],"sum_hessian":[1.0797023E4,6.3371055E3,4.459918E3,4.528085E1,4.414637E3,2.4540503E1,2.0740347E1,7.289717E0,1.345063E1],"tree_param":{"num_deleted":"0","num_feature":"16","num_nodes":"9","size_leaf_vector":"1"}},{"base_weights":[7.398019E-2,1.169082E0,-1.7984625E-2,2.9961348E-2,2.7685422E-1,2.3573063E-2,5.3089857E-2,-1.4807568E-2,3.3498865E-1,2.7507266E-2,-0E0],"categories":[],"categories_nodes":[],"categories_segments":[],"categories_sizes":[],"default_left":[0,0,0,0,0,0,0,0,0,0,0],"id":36,"left_children":[1,3,-1,-1,5,-1,7,-1,9,-1,-1],"loss_changes":[9.132501E3,3.2322266E1,0E0,0E0,5.5039225E0,0E0,6.2300234E0,0E0,6.8900485E0,0E0,0E0],"parents":[2147483647,0,0,1,1,4,4,6,6,8,8],"right_children":[2,4,-1,-1,6,-1,8,-1,10,-1,-1],"split_conditions":[-1.8715738E-1,-1.9420369E-1,-1.7984625E-2,2.9961348E-2,-1.0038623E0,2.3573063E-2,-8.471791E-1,-1.4807568E-2,-1.0212656E-1,2.7507266E-2,-0E0],"split_indices":[0,0,0,0,3,0,3,0,3,0,0],"split_type":[0,0,0,0,0,0,0,0,0,0,0],"sum_hessian":[1.0677275E4,4.4447354E3,6.23254E3,4.4011377E3,4.3597763E1,9.373316E0,3.422445E1,9.203589E0,2.5020859E1,7.4871044E0,1.7533754E1],"tree_param":{"num_deleted":"0","num_feature":"16","num_nodes":"11","size_leaf_vector":"1"}},{"base_weights":[-1.6428806E-1,1.5429977E-1,-1.807401E-2,-1.7673228E-2,1.2318275E0,1.2499006E0,-5.3052966E-2,3.5962445E-1,3.213405E-2,-2.9968944E-1,1.6739143E-2,2.521489E-2,1.1914226E-3,1.7404296E-3,-1.16118025E-2],"categories":[],"categories_nodes":[],"categories_segments":[],"categories_sizes":[],"default_left":[0,0,0,0,0,0,0,0,0,0,0,0,0,0,0],"id":37,"left_children":[1,3,-1,-1,5,7,9,11,-1,13,-1,-1,-1,-1,-1],"loss_changes":[1.7953973E3,5.9606562E3,0E0,0E0,6.7867676E1,3.1224121E1,6.8487678E0,7.5781136E0,0E0,2.1964374E0,0E0,0E0,0E0,0E0,0E0],"parents":[2147483647,0,0,1,1,4,4,5,5,6,6,7,7,9,9],"right_children":[2,4,-1,-1,6,8,10,12,-1,14,-1,-1,-1,-1,-1],"split_conditions":[1.7698054E-1,-1.9420369E-1,-1.807401E-2,-1.7673228E-2,1.6938187E-1,-1.8715738E-1,1.0526448E0,-3.561294E-1,3.213405E-2,-6.3788426E-1,1.6739143E-2,2.521489E-2,1.1914226E-3,1.7404296E-3,-1.16118025E-2],"split_indices":[0,0,0,0,0,0,15,15,0,15,0,0,0,0,0],"split_type":[0,0,0,0,0,0,0,0,0,0,0,0,0,0,0],"sum_hessian":[1.0314637E4,6.5137007E3,3.8009363E3,3.642955E3,2.8707456E3,2.8316711E3,3.907444E1,4.261898E1,2.7890522E3,3.0376278E1,8.698162E0,1.248023E1,3.013875E1,7.4313054E0,2.2944973E1],"tree_param":{"num_deleted":"0","num_feature":"16","num_nodes":"15","size_leaf_vector":"1"}},{"base_weights":[8.740283E-2,-1.8215196E-2,1.2123328E0,6.404767E-1,3.0958438E-2,8.412083E-1,-2.0851307E-3,-0E0,2.4892937E-2],"categories":[],"categories_nodes":[],"categories_segments":[],"categories_sizes":[],"default_left":[0,0,0,0,0,0,0,0,0],"id":38,"left_children":[1,-1,3,5,-1,7,-1,-1,-1],"loss_changes":[9.707113E3,0E0,9.092773E0,6.360677E0,0E0,3.3337498E0,0E0,0E0,0E0],"parents":[2147483647,0,0,2,2,3,3,5,5],"right_children":[2,-1,4,6,-1,8,-1,-1,-1],"split_conditions":[1.6938187E-1,-1.8215196E-2,1.7698054E-1,7.7089E-1,3.0958438E-2,-6.2833387E-1,-2.0851307E-3,-0E0,2.4892937E-2],"split_indices":[0,0,0,15,0,7,0,0,0],"split_type":[0,0,0,0,0,0,0,0,0],"sum_hessian":[1.0738938E4,6.264601E3,4.474338E3,3.7622967E1,4.4367153E3,3.0344856E1,7.27811E0,4.6658287E0,2.5679028E1],"tree_param":{"num_deleted":"0","num_feature":"16","num_nodes":"9","size_leaf_vector":"1"}},{"base_weights":[6.708321E-2,1.1375699E0,-1.7835878E-2,2.9157965E-2,2.3251905E-1,2.4004025E-2,1.916355E-2,-1.5131034E-2,3.23516E-1,2.5435764E-2,8.7522884E-4],"categories":[],"categories_nodes":[],"categories_segments":[],"categories_sizes":[],"default_left":[0,0,0,0,0,0,0,0,0,0,0],"id":39,"left_children":[1,3,-1,-1,5,-1,7,-1,9,-1,-1],"loss_changes":[8.699309E3,3.247705E1,0E0,0E0,5.6454268E0,0E0,6.498704E0,0E0,3.9151857E0,0E0,0E0],"parents":[2147483647,0,0,1,1,4,4,6,6,8,8],"right_children":[2,4,-1,-1,6,-1,8,-1,10,-1,-1],"split_conditions":[-1.8715738E-1,-1.9420369E-1,-1.7835878E-2,2.9157965E-2,-1.0213329E0,2.4004025E-2,-8.8809985E-1,-1.5131034E-2,-1.6488707E-1,2.5435764E-2,8.7522884E-4],"split_indices":[0,0,0,0,3,0,3,0,3,0,0],"split_type":[0,0,0,0,0,0,0,0,0,0,0],"sum_hessian":[1.0577281E4,4.419277E3,6.1580044E3,4.3768857E3,4.2390907E1,8.061507E0,3.43294E1,1.0072302E1,2.4257097E1,5.6327505E0,1.8624346E1],"tree_param":{"num_deleted":"0","num_feature":"16","num_nodes":"11","size_leaf_vector":"1"}},{"base_weights":[-1.594206E-1,-6.594277E-2,-2.679774E-1,-1.7186281E-1,2.2993058E-2,-2.3760839E-1,-3.7911186E-1,-1.3477165E-1,-2.527389E-1,2.6157653E-1,-1.4483653E-2,-3.201542E-1,-1.8506002E-1,-1.5683909E-1,-4.0190184E-1,-1.566224E-1,-1.971209E-2,-3.416969E-1,-2.1019076E-1,4.771642E-1,1.4617215E-1,6.249503E-2,-6.487389E-2,-4.690293E-1,-3.035205E-1,-1.4730449E-1,-2.5727385E-1,9.655561E-3,-2.2080648E-1,-4.0595508E-1,-0E0,-2.3051777E-3,-5.368326E-3,-9.1593387E-4,1.75874E-2,-0E0,-9.483744E-3,-4.7268454E-4,-6.0428106E-3,1.34259E-2,-0E0,-5.3779683E-3,4.437465E-3,8.836243E-3,9.894874E-4,-2.2989626E-3,2.645767E-3,-1.2841644E-2,